#ifndef MNIST_WEIGHTS_H
#define MNIST_WEIGHTS_H

#define INPUT_SIZE 784
#define HIDDEN_SIZE 32
#define OUTPUT_SIZE 10

const float W1[784][32] = {
    {-0.01199755f, 0.07659097f, -0.07450511f, -0.07171512f, -0.00718016f, -0.02978107f, 0.06535635f, 0.07881479f, 0.07290894f, 0.00300288f, 0.08372624f, 0.06168979f, 0.00709550f, -0.09067991f, 0.06498337f, 0.02674675f, -0.02251763f, 0.05967041f, -0.03692286f, 0.01411138f, -0.01749183f, -0.06080299f, 0.03387628f, 0.01216511f, -0.00889473f, -0.03850846f, 0.03007381f, 0.05386278f, -0.00657972f, -0.01770226f, 0.00869795f, 0.12971020f},
    {-0.02966333f, 0.02608486f, -0.01329668f, -0.05099118f, -0.04737449f, 0.02657333f, 0.02339188f, 0.03155596f, -0.05788881f, 0.04829411f, -0.01008789f, -0.00246898f, 0.07135595f, 0.09426482f, 0.04474786f, -0.01809832f, 0.07574754f, -0.04550909f, -0.04645394f, 0.07456670f, -0.05070697f, 0.02073808f, -0.06090029f, -0.06301419f, 0.00055616f, 0.09855978f, 0.08665529f, 0.05578155f, -0.03404264f, -0.02116555f, -0.00983076f, 0.05524654f},
    {-0.00078855f, 0.15549297f, 0.01199590f, 0.04377125f, -0.01374966f, 0.02419592f, 0.08426058f, -0.04459543f, -0.06647397f, 0.02042336f, 0.04705845f, -0.03791363f, -0.01284376f, 0.10786646f, 0.07077814f, 0.03683949f, 0.07797278f, 0.09752982f, 0.06086735f, 0.06741058f, 0.05262136f, 0.06744457f, 0.03811235f, -0.00262542f, 0.00390639f, 0.03055744f, -0.07280997f, -0.07100691f, 0.06658359f, 0.02996742f, 0.03668452f, 0.04541037f},
    {-0.04039907f, -0.00421899f, 0.00037384f, -0.00966678f, -0.04453224f, -0.00744672f, 0.06572600f, 0.11676482f, -0.06136894f, 0.03774046f, 0.02949817f, 0.00177215f, 0.02139589f, 0.06939978f, -0.03209729f, 0.00162361f, -0.04727384f, -0.05799374f, 0.00136421f, -0.06849554f, -0.02479019f, 0.03300419f, 0.03690049f, -0.03832070f, 0.03954321f, 0.00268370f, 0.03045027f, -0.05323298f, 0.09057126f, -0.02373209f, 0.03378720f, 0.05437273f},
    {0.05172865f, -0.03196003f, 0.05625021f, -0.00552973f, -0.01006654f, -0.02673774f, -0.04625074f, 0.04908622f, 0.01940187f, -0.05303896f, 0.05660280f, -0.00344587f, 0.00262167f, 0.00126459f, -0.01690408f, 0.00302923f, -0.03528968f, -0.02332607f, -0.07430978f, -0.01037418f, -0.04704492f, 0.05982868f, -0.01524923f, 0.01200705f, -0.01849623f, -0.01995231f, 0.10265230f, -0.01349233f, -0.04000991f, 0.02972131f, -0.06782971f, -0.05885055f},
    {0.02658503f, 0.01351798f, 0.03676839f, -0.00272145f, 0.05657749f, 0.04283757f, -0.05008768f, -0.03772408f, 0.01463194f, -0.05890036f, -0.00307668f, 0.01732142f, 0.07863293f, 0.04173965f, -0.05218039f, -0.01282562f, -0.08405110f, -0.01877553f, -0.00507615f, 0.03164967f, -0.00853738f, -0.02019175f, 0.00054731f, 0.00103310f, -0.00432903f, -0.06465400f, -0.06643672f, 0.01563877f, -0.10246357f, -0.07159118f, -0.03451880f, -0.02717894f},
    {0.07396694f, -0.07134107f, -0.00778742f, 0.00235189f, 0.07285529f, -0.01555657f, -0.04280803f, -0.12012583f, 0.08195361f, 0.07273847f, -0.05934743f, 0.08148839f, -0.02228400f, -0.02925100f, 0.02129618f, -0.00254228f, 0.01542192f, 0.00800435f, -0.01720519f, -0.07196668f, 0.01504243f, -0.03871528f, -0.00463133f, 0.03742813f, 0.02307401f, 0.00049480f, -0.04015424f, -0.00373264f, -0.05520234f, -0.04585610f, -0.04754273f, 0.02276741f},
    {-0.03794794f, 0.05602289f, 0.04315386f, 0.01090201f, 0.01760365f, 0.00246151f, -0.04283223f, 0.00715193f, 0.03060373f, -0.06787308f, 0.04257834f, 0.01240007f, -0.10112004f, -0.03003352f, 0.03026045f, 0.06380993f, -0.00819631f, 0.01593618f, -0.04890665f, -0.05803565f, -0.12417057f, 0.06735251f, -0.03709411f, -0.01406381f, -0.00871567f, 0.06312316f, 0.04454457f, -0.11976824f, -0.03666163f, 0.00624188f, 0.01705680f, -0.00342274f},
    {-0.07651466f, 0.03591633f, 0.00618663f, 0.02842858f, -0.02367209f, -0.03182764f, -0.05984256f, 0.02617773f, 0.00744891f, 0.06192462f, -0.09324942f, -0.02371916f, 0.06797474f, -0.07017347f, 0.08997311f, -0.06914200f, -0.08270777f, 0.08766780f, -0.00798451f, 0.12853066f, 0.07476505f, 0.03789415f, 0.05220922f, -0.05825518f, -0.00656877f, 0.04733232f, -0.09440390f, 0.03779043f, 0.09022521f, 0.14588647f, -0.01751433f, -0.00354204f},
    {0.04441289f, 0.04294070f, 0.02710789f, -0.06947074f, 0.00600368f, 0.04827425f, -0.07591363f, 0.01129503f, 0.09861551f, -0.04609332f, 0.08197269f, 0.01232338f, 0.00540766f, -0.06028250f, 0.00691938f, -0.02964523f, 0.06342549f, 0.05624507f, -0.03584860f, -0.02620203f, -0.01304049f, -0.00243007f, -0.05394319f, -0.02467568f, 0.00061811f, 0.00258150f, -0.03892226f, 0.00446518f, 0.02198886f, 0.04225893f, -0.01266042f, 0.03805636f},
    {0.08328918f, 0.09411555f, 0.01456900f, -0.05251408f, -0.01986758f, -0.02616236f, 0.04976472f, -0.02348845f, 0.02772890f, 0.07366698f, 0.02185752f, -0.05069997f, 0.00279215f, -0.05280199f, -0.02777287f, 0.04197948f, -0.03113180f, 0.03208904f, 0.02751448f, -0.01866100f, 0.10282206f, -0.10170721f, 0.08377950f, -0.00066292f, -0.13923531f, -0.10080847f, 0.05242430f, 0.02230891f, -0.02259672f, 0.08748956f, 0.03745467f, -0.01514026f},
    {-0.00051568f, 0.00228971f, 0.05260826f, 0.06848882f, -0.01852885f, -0.01201587f, 0.02220647f, 0.02419856f, -0.01769609f, -0.00513362f, -0.08859839f, -0.00974764f, -0.01849651f, -0.02947832f, 0.03666970f, -0.00314992f, 0.11888740f, -0.04045322f, 0.06426510f, -0.02614675f, 0.06661876f, 0.04804163f, -0.01088045f, 0.06310355f, -0.02992528f, -0.07055771f, -0.01550119f, 0.02788680f, 0.02644603f, -0.08685775f, -0.02550759f, 0.01271838f},
    {-0.01980209f, -0.01423024f, -0.03143497f, 0.00611545f, -0.06936560f, -0.05005520f, -0.11436395f, -0.03741250f, -0.01872631f, -0.01362811f, -0.00790490f, -0.03341984f, 0.07338500f, -0.00109189f, 0.05330998f, 0.06912836f, -0.01727476f, 0.00684039f, 0.00930609f, 0.11332321f, -0.04743327f, -0.01922080f, 0.00845621f, 0.01349984f, 0.02827537f, 0.03395603f, 0.00339444f, -0.00798581f, 0.08062872f, -0.03444175f, -0.02458012f, 0.02890303f},
    {0.04402277f, 0.05668027f, -0.02742180f, 0.08488528f, -0.01307753f, 0.04588807f, 0.05015063f, -0.07647558f, 0.03919583f, 0.04146939f, 0.09097138f, -0.03174559f, 0.08781262f, -0.01314239f, -0.01807346f, -0.13169972f, 0.01785374f, -0.03459505f, -0.04120653f, -0.00290774f, 0.03461007f, 0.00337881f, 0.01887137f, -0.11110843f, 0.01250915f, -0.02041337f, -0.08916593f, -0.01015444f, -0.02313436f, 0.03191648f, 0.01246490f, 0.01772233f},
    {-0.10518725f, 0.10045229f, 0.00159323f, 0.03846789f, -0.03435940f, 0.09337172f, -0.07403366f, -0.03724316f, -0.08892352f, -0.06942460f, 0.02378302f, -0.02988146f, -0.06519563f, -0.01476867f, -0.03766260f, -0.02630561f, -0.04367797f, 0.03851251f, 0.04260944f, -0.01080129f, 0.03993147f, 0.09813672f, -0.02345403f, -0.00832436f, -0.05060758f, 0.03735508f, -0.03539463f, -0.03244826f, -0.02219909f, -0.00685959f, 0.02187580f, -0.04508174f},
    {0.01428665f, 0.01769643f, -0.03022081f, -0.06339653f, 0.00178910f, 0.07332835f, 0.10412782f, 0.04963248f, -0.08076519f, -0.01233904f, -0.03039665f, -0.02234458f, 0.00623181f, -0.07328985f, -0.03411580f, -0.00043137f, -0.00233371f, 0.07529611f, -0.05156152f, 0.00831129f, 0.03350928f, 0.07778572f, 0.02684532f, -0.04624590f, -0.01445335f, -0.11700201f, -0.03664689f, -0.06379644f, -0.02386318f, -0.07982502f, 0.01236857f, -0.12812409f},
    {0.03510738f, -0.04499512f, 0.05380991f, -0.03027838f, 0.00300826f, -0.02581002f, -0.01861946f, 0.03930154f, 0.05385858f, 0.06980425f, -0.06615485f, 0.04134928f, 0.08981711f, 0.01610486f, -0.05830604f, 0.04870612f, 0.03602129f, -0.00362283f, -0.10228504f, 0.02670239f, 0.04544290f, -0.01847648f, -0.00628749f, 0.03692934f, 0.05503623f, 0.06345015f, 0.05547241f, -0.12059077f, 0.06603072f, 0.03629454f, -0.02768634f, -0.09852325f},
    {-0.01294596f, 0.05647076f, 0.07892838f, -0.00969146f, -0.03117942f, 0.00181350f, 0.01361110f, 0.00225662f, -0.00119792f, 0.05206644f, -0.04171012f, 0.01855271f, -0.01515826f, 0.10462550f, -0.03657329f, -0.03993783f, -0.01005927f, -0.01088839f, -0.10446867f, -0.06063788f, 0.02111770f, 0.00645455f, -0.10644553f, 0.03224227f, 0.07700135f, -0.01422338f, 0.05493067f, -0.04857932f, -0.08806160f, -0.06881315f, 0.01306471f, 0.07133072f},
    {-0.02503282f, 0.06764545f, -0.05494835f, -0.03177918f, 0.07288210f, 0.10093715f, 0.11079521f, 0.02246019f, -0.00228514f, 0.08518339f, -0.03588674f, 0.01287999f, -0.02290678f, 0.01079639f, 0.01223778f, -0.01173749f, -0.00957291f, 0.02688252f, 0.02168144f, 0.01858103f, -0.05903810f, -0.02925042f, 0.05704610f, 0.06064444f, -0.03986089f, -0.00177392f, -0.02001952f, 0.04237835f, 0.03870596f, 0.01789526f, 0.01380695f, 0.08692840f},
    {0.02224995f, 0.04761841f, 0.05095963f, 0.02010386f, 0.07197185f, 0.04431765f, 0.03444910f, 0.01819193f, 0.01017870f, -0.02307588f, 0.05804995f, -0.05106053f, 0.00156232f, 0.05906500f, -0.01865179f, -0.09829054f, -0.01893442f, -0.06305546f, -0.00675570f, -0.02450467f, 0.07164762f, -0.04145915f, 0.01376965f, -0.00949771f, 0.00975929f, -0.03546552f, -0.04627603f, 0.01588912f, 0.08234748f, 0.06573169f, -0.07641750f, 0.03059711f},
    {-0.06379976f, 0.02125119f, 0.06967685f, -0.05009322f, -0.03748556f, 0.01505702f, -0.03144840f, -0.00091578f, -0.00338637f, 0.06504555f, -0.07147066f, -0.05173033f, 0.04833905f, 0.05450759f, -0.07691907f, 0.03035819f, -0.03349917f, 0.01695594f, 0.01417200f, -0.04731985f, 0.02788716f, -0.02056345f, -0.01857570f, -0.05775218f, -0.00811893f, 0.04769160f, -0.07515618f, 0.12782551f, 0.02736771f, 0.01585715f, -0.12576795f, 0.04971113f},
    {-0.05667164f, 0.06659217f, -0.00706030f, -0.01730899f, -0.09507555f, -0.05967471f, -0.00780323f, 0.03618157f, 0.02970195f, 0.03188864f, 0.07080808f, 0.04065394f, -0.03271454f, -0.02926218f, -0.10024524f, -0.01272893f, 0.05849976f, 0.03335771f, 0.02195808f, -0.01459529f, 0.08173088f, -0.04431134f, -0.01247206f, 0.01157543f, -0.05906694f, -0.03419012f, 0.07933110f, -0.00925538f, -0.06576793f, 0.07232720f, -0.03928992f, -0.05641819f},
    {0.01693975f, -0.10622995f, 0.06530918f, 0.03826490f, 0.00024926f, -0.13339871f, 0.01636462f, 0.04817474f, -0.00405276f, 0.02061264f, 0.02773454f, -0.02917276f, -0.01985563f, 0.00810589f, 0.00397167f, -0.01696358f, 0.06492798f, -0.05737309f, 0.00672106f, 0.09354916f, -0.06447186f, 0.03201490f, -0.04058775f, 0.05373823f, -0.01850003f, -0.06533830f, -0.02860840f, 0.05348427f, 0.03092902f, -0.00080108f, 0.03351863f, 0.08301434f},
    {-0.04445510f, 0.08500223f, -0.10241454f, 0.10286320f, 0.01090147f, 0.02708701f, -0.06360498f, 0.02700099f, -0.05341892f, 0.08942557f, 0.02113205f, 0.04604411f, -0.00174540f, -0.09227555f, -0.03843290f, 0.00730378f, 0.01081606f, 0.03208846f, 0.03958428f, 0.02454385f, -0.01210727f, -0.06530754f, 0.01314794f, 0.02548963f, 0.05412238f, 0.09186206f, 0.12323399f, -0.09484350f, 0.02584855f, -0.02316421f, -0.04164491f, 0.00519686f},
    {-0.04115507f, 0.06564826f, 0.02944263f, 0.02277798f, 0.03476242f, -0.05418279f, -0.07925654f, 0.07400673f, -0.00078428f, 0.03546400f, 0.04884751f, 0.00567911f, -0.08560014f, 0.05149653f, -0.04293063f, 0.02530511f, 0.00430080f, -0.08397139f, -0.02551027f, 0.01713031f, -0.03831920f, 0.01893827f, -0.12477006f, -0.01154895f, 0.05408145f, 0.00697445f, 0.05147166f, -0.01993450f, 0.00178466f, -0.11039562f, 0.02147331f, -0.02024754f},
    {0.07488772f, -0.07771604f, -0.02475800f, 0.04587324f, -0.03254050f, -0.01350967f, 0.02880442f, -0.05253475f, -0.03058820f, 0.00519749f, -0.06619865f, 0.03334343f, -0.02529069f, 0.01765394f, -0.05643877f, -0.02431573f, 0.06532339f, -0.01495201f, -0.00144590f, 0.07102792f, -0.01590346f, -0.01217425f, 0.01751621f, 0.01515954f, -0.03842864f, -0.01807122f, -0.06431023f, 0.04058751f, 0.05378618f, -0.06875947f, 0.01970704f, 0.03608333f},
    {-0.06018362f, -0.02393714f, 0.05487485f, -0.00191619f, -0.00741515f, -0.07311113f, -0.04922099f, -0.02777492f, 0.05437415f, 0.02360759f, 0.01478721f, 0.08660069f, -0.01015468f, -0.05131491f, -0.00033046f, 0.01332543f, -0.02162691f, -0.06909942f, -0.00862676f, -0.05839133f, 0.04726561f, -0.05855695f, 0.00604422f, 0.04100874f, -0.07374551f, 0.08189201f, 0.09133461f, 0.02491564f, -0.10878478f, -0.00674881f, -0.03059407f, -0.04000476f},
    {0.04417862f, 0.04729337f, 0.02603804f, 0.00980371f, 0.05660585f, 0.03081285f, 0.04875571f, 0.08638895f, -0.06520107f, 0.01915917f, 0.01630796f, 0.01994894f, -0.01754141f, 0.01768851f, -0.03942277f, 0.09957351f, 0.11003933f, 0.00663223f, -0.02442692f, -0.05545505f, 0.02075544f, -0.06544077f, 0.06998922f, -0.03171268f, 0.05403349f, -0.05409766f, 0.01812044f, -0.02335043f, -0.03758460f, -0.02115223f, -0.07383664f, -0.07209980f},
    {0.06071528f, -0.06328684f, 0.08567900f, 0.00592172f, -0.01621809f, -0.00658293f, -0.00273635f, 0.07121086f, -0.04336187f, -0.03730820f, -0.01684803f, 0.03485574f, -0.00513223f, 0.02016902f, 0.02991323f, -0.08528679f, 0.04166818f, -0.06774087f, 0.02843055f, -0.05276273f, -0.01623785f, -0.00767551f, -0.05057373f, -0.02090102f, 0.04194236f, -0.02287783f, -0.00632394f, 0.11375247f, 0.04389854f, 0.03890182f, 0.04292274f, -0.02163298f},
    {0.01048163f, -0.13591759f, -0.02372245f, -0.06806349f, 0.01049299f, 0.09140963f, 0.05943348f, -0.01393230f, -0.01434282f, 0.02406077f, 0.06156150f, -0.06283765f, -0.01051855f, -0.00205252f, 0.05684668f, -0.07336633f, 0.06412361f, -0.10242889f, 0.05168781f, 0.06396739f, -0.05038713f, -0.00788284f, 0.08099727f, -0.03585465f, -0.05295665f, -0.01668460f, -0.03814608f, -0.04378342f, -0.00011518f, 0.04265252f, -0.04872079f, -0.02752691f},
    {0.03646989f, 0.07075927f, 0.03104306f, 0.06311755f, -0.10584979f, -0.07389260f, 0.01782095f, 0.15807256f, 0.01709411f, 0.07332053f, 0.12335813f, 0.03181156f, -0.04273161f, 0.00776235f, 0.10655262f, -0.05419679f, -0.03198441f, -0.04158484f, 0.01664294f, 0.01072788f, 0.08632594f, -0.04382784f, 0.06437485f, -0.02213345f, 0.02717461f, 0.00580084f, 0.02174000f, 0.09856807f, -0.00720690f, -0.05159203f, -0.01867704f, 0.03891462f},
    {0.00685865f, 0.07387028f, -0.02858447f, -0.01779915f, 0.06194689f, 0.02504295f, 0.00677351f, -0.03482621f, 0.04751245f, -0.03518073f, -0.03720335f, 0.00982569f, -0.01032288f, -0.04456297f, -0.05294758f, 0.01861639f, -0.00068264f, 0.06845199f, -0.05959736f, 0.02235222f, 0.09056400f, 0.06427499f, 0.01236698f, -0.06590894f, 0.03543740f, -0.00926327f, 0.04403179f, -0.04644770f, 0.06911381f, 0.02187006f, 0.06256040f, -0.05081402f},
    {-0.07060735f, 0.00838422f, -0.07578905f, -0.00635736f, 0.01203364f, 0.09019413f, -0.08724261f, -0.01067545f, -0.05299843f, -0.02281937f, -0.09421267f, -0.02754122f, -0.08535266f, 0.06058201f, -0.01005613f, 0.05804975f, -0.03205571f, -0.03619635f, -0.00990606f, 0.09379317f, 0.07858755f, -0.01991001f, -0.09549654f, -0.05010079f, 0.03674510f, 0.07717066f, -0.04484755f, 0.02304592f, -0.03390966f, -0.02110510f, -0.00317270f, 0.00343346f},
    {0.01351643f, -0.04672434f, -0.07330535f, -0.04015143f, 0.01101156f, -0.03063747f, 0.04871466f, -0.01646175f, -0.02734115f, 0.08931224f, -0.02852587f, 0.11330596f, -0.04171915f, -0.12533413f, 0.02369512f, 0.04441169f, -0.03591584f, -0.00072648f, -0.01263428f, 0.01073677f, 0.05429407f, 0.03632938f, -0.01943605f, 0.00009016f, 0.01551844f, 0.03329467f, -0.03109649f, -0.03948730f, -0.07776735f, -0.04149070f, 0.06493854f, 0.02759620f},
    {0.01722369f, 0.04840055f, 0.02004071f, 0.00583364f, -0.11777593f, 0.02449330f, -0.04031209f, -0.08780158f, -0.06141744f, -0.10348356f, 0.10483313f, 0.06425324f, -0.03107495f, 0.02496635f, -0.08999211f, 0.03540918f, -0.04557060f, -0.03973890f, -0.03330005f, 0.09583992f, -0.01022719f, -0.06847400f, 0.01156966f, 0.06065355f, 0.02704961f, -0.06404293f, -0.05072922f, 0.00696912f, -0.07787124f, -0.02795977f, 0.05949948f, 0.10149283f},
    {-0.03500578f, 0.06703151f, 0.04088771f, 0.00951694f, -0.02562499f, -0.00871728f, -0.04798790f, 0.01690546f, -0.00229704f, -0.13044496f, 0.12118221f, 0.04807579f, 0.05388616f, 0.04521908f, 0.02009590f, 0.02489669f, -0.00710949f, -0.03992581f, 0.02423351f, 0.07309482f, -0.01892472f, 0.01553018f, 0.03110805f, -0.06653566f, -0.07848422f, -0.05468696f, 0.00872117f, 0.03431761f, 0.01612880f, -0.02067043f, -0.06912666f, 0.01134730f},
    {-0.05778000f, 0.03803912f, 0.01704061f, 0.06065260f, -0.03535405f, -0.04209509f, 0.03931969f, 0.06973981f, -0.04116632f, 0.13437717f, -0.03266791f, 0.07268719f, 0.06181389f, -0.03878889f, -0.03035736f, 0.00042418f, -0.13237998f, -0.04140011f, -0.00786885f, -0.12100066f, 0.04736975f, -0.01477414f, -0.14621207f, 0.07725141f, 0.00005258f, 0.01348130f, -0.06928254f, 0.09043443f, 0.04078269f, -0.07213828f, -0.05174150f, 0.00840527f},
    {-0.01233377f, 0.02967999f, -0.02019255f, -0.02210405f, -0.06784426f, 0.02830884f, 0.02959524f, -0.03188367f, -0.06338567f, 0.07540853f, -0.00809915f, -0.04435156f, 0.05000414f, 0.03957242f, 0.01498393f, 0.01769708f, -0.08531426f, 0.02836209f, -0.10708012f, 0.00536806f, -0.04437519f, -0.02951507f, -0.02353685f, 0.04001908f, -0.05030083f, 0.02248708f, 0.04975988f, 0.08802225f, -0.04558756f, 0.00203155f, -0.00301998f, 0.10685266f},
    {0.07418708f, 0.00133461f, -0.02432553f, 0.04540370f, -0.01719494f, -0.01945128f, -0.01262096f, -0.00164820f, 0.05905877f, 0.01600984f, -0.09065290f, -0.05399313f, 0.00428619f, -0.00419759f, -0.00796611f, -0.00956227f, -0.08337194f, -0.06871788f, 0.01415440f, 0.03880603f, 0.04361849f, -0.05279775f, -0.00287733f, 0.00470499f, 0.03574878f, -0.09186268f, 0.03272999f, 0.06126453f, -0.04344085f, -0.02488273f, 0.00291905f, 0.02868318f},
    {0.01582547f, -0.00898910f, 0.07520471f, -0.01593082f, 0.06588325f, 0.01385837f, 0.05329134f, -0.04470740f, 0.03592882f, -0.04015195f, 0.02415384f, -0.03223397f, 0.01776744f, 0.01977809f, -0.02844069f, 0.01940856f, -0.02148906f, 0.09545031f, 0.01925178f, 0.02090729f, 0.02658672f, -0.02098440f, 0.06330104f, 0.01231649f, -0.02049227f, 0.07795000f, 0.05581945f, -0.03709852f, -0.13244785f, -0.05627375f, -0.03035790f, 0.07072699f},
    {0.06466689f, -0.12085800f, -0.03674280f, 0.03506971f, 0.02725786f, 0.07957121f, -0.04200994f, 0.00857697f, 0.08616337f, 0.04379843f, -0.09146329f, -0.10002158f, -0.00154582f, -0.02880818f, 0.04884711f, 0.04348084f, -0.05732206f, -0.00589475f, 0.01266406f, 0.03678317f, 0.01800386f, 0.00003146f, -0.06372119f, -0.01282728f, 0.08228906f, -0.00675669f, -0.03882120f, 0.06071947f, 0.02803115f, 0.03802436f, -0.06963294f, 0.04988245f},
    {-0.04118196f, -0.01508936f, -0.03120157f, 0.03150027f, -0.04387361f, -0.04164516f, 0.04856644f, 0.07606357f, 0.06099764f, -0.02708031f, 0.00906748f, -0.00228820f, -0.01051963f, -0.04305215f, -0.00239799f, 0.04662035f, 0.00111708f, -0.01327498f, 0.08939814f, -0.05083161f, 0.03188447f, 0.05325135f, 0.04867305f, 0.12922679f, 0.00541847f, -0.00295078f, -0.07363457f, -0.02163813f, -0.07756791f, -0.01836114f, 0.04621583f, 0.01790557f},
    {-0.01871416f, 0.05963871f, 0.01350041f, 0.08194073f, -0.01366955f, -0.02406774f, 0.02566947f, -0.00540480f, 0.03038321f, -0.03157845f, 0.03490733f, -0.01135126f, -0.00192012f, 0.08549351f, -0.08054340f, 0.02156718f, 0.00753163f, -0.04206617f, -0.06574592f, 0.09671693f, -0.01260938f, 0.00200058f, 0.00215453f, -0.06198107f, 0.04795719f, 0.00241196f, 0.00371111f, -0.02319100f, 0.01365516f, -0.03071870f, -0.02985859f, -0.06638870f},
    {-0.08596277f, 0.00061294f, 0.00199368f, -0.01772970f, 0.02816951f, -0.05886056f, -0.02285498f, 0.03033739f, -0.06352887f, -0.01859593f, -0.00619390f, -0.01384355f, 0.05721605f, 0.04477626f, 0.02439259f, 0.03304378f, -0.01180675f, 0.00430852f, 0.06481175f, 0.01996295f, -0.04553180f, -0.06712198f, -0.03483784f, -0.08860435f, -0.08467506f, -0.09034003f, 0.02142875f, 0.06229108f, -0.00867247f, 0.04109441f, -0.10987545f, 0.05263380f},
    {-0.03368884f, -0.00997958f, -0.02162393f, -0.01145750f, 0.08407052f, -0.04255252f, 0.06534870f, -0.00833278f, 0.11140543f, -0.01516805f, -0.05023407f, 0.03127323f, 0.01875656f, 0.08032467f, 0.11592511f, -0.04039993f, -0.11731122f, -0.06111993f, 0.06003899f, -0.00077340f, -0.02226874f, -0.07970909f, 0.02092484f, 0.03387170f, -0.00852910f, 0.00953195f, -0.03708786f, -0.05273900f, 0.03305265f, 0.07339724f, -0.07266777f, 0.01617568f},
    {0.07960060f, 0.02321965f, -0.05956946f, 0.01242649f, 0.01832980f, -0.03408313f, 0.01225445f, -0.07667213f, -0.02429250f, -0.12917139f, 0.02544427f, -0.04348429f, -0.00993336f, -0.03054115f, 0.00106966f, -0.07216461f, -0.05070719f, 0.00356529f, -0.06240268f, -0.12567230f, 0.06460449f, -0.01655109f, 0.00008579f, -0.03627315f, 0.01528494f, 0.00110591f, 0.01410322f, 0.00836658f, 0.00739057f, -0.01040309f, 0.00447768f, -0.07097899f},
    {-0.05315315f, 0.00132056f, 0.01428867f, 0.02270405f, -0.06019532f, 0.03140789f, 0.00844795f, 0.02015461f, -0.06396780f, -0.00156619f, 0.05409835f, -0.02017427f, 0.03749899f, -0.05245667f, 0.01937095f, 0.03724953f, -0.02335219f, -0.01701793f, -0.05710773f, -0.02819194f, 0.07259853f, 0.09454373f, 0.05850361f, -0.05755247f, -0.03515410f, -0.04495065f, 0.07589723f, 0.12168511f, -0.00586500f, 0.04617609f, -0.02460853f, -0.03286657f},
    {-0.01817857f, 0.03341147f, -0.14772361f, 0.00552554f, 0.00015880f, -0.06736182f, -0.08330733f, -0.00655306f, 0.03590250f, -0.03506909f, -0.00184441f, 0.08075134f, 0.03312871f, -0.02045406f, -0.00779207f, -0.02369273f, -0.11142962f, 0.02858519f, -0.01526507f, 0.01624629f, -0.00316914f, -0.07179585f, -0.05366706f, -0.07097980f, -0.02285225f, 0.02157703f, -0.05383541f, -0.00057697f, -0.04158950f, -0.02671505f, -0.03065486f, 0.00865298f},
    {-0.03059321f, -0.04926515f, -0.07507095f, 0.02589644f, 0.01421334f, -0.00631103f, 0.02455463f, -0.03573507f, 0.02783798f, 0.06996799f, -0.03617369f, -0.01821786f, -0.08491895f, 0.02086490f, -0.05559894f, -0.06122823f, -0.06350131f, 0.04938979f, -0.09779992f, -0.04941215f, -0.00863457f, 0.04419429f, 0.06162129f, 0.00712763f, -0.05152154f, 0.07693320f, 0.07268609f, -0.08993886f, -0.00721745f, 0.00882782f, 0.06381729f, -0.02410065f},
    {0.03179560f, -0.03774152f, -0.07079541f, -0.01656310f, -0.06710941f, -0.01418767f, -0.05441741f, 0.04781951f, 0.05442752f, -0.02002370f, -0.10245701f, -0.06170186f, -0.05533445f, -0.05610485f, 0.00276065f, -0.04269059f, -0.05758381f, -0.02912054f, -0.00766794f, -0.00117043f, 0.06687071f, 0.01269018f, -0.05662393f, 0.03815139f, 0.00094134f, -0.03284649f, 0.01276038f, 0.00196007f, 0.09734314f, 0.01287493f, -0.03744103f, 0.02655902f},
    {-0.03424364f, -0.04982181f, -0.01500993f, -0.04571705f, -0.01757996f, 0.00008386f, -0.02925789f, 0.00744857f, -0.11844952f, 0.02856163f, -0.04049698f, -0.02170680f, 0.05211105f, -0.09891212f, -0.00947955f, 0.02635790f, 0.00473967f, -0.01789958f, 0.04937262f, -0.14375620f, -0.07358774f, -0.00815874f, -0.01914987f, 0.05114446f, 0.08164421f, 0.04751641f, 0.01359486f, 0.00605212f, 0.05039149f, -0.10669251f, -0.10679781f, 0.06497621f},
    {0.01984757f, -0.06305176f, 0.03603282f, -0.00932616f, 0.04534456f, 0.00425685f, 0.07192062f, 0.02487697f, 0.07016451f, -0.03256890f, -0.03547730f, -0.01518870f, 0.01716360f, -0.04190674f, -0.03490395f, 0.03434766f, 0.00902357f, 0.06396080f, -0.00811309f, -0.04849121f, -0.01141458f, -0.01055600f, -0.00445687f, -0.10468297f, -0.05845371f, -0.03353334f, 0.02023578f, -0.02407818f, -0.05834248f, -0.01506774f, 0.04398440f, -0.04098826f},
    {0.03580670f, 0.05056725f, 0.00963628f, -0.03647878f, 0.02968816f, -0.05836846f, -0.07497741f, -0.09311502f, 0.02594070f, 0.01623380f, 0.05385887f, 0.01146391f, 0.02737272f, -0.13941868f, 0.01118384f, -0.09262904f, -0.02881928f, -0.05631056f, 0.00595485f, -0.05082172f, -0.01383173f, 0.04774188f, 0.02652451f, -0.04618622f, -0.02391542f, -0.07725265f, 0.01062081f, -0.00597224f, 0.06142457f, -0.03374528f, -0.03627605f, 0.06126232f},
    {-0.01570806f, -0.06035224f, 0.01833372f, -0.00759810f, 0.01170148f, -0.05660011f, 0.07590168f, -0.05664282f, 0.01694971f, -0.01847010f, -0.03934078f, -0.00634715f, -0.03838622f, -0.01703812f, 0.02958882f, 0.03250178f, 0.05159233f, -0.02882481f, 0.03243627f, 0.05294343f, -0.03584952f, 0.02593824f, 0.07956748f, -0.00612417f, 0.01181893f, 0.01866813f, -0.03426612f, -0.00772701f, 0.04271300f, 0.03209016f, -0.01160719f, 0.03463066f},
    {-0.06321719f, 0.02906396f, 0.03139787f, -0.08542223f, -0.05455377f, 0.00446817f, 0.03131480f, -0.00059802f, 0.04396674f, 0.01882985f, -0.00859159f, 0.05136416f, -0.04593345f, -0.03785272f, 0.00696396f, -0.02732006f, 0.01353169f, 0.07646191f, -0.00240932f, 0.04990746f, -0.02387266f, 0.09433076f, 0.01431777f, 0.04120400f, -0.05221224f, -0.04701003f, -0.00388944f, -0.03208495f, -0.07574451f, 0.03363267f, -0.02726364f, -0.02691135f},
    {-0.03555406f, 0.03576244f, 0.04610349f, -0.03519666f, 0.00936400f, 0.03282810f, 0.00619349f, -0.07052397f, -0.08165443f, -0.03691039f, -0.01064297f, -0.06977857f, -0.01118926f, -0.00451916f, -0.06761649f, 0.04488320f, -0.06968677f, -0.05178650f, 0.03437504f, -0.03861891f, 0.00553226f, 0.05122974f, 0.04663811f, -0.10687870f, 0.07428302f, 0.01630261f, -0.00289352f, 0.01396479f, 0.04578033f, 0.02328351f, -0.04807706f, 0.05608202f},
    {-0.04919479f, -0.00778731f, -0.04282097f, 0.03168064f, -0.03247123f, -0.00386808f, 0.01300886f, -0.13125276f, 0.01054747f, 0.03478057f, -0.01076367f, -0.06410868f, -0.05349924f, 0.00313456f, 0.00883622f, 0.02491229f, -0.04305077f, 0.01248884f, -0.06281987f, -0.05647821f, 0.00859693f, -0.03321562f, -0.00481269f, -0.02552108f, -0.05183599f, -0.07534030f, 0.07946730f, 0.07017942f, 0.03957205f, 0.03235416f, 0.01228194f, -0.11874620f},
    {0.01372302f, 0.07054786f, -0.04378705f, -0.00095209f, 0.00273210f, -0.05189625f, -0.02258576f, 0.01681102f, -0.04167559f, 0.03344092f, 0.01679962f, 0.00243282f, 0.04618242f, -0.01797045f, -0.00754903f, -0.01335199f, -0.15906603f, -0.04367803f, 0.02805126f, 0.02217594f, -0.06688028f, -0.09351350f, 0.05285868f, 0.00986724f, -0.05927325f, 0.01416198f, 0.00180133f, 0.09962010f, -0.03591717f, -0.02223265f, -0.01066535f, 0.04302000f},
    {0.05471349f, 0.00701328f, -0.05943106f, 0.08906395f, -0.04787618f, -0.03940799f, 0.07873035f, 0.00506966f, -0.00170014f, 0.10785609f, 0.04388842f, -0.06753816f, 0.05092761f, -0.03343768f, 0.01287745f, -0.14801056f, 0.04906624f, 0.03713488f, 0.04949434f, 0.00195001f, 0.01280239f, 0.03308887f, -0.00804500f, -0.01372891f, 0.01211128f, -0.00392807f, 0.08031784f, 0.07346815f, -0.00725987f, -0.08496113f, 0.01474231f, 0.12578249f},
    {-0.02260421f, 0.01560033f, 0.02778024f, -0.01255129f, 0.02158138f, -0.02453647f, 0.05397921f, -0.02060729f, 0.03920104f, 0.11399324f, 0.09937518f, -0.04667132f, 0.02130224f, -0.08071272f, -0.05420047f, -0.02600417f, 0.03715150f, -0.05691174f, 0.02726213f, 0.00330825f, 0.07875347f, -0.02691292f, 0.01989937f, -0.01181175f, -0.00594491f, 0.06366251f, 0.06254778f, 0.01807959f, -0.05832779f, -0.02879899f, 0.02415429f, 0.02684139f},
    {-0.03142571f, -0.02929182f, -0.07525087f, 0.02077825f, 0.11790162f, -0.02100133f, -0.11726708f, 0.05933962f, -0.06746132f, 0.02706495f, -0.08982570f, 0.04323372f, 0.08506666f, -0.07386094f, -0.05187303f, -0.07713705f, -0.06348348f, 0.05786641f, -0.06982622f, -0.08084963f, 0.05612194f, -0.03163755f, -0.00915819f, 0.07223904f, 0.03731264f, -0.04146896f, -0.01792586f, -0.02027047f, -0.00292736f, -0.06109707f, 0.08868993f, 0.02112685f},
    {0.07136777f, -0.04476490f, -0.03500579f, -0.01261949f, -0.00644146f, 0.06401298f, 0.00028206f, -0.04154460f, 0.01094856f, -0.03056062f, -0.09839703f, 0.03726135f, -0.02101953f, 0.03846550f, -0.08198149f, 0.01709354f, -0.04673270f, 0.00927969f, 0.04506827f, 0.00904698f, 0.02688706f, 0.06056694f, -0.04954977f, 0.00162379f, -0.00180259f, 0.09699842f, -0.04226860f, 0.02024885f, -0.05727128f, 0.01505408f, -0.04725346f, 0.01386475f},
    {-0.06035334f, 0.02589445f, -0.03657643f, 0.14567501f, 0.03409575f, -0.04096523f, -0.08642840f, 0.06939912f, 0.04408825f, 0.02043091f, 0.04854596f, -0.01738988f, 0.01022466f, -0.00619761f, -0.01783386f, -0.04768944f, -0.03176505f, -0.01973322f, 0.01726369f, 0.01299362f, -0.15592336f, -0.01234727f, -0.05917212f, -0.04091030f, -0.11558879f, 0.04765394f, 0.03673987f, -0.03246217f, 0.02092407f, 0.00312827f, 0.00077654f, 0.03580159f},
    {-0.03658988f, 0.00718586f, -0.05373558f, 0.03819984f, 0.01941442f, 0.02758195f, 0.04271407f, 0.01807185f, 0.03121826f, -0.04755612f, -0.02195277f, 0.03126631f, -0.06058939f, -0.03026168f, -0.00881877f, -0.10205626f, 0.00499952f, -0.03818529f, 0.00909752f, 0.03680685f, 0.02749734f, 0.09044910f, 0.03152553f, 0.01479111f, 0.02459282f, -0.02160012f, 0.05852105f, -0.02704975f, 0.00664970f, -0.00848189f, 0.04092200f, 0.02060271f},
    {-0.04105717f, 0.00054334f, 0.03801923f, 0.06025779f, 0.10039961f, -0.05131244f, 0.07017787f, 0.01578702f, 0.07423661f, 0.02224991f, -0.02125595f, -0.10635509f, 0.14017980f, -0.09128676f, -0.02251679f, -0.00813841f, 0.00710257f, 0.04561702f, -0.06862534f, 0.01534290f, 0.09760904f, 0.09226048f, -0.02826188f, -0.00974488f, 0.05772512f, -0.08108013f, -0.04840636f, 0.02828467f, 0.00642667f, 0.04322384f, -0.06119887f, -0.02447912f},
    {0.02179804f, -0.03985539f, 0.00497771f, 0.02752427f, 0.10522712f, 0.03464471f, 0.00449789f, 0.02784135f, 0.01719161f, -0.07100835f, 0.02801981f, -0.05888958f, -0.00519858f, 0.04137253f, 0.05922089f, -0.03770482f, 0.01774744f, 0.05528972f, 0.01665471f, -0.01674559f, -0.06248084f, -0.03411434f, -0.09829407f, -0.01702418f, 0.03303505f, -0.03202342f, 0.02806667f, 0.03128583f, -0.06242907f, 0.09750189f, 0.06619586f, 0.04376614f},
    {-0.05904204f, -0.00068940f, 0.00219988f, -0.10422549f, 0.06457963f, 0.13040538f, 0.09324318f, 0.08534150f, 0.10712891f, -0.05882335f, 0.09420023f, -0.00962995f, 0.02834205f, -0.09131572f, -0.01797644f, -0.02417423f, -0.07695642f, -0.01547745f, -0.00659825f, -0.10374646f, 0.04548293f, -0.06871064f, 0.04467379f, 0.07028099f, 0.04434237f, 0.03215617f, 0.01949601f, 0.07330872f, -0.09860371f, -0.01789411f, 0.03906928f, 0.14693915f},
    {0.03812070f, 0.00967511f, 0.01585477f, 0.05281883f, 0.08405890f, 0.04886770f, 0.05828537f, 0.03587414f, 0.12875869f, -0.02457239f, 0.03711687f, -0.04685895f, 0.03895624f, -0.08501981f, -0.03018689f, 0.05463445f, -0.05014564f, 0.03011869f, -0.03298420f, -0.13902118f, 0.06900129f, 0.00899725f, -0.06029933f, -0.09965353f, 0.02537911f, -0.02195690f, 0.06714212f, -0.06451477f, -0.05212292f, 0.11015182f, -0.06177371f, 0.01135293f},
    {0.00439956f, -0.01196067f, -0.08263574f, 0.12807384f, 0.04486472f, 0.05887614f, 0.04864644f, 0.09565324f, 0.13430670f, 0.01001037f, 0.05021597f, -0.02602688f, 0.02723473f, -0.07556182f, -0.05579518f, 0.02844976f, -0.06887036f, -0.08388394f, 0.04279435f, -0.00276283f, 0.18598681f, 0.06363943f, -0.00271261f, 0.01826137f, 0.02945036f, 0.01032789f, 0.09206009f, 0.03970283f, -0.12970617f, 0.10395784f, -0.04653764f, 0.06617273f},
    {-0.09946292f, 0.00780574f, 0.08986496f, 0.00576692f, 0.05603823f, -0.02330343f, 0.13357222f, 0.08848581f, 0.11616784f, -0.03371924f, 0.02882202f, -0.07391648f, 0.10730508f, -0.08730280f, 0.03350403f, 0.02867548f, -0.04552225f, -0.04292625f, -0.05021712f, -0.09903605f, 0.08927808f, -0.06979735f, -0.01986756f, -0.03018740f, 0.01920251f, 0.09324726f, 0.07870731f, -0.03634313f, -0.16780430f, 0.08096115f, -0.02202590f, 0.01274587f},
    {0.02396068f, -0.07975729f, 0.01266009f, 0.02944482f, -0.00364033f, -0.03325240f, 0.02703889f, 0.07020113f, 0.03884553f, 0.07041606f, 0.01980467f, -0.08770574f, 0.01696813f, -0.11284064f, -0.05200096f, 0.02803959f, -0.10748988f, -0.05230328f, -0.03616130f, -0.07591771f, 0.05670854f, -0.08750211f, 0.04018485f, -0.10942495f, 0.00175626f, -0.00264556f, 0.07199771f, 0.03971410f, -0.07467282f, -0.02770437f, -0.01752921f, -0.06150531f},
    {-0.07606332f, 0.05211406f, -0.05889637f, 0.06289666f, 0.04833113f, -0.09617148f, 0.06039216f, 0.10173274f, 0.03933657f, 0.06817865f, 0.12472414f, -0.09877758f, -0.00291143f, -0.03197102f, 0.04642419f, 0.03422818f, -0.11323659f, -0.04819642f, -0.00029524f, -0.12397904f, -0.03360481f, -0.05687587f, 0.11304155f, -0.11908292f, -0.03398493f, 0.00725429f, 0.08134882f, 0.03373823f, -0.05773822f, 0.03651783f, -0.00790717f, 0.08578360f},
    {-0.02951206f, 0.04000814f, -0.04975890f, 0.00949677f, 0.10925952f, -0.02412655f, 0.02767188f, 0.12760882f, 0.06563917f, -0.09559457f, 0.09308940f, -0.02890577f, 0.07302599f, 0.02062580f, 0.05768695f, -0.07287089f, -0.00608858f, -0.05293652f, -0.07484187f, -0.00640897f, 0.08780537f, -0.05507768f, -0.02287797f, -0.02809477f, -0.05983190f, 0.01879086f, 0.02361531f, -0.06306228f, -0.11909648f, 0.06434835f, -0.13025884f, -0.01090789f},
    {-0.09348770f, -0.05229792f, -0.08229302f, -0.10696273f, 0.05257035f, 0.09473838f, 0.04037635f, 0.11747932f, 0.10321368f, -0.04768938f, 0.03223905f, -0.01761473f, 0.06880367f, -0.08399350f, 0.04554092f, -0.00915976f, -0.05201432f, 0.01756558f, -0.01337816f, -0.02418584f, -0.04961006f, -0.02919860f, 0.04356614f, -0.15709930f, -0.11707537f, -0.02344249f, 0.06862213f, -0.02027621f, -0.11960206f, 0.00128948f, 0.02389230f, 0.05395996f},
    {-0.03712397f, 0.03091918f, 0.01642477f, -0.01425006f, 0.04194804f, -0.00710050f, 0.08310453f, 0.05569945f, 0.05313421f, 0.00631505f, 0.02166200f, 0.07294194f, -0.00246876f, -0.00555602f, -0.03851397f, -0.04964402f, -0.03746870f, 0.01466494f, 0.03921989f, -0.08618086f, 0.02926628f, -0.06328431f, 0.04794852f, -0.10153820f, -0.10000772f, -0.02661928f, -0.03177224f, -0.06569878f, -0.03299818f, 0.04731121f, 0.01987136f, 0.01160161f},
    {-0.03867268f, -0.07678776f, 0.10671430f, 0.08818264f, 0.07402425f, 0.00403553f, -0.03414309f, 0.01834682f, 0.09049672f, -0.02247525f, 0.07745644f, -0.08739814f, -0.01640710f, 0.01241241f, -0.07139776f, -0.01159373f, 0.04230243f, -0.00587284f, -0.03182505f, -0.10037061f, 0.08120414f, 0.00833679f, 0.04069343f, -0.13543332f, -0.09147823f, -0.09214314f, -0.01469744f, -0.02339779f, -0.00349067f, 0.10769626f, -0.03371836f, -0.00958440f},
    {-0.02643934f, -0.03010906f, -0.07104486f, -0.09510035f, -0.00502330f, 0.03743386f, 0.01337396f, 0.00596847f, -0.00864868f, -0.00365532f, 0.09989479f, -0.06422765f, 0.03908212f, -0.02655588f, 0.02296346f, 0.01086143f, 0.05625987f, 0.02081893f, -0.04514886f, -0.00825010f, -0.07710677f, 0.02227513f, -0.05856337f, -0.05480477f, -0.02876453f, -0.03269858f, 0.07209799f, 0.00470978f, -0.07643695f, -0.01107345f, -0.07293527f, -0.03121323f},
    {0.03553179f, -0.04194928f, -0.01276135f, 0.04818647f, 0.08689474f, 0.04198878f, 0.03686236f, 0.01172280f, 0.12007553f, -0.00160067f, 0.02151093f, 0.00229321f, -0.05201697f, -0.13845978f, -0.07226258f, -0.01222305f, -0.03432152f, 0.02700837f, -0.07118042f, -0.00070855f, 0.02394051f, -0.04748738f, 0.00183666f, 0.11675957f, -0.07554196f, -0.01939327f, 0.04625175f, 0.10504209f, 0.04670486f, -0.04162955f, 0.04780605f, 0.07602568f},
    {0.03460653f, -0.01504671f, -0.03258556f, 0.02908425f, 0.00774652f, 0.01994098f, -0.08757026f, -0.01670512f, 0.01654428f, -0.02709165f, -0.08451651f, 0.02371082f, 0.04584674f, -0.01016021f, 0.04693595f, 0.01165497f, -0.03218379f, 0.07869511f, 0.00370179f, -0.11435096f, -0.01066931f, -0.04248685f, -0.00520778f, -0.03416785f, 0.03710888f, -0.06533816f, 0.08545884f, -0.02889505f, -0.02866432f, -0.00421671f, 0.00209729f, 0.00644563f},
    {0.04180265f, -0.06289405f, 0.05597268f, -0.03589137f, -0.02966412f, -0.03314134f, -0.07810223f, 0.04010293f, -0.00162230f, -0.06047254f, -0.00386108f, -0.01403806f, 0.06248330f, 0.04908779f, -0.02900603f, -0.03518035f, -0.03397335f, 0.03757737f, -0.00881917f, -0.01675451f, 0.03069256f, -0.02534998f, -0.07174724f, 0.01187396f, -0.00337648f, 0.00389277f, 0.04666572f, 0.11126491f, 0.04665284f, -0.08271902f, 0.03206845f, 0.01936078f},
    {-0.01744729f, 0.05788387f, 0.01653309f, -0.07217553f, 0.08116305f, -0.05153939f, -0.02004760f, -0.04429519f, 0.04394480f, -0.10769867f, 0.06635252f, 0.05144800f, 0.02193858f, 0.00165174f, -0.04736226f, -0.06496255f, -0.00155095f, -0.05713212f, 0.01676656f, -0.01038705f, 0.02721256f, -0.00410179f, -0.02193943f, -0.02919823f, -0.17940359f, 0.04216487f, 0.02424891f, 0.04198426f, -0.10983563f, 0.05788648f, 0.00118475f, -0.06147577f},
    {0.01665443f, -0.05298563f, 0.09030010f, 0.02931200f, 0.05476214f, 0.03960220f, 0.01294426f, -0.08206974f, 0.02899244f, -0.00178810f, -0.01506847f, -0.03990677f, -0.02388367f, -0.01852194f, -0.01132559f, 0.00713993f, 0.10547041f, -0.04227821f, -0.02589317f, -0.02403134f, -0.09274190f, 0.01553581f, -0.01782790f, 0.08304991f, -0.05217001f, 0.05469715f, 0.00264114f, 0.01316470f, -0.00954064f, 0.09306739f, -0.07061751f, -0.02513694f},
    {0.00316822f, -0.02992534f, -0.02992616f, -0.03535225f, 0.05286553f, -0.00746287f, -0.14474407f, -0.05015039f, -0.06384481f, -0.00253615f, -0.01694564f, 0.00376025f, 0.06593350f, 0.02989144f, 0.03800225f, -0.03164501f, 0.00005570f, 0.07267446f, -0.11827477f, -0.10830641f, 0.11181950f, -0.02035941f, 0.04819405f, -0.00487317f, -0.07702330f, 0.04399486f, 0.07507040f, -0.06012335f, -0.01599240f, -0.05310985f, 0.02381521f, -0.08163164f},
    {0.02923279f, -0.01727951f, 0.03947312f, 0.02756690f, -0.07440326f, 0.04399201f, 0.04753078f, -0.02033462f, 0.21953928f, 0.03420460f, -0.00102488f, -0.00861312f, -0.13899661f, 0.03687502f, 0.07560345f, -0.01055332f, 0.04490637f, -0.00240765f, -0.04029127f, 0.02885068f, 0.05628490f, -0.00731131f, 0.03494765f, -0.02400539f, -0.01611868f, 0.01147851f, 0.02116292f, 0.03991696f, -0.01225637f, 0.05477196f, 0.00251051f, -0.04495761f},
    {-0.07855058f, -0.06116093f, 0.07993916f, -0.04960588f, -0.07087669f, -0.12191026f, -0.07722856f, -0.06302400f, -0.07992340f, -0.02784513f, -0.05691885f, 0.00104880f, 0.05193846f, -0.05285467f, 0.06958958f, 0.05453564f, -0.08247520f, -0.15496953f, 0.02345006f, 0.03432512f, 0.06383900f, 0.04456450f, -0.01937377f, -0.02758212f, 0.01547099f, 0.06985203f, -0.01360470f, 0.04364581f, -0.05618363f, 0.07737471f, 0.01212042f, 0.02805270f},
    {0.09841154f, 0.03880552f, 0.03245739f, -0.02216204f, -0.05417386f, 0.01492648f, -0.08771185f, 0.02215138f, -0.01383066f, -0.05834404f, -0.01928235f, 0.03701955f, -0.04222896f, -0.01715324f, -0.01846917f, 0.10914640f, 0.01428304f, -0.00980747f, -0.12054877f, -0.01910841f, -0.01275949f, 0.00783307f, -0.06661203f, 0.01579922f, -0.04891384f, 0.04182235f, -0.06846702f, -0.02576049f, -0.01058831f, 0.00056277f, -0.05444714f, -0.06629535f},
    {-0.02283959f, 0.02727757f, 0.08478968f, -0.12354453f, -0.01314599f, -0.00118956f, 0.02164199f, -0.06555375f, -0.00370382f, 0.04608870f, -0.02775429f, -0.00792895f, 0.06414229f, -0.06760613f, -0.03194682f, -0.07492656f, 0.03618560f, 0.03702815f, -0.05202622f, 0.04107621f, -0.05162472f, -0.05404528f, -0.11712687f, -0.02637087f, 0.01468384f, -0.02180019f, -0.05036216f, 0.03358223f, 0.03875050f, 0.00554670f, 0.00091345f, -0.00013039f},
    {0.00231120f, 0.02606546f, 0.03641345f, 0.12224547f, 0.02428440f, -0.00001241f, -0.00051125f, -0.03681648f, 0.00830344f, 0.06224999f, 0.05971428f, 0.05087643f, -0.04127006f, 0.04653233f, 0.00798426f, 0.01738412f, 0.01970924f, 0.04580968f, -0.05686556f, -0.01689500f, -0.00128386f, 0.02799727f, -0.02927147f, -0.09477265f, 0.03796405f, 0.05619539f, 0.03878109f, 0.03856200f, 0.01775811f, -0.03746567f, -0.02247812f, 0.02232457f},
    {0.02219060f, -0.02164336f, 0.04256347f, -0.02980375f, 0.03362069f, 0.10715981f, -0.01767136f, 0.09872091f, -0.02784981f, -0.04686157f, 0.05139288f, 0.03433826f, -0.02947591f, -0.05148478f, 0.03667035f, 0.06368613f, 0.11516637f, -0.08888411f, 0.00651073f, -0.02562157f, 0.00797369f, -0.05078127f, 0.04850246f, -0.03355962f, -0.01928152f, -0.06686826f, 0.06596000f, 0.05523724f, 0.04253537f, -0.03358357f, -0.02002183f, 0.02187530f},
    {0.01381765f, -0.02847719f, 0.05998575f, 0.04602192f, 0.02335719f, 0.00095752f, -0.02733686f, -0.01624599f, 0.05320021f, 0.03088248f, -0.01370129f, -0.02193137f, 0.00036354f, 0.00301104f, 0.00316205f, 0.01010445f, 0.00504626f, 0.03466510f, -0.04046658f, -0.04873486f, 0.00242864f, -0.17851935f, -0.03638350f, 0.10850771f, 0.11616374f, -0.03698632f, 0.05206791f, 0.05233629f, -0.05999547f, -0.03118397f, -0.07428642f, 0.06577888f},
    {0.05543239f, 0.06287601f, 0.07317452f, 0.05667396f, -0.02421681f, 0.07623749f, -0.00755476f, -0.04902218f, 0.03770482f, 0.05047199f, -0.07837856f, 0.02530068f, 0.01826906f, 0.03247512f, 0.01117044f, 0.02311219f, 0.01836497f, -0.04686176f, -0.00291071f, 0.02547787f, -0.06782106f, -0.01312288f, -0.09822398f, -0.04720734f, 0.06715258f, -0.04994012f, 0.05727920f, 0.04612440f, 0.03554519f, -0.10188829f, -0.06839401f, 0.08995554f},
    {0.04410856f, -0.01677898f, 0.04868596f, 0.02535145f, 0.09105498f, -0.02004869f, 0.14878485f, 0.04873752f, 0.02974093f, -0.00794624f, 0.02932929f, 0.02623192f, 0.00291280f, -0.00083528f, -0.03403896f, -0.01710946f, -0.00908293f, 0.02855497f, 0.03258699f, -0.07578257f, 0.02256171f, 0.03071003f, -0.00460710f, 0.04274321f, -0.03805282f, 0.04460350f, -0.00227851f, -0.05323389f, -0.09631681f, -0.05341748f, -0.12129275f, 0.01398005f},
    {-0.02038240f, 0.02833302f, -0.06286940f, 0.04527441f, 0.15153953f, 0.04965729f, -0.03923759f, 0.09129097f, 0.07028101f, 0.11142302f, 0.01986942f, 0.07009785f, -0.07454715f, -0.15994707f, 0.09531330f, -0.06414428f, -0.00877548f, -0.02192097f, -0.04066994f, -0.03902403f, 0.02445139f, 0.04277562f, -0.13635204f, 0.04309714f, 0.05553305f, -0.03886117f, 0.09378757f, -0.03337814f, 0.02943343f, -0.01387613f, -0.13392511f, 0.05994580f},
    {0.06002824f, -0.03175886f, -0.01662384f, -0.04791708f, 0.07634428f, 0.02017151f, 0.04158656f, 0.15290759f, 0.11406900f, 0.05245479f, 0.00645958f, 0.04918381f, 0.09247078f, -0.16169438f, 0.02720129f, -0.03517317f, -0.08141361f, 0.00886209f, 0.00192411f, -0.13477994f, 0.09958112f, 0.03554194f, -0.14231279f, -0.02609224f, 0.09180346f, 0.05533461f, 0.06592175f, 0.07264065f, -0.07467350f, 0.00730323f, -0.09919945f, 0.11432675f},
    {0.18138398f, 0.00253888f, 0.03664683f, 0.03171271f, 0.03854605f, -0.02909195f, 0.03424413f, 0.06050434f, 0.06910619f, 0.02445495f, -0.04396821f, 0.07463953f, 0.00828878f, -0.14073220f, -0.01625039f, 0.13436931f, -0.06660430f, -0.06407552f, 0.02540740f, -0.03296996f, -0.10175857f, 0.00596965f, -0.04598271f, -0.00272749f, 0.07916335f, -0.02296194f, 0.11423917f, 0.06749074f, -0.17739872f, 0.00697841f, -0.07736893f, 0.11499258f},
    {-0.00402578f, 0.02267270f, 0.00114801f, 0.02983780f, 0.14871454f, 0.00543659f, 0.01013447f, 0.21497807f, 0.14420853f, -0.08063713f, -0.16056077f, 0.04505641f, 0.01282377f, -0.08760494f, -0.10089985f, 0.02575440f, -0.01986437f, -0.06475574f, -0.10705593f, -0.16662975f, -0.05291604f, -0.01767163f, -0.07194044f, 0.06055314f, 0.07785083f, 0.08986521f, 0.04846282f, -0.03307643f, -0.12225074f, 0.01977730f, -0.04662302f, 0.21428531f},
    {0.02400915f, 0.03062631f, 0.06251952f, 0.08625287f, 0.16773998f, -0.08776875f, 0.08742202f, 0.12973282f, 0.16983043f, -0.02027507f, -0.04857741f, 0.20547089f, -0.03523131f, -0.13859182f, -0.13009972f, 0.19702571f, -0.03753740f, -0.07668875f, -0.06136940f, -0.22821716f, 0.03559838f, 0.04906541f, -0.02192996f, 0.01834404f, 0.15914071f, 0.15597701f, 0.12494109f, 0.01108579f, -0.13647400f, 0.01813229f, -0.16561332f, 0.11095172f},
    {0.10263736f, 0.02036458f, 0.02714784f, -0.05964177f, 0.13754579f, -0.08013652f, 0.12027979f, 0.11637102f, 0.31956038f, -0.00988308f, -0.04291275f, 0.08291380f, 0.01418428f, -0.20876577f, -0.05596947f, 0.00339403f, -0.09911890f, -0.08226175f, -0.04478834f, -0.26166708f, 0.05812029f, 0.02114702f, -0.14846534f, -0.00495006f, 0.06708104f, 0.15874833f, 0.12246525f, -0.03253850f, -0.29478003f, 0.10841499f, -0.00537583f, 0.22671632f},
    {-0.07120623f, -0.09096062f, 0.01434641f, -0.09367375f, 0.12371260f, -0.12388454f, -0.07584975f, 0.12040961f, 0.24139910f, 0.06015607f, -0.07388484f, 0.05977297f, 0.10152023f, -0.24898627f, -0.07688319f, 0.04468985f, -0.08297689f, -0.21957436f, -0.05212660f, -0.18442045f, 0.02994665f, -0.02963585f, -0.13508033f, -0.08268001f, 0.11217622f, 0.20662388f, 0.18616313f, -0.14379291f, -0.21855166f, 0.01373674f, -0.03290592f, 0.13682318f},
    {-0.00338017f, 0.05019255f, 0.09557959f, -0.06623697f, 0.12250589f, -0.04356195f, 0.14160589f, 0.09766734f, 0.16369285f, 0.08062713f, -0.02788073f, 0.15278138f, -0.08245239f, -0.28939279f, 0.01614787f, 0.10201128f, -0.10624519f, -0.13764036f, -0.17843437f, -0.14372140f, 0.08705031f, -0.07113035f, -0.12372191f, -0.07245394f, -0.04935120f, 0.24362789f, 0.10384308f, -0.05354602f, -0.16149961f, -0.01737585f, -0.09841372f, -0.10207082f},
    {-0.17151598f, -0.03128624f, 0.12957441f, -0.01072984f, 0.09589706f, -0.16510447f, -0.02075717f, 0.11581144f, 0.07970402f, 0.05880541f, -0.03101658f, -0.01215534f, -0.04937586f, -0.36504039f, 0.02419770f, 0.03545177f, -0.10552973f, -0.10484410f, -0.04907962f, -0.06577943f, 0.04740414f, -0.08104619f, -0.11405265f, -0.02991573f, -0.01548593f, 0.18811112f, 0.06942306f, -0.00650166f, -0.17675378f, 0.07018694f, -0.13517729f, 0.03741194f},
    {-0.13433330f, -0.02952224f, 0.04495142f, -0.10785081f, 0.12974801f, -0.07554436f, 0.11025151f, 0.05885669f, 0.10915792f, -0.04018254f, -0.07754538f, 0.02514186f, -0.07405635f, -0.24508332f, 0.02282251f, 0.11442700f, -0.07717683f, -0.02603194f, -0.03018789f, -0.03042206f, 0.02344121f, -0.04384017f, -0.00598357f, -0.03708966f, -0.09137166f, 0.05010529f, 0.10320732f, -0.09569904f, -0.15171023f, 0.03011436f, 0.04014115f, 0.09414842f},
    {-0.16630832f, 0.02815349f, 0.04188937f, -0.07460577f, 0.15817316f, 0.04586094f, 0.12880321f, 0.01012778f, 0.01591013f, 0.00562723f, -0.08533591f, 0.01292297f, -0.03326833f, -0.04881854f, -0.03806651f, 0.10189522f, -0.04798403f, -0.18644717f, -0.07290825f, -0.16205912f, 0.02364931f, 0.00133231f, 0.04794694f, -0.03612896f, -0.20256491f, -0.03929737f, 0.03357136f, -0.15137816f, -0.15030551f, 0.16076744f, 0.02981754f, 0.09243729f},
    {-0.26428424f, -0.17975351f, -0.03269716f, -0.05360374f, 0.08268048f, 0.12938861f, 0.17919035f, 0.09634804f, 0.08024063f, -0.01254258f, -0.05434843f, -0.05327266f, -0.06353943f, -0.19343266f, -0.11009297f, 0.19322964f, -0.09182521f, -0.00404124f, -0.05396540f, -0.20892086f, -0.08098516f, 0.02726315f, 0.02014080f, -0.11532620f, -0.21630154f, -0.08301278f, 0.06187386f, -0.16718494f, 0.03887934f, 0.02954328f, 0.07221774f, 0.00705102f},
    {-0.19230090f, -0.08612294f, -0.09422056f, 0.00163225f, 0.09665100f, 0.11627802f, 0.02205083f, 0.12681635f, 0.15772889f, -0.04529530f, -0.00615884f, 0.00454060f, -0.04958989f, -0.14762914f, -0.10593143f, 0.15711458f, 0.03472710f, -0.00312876f, -0.15499017f, -0.08046633f, -0.00465528f, -0.10064500f, 0.06886713f, -0.09162355f, -0.15406633f, -0.04393631f, 0.01165250f, 0.00029165f, 0.00753280f, 0.06174458f, -0.02508227f, 0.00767221f},
    {-0.15112296f, -0.08631910f, -0.03107139f, 0.02732049f, 0.08009592f, 0.17891015f, 0.00844827f, 0.11147166f, 0.06732161f, 0.00929630f, -0.08001297f, -0.11361360f, -0.01857787f, -0.05291640f, -0.02478355f, 0.03158402f, -0.10170025f, -0.00166216f, -0.00327496f, -0.09475148f, -0.06688201f, -0.03730351f, 0.07625128f, -0.11402280f, -0.15930259f, -0.14900638f, 0.03794696f, -0.04340737f, 0.02376098f, 0.04322298f, 0.07685330f, 0.09358610f},
    {-0.07136772f, -0.01849236f, 0.03716345f, -0.01298268f, 0.05300746f, 0.12421513f, 0.01084801f, 0.12824924f, -0.01362094f, -0.04745758f, -0.08008289f, -0.07382215f, 0.02709436f, -0.11876402f, -0.08542986f, 0.04958099f, -0.04401293f, 0.07783842f, -0.06828070f, 0.01759907f, 0.01456144f, -0.06208775f, 0.00073031f, 0.00837104f, -0.04282676f, -0.10284500f, 0.07727674f, -0.13535364f, -0.00364165f, -0.04097006f, 0.00013160f, 0.02869900f},
    {-0.03098651f, -0.01871317f, 0.04795893f, -0.00869645f, 0.03335733f, 0.06980041f, 0.00492418f, 0.01662221f, 0.02452252f, 0.08246200f, -0.06987584f, 0.08459866f, 0.02706360f, -0.17312403f, -0.09385904f, -0.00810533f, 0.04373509f, 0.03095780f, -0.04849195f, -0.04247559f, 0.08938554f, 0.00415261f, -0.03469824f, -0.03572594f, -0.12467915f, -0.01555986f, 0.00214990f, -0.04287243f, -0.01499218f, -0.05184807f, 0.05308734f, -0.01429318f},
    {-0.05056128f, -0.04049881f, -0.00893662f, 0.06816869f, -0.00193497f, 0.05493703f, -0.03130068f, -0.02743666f, -0.06102415f, -0.00551607f, -0.12587076f, -0.04723779f, 0.04875116f, -0.04271159f, -0.06439555f, 0.06379255f, 0.03073542f, 0.00191270f, -0.08762791f, -0.00657253f, 0.03393086f, 0.01710644f, -0.12243613f, 0.01581669f, 0.02339108f, -0.01769155f, -0.01524069f, -0.03411715f, 0.03819654f, -0.07170022f, 0.00677413f, -0.00370509f},
    {-0.03407824f, -0.04926332f, -0.00196786f, 0.08314497f, 0.00353338f, 0.01801349f, 0.09417813f, -0.03492752f, -0.04648865f, 0.01027509f, -0.02598009f, 0.03806526f, -0.07595920f, -0.02107080f, -0.00472187f, 0.05770870f, -0.10587518f, 0.01985207f, 0.11976497f, -0.00842476f, -0.01462873f, 0.01771686f, 0.06907180f, -0.05335857f, -0.00024465f, -0.00315336f, -0.07082982f, -0.03748253f, -0.01343754f, 0.00017406f, -0.07348704f, 0.03449734f},
    {-0.09457742f, -0.08942420f, 0.02131777f, 0.00544103f, -0.01726151f, 0.07477325f, 0.06663630f, 0.02296548f, -0.05296403f, -0.06012873f, -0.12404755f, 0.05276896f, 0.01830927f, 0.08168187f, -0.09275589f, -0.07416140f, 0.02179572f, 0.01869811f, 0.02258614f, -0.01952167f, 0.00110819f, -0.07550837f, -0.02629906f, 0.03117800f, 0.00276299f, -0.01522116f, -0.01120381f, 0.06528694f, -0.05301083f, 0.00472591f, -0.00652364f, -0.09327684f},
    {0.08861299f, 0.01716920f, 0.05801266f, 0.00651479f, 0.02605287f, 0.02870291f, 0.03572110f, -0.00402485f, 0.05347704f, -0.03839363f, 0.06403612f, -0.00271326f, 0.02103291f, -0.00145069f, -0.07550323f, 0.05232050f, 0.01676404f, -0.01880741f, 0.07556968f, 0.02672380f, 0.03533444f, -0.03292520f, -0.03862047f, 0.05234925f, 0.05708220f, 0.00024809f, -0.03751775f, 0.04044102f, 0.04784879f, 0.05144072f, 0.00176329f, -0.02690109f},
    {0.02714127f, -0.04134019f, 0.06669816f, 0.04730642f, 0.01105465f, 0.02246071f, 0.04123861f, -0.01287458f, -0.08451320f, 0.02840532f, 0.07549550f, 0.02074332f, 0.00648930f, -0.01225807f, 0.00372180f, -0.03048985f, 0.07912635f, 0.02592584f, 0.08013277f, -0.02314714f, -0.08489802f, -0.00579905f, 0.06696681f, 0.07756706f, -0.03112851f, -0.03622477f, -0.05248328f, 0.01204119f, 0.06979908f, 0.00884247f, 0.03552673f, 0.07644814f},
    {0.05251473f, -0.05177518f, 0.02286425f, -0.09804794f, -0.06807312f, -0.07483840f, -0.07443777f, -0.00235744f, 0.05417337f, -0.01702712f, 0.04345976f, -0.02305543f, -0.04043261f, 0.03784252f, -0.02745034f, 0.02943760f, -0.01188243f, 0.07963232f, -0.09408278f, -0.11865229f, 0.00269064f, 0.02766614f, -0.04481326f, -0.03003035f, 0.00460581f, -0.08090246f, -0.06593470f, 0.02301622f, -0.11419711f, 0.00651498f, -0.04997686f, -0.00300083f},
    {0.09745831f, -0.06236286f, 0.02736515f, -0.01424979f, 0.04783569f, -0.09101453f, -0.01853171f, -0.00138266f, 0.07710408f, -0.06495010f, 0.03174484f, 0.06370942f, -0.00436785f, -0.03818725f, -0.03164015f, 0.06375376f, -0.04156987f, 0.03937710f, -0.05874697f, -0.02690814f, -0.06523705f, -0.04300341f, 0.00322676f, 0.10042342f, -0.00087930f, 0.01449053f, 0.01612534f, -0.03357307f, -0.06630442f, 0.03204560f, -0.04030645f, -0.03241557f},
    {0.04495401f, 0.01662708f, -0.04470066f, -0.07192955f, 0.01977175f, -0.00517726f, -0.00148857f, -0.01344384f, 0.01011088f, -0.02050416f, 0.00184414f, -0.02479499f, -0.06157742f, -0.08044917f, 0.04946171f, 0.00771967f, 0.03600075f, 0.02220050f, 0.02391834f, 0.01049411f, -0.06787709f, -0.01104507f, -0.04760200f, 0.03946450f, 0.05795939f, 0.07526468f, -0.00252245f, -0.00238301f, 0.05659372f, -0.01008797f, -0.02430974f, -0.01788728f},
    {0.04361523f, -0.01220581f, -0.11731828f, 0.00326343f, -0.03047840f, 0.13048846f, -0.05154995f, -0.02251914f, 0.03573933f, 0.03344719f, -0.00541091f, -0.01592993f, 0.00606379f, -0.00545344f, -0.01045052f, 0.05805082f, 0.01158984f, 0.02981775f, -0.02553569f, 0.01710397f, 0.02298592f, 0.03968173f, -0.03219288f, -0.07267591f, 0.04735613f, -0.04199825f, 0.07940699f, 0.08534187f, 0.03783166f, 0.04688721f, 0.03855416f, -0.03739888f},
    {-0.06686942f, 0.02035192f, -0.04426761f, 0.02081761f, 0.00964693f, 0.04342538f, 0.03045721f, 0.09698074f, 0.03733863f, 0.12278708f, 0.02316998f, 0.02247096f, -0.04089680f, -0.05871293f, -0.03584760f, 0.05681192f, 0.02114732f, -0.13507944f, 0.06575065f, -0.07805203f, -0.01236878f, 0.04927681f, 0.00936726f, -0.02837707f, 0.09422761f, 0.04640071f, -0.06829297f, -0.04163441f, 0.01803171f, -0.03043206f, 0.01131096f, 0.08164061f},
    {-0.11005596f, -0.00768186f, -0.01290393f, -0.01729923f, -0.03919861f, 0.00651264f, 0.02421716f, 0.03736520f, 0.10580976f, 0.06950268f, 0.00111579f, 0.01095031f, 0.03517168f, -0.10261381f, 0.04095411f, 0.00348754f, 0.05935457f, -0.00866810f, 0.03670677f, -0.00799711f, 0.03254058f, 0.04353343f, 0.06613775f, -0.06869205f, 0.12079872f, 0.05741188f, -0.02458298f, 0.06523867f, -0.04479695f, 0.02601938f, -0.11769650f, -0.05359506f},
    {-0.01152755f, 0.06418784f, 0.08355947f, 0.03538938f, 0.01106845f, 0.01177177f, 0.00149937f, 0.06508718f, 0.07485645f, 0.06948093f, 0.07387416f, 0.08147587f, 0.06464303f, -0.19813630f, -0.03520774f, 0.03876629f, 0.01828215f, -0.11206552f, -0.06489757f, -0.07826636f, -0.01582503f, 0.00578725f, -0.06677539f, -0.06344577f, 0.14185779f, 0.05736004f, 0.00902451f, -0.01975294f, -0.02879241f, 0.06638607f, -0.12732007f, 0.03536775f},
    {-0.05827877f, 0.09044223f, 0.04792507f, 0.13617350f, 0.08065578f, 0.04135076f, 0.10761857f, 0.05589279f, 0.11043125f, 0.02741611f, -0.01044826f, 0.15042039f, -0.08505126f, -0.12764763f, -0.05978984f, -0.00980639f, -0.11088350f, -0.21197326f, -0.02157204f, -0.11137385f, -0.07002550f, 0.03606790f, -0.06538799f, 0.00761807f, 0.28355667f, 0.20860841f, -0.07224370f, -0.10241104f, -0.11295936f, -0.06484555f, -0.13805516f, 0.07259717f},
    {-0.02564084f, 0.04618684f, 0.00168656f, 0.09960128f, 0.04501245f, 0.00495393f, -0.09969987f, 0.08160808f, 0.07490005f, 0.04003696f, -0.02466096f, 0.23190358f, 0.03400936f, -0.25318123f, -0.18375937f, -0.00148265f, -0.01600542f, -0.15627637f, 0.02166706f, -0.06838445f, -0.04709269f, 0.00282296f, -0.18718232f, 0.00617532f, 0.26887835f, 0.21744996f, -0.01017855f, -0.06375889f, -0.17262274f, 0.03063881f, -0.10714798f, 0.18391203f},
    {0.06331057f, 0.10198504f, 0.06917108f, 0.09405936f, 0.10993461f, 0.01519822f, -0.00479149f, 0.06942599f, 0.15971838f, -0.01722347f, 0.07365853f, 0.24648774f, 0.01895267f, -0.24399866f, -0.27207208f, 0.12198627f, 0.06926954f, -0.18904581f, -0.03771990f, -0.04443892f, 0.11043392f, 0.03176602f, -0.17512236f, 0.03200546f, 0.19681485f, 0.17150146f, 0.01324382f, 0.07455315f, -0.12781672f, 0.13224915f, -0.13464181f, 0.08565638f},
    {0.08183921f, 0.01947466f, 0.04422326f, -0.04833522f, 0.07776459f, -0.06155248f, -0.06500567f, 0.07714554f, 0.23825870f, 0.01549915f, -0.06263393f, 0.26002956f, 0.03844122f, -0.19758881f, -0.19964448f, 0.18643270f, 0.12350412f, -0.22769754f, -0.12218228f, -0.08016176f, -0.02370325f, -0.06432674f, -0.15809055f, 0.01993577f, 0.18008651f, 0.15930174f, 0.04461255f, 0.05037486f, -0.23539130f, 0.02230475f, -0.10922328f, 0.07944945f},
    {0.06791185f, 0.14596282f, 0.01980817f, -0.05605590f, 0.14116803f, -0.03111939f, -0.03775766f, 0.00235829f, 0.19779473f, 0.04823095f, -0.06105775f, 0.30984945f, -0.03823213f, -0.26211207f, -0.21635028f, 0.10477228f, 0.13495875f, -0.18778406f, -0.13088780f, 0.09394376f, -0.00522395f, -0.03273802f, -0.22358502f, 0.01112634f, 0.18230429f, 0.15193335f, -0.01320391f, 0.02652876f, -0.15507851f, 0.08948427f, -0.09699165f, -0.00988076f},
    {-0.01966550f, 0.18755236f, 0.15467808f, -0.00335668f, 0.11609867f, -0.16931979f, -0.10061800f, 0.01105565f, 0.29113763f, -0.03933000f, 0.01844058f, 0.24036940f, -0.09125100f, -0.16639050f, -0.20635117f, -0.05650540f, 0.06645759f, -0.19288205f, -0.21551789f, 0.03601618f, 0.07382117f, -0.12964537f, -0.15008628f, -0.16232632f, 0.11913589f, 0.27319380f, -0.04647821f, 0.11755919f, -0.21077093f, -0.04253998f, -0.18196059f, 0.03095217f},
    {0.06835432f, 0.30612015f, 0.09419995f, -0.06709274f, 0.25686021f, -0.19401780f, -0.11077015f, 0.08881166f, 0.34065810f, -0.03879039f, -0.01136639f, 0.16827496f, -0.04289441f, -0.30609849f, -0.05516277f, -0.00372463f, 0.01894383f, -0.17678487f, -0.18414803f, 0.11373102f, 0.12240104f, -0.27216043f, -0.09880849f, -0.18120638f, 0.10901698f, 0.19024819f, 0.02451121f, 0.05582928f, -0.22201750f, 0.06791289f, -0.12587488f, -0.04929404f},
    {-0.04575255f, 0.15112930f, 0.06502748f, -0.17727552f, 0.23079738f, -0.13925850f, -0.25558031f, 0.05282159f, 0.23615610f, -0.16662317f, -0.07279331f, 0.22278578f, -0.06173458f, -0.29250841f, -0.00446848f, 0.04402508f, 0.00347631f, -0.09890307f, -0.18324994f, 0.00457619f, 0.06782437f, -0.19699875f, -0.11792841f, -0.08080303f, 0.02343039f, 0.09035365f, 0.07666413f, 0.06749989f, -0.15318784f, 0.03581239f, 0.02403621f, -0.16732854f},
    {-0.08947801f, 0.11910359f, 0.08456063f, -0.16078775f, 0.16770091f, -0.27565123f, -0.15236525f, -0.11148002f, 0.23392367f, -0.09284483f, -0.18787974f, 0.08325786f, 0.05692871f, -0.23418366f, -0.04921267f, 0.02390609f, 0.01863195f, 0.02830026f, -0.25893334f, 0.04943434f, -0.01046052f, -0.20157102f, 0.01530318f, -0.32613330f, -0.10238059f, 0.10547376f, 0.00695477f, -0.02041872f, -0.12296218f, 0.09692394f, -0.06568082f, -0.05039753f},
    {-0.20562167f, 0.03509676f, -0.11433616f, -0.07513901f, 0.21046948f, -0.24168428f, -0.08095600f, -0.13807974f, 0.05003274f, -0.08878450f, -0.24130153f, 0.08103055f, 0.01324697f, -0.31966966f, -0.09836281f, 0.12928451f, -0.08845577f, 0.11551991f, -0.15271411f, -0.02487295f, -0.04492245f, -0.18726566f, -0.05508426f, -0.27204324f, -0.17970960f, 0.02358706f, 0.07655751f, -0.09817990f, -0.16603035f, 0.10105724f, 0.03952912f, -0.02860030f},
    {-0.18471040f, 0.12499879f, 0.02579991f, -0.06980236f, 0.09427180f, -0.13942891f, -0.02250043f, 0.05046152f, 0.02343447f, -0.13848060f, -0.15237485f, -0.00790875f, -0.07093932f, -0.18672887f, 0.01829030f, 0.14841915f, 0.03069860f, 0.07223527f, -0.15572615f, -0.03716110f, -0.01001249f, -0.02907365f, 0.01171632f, -0.26102559f, -0.13969803f, 0.07408341f, -0.08246345f, 0.00797803f, -0.18614205f, 0.03202916f, -0.01093144f, -0.07020715f},
    {-0.24992668f, -0.01213669f, 0.03398063f, -0.14551396f, 0.05026947f, -0.03122846f, -0.08645344f, 0.00595058f, 0.04197195f, -0.04509362f, -0.02703708f, -0.12654107f, -0.11457938f, -0.25246692f, -0.00184313f, 0.13294144f, -0.02123144f, 0.04280783f, -0.01928944f, -0.05928837f, 0.01781593f, -0.02115444f, -0.04843628f, -0.42241361f, -0.14312559f, -0.07810345f, -0.05341619f, 0.03006190f, -0.04013717f, 0.04404898f, 0.01539309f, -0.17958815f},
    {-0.23416491f, -0.04242607f, 0.12505532f, -0.08605689f, 0.04427545f, 0.00121817f, -0.18524449f, -0.15087651f, -0.03167253f, 0.01801857f, -0.00760244f, -0.26457013f, 0.06052057f, -0.13129748f, -0.10323844f, 0.10164337f, -0.05619731f, -0.11169416f, 0.03005406f, 0.02989436f, -0.04261433f, -0.11068178f, 0.09037483f, -0.19847392f, -0.16119363f, -0.19081292f, 0.01259269f, 0.03434448f, -0.00800983f, -0.15737598f, 0.06170067f, -0.03049916f},
    {-0.16688625f, -0.15350624f, -0.00680803f, -0.05570420f, -0.10706606f, 0.11476007f, -0.22366279f, 0.06780352f, 0.11452377f, 0.05905030f, -0.08598568f, -0.31939330f, 0.05434923f, -0.16666280f, -0.01199551f, 0.08018287f, 0.10534801f, 0.05916761f, -0.00538451f, -0.12596418f, 0.07851982f, -0.05310112f, 0.03505997f, -0.09340264f, -0.17237681f, -0.15772761f, -0.01208094f, -0.03597353f, 0.01296473f, -0.07910074f, 0.07395684f, -0.05782168f},
    {-0.11965843f, -0.03834854f, -0.01988776f, -0.04236364f, -0.05770095f, 0.12857325f, -0.08362965f, 0.04455435f, 0.11648237f, 0.00162128f, -0.07166002f, -0.23176256f, 0.01446258f, -0.07957370f, -0.05754924f, 0.04791624f, -0.07636397f, 0.06674957f, 0.05606228f, -0.03851789f, 0.04271778f, -0.00707891f, 0.03606494f, -0.14139485f, -0.11062818f, -0.17631423f, 0.05957702f, 0.04604596f, 0.10182039f, -0.03165855f, 0.10294297f, -0.02872842f},
    {-0.01796699f, -0.04343971f, -0.04947113f, -0.06083440f, -0.01305389f, 0.16658277f, -0.16398328f, 0.09209322f, 0.00118595f, -0.07559873f, 0.08345969f, -0.10598288f, 0.01981154f, -0.06984004f, -0.02914780f, 0.07695984f, 0.03372868f, 0.06607260f, 0.09243787f, 0.01951940f, -0.01426182f, 0.01420786f, -0.03076346f, -0.07565145f, -0.19361442f, -0.10261134f, 0.11134255f, 0.02623954f, 0.08578386f, -0.13308903f, 0.12652497f, 0.06459209f},
    {0.06646269f, -0.05678258f, 0.06431942f, -0.00977416f, -0.02696348f, 0.09558791f, -0.08803996f, 0.02154390f, -0.06916584f, -0.03421049f, -0.08914360f, 0.00325845f, -0.00550746f, -0.05285706f, -0.05820565f, 0.03968417f, 0.05585312f, -0.02983728f, -0.01623243f, 0.09667418f, 0.00827008f, 0.05908948f, -0.08595655f, -0.03384518f, -0.07566869f, -0.15738661f, 0.05737878f, 0.13985518f, 0.09070279f, -0.05877233f, 0.04978995f, -0.02654046f},
    {-0.01529113f, -0.09454504f, -0.09142855f, -0.03494027f, -0.02336388f, -0.01134573f, 0.05536217f, -0.08832624f, -0.03899676f, -0.05037260f, 0.03183872f, 0.01747844f, -0.04734325f, 0.05296320f, -0.10109276f, -0.01986890f, -0.01915241f, 0.01685074f, -0.06256545f, 0.02899079f, 0.06389167f, -0.05686029f, 0.01154994f, 0.07776959f, -0.14159871f, -0.02500888f, -0.08000552f, -0.02545988f, -0.01642855f, -0.07091021f, 0.02565600f, 0.06201177f},
    {0.04877805f, 0.03499041f, 0.01331298f, -0.08408900f, 0.01566701f, 0.06765836f, -0.01097774f, 0.00624095f, 0.10766105f, -0.02865083f, 0.11874797f, -0.02291289f, -0.01999203f, -0.02194889f, 0.00410241f, 0.00986089f, -0.01114832f, -0.04917345f, 0.00346320f, 0.01347595f, 0.04939484f, -0.03031552f, -0.00146178f, 0.00886570f, -0.03040200f, 0.06476898f, 0.09415641f, -0.00307615f, -0.04546545f, 0.02720443f, 0.01499232f, -0.04098617f},
    {-0.03519494f, -0.00471125f, 0.04535654f, 0.03226664f, 0.00747295f, -0.01870705f, 0.02461966f, -0.01891943f, 0.02459404f, -0.00922070f, -0.02935221f, -0.01166109f, -0.01654363f, -0.06594081f, -0.11347246f, 0.04390941f, -0.01278576f, 0.03972026f, 0.02488347f, -0.10510602f, 0.04736024f, 0.02055032f, 0.04151226f, 0.02815100f, 0.01108039f, -0.03019908f, -0.00536920f, 0.10655595f, 0.02352043f, -0.04633980f, -0.06265274f, -0.06118618f},
    {0.08550323f, -0.02433379f, 0.06820498f, 0.05536373f, 0.00959452f, -0.01819259f, -0.08058065f, 0.02130320f, -0.01842272f, 0.04783769f, 0.02251018f, -0.07076414f, -0.07486375f, -0.05132575f, 0.04152042f, 0.04269363f, 0.03342304f, -0.02105751f, 0.01020541f, 0.01078563f, 0.01925784f, -0.07491742f, -0.02035589f, 0.03588673f, 0.00908623f, -0.04278400f, 0.02380791f, 0.02229283f, -0.08449666f, -0.01384091f, -0.04669018f, 0.09014357f},
    {-0.00686046f, 0.00863942f, 0.05992131f, -0.13006584f, 0.02589910f, 0.07649076f, 0.06035670f, -0.02360102f, -0.01304677f, 0.04837273f, 0.00429149f, -0.02147495f, 0.08413353f, 0.07273611f, 0.10163788f, 0.08853124f, 0.05161946f, 0.03054510f, 0.01673744f, -0.01776641f, -0.03193488f, -0.02883680f, 0.03960024f, 0.09011848f, -0.03164137f, 0.03670154f, 0.07721932f, 0.09391229f, -0.04895916f, -0.04153451f, -0.06091643f, -0.00624290f},
    {0.03673447f, -0.04596587f, 0.03754155f, 0.04820870f, -0.02413802f, -0.08782537f, 0.01257631f, 0.02809831f, -0.01348954f, -0.00665719f, 0.03386948f, -0.02771686f, -0.03157251f, 0.01384126f, -0.05982442f, 0.05864686f, 0.00874262f, 0.09660725f, 0.06759178f, 0.01500663f, -0.06601160f, 0.07242203f, -0.01182261f, -0.07895769f, 0.07516839f, 0.00327386f, -0.08901453f, -0.03737521f, 0.05108636f, -0.03573418f, -0.02741156f, 0.02536858f},
    {-0.00549757f, -0.02191560f, 0.00442822f, -0.04834375f, -0.01723470f, 0.06938698f, 0.03828622f, -0.02779054f, -0.03806907f, 0.02682900f, -0.00697598f, 0.00484757f, -0.00280209f, -0.01336480f, -0.08324041f, -0.00844099f, 0.01446041f, -0.01098367f, 0.03392787f, -0.03158140f, 0.05420142f, 0.04947134f, 0.11742191f, -0.02001182f, 0.03895334f, 0.03984347f, -0.00713724f, -0.07045216f, 0.01716775f, 0.08031558f, -0.01670983f, -0.11002252f},
    {-0.02952056f, 0.02394572f, 0.04001236f, 0.03805594f, -0.05550645f, 0.02911914f, 0.08283851f, -0.04099035f, 0.06283541f, 0.05525418f, 0.05460994f, 0.00516050f, -0.01560507f, -0.06803430f, -0.02781722f, 0.03702390f, -0.01613818f, -0.07139340f, 0.01884349f, 0.04807011f, 0.02593642f, 0.02092086f, 0.00666424f, -0.00591195f, 0.01381106f, 0.07048257f, -0.06334121f, -0.07383151f, 0.02417907f, 0.02102748f, -0.09355543f, -0.04981028f},
    {-0.07672926f, 0.07431951f, 0.06458725f, 0.00620143f, -0.02681137f, 0.01137432f, -0.02930244f, -0.04299507f, -0.02939932f, -0.04077919f, 0.01377595f, 0.06061195f, -0.09484097f, 0.01320882f, 0.00209685f, 0.04705006f, 0.06323899f, -0.10495328f, -0.07738983f, -0.07935537f, -0.04406157f, 0.07991413f, -0.04611172f, 0.05910935f, 0.25018391f, 0.03428545f, -0.07558688f, -0.00043813f, 0.00331281f, -0.01705547f, -0.20904991f, -0.09496722f},
    {-0.11765661f, 0.06615964f, -0.01245025f, 0.10437032f, 0.02317762f, 0.06194598f, 0.00308906f, 0.00148299f, 0.03544686f, -0.04411714f, 0.04645805f, 0.06400957f, 0.02884920f, -0.04588764f, -0.01506182f, 0.07205881f, 0.05496459f, -0.17194871f, 0.03844163f, -0.06078032f, -0.02252068f, 0.10108523f, -0.14143429f, -0.06017374f, 0.16432270f, 0.16594861f, -0.16061240f, -0.07135600f, -0.04264537f, -0.07455196f, -0.17533644f, 0.00483177f},
    {-0.07277016f, 0.04313114f, 0.12111488f, 0.08847775f, 0.02523414f, 0.06838402f, -0.03281690f, 0.13256886f, 0.03423000f, -0.01216000f, 0.02869332f, 0.11460819f, 0.04090641f, -0.10469387f, -0.08191350f, 0.15134060f, 0.14007076f, -0.20380555f, -0.00428173f, -0.11988393f, -0.10697920f, 0.15588953f, -0.09045729f, 0.01311768f, 0.32519250f, 0.19024849f, -0.06412229f, -0.05652973f, 0.09673720f, -0.05942801f, -0.04426358f, 0.04773868f},
    {0.07176818f, 0.04897788f, -0.00285757f, 0.19860815f, 0.05232537f, 0.01200869f, -0.01547631f, 0.02358116f, -0.02213675f, 0.05237013f, -0.00090271f, 0.18936058f, 0.03962728f, -0.05560194f, -0.24042137f, 0.17253924f, 0.09903513f, -0.17647677f, 0.03339588f, -0.00517060f, -0.00086383f, 0.01964095f, -0.16184677f, -0.01190068f, 0.21895429f, 0.17054603f, 0.06432566f, 0.01380125f, 0.10569402f, -0.11363113f, -0.13524503f, 0.12146596f},
    {-0.10057409f, -0.00363454f, 0.08784640f, 0.12429262f, 0.05579576f, 0.07130318f, -0.14746670f, 0.03635005f, 0.06902490f, -0.06793087f, 0.00669984f, 0.21844531f, 0.14777101f, -0.15535327f, -0.33812368f, 0.21658436f, 0.10347268f, -0.19258346f, -0.05499135f, -0.09730676f, 0.00709966f, -0.01373828f, -0.07508132f, -0.04381343f, 0.14794668f, 0.09779058f, -0.01798729f, 0.02629680f, 0.09491643f, -0.13544954f, 0.04336546f, 0.15271131f},
    {0.11271018f, 0.16568017f, 0.10064841f, 0.13177793f, 0.06609952f, 0.00808776f, -0.07679198f, 0.08247478f, 0.06968780f, -0.08977476f, 0.04583162f, 0.32728333f, 0.15449116f, -0.24341810f, -0.33592574f, 0.12034234f, 0.16771532f, -0.13258975f, -0.01677572f, -0.08996293f, 0.00558748f, -0.00484737f, -0.14296070f, 0.11235978f, 0.04791933f, 0.04581433f, 0.04083844f, -0.00429029f, 0.03277887f, -0.07087047f, 0.06669677f, 0.17343860f},
    {0.17206673f, 0.23467337f, 0.03527390f, 0.10429073f, 0.03837906f, -0.06274979f, 0.01793685f, -0.04133201f, 0.06399755f, -0.12349369f, -0.03085575f, 0.36357787f, 0.06875606f, -0.28708875f, -0.37593461f, 0.06963023f, 0.19618623f, -0.09275341f, -0.12625365f, 0.16369099f, 0.01375058f, 0.01075240f, -0.18950825f, 0.09134202f, -0.07885563f, 0.08114369f, -0.17030573f, -0.04722572f, -0.08942028f, 0.01391900f, 0.16927418f, 0.04606727f},
    {0.18641070f, 0.14310499f, 0.02631179f, 0.12956449f, 0.08808146f, 0.04100104f, 0.00591076f, -0.05454456f, 0.04494738f, -0.14972554f, 0.13660092f, 0.30086382f, 0.08890822f, -0.00790182f, -0.23694952f, 0.04144933f, 0.07293900f, -0.15510612f, -0.11257825f, 0.19689688f, -0.05525296f, -0.05458152f, -0.03124691f, 0.05307868f, 0.02418476f, 0.12131130f, -0.15424379f, -0.03605600f, -0.12144540f, -0.00266792f, 0.09955756f, -0.01922478f},
    {0.02388409f, 0.22201922f, -0.00849819f, -0.05090707f, 0.09233925f, -0.16777362f, 0.24408819f, -0.08582923f, 0.08878764f, -0.25190086f, 0.06886671f, 0.26114680f, 0.04344608f, -0.21465306f, -0.17088887f, -0.09390128f, 0.11289685f, 0.00537178f, -0.11603177f, 0.07955827f, 0.01590568f, -0.12903903f, -0.14518493f, 0.08132455f, 0.04955925f, 0.16409239f, -0.05537481f, 0.00061901f, -0.28088722f, 0.08943559f, 0.18958030f, -0.03789994f},
    {0.02601665f, 0.14848332f, -0.03313370f, -0.05358125f, 0.08089781f, -0.19712786f, 0.06787931f, -0.00285242f, 0.01798308f, -0.20081736f, -0.01689660f, 0.22193051f, 0.10036695f, -0.14946682f, -0.22496439f, -0.03917042f, 0.12998648f, -0.05368568f, -0.21913807f, 0.03008112f, 0.01316826f, -0.15905857f, -0.13095745f, -0.17720300f, -0.04764650f, 0.04078891f, -0.05193617f, 0.11377516f, -0.30050535f, 0.09592282f, 0.15662214f, -0.01409061f},
    {-0.19669204f, 0.11531781f, 0.00745516f, -0.18409278f, 0.07758960f, -0.18188980f, 0.06537086f, -0.06480720f, -0.06374148f, -0.11153745f, -0.01548435f, 0.07508025f, -0.01432206f, -0.11264794f, -0.19335342f, -0.12590503f, 0.07450075f, -0.20789099f, -0.07298113f, 0.05727194f, -0.00709640f, -0.22524532f, -0.03157923f, -0.26519614f, 0.10433897f, 0.20727845f, -0.08611303f, 0.23742895f, -0.19057528f, 0.16806490f, 0.12570029f, 0.08741600f},
    {-0.21683309f, 0.08643552f, -0.02741874f, -0.12219664f, 0.06994501f, -0.27947702f, -0.12800963f, -0.11907600f, 0.05022219f, -0.15796132f, -0.13788846f, 0.36663401f, 0.16600113f, -0.15588526f, -0.21636660f, -0.01407586f, 0.01190498f, -0.10726248f, -0.04537827f, 0.06665822f, -0.05528845f, -0.14752827f, 0.02067892f, -0.33361806f, -0.02903295f, 0.14280232f, -0.06816789f, 0.12069525f, -0.09620015f, 0.19384319f, -0.00872027f, -0.02514148f},
    {0.00769296f, -0.00529474f, -0.10452578f, -0.11232399f, 0.20076169f, -0.33981638f, -0.27724726f, -0.15635514f, 0.00876110f, -0.13097655f, -0.20806824f, 0.30778356f, 0.07767249f, -0.35361864f, -0.21025512f, 0.02133105f, -0.08810833f, 0.10479713f, -0.08255447f, -0.02970617f, -0.06031932f, -0.08520791f, 0.03959584f, -0.38621125f, -0.16484624f, -0.07005154f, 0.04285647f, -0.03198184f, -0.14387111f, 0.12460515f, 0.12497309f, -0.05855599f},
    {-0.15006208f, 0.01444118f, -0.05864156f, -0.08786341f, 0.17776358f, -0.30035588f, -0.31872575f, -0.14131650f, 0.08001916f, -0.05795804f, -0.15440626f, 0.04916787f, 0.12091891f, -0.37453009f, -0.15721977f, 0.07839953f, -0.15450280f, 0.21089460f, -0.09100267f, -0.14547835f, -0.18259545f, -0.04244301f, 0.01264842f, -0.25371023f, -0.13342829f, -0.03480869f, -0.03093876f, 0.00899816f, -0.11662941f, 0.14636085f, 0.01052302f, 0.08505818f},
    {-0.12267403f, -0.02988246f, -0.00632143f, -0.14669095f, 0.14509572f, -0.03784680f, -0.24075559f, -0.19223376f, 0.09723279f, -0.15219936f, -0.10561368f, 0.01973832f, 0.05600611f, -0.44761304f, -0.14755519f, -0.03449330f, -0.21974111f, 0.08538434f, -0.09119096f, -0.11621596f, -0.03909318f, -0.01995163f, -0.03643090f, -0.25388177f, -0.06224726f, -0.01014667f, 0.05742374f, -0.04437073f, -0.08549878f, 0.00846183f, 0.01212366f, 0.00859411f},
    {-0.04297668f, -0.07777260f, 0.02784077f, -0.05236064f, 0.15187586f, 0.03384133f, -0.30611314f, -0.01244639f, 0.16526594f, -0.10920185f, -0.14346989f, -0.11456477f, -0.00460555f, -0.31253756f, -0.18040313f, 0.01880348f, -0.05283828f, -0.00174861f, -0.10908577f, 0.02377184f, -0.04370786f, 0.06261384f, -0.04587383f, -0.18171077f, -0.17831565f, -0.19397125f, 0.02251321f, 0.00735685f, -0.02558455f, 0.08838602f, -0.11855501f, 0.01323904f},
    {-0.06064977f, -0.01031061f, 0.06445933f, -0.11337932f, -0.01671178f, -0.03780362f, -0.28667086f, -0.13358314f, 0.09679630f, -0.10527834f, -0.03742494f, -0.19903576f, 0.14181129f, -0.10082241f, -0.08764293f, -0.06603788f, -0.16398307f, 0.04338660f, -0.04933658f, -0.02013479f, -0.06854830f, -0.06909204f, 0.07879614f, -0.15328961f, -0.03036470f, -0.17925692f, 0.08609430f, 0.14931138f, 0.07632962f, -0.11260504f, 0.00978623f, 0.00441903f},
    {0.05821023f, 0.04956554f, -0.00322614f, -0.11053844f, -0.16053857f, 0.06217882f, -0.34329742f, -0.13666562f, -0.00030773f, -0.06340328f, 0.05765959f, -0.19129216f, 0.01372140f, -0.04459083f, -0.04874915f, 0.08217601f, -0.04363709f, 0.17418716f, 0.01932408f, -0.04132227f, 0.01581701f, -0.00662138f, -0.09793608f, -0.10941634f, -0.19819738f, -0.25458202f, 0.07685005f, 0.02965866f, 0.12155826f, 0.01114796f, 0.03642001f, 0.00672555f},
    {-0.02223286f, -0.00010292f, -0.08729812f, -0.03765701f, -0.09916051f, 0.14654782f, -0.17096220f, 0.04877246f, 0.03235770f, -0.00004351f, 0.03236816f, -0.22446419f, 0.05801627f, 0.02089075f, -0.09671025f, 0.08491300f, 0.02159489f, 0.15915171f, 0.06490036f, -0.09259068f, 0.06696377f, -0.02085601f, -0.09231305f, -0.22946010f, -0.21509694f, -0.10802492f, 0.10233669f, 0.06585493f, 0.20602704f, -0.11765343f, 0.05717913f, -0.07261211f},
    {0.03192813f, 0.02328528f, -0.03223425f, -0.02299555f, 0.01557894f, 0.10011632f, -0.08186785f, -0.04892545f, 0.02988079f, -0.10591283f, -0.06195435f, -0.03121743f, 0.06299741f, 0.01755325f, -0.06336434f, 0.05660857f, -0.04864132f, -0.03167902f, 0.03277554f, 0.00068229f, -0.02031936f, 0.03081203f, 0.06632150f, -0.13306666f, -0.11716411f, -0.06038535f, -0.00185335f, -0.03138564f, 0.04829982f, -0.14111289f, 0.00819293f, -0.06217267f},
    {0.03297610f, -0.07725094f, -0.01270059f, -0.10427490f, -0.06833493f, 0.07598522f, -0.09337985f, 0.02606084f, 0.01155434f, -0.01998051f, -0.05640163f, 0.02151184f, 0.05109022f, -0.08535019f, 0.00381184f, -0.09102162f, 0.07410196f, 0.04155529f, -0.08321844f, 0.03395708f, -0.07479945f, 0.02560717f, 0.03790558f, 0.01367253f, -0.05442460f, -0.06179440f, 0.01313295f, 0.00437422f, 0.03165127f, 0.00322484f, 0.08152282f, -0.01156986f},
    {-0.03939809f, 0.03779473f, -0.07783903f, -0.11332761f, 0.03647531f, 0.11275952f, 0.02195448f, 0.06281135f, -0.02335831f, 0.05165962f, 0.04530508f, 0.01774441f, 0.01900884f, 0.03732739f, -0.01525018f, 0.01395631f, 0.05673876f, -0.03128592f, -0.00044775f, 0.00681951f, 0.03508633f, 0.02268790f, 0.00001137f, -0.05365493f, 0.05970733f, 0.00079558f, 0.01378343f, -0.05119230f, 0.08293778f, 0.00815294f, -0.06398323f, 0.03743140f},
    {0.05084507f, -0.00851447f, -0.03799400f, -0.04463603f, 0.08232161f, -0.01824099f, 0.04707180f, 0.04073013f, 0.05002092f, -0.01962096f, 0.07678287f, -0.01560725f, -0.04076635f, 0.02309337f, -0.05163203f, -0.03103735f, 0.00401642f, -0.05697535f, 0.02869853f, -0.05757782f, 0.01451564f, 0.03504426f, 0.00582687f, 0.00951384f, -0.10872808f, -0.05717042f, -0.02015069f, -0.00111646f, 0.07088352f, -0.02859208f, 0.00398722f, -0.02665179f},
    {-0.07223264f, 0.07781079f, 0.01008802f, 0.01735154f, -0.09852815f, -0.00063409f, -0.01712067f, -0.01997373f, 0.02834521f, 0.06765344f, -0.02212560f, 0.00572503f, 0.00595121f, -0.04629915f, -0.03701481f, 0.03670629f, -0.07734869f, 0.03922844f, -0.09420467f, -0.06352855f, 0.03206598f, 0.09540243f, -0.07548303f, 0.11655040f, 0.01468085f, 0.04159116f, 0.03910857f, 0.05308675f, -0.00333140f, 0.09653959f, -0.00622841f, -0.03651801f},
    {-0.03386900f, -0.09876644f, -0.10427413f, -0.04258625f, -0.01274035f, -0.05676511f, 0.03767150f, 0.04121993f, -0.03982629f, -0.12350439f, 0.06765626f, -0.05575308f, -0.03177735f, -0.11186164f, -0.05912496f, -0.00819182f, 0.02562148f, 0.02579870f, -0.05833178f, -0.04333559f, -0.00430226f, -0.01653599f, 0.00217264f, -0.06228428f, 0.03298806f, 0.02714093f, 0.04093335f, -0.05360146f, -0.06150354f, 0.02788605f, -0.05892666f, -0.02099287f},
    {-0.01194368f, -0.04333598f, 0.03587346f, -0.10345048f, -0.08738738f, -0.02596298f, -0.14678656f, -0.04837214f, -0.02887646f, 0.08151759f, -0.05485338f, 0.02087898f, -0.01929401f, -0.05470875f, 0.02977881f, 0.00998354f, -0.02364884f, 0.02986181f, 0.03833819f, 0.06955145f, 0.03804071f, -0.04979662f, 0.01397676f, -0.07982540f, 0.00313021f, -0.05698987f, 0.00122616f, 0.02097497f, -0.00227196f, -0.03353158f, -0.12553247f, 0.07532443f},
    {0.01818921f, 0.00224511f, -0.05600280f, 0.02912058f, -0.01261764f, -0.00759737f, 0.03143493f, 0.07578137f, -0.01584188f, -0.08754525f, -0.09780642f, 0.04297842f, 0.03936704f, 0.02382962f, 0.06925883f, -0.01691499f, 0.03394227f, -0.04773214f, 0.04744622f, -0.03347928f, 0.02141460f, 0.06630290f, -0.00244437f, 0.09313418f, 0.09967115f, 0.03946005f, -0.04524692f, -0.04120927f, 0.01448400f, -0.02514113f, -0.08324609f, 0.00001262f},
    {-0.13445967f, -0.06616740f, -0.03581403f, 0.01290127f, -0.03825471f, 0.03101983f, 0.01976779f, -0.07163832f, 0.05311555f, 0.06734986f, -0.00637208f, 0.11190499f, -0.11125639f, -0.05969703f, 0.02073049f, 0.03852759f, 0.00554842f, -0.02977333f, 0.04201617f, -0.05975829f, -0.02062114f, 0.03927063f, -0.05334878f, -0.06453896f, 0.19301140f, 0.15753405f, -0.02736576f, 0.03292850f, 0.08932617f, 0.04413586f, -0.16864377f, 0.08546297f},
    {-0.09254503f, 0.03270491f, 0.03779790f, 0.00873477f, -0.00811103f, 0.03907519f, -0.04458246f, -0.11653835f, 0.03044269f, -0.08740561f, 0.04522158f, 0.06140958f, -0.08425067f, -0.02807083f, 0.02183533f, 0.14669844f, 0.12686955f, -0.03641718f, -0.02745636f, -0.10821677f, -0.04771187f, -0.02174651f, -0.00273501f, -0.05758148f, 0.24893543f, 0.16451224f, -0.06662552f, -0.06045522f, 0.16576132f, -0.09014503f, -0.05643955f, 0.06613923f},
    {-0.11950935f, 0.11995345f, 0.04070725f, 0.03148965f, -0.05436426f, 0.01430728f, -0.07579043f, -0.04806615f, 0.01399693f, -0.02826136f, 0.19399324f, 0.04002472f, -0.01864262f, -0.06595488f, -0.14568733f, 0.04360158f, 0.18629680f, 0.00109028f, -0.02340384f, -0.01076172f, -0.01198784f, 0.07492952f, -0.09062401f, 0.05913310f, 0.35038276f, 0.14696885f, -0.08600309f, 0.00942844f, 0.08083154f, -0.09570892f, -0.10085584f, 0.03357175f},
    {-0.00262251f, -0.00367526f, 0.10915115f, 0.05670827f, 0.00226948f, 0.01946753f, -0.09845830f, 0.01791916f, 0.03871824f, -0.11850658f, 0.10200842f, 0.14574128f, -0.09909757f, -0.11921222f, -0.14437981f, 0.11031136f, 0.11335743f, -0.10756076f, -0.03510996f, -0.15736555f, -0.01845804f, 0.03163545f, -0.03192627f, 0.12196376f, 0.36101075f, 0.10401448f, -0.06416866f, -0.08141235f, 0.14142137f, -0.20376231f, -0.09341500f, -0.06725143f},
    {0.06202243f, -0.01722345f, 0.10945592f, 0.18934534f, -0.00610635f, 0.09106186f, -0.13151349f, 0.00775228f, 0.02626174f, -0.20540695f, 0.14131793f, 0.26642444f, 0.00290963f, -0.08720453f, -0.27538573f, 0.22840883f, 0.10147040f, 0.01792942f, -0.06666722f, -0.03033308f, 0.07042864f, 0.05289218f, -0.02885274f, 0.03916435f, 0.18768633f, 0.04131362f, 0.00465153f, -0.23369786f, 0.15293916f, -0.13966276f, -0.14684303f, -0.01325610f},
    {0.05249592f, -0.04666933f, 0.18353016f, 0.11810731f, 0.03307199f, 0.15607889f, -0.00851779f, -0.01993111f, -0.27036088f, -0.16313207f, 0.09983644f, 0.20271248f, 0.01699804f, -0.10071804f, -0.25299384f, 0.23166222f, 0.22705503f, -0.07562055f, 0.03089542f, -0.06316118f, -0.08266201f, 0.16116764f, -0.08706909f, 0.13041975f, 0.09507291f, 0.07880521f, -0.05419173f, -0.29706762f, 0.11932589f, -0.22169774f, 0.06001674f, 0.02855635f},
    {0.02107064f, 0.07185779f, 0.24472603f, 0.10939349f, -0.00721700f, 0.02918679f, -0.04952931f, 0.02398545f, -0.23232861f, -0.29279409f, 0.19463625f, 0.21826468f, -0.03967734f, -0.05661767f, -0.21756412f, 0.22134765f, 0.22065044f, -0.04631312f, 0.00311260f, 0.02014426f, -0.01006091f, 0.09925145f, -0.13394946f, 0.26387787f, 0.12883036f, 0.15340923f, -0.09135670f, -0.11497675f, 0.03152248f, -0.03929864f, -0.01563553f, -0.01449162f},
    {-0.02092538f, 0.08522381f, 0.16415178f, -0.00066054f, -0.03559528f, 0.07385379f, 0.19357996f, 0.02131978f, -0.07006628f, -0.24677246f, 0.32566766f, 0.29065191f, -0.03609950f, -0.06560430f, -0.22560401f, 0.19879631f, 0.13080349f, 0.04542737f, -0.06417950f, 0.14818707f, -0.10018587f, 0.07070472f, -0.15900530f, 0.25263514f, -0.09492470f, 0.09453165f, -0.20388090f, -0.00829901f, -0.13545208f, 0.06446657f, 0.20468232f, -0.09962959f},
    {0.01853377f, -0.08639371f, 0.15100991f, 0.02125935f, 0.00562459f, -0.01828052f, 0.15812977f, -0.14875497f, -0.12139263f, -0.27939448f, 0.26508232f, 0.21499853f, 0.00684702f, -0.15359655f, -0.13225789f, 0.19791607f, 0.12979941f, 0.11708125f, -0.12229451f, 0.07315127f, 0.10808006f, -0.02467614f, -0.06760022f, 0.14476778f, -0.03637291f, 0.16132141f, -0.09930511f, -0.11044098f, -0.16751783f, 0.17496421f, 0.19773997f, -0.07638901f},
    {0.06404290f, 0.05749631f, -0.04444458f, -0.06910264f, 0.00174346f, -0.09726177f, 0.34139610f, -0.26960669f, -0.09149046f, -0.20576948f, 0.05000594f, 0.28240981f, -0.03307502f, -0.14362760f, -0.10666384f, 0.15708598f, 0.20910351f, 0.16521106f, -0.11461688f, 0.04277022f, -0.11201230f, 0.04977405f, -0.18976016f, 0.24667329f, -0.00386252f, 0.18772654f, -0.03077359f, -0.03292327f, -0.22085235f, 0.25440190f, 0.16964672f, -0.07444153f},
    {-0.05158728f, 0.07784649f, -0.00248622f, -0.12299821f, 0.02195506f, -0.21710798f, 0.22597349f, -0.14085733f, -0.24635932f, -0.15281930f, -0.03141680f, 0.12407840f, -0.05131177f, -0.24815746f, -0.07129596f, 0.11999729f, 0.09481433f, -0.02934985f, -0.01992089f, -0.02399033f, -0.09178087f, 0.03080964f, -0.17458706f, 0.19470372f, -0.14246537f, 0.12215231f, 0.06622542f, -0.00384105f, -0.14898970f, 0.22168839f, 0.01305946f, -0.07016373f},
    {-0.01286601f, -0.06507715f, 0.06414320f, -0.10969280f, 0.18095552f, -0.26917247f, 0.23842996f, 0.01201066f, -0.29548584f, -0.11480987f, -0.06227866f, 0.19038556f, -0.09743331f, -0.25387129f, -0.09298128f, 0.02054749f, 0.02581991f, -0.07102195f, -0.20298260f, 0.05680417f, -0.09156361f, 0.03697274f, -0.04499440f, 0.14252830f, -0.08521004f, 0.03307552f, 0.24623653f, -0.14124111f, -0.21672547f, 0.21886172f, -0.15450176f, -0.01954856f},
    {-0.06416201f, 0.03310448f, 0.12035945f, -0.06498240f, -0.05968307f, -0.35251173f, 0.13936955f, -0.10954770f, -0.27717720f, -0.09362512f, -0.01658428f, 0.24912180f, -0.19812804f, -0.38647151f, -0.12587688f, -0.01869623f, -0.02231431f, -0.12782286f, -0.08064441f, 0.01565714f, -0.10834328f, 0.15855863f, -0.03535256f, 0.08979839f, -0.05770038f, 0.15424465f, -0.01115022f, -0.04891783f, -0.26601787f, 0.16746412f, -0.10450234f, 0.11564431f},
    {0.05175412f, 0.05445120f, 0.11495403f, -0.07309538f, 0.02092324f, -0.27622660f, 0.00387037f, -0.31457740f, -0.20436892f, -0.02122718f, -0.02921762f, 0.07590002f, -0.18559745f, -0.31338669f, -0.13887941f, -0.05619784f, 0.07983636f, -0.04747273f, 0.01965859f, 0.02062121f, -0.14554968f, 0.01261201f, -0.09140213f, 0.23745247f, -0.25724653f, 0.04859989f, -0.06060475f, -0.19292008f, -0.16517371f, 0.04362200f, -0.10671161f, 0.00236910f},
    {0.00675345f, -0.00145066f, 0.08652868f, -0.10867953f, 0.06288378f, -0.35035983f, -0.08246918f, -0.16759652f, -0.02193155f, -0.00639143f, -0.08591498f, 0.11726014f, -0.30951514f, -0.31408750f, -0.11982805f, -0.06060130f, 0.03624052f, 0.13189284f, -0.00615589f, 0.00314315f, -0.08466156f, 0.08132720f, -0.13945408f, 0.22138992f, -0.21660078f, 0.13988112f, -0.02274731f, -0.02116086f, -0.18505801f, 0.04550579f, -0.05289642f, 0.11212607f},
    {0.09585228f, -0.02410565f, 0.09296477f, -0.01242444f, 0.14255944f, -0.18932331f, -0.29425637f, -0.34872936f, 0.01758490f, -0.12978470f, -0.17353362f, -0.02090720f, -0.08655351f, -0.18933248f, -0.10828616f, -0.00843362f, -0.06338261f, 0.02862896f, -0.11027992f, 0.03570161f, -0.11682703f, -0.03715571f, -0.10474385f, 0.17072155f, -0.17524226f, -0.14410349f, 0.09792987f, -0.02012788f, -0.02182852f, 0.05091506f, 0.02312248f, 0.01790616f},
    {0.17059197f, 0.04027289f, 0.08948835f, -0.19598396f, 0.04733330f, -0.13150406f, -0.26578178f, -0.26412144f, -0.00723666f, -0.08839832f, -0.06987607f, 0.10453868f, -0.15985029f, -0.10624283f, -0.08981495f, 0.05271863f, -0.03114842f, -0.03209069f, 0.00918044f, 0.04312163f, -0.01634130f, 0.02755226f, -0.05849763f, 0.03917053f, -0.24082614f, -0.02023949f, 0.05225733f, -0.01145921f, -0.06516617f, 0.05051877f, -0.03691044f, 0.00914986f},
    {0.17276395f, 0.05781238f, 0.08258074f, -0.12771445f, -0.00398560f, -0.12155175f, -0.30549755f, -0.33124152f, 0.01727546f, -0.10147828f, -0.05701747f, 0.03558963f, -0.00884462f, 0.04357428f, -0.06535169f, -0.08294237f, -0.05932927f, 0.14280870f, 0.07723883f, 0.00614779f, 0.04157116f, -0.02170833f, -0.17632527f, 0.10512403f, -0.08568196f, -0.06091147f, 0.02161561f, 0.03553073f, -0.04639387f, 0.06863448f, -0.07179776f, 0.12531307f},
    {0.10735940f, 0.01447569f, -0.03111908f, -0.08860607f, -0.03166951f, -0.13097710f, -0.25294489f, -0.24980744f, 0.08114936f, -0.03365050f, -0.04806760f, -0.03587860f, 0.07227255f, 0.14958801f, -0.02406910f, -0.01058834f, 0.02606437f, 0.20990230f, 0.06277563f, 0.02033778f, -0.13868018f, -0.11915298f, -0.09087291f, -0.22820196f, -0.13664213f, -0.24893312f, 0.03719046f, -0.01003758f, 0.06216910f, -0.01364876f, 0.04931450f, 0.09527128f},
    {0.09260494f, -0.00783614f, -0.01881675f, -0.04316856f, -0.08067439f, 0.16663833f, -0.24921364f, -0.09690269f, 0.13023051f, -0.15458996f, -0.01974007f, -0.04883620f, 0.01996082f, 0.20488798f, -0.08198908f, 0.05665142f, -0.05597852f, 0.05454853f, 0.09276899f, 0.07774324f, -0.07380410f, 0.00506811f, 0.00058872f, -0.20846398f, -0.31350862f, -0.30478226f, 0.13440032f, 0.01124748f, 0.29069851f, -0.04355769f, 0.11341184f, -0.07272163f},
    {0.03363513f, 0.05690064f, -0.03753751f, -0.18814804f, -0.01639734f, 0.16545284f, -0.16069642f, -0.07367192f, 0.10025348f, -0.05454695f, -0.07433588f, 0.02141857f, 0.09435548f, 0.13070650f, -0.03891595f, 0.05011715f, 0.01476865f, 0.05842770f, 0.06586462f, 0.05577052f, -0.05828274f, -0.00791403f, -0.09842657f, -0.12272169f, -0.22759280f, -0.24826702f, 0.07899673f, 0.15476049f, 0.19139826f, -0.01890354f, -0.05489615f, -0.08814561f},
    {-0.00370243f, -0.05387243f, -0.02035983f, -0.08676147f, 0.18779452f, 0.08197949f, -0.14439584f, -0.04501136f, 0.09772465f, -0.12771450f, -0.06864224f, 0.10536000f, 0.08490828f, 0.11479941f, -0.05808050f, 0.18630064f, 0.02486542f, 0.07601558f, 0.02902522f, 0.03548851f, -0.01421561f, 0.05021750f, -0.02735557f, -0.01268237f, -0.11981492f, -0.01286541f, 0.04805191f, 0.04980744f, 0.04014311f, 0.06663952f, -0.03956064f, -0.06693252f},
    {-0.03212441f, -0.05847296f, -0.00370109f, -0.00227699f, -0.00061070f, 0.00403211f, -0.01184975f, -0.02559206f, -0.00312921f, 0.04788285f, -0.02614557f, 0.06981414f, 0.00210852f, 0.01104459f, 0.00728825f, 0.03167379f, 0.01922093f, -0.05186424f, 0.13422471f, -0.04351880f, -0.01607411f, 0.02824349f, 0.03956582f, 0.04412979f, -0.01395846f, -0.08382841f, -0.05682601f, -0.02661012f, -0.00647123f, 0.01373653f, -0.00841969f, -0.02037315f},
    {0.01343676f, -0.00437343f, 0.00317563f, 0.03584222f, -0.01025849f, -0.06833471f, -0.04453541f, -0.00361208f, -0.07463300f, -0.03387732f, -0.00687840f, -0.02871128f, 0.04817147f, -0.00252213f, 0.02063300f, -0.02122590f, 0.00369441f, 0.00420415f, 0.03239928f, 0.03672273f, -0.00769305f, -0.04605971f, 0.02307425f, 0.02770029f, 0.00146238f, 0.03314605f, 0.12571411f, 0.04375324f, -0.02173853f, 0.00716802f, 0.00751162f, 0.05262061f},
    {-0.00548426f, 0.05619562f, 0.12220356f, 0.08648763f, -0.01896965f, -0.00460890f, 0.05004293f, -0.05029203f, 0.08256393f, 0.04020557f, -0.07162096f, 0.06269039f, 0.07144776f, 0.05402030f, -0.02205278f, 0.00325933f, 0.01851778f, 0.01143322f, 0.04483295f, -0.04252269f, -0.03034324f, -0.00433468f, -0.04855883f, 0.00461727f, 0.06663476f, 0.06505155f, -0.05997202f, -0.03620691f, -0.04049682f, -0.01738048f, -0.05396731f, 0.08322731f},
    {0.05807521f, 0.04667377f, 0.02332416f, -0.11238194f, 0.02351516f, -0.03176686f, 0.02046063f, 0.06427720f, 0.03918612f, -0.03519137f, 0.04735987f, 0.06384723f, 0.03329162f, -0.00167815f, -0.05808932f, -0.01387335f, -0.01750900f, -0.07535784f, 0.04473847f, -0.03412401f, 0.00723047f, -0.00727040f, -0.09023354f, 0.06626852f, 0.04607591f, -0.06690015f, -0.05822904f, 0.10057852f, -0.04358114f, -0.08228522f, 0.01239541f, 0.06077472f},
    {-0.03470196f, -0.08071378f, -0.04773831f, -0.04218011f, -0.09027386f, 0.00624681f, 0.09844636f, 0.03888176f, 0.01156212f, -0.05877953f, 0.03759373f, -0.09754373f, 0.01373230f, 0.06101813f, 0.03981576f, 0.07727637f, -0.05444139f, -0.02054561f, -0.03498857f, -0.01145874f, 0.04790821f, 0.06382362f, -0.05069277f, 0.08846801f, 0.07286271f, -0.00807957f, -0.08375449f, 0.14576304f, -0.02981132f, 0.01581623f, 0.01353284f, 0.00532119f},
    {-0.08719098f, -0.05629916f, 0.04175825f, 0.00949855f, -0.03096169f, -0.08986635f, 0.08899943f, -0.01407684f, -0.02206693f, -0.12147416f, 0.03929558f, -0.02127600f, 0.03755886f, 0.01239163f, 0.11290702f, 0.01862756f, -0.00300406f, -0.07342772f, -0.03247441f, 0.01755541f, 0.07165599f, 0.02993010f, -0.06050433f, 0.10338209f, 0.04023887f, 0.15574425f, -0.08367212f, 0.00676984f, 0.09759250f, -0.08365967f, -0.03779999f, 0.03979069f},
    {-0.16984615f, -0.08857198f, -0.03150290f, -0.03948112f, -0.00017356f, 0.01842663f, 0.00707089f, -0.08223412f, -0.08206402f, -0.03809140f, -0.01270518f, 0.04408180f, 0.03268872f, -0.01038912f, 0.06221510f, -0.01465694f, 0.09283613f, -0.03354176f, 0.05215052f, -0.06144745f, -0.00955779f, -0.07519882f, -0.08081999f, -0.08520762f, 0.17805506f, 0.23161395f, -0.18395383f, -0.02877426f, 0.07158369f, -0.12498570f, -0.18940033f, 0.07265816f},
    {-0.03820828f, 0.10684611f, -0.07687652f, -0.00525641f, -0.01526899f, 0.11424706f, -0.12282039f, 0.03081519f, 0.03124510f, -0.12382990f, 0.16964640f, 0.11437776f, -0.08055747f, 0.00762443f, -0.01716768f, 0.00573216f, 0.12756099f, -0.15753291f, -0.01288530f, -0.05584169f, 0.01849799f, 0.02459895f, -0.01140284f, 0.14095691f, 0.24824372f, 0.10709064f, -0.06537530f, -0.00270587f, -0.00172833f, -0.08666361f, -0.15014096f, 0.01596751f},
    {-0.09292221f, -0.00604034f, 0.05912350f, 0.04427241f, -0.09841834f, 0.02066864f, -0.18347361f, -0.03590441f, -0.13581178f, -0.19795564f, 0.21634915f, 0.16400546f, 0.03265031f, 0.00726269f, -0.04529268f, 0.13479360f, 0.15022576f, 0.01368292f, 0.06493109f, -0.10466470f, -0.01445556f, -0.03603191f, -0.14839637f, 0.13372621f, 0.28408898f, 0.11944151f, -0.08353854f, -0.14659383f, 0.17316832f, -0.25258231f, -0.05710102f, 0.10233101f},
    {0.12053491f, -0.10237428f, 0.15690182f, 0.03591458f, -0.03585243f, -0.01067637f, -0.25143967f, -0.07604314f, -0.03530931f, -0.24655507f, 0.19799435f, 0.18558445f, -0.02521245f, 0.05607833f, -0.12502669f, 0.16851907f, 0.13468741f, -0.01054828f, -0.07130337f, -0.04182733f, 0.08866072f, 0.04457272f, -0.03519192f, 0.07006157f, 0.27494323f, -0.01317806f, 0.01342135f, -0.20079134f, 0.29532325f, -0.16327243f, -0.02207460f, 0.04568000f},
    {0.13270251f, -0.00601111f, 0.11710151f, -0.01557671f, 0.06896806f, 0.05102401f, -0.15341772f, -0.03789881f, -0.25681781f, -0.29393906f, 0.10180223f, 0.20543385f, 0.08554193f, -0.20646859f, -0.21242104f, 0.24611176f, 0.17413252f, 0.07785862f, -0.07534047f, 0.13102620f, 0.01365517f, 0.11349754f, -0.09085792f, 0.18160644f, 0.03284589f, -0.05274562f, -0.02123280f, -0.20769701f, 0.17972733f, -0.20017449f, 0.07980893f, 0.01456461f},
    {0.04752986f, -0.02768071f, 0.07530259f, -0.07492847f, -0.02655817f, -0.06678742f, -0.05335507f, -0.04885222f, -0.26708419f, -0.38303307f, 0.25730336f, 0.14686588f, -0.06925578f, 0.00000229f, -0.21491923f, 0.09622564f, 0.29833126f, 0.16887053f, -0.03537004f, 0.06519271f, 0.08277493f, 0.08984184f, -0.07556998f, 0.32651067f, -0.01529732f, -0.11804395f, -0.03733527f, -0.19405887f, 0.06033394f, -0.08761991f, 0.08754664f, -0.03985074f},
    {0.05552840f, -0.10297147f, 0.09596419f, -0.16279584f, 0.02017785f, -0.09023991f, 0.00408779f, 0.05598897f, -0.15256694f, -0.33723532f, 0.23847885f, 0.19679251f, -0.06094423f, -0.06850075f, -0.05700799f, 0.12465700f, 0.14105726f, 0.18632718f, -0.07365347f, 0.19197562f, 0.05876094f, 0.01970509f, -0.14823860f, 0.31614821f, -0.10081445f, 0.01842502f, -0.15371018f, -0.16460957f, -0.04811854f, -0.03082715f, 0.13351976f, -0.05841971f},
    {0.02955655f, -0.27070433f, 0.13631584f, -0.05026057f, -0.04520802f, 0.09140414f, -0.01454838f, 0.09525888f, -0.20354868f, -0.12762263f, 0.10926204f, 0.10632872f, 0.08594659f, -0.13297454f, -0.17037066f, 0.25490464f, 0.16397222f, 0.32379621f, -0.05589048f, 0.04301276f, -0.00911691f, 0.09810533f, -0.26082311f, 0.22041442f, -0.02091176f, 0.18244281f, 0.03566915f, -0.16751833f, -0.06970072f, 0.00829698f, 0.14858380f, -0.06263258f},
    {0.06298638f, -0.17379105f, 0.07078713f, -0.08974942f, 0.06817445f, -0.08984545f, 0.18147621f, -0.22877316f, -0.21709751f, -0.18648702f, 0.11815317f, 0.02153283f, -0.04160908f, -0.15346036f, 0.08823435f, 0.14197620f, 0.09803009f, 0.03305723f, -0.05337725f, 0.17541556f, 0.01108633f, 0.19729478f, -0.20705925f, 0.31955421f, -0.10195197f, 0.19808830f, 0.08275987f, -0.13365088f, -0.16234003f, 0.14386474f, 0.20042318f, -0.10317189f},
    {0.13768765f, -0.10404838f, 0.01799027f, -0.07377423f, 0.00057391f, -0.11280082f, 0.22830337f, -0.20035083f, -0.22613866f, -0.10527155f, -0.04845205f, 0.02951980f, -0.08389299f, -0.09726485f, 0.14673588f, 0.03121536f, 0.08139172f, 0.12025769f, -0.09062037f, 0.16595548f, -0.09417776f, 0.19846381f, -0.27650800f, 0.38095167f, 0.00574279f, 0.28947515f, 0.01318791f, -0.04945882f, -0.12748562f, 0.17629866f, 0.20340945f, -0.01364832f},
    {0.11568212f, 0.15563793f, 0.07523043f, -0.01956790f, -0.00197182f, -0.14993357f, 0.27857563f, -0.06744375f, -0.20058766f, -0.06041952f, -0.06936814f, -0.07836489f, -0.02408193f, -0.09453841f, 0.15537129f, 0.24049644f, 0.02602033f, 0.01574420f, -0.15203193f, 0.04059454f, -0.18286903f, 0.41354289f, -0.36107808f, 0.24466742f, -0.09786459f, 0.05606428f, 0.28789087f, 0.00482659f, -0.28927349f, 0.31332960f, 0.12803708f, 0.12265783f},
    {0.15527473f, -0.01020482f, 0.14676881f, 0.03800996f, 0.06645980f, -0.27308418f, 0.22097502f, -0.18308971f, -0.15447762f, -0.02819317f, -0.11248353f, 0.11532555f, -0.16102012f, -0.07643314f, 0.04077977f, -0.06992405f, -0.00018627f, -0.25424413f, -0.11863214f, 0.16692610f, 0.00006096f, 0.24247938f, -0.20327185f, 0.37710330f, -0.10150299f, -0.02145843f, 0.18208996f, -0.24872614f, -0.34636937f, 0.22315026f, -0.07938347f, -0.04174636f},
    {0.14772386f, 0.11577629f, 0.08152119f, 0.06392413f, 0.07450804f, -0.32569890f, 0.05812673f, -0.25252220f, -0.14086455f, -0.13901519f, -0.07632016f, 0.07644544f, -0.11711054f, -0.01296811f, 0.14293533f, -0.06141273f, 0.06857574f, 0.02733376f, -0.05317484f, 0.20506299f, -0.12629690f, 0.23226809f, -0.16740208f, 0.49808740f, -0.28477415f, -0.05510184f, -0.02961830f, -0.22236264f, -0.28372315f, 0.13637100f, -0.10955793f, 0.00619169f},
    {0.09469379f, 0.04043256f, 0.05862233f, -0.00499117f, 0.05997176f, -0.38537464f, -0.16257723f, -0.07141850f, -0.05660298f, 0.05158138f, 0.04697104f, 0.01577071f, -0.27243394f, 0.15180805f, 0.19537504f, -0.20323847f, 0.22187777f, 0.01742339f, 0.00839791f, 0.03061368f, 0.00917290f, 0.11411510f, -0.02411255f, 0.43983364f, -0.26882989f, 0.02129533f, -0.04250671f, -0.25552476f, -0.25672743f, -0.07292923f, -0.00474822f, -0.03275146f},
    {0.18939392f, -0.02464774f, 0.12474262f, 0.01980984f, 0.09788353f, -0.23413522f, -0.29928638f, -0.21890737f, -0.13334524f, -0.08436858f, 0.01104590f, 0.00780799f, -0.20667762f, 0.09829277f, 0.15908466f, -0.17972465f, 0.11140587f, 0.10504584f, -0.04608757f, 0.18316630f, -0.01076105f, -0.00843683f, -0.06189735f, 0.39674050f, -0.31126664f, -0.04139726f, 0.06766940f, -0.14370419f, -0.10929774f, 0.02919646f, -0.03520608f, 0.07497617f},
    {0.27310842f, 0.07599439f, 0.20931809f, -0.04216253f, 0.11396942f, -0.25887979f, -0.29395454f, -0.33331263f, -0.08451248f, -0.08783443f, 0.02927747f, -0.02698855f, -0.17384677f, 0.12179915f, 0.12305832f, 0.02526706f, 0.05016964f, 0.12008732f, 0.05041129f, 0.12208852f, -0.03358333f, -0.17841981f, -0.11427548f, 0.17929337f, -0.39469807f, 0.11152895f, -0.04128922f, -0.11188102f, -0.16050866f, -0.09447684f, -0.02806724f, 0.00019704f},
    {0.21967672f, 0.04178996f, 0.23510069f, -0.01261444f, 0.03298241f, -0.29260606f, -0.22130558f, -0.22080646f, -0.20040272f, -0.07713202f, 0.08192746f, 0.00508791f, -0.09784354f, 0.25406947f, 0.01873774f, 0.00406249f, 0.05066892f, 0.02356476f, -0.02030114f, 0.04039797f, 0.04247390f, -0.01206007f, -0.15341560f, 0.24799233f, -0.42986154f, 0.15276744f, -0.07905635f, -0.06570881f, -0.07503254f, -0.00995538f, 0.03086938f, -0.00803340f},
    {0.28213349f, 0.01196414f, 0.13866328f, -0.05131689f, -0.00195224f, -0.25793138f, -0.12106113f, -0.27334538f, -0.14628853f, -0.02004618f, 0.08590201f, 0.05281830f, -0.04900515f, 0.21790839f, -0.05315576f, 0.01928088f, -0.02256353f, 0.06167521f, 0.08348967f, 0.10550051f, -0.06766409f, -0.07922215f, -0.06403705f, 0.11619523f, -0.31981923f, 0.00319228f, 0.13643046f, -0.02231942f, -0.18467335f, -0.03963687f, -0.05206536f, 0.05862657f},
    {0.19358055f, -0.00254300f, 0.02415555f, -0.00386263f, 0.02587859f, -0.13443019f, -0.14173110f, -0.27046141f, 0.01824071f, -0.02123951f, 0.05182300f, 0.08009136f, 0.10065028f, 0.25619731f, 0.04379944f, 0.01669563f, 0.00837906f, 0.03848820f, 0.00042040f, -0.04806594f, -0.06980375f, -0.09373722f, -0.08854586f, -0.09148352f, -0.13987956f, -0.19874466f, 0.21590633f, -0.01602856f, 0.04032688f, -0.09738720f, -0.06394009f, 0.04014974f},
    {0.12977738f, -0.03738742f, -0.00676478f, -0.04974479f, -0.06628839f, 0.13833899f, -0.16247705f, -0.27134446f, -0.03971045f, -0.15459627f, -0.03599368f, 0.10689089f, -0.06107011f, 0.31670655f, 0.07283209f, 0.06731337f, 0.00301751f, 0.11910181f, 0.08926670f, 0.12512769f, -0.04489231f, -0.24900887f, 0.04434480f, 0.00505693f, -0.20668037f, -0.43587114f, 0.22567833f, -0.02799637f, 0.24991454f, -0.02559003f, 0.02126277f, -0.08514821f},
    {0.05886880f, -0.06247565f, -0.01879917f, -0.01687402f, 0.07201181f, 0.21092367f, -0.07904845f, 0.02527110f, 0.15569711f, 0.00670934f, -0.11245772f, 0.04511589f, -0.04488702f, 0.15053856f, -0.02295529f, 0.17322777f, 0.12899514f, 0.11570661f, 0.08954966f, -0.02149356f, -0.01537131f, -0.11619958f, 0.02651883f, -0.04303672f, -0.30947636f, -0.32218089f, 0.16508093f, -0.06432274f, 0.13170327f, 0.01459027f, 0.05852457f, -0.15623313f},
    {0.07365201f, 0.07458975f, -0.00155629f, -0.10849214f, 0.06184250f, 0.13888960f, -0.06367696f, -0.00690731f, 0.07890620f, -0.20610129f, -0.08246660f, 0.14645339f, 0.04940984f, 0.10415186f, -0.03096008f, 0.13186704f, -0.00102444f, 0.05126081f, -0.01665251f, 0.05512266f, -0.15336876f, -0.03866800f, -0.08427324f, -0.00251339f, -0.22560768f, -0.20031085f, 0.16032004f, 0.07639114f, 0.18379813f, -0.02040896f, 0.07212577f, -0.08849245f},
    {-0.06636425f, 0.01504241f, -0.08721537f, -0.05716452f, 0.04624728f, 0.09969374f, 0.03062857f, 0.04672561f, -0.04616092f, 0.04229759f, 0.03185476f, 0.01371793f, 0.08081123f, 0.05405817f, 0.02900580f, 0.01938329f, -0.02942415f, 0.06275438f, -0.01288709f, -0.02075713f, -0.02610728f, -0.00998649f, -0.00176132f, -0.06178337f, -0.05245284f, -0.05889910f, -0.03814316f, -0.00542105f, 0.06129479f, 0.03207026f, 0.02853997f, 0.01642221f},
    {-0.07836854f, -0.13049362f, 0.01479128f, 0.06778745f, -0.07638141f, -0.04922186f, 0.01554108f, -0.03466604f, 0.08410309f, 0.07978980f, -0.02529711f, 0.04056801f, -0.02018069f, -0.02020740f, -0.13570907f, -0.01125193f, -0.07593230f, 0.05158057f, -0.00235932f, 0.08478339f, -0.01583833f, -0.00126766f, 0.00968343f, -0.01807625f, 0.00033074f, 0.07417053f, -0.04204964f, -0.01985863f, -0.01216323f, 0.06583445f, -0.04778287f, 0.05328560f},
    {0.08201197f, -0.00538615f, -0.04589241f, 0.02378901f, -0.01471271f, 0.02887062f, -0.02134302f, -0.03289661f, 0.02494830f, -0.00451438f, 0.05556279f, 0.05524671f, -0.02974306f, 0.04084276f, 0.01526946f, -0.01067222f, -0.11626465f, -0.05877348f, 0.01708996f, 0.00014325f, 0.03529151f, 0.00142273f, -0.00533757f, -0.07709814f, -0.01230948f, 0.09851107f, 0.07842884f, -0.00461583f, -0.05787195f, -0.11334257f, -0.00511306f, -0.06188873f},
    {0.05893414f, -0.00960721f, 0.07017617f, -0.03255236f, 0.05277981f, 0.01362170f, 0.01894559f, -0.00142075f, -0.01424925f, 0.04780415f, 0.02115182f, 0.02357917f, -0.00744969f, 0.03661376f, -0.00770296f, -0.02816596f, 0.05095042f, 0.03400910f, 0.04901159f, -0.00415525f, 0.07801855f, 0.03652887f, 0.00275981f, -0.03126211f, -0.05153679f, -0.07082695f, 0.01573014f, -0.01382035f, 0.03566681f, -0.01451449f, -0.05246045f, -0.05932027f},
    {0.04174804f, -0.02711100f, -0.06888490f, -0.04559768f, 0.05959451f, -0.01196657f, 0.07836426f, -0.06231748f, 0.01936862f, -0.03771586f, 0.02205002f, -0.06939342f, -0.00333685f, 0.03658397f, 0.07885712f, -0.01083310f, 0.00029705f, 0.05147288f, 0.05572874f, 0.17566750f, -0.04823010f, -0.01189332f, 0.04548364f, -0.06730736f, -0.01933630f, 0.11907937f, 0.02875087f, -0.02764184f, -0.09571922f, -0.07772775f, 0.02195102f, -0.00366803f},
