#ifndef MNIST_WEIGHTS_Q15_H
#define MNIST_WEIGHTS_Q15_H

#include <stdint.h>

#define INPUT_SIZE 784
#define HIDDEN_SIZE 32
#define OUTPUT_SIZE 10

// Q15 fixed-point format: 1 sign bit + 15 fractional bits
// Range: -1.0 to 0.99997, precision: 1/32768

const int16_t W1_q15[784][32] = {
    {-393, 2510, -2441, -2350, -235, -976, 2142, 2583, 2389, 98, 2744, 2021, 233, -2971, 2129, 876, -738, 1955, -1210, 462, -573, -1992, 1110, 399, -291, -1262, 985, 1765, -216, -580, 285, 4250},
    {-972, 855, -436, -1671, -1552, 871, 767, 1034, -1897, 1583, -331, -81, 2338, 3089, 1466, -593, 2482, -1491, -1522, 2443, -1662, 680, -1996, -2065, 18, 3230, 2840, 1828, -1116, -694, -322, 1810},
    {-26, 5095, 393, 1434, -451, 793, 2761, -1461, -2178, 669, 1542, -1242, -421, 3535, 2319, 1207, 2555, 3196, 1995, 2209, 1724, 2210, 1249, -86, 128, 1001, -2386, -2327, 2182, 982, 1202, 1488},
    {-1324, -138, 12, -317, -1459, -244, 2154, 3826, -2011, 1237, 967, 58, 701, 2274, -1052, 53, -1549, -1900, 45, -2244, -812, 1081, 1209, -1256, 1296, 88, 998, -1744, 2968, -778, 1107, 1782},
    {1695, -1047, 1843, -181, -330, -876, -1516, 1608, 636, -1738, 1855, -113, 86, 41, -554, 99, -1156, -764, -2435, -340, -1542, 1960, -500, 393, -606, -654, 3364, -442, -1311, 974, -2223, -1928},
    {871, 443, 1205, -89, 1854, 1404, -1641, -1236, 479, -1930, -101, 568, 2577, 1368, -1710, -420, -2754, -615, -166, 1037, -280, -662, 18, 34, -142, -2119, -2177, 512, -3358, -2346, -1131, -891},
    {2424, -2338, -255, 77, 2387, -510, -1403, -3936, 2685, 2383, -1945, 2670, -730, -958, 698, -83, 505, 262, -564, -2358, 493, -1269, -152, 1226, 756, 16, -1316, -122, -1809, -1503, -1558, 746},
    {-1243, 1836, 1414, 357, 577, 81, -1404, 234, 1003, -2224, 1395, 406, -3314, -984, 992, 2091, -269, 522, -1603, -1902, -4069, 2207, -1215, -461, -286, 2068, 1460, -3925, -1201, 205, 559, -112},
    {-2507, 1177, 203, 932, -776, -1043, -1961, 858, 244, 2029, -3056, -777, 2227, -2299, 2948, -2266, -2710, 2873, -262, 4212, 2450, 1242, 1711, -1909, -215, 1551, -3093, 1238, 2956, 4780, -574, -116},
    {1455, 1407, 888, -2276, 197, 1582, -2488, 370, 3231, -1510, 2686, 404, 177, -1975, 227, -971, 2078, 1843, -1175, -859, -427, -80, -1768, -809, 20, 85, -1275, 146, 721, 1385, -415, 1247},
    {2729, 3084, 477, -1721, -651, -857, 1631, -770, 909, 2414, 716, -1661, 91, -1730, -910, 1376, -1020, 1051, 902, -611, 3369, -3333, 2745, -22, -4562, -3303, 1718, 731, -740, 2867, 1227, -496},
    {-17, 75, 1724, 2244, -607, -394, 728, 793, -580, -168, -2903, -319, -606, -966, 1202, -103, 3896, -1326, 2106, -857, 2183, 1574, -357, 2068, -981, -2312, -508, 914, 867, -2846, -836, 417},
    {-649, -466, -1030, 200, -2273, -1640, -3747, -1226, -614, -447, -259, -1095, 2405, -36, 1747, 2265, -566, 224, 305, 3713, -1554, -630, 277, 442, 927, 1113, 111, -262, 2642, -1129, -805, 947},
    {1443, 1857, -899, 2782, -429, 1504, 1643, -2506, 1284, 1359, 2981, -1040, 2877, -431, -592, -4316, 585, -1134, -1350, -95, 1134, 111, 618, -3641, 410, -669, -2922, -333, -758, 1046, 408, 581},
    {-3447, 3292, 52, 1261, -1126, 3060, -2426, -1220, -2914, -2275, 779, -979, -2136, -484, -1234, -862, -1431, 1262, 1396, -354, 1308, 3216, -769, -273, -1658, 1224, -1160, -1063, -727, -225, 717, -1477},
    {468, 580, -990, -2077, 59, 2403, 3412, 1626, -2647, -404, -996, -732, 204, -2402, -1118, -14, -76, 2467, -1690, 272, 1098, 2549, 880, -1515, -474, -3834, -1201, -2090, -782, -2616, 405, -4198},
    {1150, -1474, 1763, -992, 99, -846, -610, 1288, 1765, 2287, -2168, 1355, 2943, 528, -1911, 1596, 1180, -119, -3352, 875, 1489, -605, -206, 1210, 1803, 2079, 1818, -3952, 2164, 1189, -907, -3228},
    {-424, 1850, 2586, -318, -1022, 59, 446, 74, -39, 1706, -1367, 608, -497, 3428, -1198, -1309, -330, -357, -3423, -1987, 692, 212, -3488, 1057, 2523, -466, 1800, -1592, -2886, -2255, 428, 2337},
    {-820, 2217, -1801, -1041, 2388, 3308, 3631, 736, -75, 2791, -1176, 422, -751, 354, 401, -385, -314, 881, 710, 609, -1935, -958, 1869, 1987, -1306, -58, -656, 1389, 1268, 586, 452, 2848},
    {729, 1560, 1670, 659, 2358, 1452, 1129, 596, 334, -756, 1902, -1673, 51, 1935, -611, -3221, -620, -2066, -221, -803, 2348, -1359, 451, -311, 320, -1162, -1516, 521, 2698, 2154, -2504, 1003},
    {-2091, 696, 2283, -1641, -1228, 493, -1031, -30, -111, 2131, -2342, -1695, 1584, 1786, -2520, 995, -1098, 556, 464, -1551, 914, -674, -609, -1892, -266, 1563, -2463, 4189, 897, 520, -4121, 1629},
    {-1857, 2182, -231, -567, -3115, -1955, -256, 1186, 973, 1045, 2320, 1332, -1072, -959, -3285, -417, 1917, 1093, 720, -478, 2678, -1452, -409, 379, -1936, -1120, 2600, -303, -2155, 2370, -1287, -1849},
    {555, -3481, 2140, 1254, 8, -4371, 536, 1579, -133, 675, 909, -956, -651, 266, 130, -556, 2128, -1880, 220, 3065, -2113, 1049, -1330, 1761, -606, -2141, -937, 1753, 1013, -26, 1098, 2720},
    {-1457, 2785, -3356, 3371, 357, 888, -2084, 885, -1750, 2930, 692, 1509, -57, -3024, -1259, 239, 354, 1051, 1297, 804, -397, -2140, 431, 835, 1773, 3010, 4038, -3108, 847, -759, -1365, 170},
    {-1349, 2151, 965, 746, 1139, -1775, -2597, 2425, -26, 1162, 1601, 186, -2805, 1687, -1407, 829, 141, -2752, -836, 561, -1256, 621, -4088, -378, 1772, 229, 1687, -653, 58, -3617, 704, -663},
    {2454, -2547, -811, 1503, -1066, -443, 944, -1721, -1002, 170, -2169, 1093, -829, 578, -1849, -797, 2141, -490, -47, 2327, -521, -399, 574, 497, -1259, -592, -2107, 1330, 1762, -2253, 646, 1182},
    {-1972, -784, 1798, -63, -243, -2396, -1613, -910, 1782, 774, 485, 2838, -333, -1681, -11, 437, -709, -2264, -283, -1913, 1549, -1919, 198, 1344, -2416, 2683, 2993, 816, -3565, -221, -1003, -1311},
    {1448, 1550, 853, 321, 1855, 1010, 1598, 2831, -2137, 628, 534, 654, -575, 580, -1292, 3263, 3606, 217, -800, -1817, 680, -2144, 2293, -1039, 1771, -1773, 594, -765, -1232, -693, -2419, -2363},
    {1990, -2074, 2808, 194, -531, -216, -90, 2333, -1421, -1223, -552, 1142, -168, 661, 980, -2795, 1365, -2220, 932, -1729, -532, -252, -1657, -685, 1374, -750, -207, 3727, 1438, 1275, 1406, -709},
    {343, -4454, -777, -2230, 344, 2995, 1948, -457, -470, 788, 2017, -2059, -345, -67, 1863, -2404, 2101, -3356, 1694, 2096, -1651, -258, 2654, -1175, -1735, -547, -1250, -1435, -4, 1398, -1596, -902},
    {1195, 2319, 1017, 2068, -3468, -2421, 584, 5180, 560, 2403, 4042, 1042, -1400, 254, 3492, -1776, -1048, -1363, 545, 352, 2829, -1436, 2109, -725, 890, 190, 712, 3230, -236, -1691, -612, 1275},
    {225, 2421, -937, -583, 2030, 821, 222, -1141, 1557, -1153, -1219, 322, -338, -1460, -1735, 610, -22, 2243, -1953, 732, 2968, 2106, 405, -2160, 1161, -304, 1443, -1522, 2265, 717, 2050, -1665},
    {-2314, 275, -2483, -208, 394, 2955, -2859, -350, -1737, -748, -3087, -902, -2797, 1985, -330, 1902, -1050, -1186, -325, 3073, 2575, -652, -3129, -1642, 1204, 2529, -1470, 755, -1111, -692, -104, 113},
    {443, -1531, -2402, -1316, 361, -1004, 1596, -539, -896, 2927, -935, 3713, -1367, -4107, 776, 1455, -1177, -24, -414, 352, 1779, 1190, -637, 3, 509, 1091, -1019, -1294, -2548, -1360, 2128, 904},
    {564, 1586, 657, 191, -3859, 803, -1321, -2877, -2013, -3391, 3435, 2105, -1018, 818, -2949, 1160, -1493, -1302, -1091, 3140, -335, -2244, 379, 1987, 886, -2099, -1662, 228, -2552, -916, 1950, 3326},
    {-1147, 2196, 1340, 312, -840, -286, -1572, 554, -75, -4274, 3971, 1575, 1766, 1482, 659, 816, -233, -1308, 794, 2395, -620, 509, 1019, -2180, -2572, -1792, 286, 1125, 529, -677, -2265, 372},
    {-1893, 1246, 558, 1987, -1158, -1379, 1288, 2285, -1349, 4403, -1070, 2382, 2026, -1271, -995, 14, -4338, -1357, -258, -3965, 1552, -484, -4791, 2531, 2, 442, -2270, 2963, 1336, -2364, -1695, 275},
    {-404, 973, -662, -724, -2223, 928, 970, -1045, -2077, 2471, -265, -1453, 1639, 1297, 491, 580, -2796, 929, -3509, 176, -1454, -967, -771, 1311, -1648, 737, 1631, 2884, -1494, 67, -99, 3501},
    {2431, 44, -797, 1488, -563, -637, -414, -54, 1935, 525, -2971, -1769, 140, -138, -261, -313, -2732, -2252, 464, 1272, 1429, -1730, -94, 154, 1171, -3010, 1072, 2008, -1423, -815, 96, 940},
    {519, -295, 2464, -522, 2159, 454, 1746, -1465, 1177, -1316, 791, -1056, 582, 648, -932, 636, -704, 3128, 631, 685, 871, -688, 2074, 404, -671, 2554, 1829, -1216, -4340, -1844, -995, 2318},
    {2119, -3960, -1204, 1149, 893, 2607, -1377, 281, 2823, 1435, -2997, -3278, -51, -944, 1601, 1425, -1878, -193, 415, 1205, 590, 1, -2088, -420, 2696, -221, -1272, 1990, 919, 1246, -2282, 1635},
    {-1349, -494, -1022, 1032, -1438, -1365, 1591, 2492, 1999, -887, 297, -75, -345, -1411, -79, 1528, 37, -435, 2929, -1666, 1045, 1745, 1595, 4235, 178, -97, -2413, -709, -2542, -602, 1514, 587},
    {-613, 1954, 442, 2685, -448, -789, 841, -177, 996, -1035, 1144, -372, -63, 2801, -2639, 707, 247, -1378, -2154, 3169, -413, 66, 71, -2031, 1571, 79, 122, -760, 447, -1007, -978, -2175},
    {-2817, 20, 65, -581, 923, -1929, -749, 994, -2082, -609, -203, -454, 1875, 1467, 799, 1083, -387, 141, 2124, 654, -1492, -2199, -1142, -2903, -2775, -2960, 702, 2041, -284, 1347, -3600, 1725},
    {-1104, -327, -709, -375, 2755, -1394, 2141, -273, 3651, -497, -1646, 1025, 615, 2632, 3799, -1324, -3844, -2003, 1967, -25, -730, -2612, 686, 1110, -279, 312, -1215, -1728, 1083, 2405, -2381, 530},
    {2608, 761, -1952, 407, 601, -1117, 402, -2512, -796, -4233, 834, -1425, -325, -1001, 35, -2365, -1662, 117, -2045, -4118, 2117, -542, 3, -1189, 501, 36, 462, 274, 242, -341, 147, -2326},
    {-1742, 43, 468, 744, -1972, 1029, 277, 660, -2096, -51, 1773, -661, 1229, -1719, 635, 1221, -765, -558, -1871, -924, 2379, 3098, 1917, -1886, -1152, -1473, 2487, 3987, -192, 1513, -806, -1077},
    {-596, 1095, -4841, 181, 5, -2207, -2730, -215, 1176, -1149, -60, 2646, 1086, -670, -255, -776, -3651, 937, -500, 532, -104, -2353, -1759, -2326, -749, 707, -1764, -19, -1363, -875, -1004, 284},
    {-1002, -1614, -2460, 849, 466, -207, 805, -1171, 912, 2293, -1185, -597, -2783, 684, -1822, -2006, -2081, 1618, -3205, -1619, -283, 1448, 2019, 234, -1688, 2521, 2382, -2947, -237, 289, 2091, -790},
    {1042, -1237, -2320, -543, -2199, -465, -1783, 1567, 1783, -656, -3357, -2022, -1813, -1838, 90, -1399, -1887, -954, -251, -38, 2191, 416, -1855, 1250, 31, -1076, 418, 64, 3190, 422, -1227, 870},
    {-1122, -1633, -492, -1498, -576, 3, -959, 244, -3881, 936, -1327, -711, 1708, -3241, -311, 864, 155, -587, 1618, -4711, -2411, -267, -628, 1676, 2675, 1557, 445, 198, 1651, -3496, -3500, 2129},
    {650, -2066, 1181, -306, 1486, 139, 2357, 815, 2299, -1067, -1163, -498, 562, -1373, -1144, 1126, 296, 2096, -266, -1589, -374, -346, -146, -3430, -1915, -1099, 663, -789, -1912, -494, 1441, -1343},
    {1173, 1657, 316, -1195, 973, -1913, -2457, -3051, 850, 532, 1765, 376, 897, -4568, 366, -3035, -944, -1845, 195, -1665, -453, 1564, 869, -1513, -784, -2531, 348, -196, 2013, -1106, -1189, 2007},
    {-515, -1978, 601, -249, 383, -1855, 2487, -1856, 555, -605, -1289, -208, -1258, -558, 970, 1065, 1691, -945, 1063, 1735, -1175, 850, 2607, -201, 387, 612, -1123, -253, 1400, 1052, -380, 1135},
    {-2072, 952, 1029, -2799, -1788, 146, 1026, -20, 1441, 617, -282, 1683, -1505, -1240, 228, -895, 443, 2506, -79, 1635, -782, 3091, 469, 1350, -1711, -1540, -127, -1051, -2482, 1102, -893, -882},
    {-1165, 1172, 1511, -1153, 307, 1076, 203, -2311, -2676, -1209, -349, -2287, -367, -148, -2216, 1471, -2283, -1697, 1126, -1265, 181, 1679, 1528, -3502, 2434, 534, -95, 458, 1500, 763, -1575, 1838},
    {-1612, -255, -1403, 1038, -1064, -127, 426, -4301, 346, 1140, -353, -2101, -1753, 103, 290, 816, -1411, 409, -2058, -1851, 282, -1088, -158, -836, -1699, -2469, 2604, 2300, 1297, 1060, 402, -3891},
    {450, 2312, -1435, -31, 90, -1701, -740, 551, -1366, 1096, 550, 80, 1513, -589, -247, -438, -5212, -1431, 919, 727, -2192, -3064, 1732, 323, -1942, 464, 59, 3264, -1177, -729, -349, 1410},
    {1793, 230, -1947, 2918, -1569, -1291, 2580, 166, -56, 3534, 1438, -2213, 1669, -1096, 422, -4850, 1608, 1217, 1622, 64, 420, 1084, -264, -450, 397, -129, 2632, 2407, -238, -2784, 483, 4122},
    {-741, 511, 910, -411, 707, -804, 1769, -675, 1285, 3735, 3256, -1529, 698, -2645, -1776, -852, 1217, -1865, 893, 108, 2581, -882, 652, -387, -195, 2086, 2050, 592, -1911, -944, 791, 880},
    {-1030, -960, -2466, 681, 3863, -688, -3843, 1944, -2211, 887, -2943, 1417, 2787, -2420, -1700, -2528, -2080, 1896, -2288, -2649, 1839, -1037, -300, 2367, 1223, -1359, -587, -664, -96, -2002, 2906, 692},
    {2339, -1467, -1147, -414, -211, 2098, 9, -1361, 359, -1001, -3224, 1221, -689, 1260, -2686, 560, -1531, 304, 1477, 296, 881, 1985, -1624, 53, -59, 3178, -1385, 664, -1877, 493, -1548, 454},
    {-1978, 849, -1199, 4773, 1117, -1342, -2832, 2274, 1445, 669, 1591, -570, 335, -203, -584, -1563, -1041, -647, 566, 426, -5109, -405, -1939, -1341, -3788, 1562, 1204, -1064, 686, 103, 25, 1173},
    {-1199, 235, -1761, 1252, 636, 904, 1400, 592, 1023, -1558, -719, 1025, -1985, -992, -289, -3344, 164, -1251, 298, 1206, 901, 2964, 1033, 485, 806, -708, 1918, -886, 218, -278, 1341, 675},
    {-1345, 18, 1246, 1975, 3290, -1681, 2300, 517, 2433, 729, -697, -3485, 4593, -2991, -738, -267, 233, 1495, -2249, 503, 3198, 3023, -926, -319, 1892, -2657, -1586, 927, 211, 1416, -2005, -802},
    {714, -1306, 163, 902, 3448, 1135, 147, 912, 563, -2327, 918, -1930, -170, 1356, 1941, -1236, 582, 1812, 546, -549, -2047, -1118, -3221, -558, 1082, -1049, 920, 1025, -2046, 3195, 2169, 1434},
    {-1935, -23, 72, -3415, 2116, 4273, 3055, 2796, 3510, -1928, 3087, -316, 929, -2992, -589, -792, -2522, -507, -216, -3400, 1490, -2252, 1464, 2303, 1453, 1054, 639, 2402, -3231, -586, 1280, 4815},
    {1249, 317, 520, 1731, 2754, 1601, 1910, 1176, 4219, -805, 1216, -1535, 1277, -2786, -989, 1790, -1643, 987, -1081, -4555, 2261, 295, -1976, -3265, 832, -719, 2200, -2114, -1708, 3609, -2024, 372},
    {144, -392, -2708, 4197, 1470, 1929, 1594, 3134, 4401, 328, 1645, -853, 892, -2476, -1828, 932, -2257, -2749, 1402, -91, 6094, 2085, -89, 598, 965, 338, 3017, 1301, -4250, 3406, -1525, 2168},
    {-3259, 256, 2945, 189, 1836, -764, 4377, 2900, 3807, -1105, 944, -2422, 3516, -2861, 1098, 940, -1492, -1407, -1646, -3245, 2925, -2287, -651, -989, 629, 3056, 2579, -1191, -5499, 2653, -722, 418},
    {785, -2613, 415, 965, -119, -1090, 886, 2300, 1273, 2307, 649, -2874, 556, -3698, -1704, 919, -3522, -1714, -1185, -2488, 1858, -2867, 1317, -3586, 58, -87, 2359, 1301, -2447, -908, -574, -2015},
    {-2492, 1708, -1930, 2061, 1584, -3151, 1979, 3334, 1289, 2234, 4087, -3237, -95, -1048, 1521, 1122, -3711, -1579, -10, -4063, -1101, -1864, 3704, -3902, -1114, 238, 2666, 1106, -1892, 1197, -259, 2811},
    {-967, 1311, -1630, 311, 3580, -791, 907, 4181, 2151, -3132, 3050, -947, 2393, 676, 1890, -2388, -200, -1735, -2452, -210, 2877, -1805, -750, -921, -1961, 616, 774, -2066, -3903, 2109, -4268, -357},
    {-3063, -1714, -2697, -3505, 1723, 3104, 1323, 3850, 3382, -1563, 1056, -577, 2255, -2752, 1492, -300, -1704, 576, -438, -793, -1626, -957, 1428, -5148, -3836, -768, 2249, -664, -3919, 42, 783, 1768},
    {-1216, 1013, 538, -467, 1375, -233, 2723, 1825, 1741, 207, 710, 2390, -81, -182, -1262, -1627, -1228, 481, 1285, -2824, 959, -2074, 1571, -3327, -3277, -872, -1041, -2153, -1081, 1550, 651, 380},
    {-1267, -2516, 3497, 2890, 2426, 132, -1119, 601, 2965, -736, 2538, -2864, -538, 407, -2340, -380, 1386, -192, -1043, -3289, 2661, 273, 1333, -4438, -2998, -3019, -482, -767, -114, 3529, -1105, -314},
    {-866, -987, -2328, -3116, -165, 1227, 438, 196, -283, -120, 3273, -2105, 1281, -870, 752, 356, 1844, 682, -1479, -270, -2527, 730, -1919, -1796, -943, -1071, 2363, 154, -2505, -363, -2390, -1023},
    {1164, -1375, -418, 1579, 2847, 1376, 1208, 384, 3935, -52, 705, 75, -1704, -4537, -2368, -401, -1125, 885, -2332, -23, 784, -1556, 60, 3826, -2475, -635, 1516, 3442, 1530, -1364, 1567, 2491},
    {1134, -493, -1068, 953, 254, 653, -2870, -547, 542, -888, -2769, 777, 1502, -333, 1538, 382, -1055, 2579, 121, -3747, -350, -1392, -171, -1120, 1216, -2141, 2800, -947, -939, -138, 69, 211},
    {1370, -2061, 1834, -1176, -972, -1086, -2559, 1314, -53, -1982, -127, -460, 2047, 1609, -950, -1153, -1113, 1231, -289, -549, 1006, -831, -2351, 389, -111, 128, 1529, 3646, 1529, -2711, 1051, 634},
    {-572, 1897, 542, -2365, 2660, -1689, -657, -1451, 1440, -3529, 2174, 1686, 719, 54, -1552, -2129, -51, -1872, 549, -340, 892, -134, -719, -957, -5879, 1382, 795, 1376, -3599, 1897, 39, -2014},
    {546, -1736, 2959, 960, 1794, 1298, 424, -2689, 950, -59, -494, -1308, -783, -607, -371, 234, 3456, -1385, -848, -787, -3039, 509, -584, 2721, -1710, 1792, 87, 431, -313, 3050, -2314, -824},
    {104, -981, -981, -1158, 1732, -245, -4743, -1643, -2092, -83, -555, 123, 2161, 979, 1245, -1037, 2, 2381, -3876, -3549, 3664, -667, 1579, -160, -2524, 1442, 2460, -1970, -524, -1740, 780, -2675},
    {958, -566, 1293, 903, -2438, 1442, 1557, -666, 7194, 1121, -34, -282, -4555, 1208, 2477, -346, 1471, -79, -1320, 945, 1844, -240, 1145, -787, -528, 376, 693, 1308, -402, 1795, 82, -1473},
    {-2574, -2004, 2619, -1625, -2322, -3995, -2531, -2065, -2619, -912, -1865, 34, 1702, -1732, 2280, 1787, -2703, -5078, 768, 1125, 2092, 1460, -635, -904, 507, 2289, -446, 1430, -1841, 2535, 397, 919},
    {3225, 1272, 1064, -726, -1775, 489, -2874, 726, -453, -1912, -632, 1213, -1384, -562, -605, 3577, 468, -321, -3950, -626, -418, 257, -2183, 518, -1603, 1370, -2244, -844, -347, 18, -1784, -2172},
    {-748, 894, 2778, -4048, -431, -39, 709, -2148, -121, 1510, -909, -260, 2102, -2215, -1047, -2455, 1186, 1213, -1705, 1346, -1692, -1771, -3838, -864, 481, -714, -1650, 1100, 1270, 182, 30, -4},
    {76, 854, 1193, 4006, 796, 0, -17, -1206, 272, 2040, 1957, 1667, -1352, 1525, 262, 570, 646, 1501, -1863, -554, -42, 917, -959, -3106, 1244, 1841, 1271, 1264, 582, -1228, -737, 732},
    {727, -709, 1395, -977, 1102, 3511, -579, 3235, -913, -1536, 1684, 1125, -966, -1687, 1202, 2087, 3774, -2913, 213, -840, 261, -1664, 1589, -1100, -632, -2191, 2161, 1810, 1394, -1100, -656, 717},
    {453, -933, 1966, 1508, 765, 31, -896, -532, 1743, 1012, -449, -719, 12, 99, 104, 331, 165, 1136, -1326, -1597, 80, -5850, -1192, 3556, 3806, -1212, 1706, 1715, -1966, -1022, -2434, 2155},
    {1816, 2060, 2398, 1857, -794, 2498, -248, -1606, 1236, 1654, -2568, 829, 599, 1064, 366, 757, 602, -1536, -95, 835, -2222, -430, -3219, -1547, 2200, -1636, 1877, 1511, 1165, -3339, -2241, 2948},
    {1445, -550, 1595, 831, 2984, -657, 4875, 1597, 975, -260, 961, 860, 95, -27, -1115, -561, -298, 936, 1068, -2483, 739, 1006, -151, 1401, -1247, 1462, -75, -1744, -3156, -1750, -3975, 458},
    {-668, 928, -2060, 1484, 4966, 1627, -1286, 2991, 2303, 3651, 651, 2297, -2443, -5241, 3123, -2102, -288, -718, -1333, -1279, 801, 1402, -4468, 1412, 1820, -1273, 3073, -1094, 964, -455, -4388, 1964},
    {1967, -1041, -545, -1570, 2502, 661, 1363, 5010, 3738, 1719, 212, 1612, 3030, -5298, 891, -1153, -2668, 290, 63, -4416, 3263, 1165, -4663, -855, 3008, 1813, 2160, 2380, -2447, 239, -3251, 3746},
    {5944, 83, 1201, 1039, 1263, -953, 1122, 1983, 2264, 801, -1441, 2446, 272, -4612, -532, 4403, -2182, -2100, 833, -1080, -3334, 196, -1507, -89, 2594, -752, 3743, 2212, -5813, 229, -2535, 3768},
    {-132, 743, 38, 978, 4873, 178, 332, 7044, 4725, -2642, -5261, 1476, 420, -2871, -3306, 844, -651, -2122, -3508, -5460, -1734, -579, -2357, 1984, 2551, 2945, 1588, -1084, -4006, 648, -1528, 7022},
    {787, 1004, 2049, 2826, 5497, -2876, 2865, 4251, 5565, -664, -1592, 6733, -1154, -4541, -4263, 6456, -1230, -2513, -2011, -7478, 1166, 1608, -719, 601, 5215, 5111, 4094, 363, -4472, 594, -5427, 3636},
    {3363, 667, 890, -1954, 4507, -2626, 3941, 3813, 10471, -324, -1406, 2717, 465, -6841, -1834, 111, -3248, -2696, -1468, -8574, 1904, 693, -4865, -162, 2198, 5202, 4013, -1066, -9659, 3553, -176, 7429},
    {-2333, -2981, 470, -3070, 4054, -4059, -2485, 3946, 7910, 1971, -2421, 1959, 3327, -8159, -2519, 1464, -2719, -7195, -1708, -6043, 981, -971, -4426, -2709, 3676, 6771, 6100, -4712, -7162, 450, -1078, 4483},
    {-111, 1645, 3132, -2170, 4014, -1427, 4640, 3200, 5364, 2642, -914, 5006, -2702, -9483, 529, 3343, -3481, -4510, -5847, -4709, 2852, -2331, -4054, -2374, -1617, 7983, 3403, -1755, -5292, -569, -3225, -3345},
    {-5620, -1025, 4246, -352, 3142, -5410, -680, 3795, 2612, 1927, -1016, -398, -1618, -11962, 793, 1162, -3458, -3436, -1608, -2155, 1553, -2656, -3737, -980, -507, 6164, 2275, -213, -5792, 2300, -4429, 1226},
    {-4402, -967, 1473, -3534, 4252, -2475, 3613, 1929, 3577, -1317, -2541, 824, -2427, -8031, 748, 3750, -2529, -853, -989, -997, 768, -1437, -196, -1215, -2994, 1642, 3382, -3136, -4971, 987, 1315, 3085},
    {-5450, 923, 1373, -2445, 5183, 1503, 4221, 332, 521, 184, -2796, 423, -1090, -1600, -1247, 3339, -1572, -6110, -2389, -5310, 775, 44, 1571, -1184, -6638, -1288, 1100, -4960, -4925, 5268, 977, 3029},
    {-8660, -5890, -1071, -1756, 2709, 4240, 5872, 3157, 2629, -411, -1781, -1746, -2082, -6338, -3608, 6332, -3009, -132, -1768, -6846, -2654, 893, 660, -3779, -7088, -2720, 2027, -5478, 1274, 968, 2366, 231},
    {-6301, -2822, -3087, 53, 3167, 3810, 723, 4156, 5168, -1484, -202, 149, -1625, -4838, -3471, 5148, 1138, -103, -5079, -2637, -153, -3298, 2257, -3002, -5048, -1440, 382, 10, 247, 2023, -822, 251},
    {-4952, -2829, -1018, 895, 2625, 5863, 277, 3653, 2206, 305, -2622, -3723, -609, -1734, -812, 1035, -3333, -54, -107, -3105, -2192, -1222, 2499, -3736, -5220, -4883, 1243, -1422, 779, 1416, 2518, 3067},
    {-2339, -606, 1218, -425, 1737, 4070, 355, 4202, -446, -1555, -2624, -2419, 888, -3892, -2799, 1625, -1442, 2551, -2237, 577, 477, -2034, 24, 274, -1403, -3370, 2532, -4435, -119, -1343, 4, 940},
    {-1015, -613, 1572, -285, 1093, 2287, 161, 545, 804, 2702, -2290, 2772, 887, -5673, -3076, -266, 1433, 1014, -1589, -1392, 2929, 136, -1137, -1171, -4085, -510, 70, -1405, -491, -1699, 1740, -468},
    {-1657, -1327, -293, 2234, -63, 1800, -1026, -899, -2000, -181, -4125, -1548, 1597, -1400, -2110, 2090, 1007, 63, -2871, -215, 1112, 561, -4012, 518, 766, -580, -499, -1118, 1252, -2349, 222, -121},
    {-1117, -1614, -64, 2724, 116, 590, 3086, -1145, -1523, 337, -851, 1247, -2489, -690, -155, 1891, -3469, 651, 3924, -276, -479, 581, 2263, -1748, -8, -103, -2321, -1228, -440, 6, -2408, 1130},
    {-3099, -2930, 699, 178, -566, 2450, 2184, 753, -1736, -1970, -4065, 1729, 600, 2677, -3039, -2430, 714, 613, 740, -640, 36, -2474, -862, 1022, 91, -499, -367, 2139, -1737, 155, -214, -3056},
    {2904, 563, 1901, 213, 854, 941, 1171, -132, 1752, -1258, 2098, -89, 689, -48, -2474, 1714, 549, -616, 2476, 876, 1158, -1079, -1266, 1715, 1870, 8, -1229, 1325, 1568, 1686, 58, -881},
    {889, -1355, 2186, 1550, 362, 736, 1351, -422, -2769, 931, 2474, 680, 213, -402, 122, -999, 2593, 850, 2626, -758, -2782, -190, 2194, 2542, -1020, -1187, -1720, 395, 2287, 290, 1164, 2505},
    {1721, -1697, 749, -3213, -2231, -2452, -2439, -77, 1775, -558, 1424, -755, -1325, 1240, -899, 965, -389, 2609, -3083, -3888, 88, 907, -1468, -984, 151, -2651, -2161, 754, -3742, 213, -1638, -98},
    {3194, -2044, 897, -467, 1567, -2982, -607, -45, 2527, -2128, 1040, 2088, -143, -1251, -1037, 2089, -1362, 1290, -1925, -882, -2138, -1409, 106, 3291, -29, 475, 528, -1100, -2173, 1050, -1321, -1062},
    {1473, 545, -1465, -2357, 648, -170, -49, -441, 331, -672, 60, -812, -2018, -2636, 1621, 253, 1180, 727, 784, 344, -2224, -362, -1560, 1293, 1899, 2466, -83, -78, 1854, -331, -797, -586},
    {1429, -400, -3844, 107, -999, 4276, -1689, -738, 1171, 1096, -177, -522, 199, -179, -342, 1902, 380, 977, -837, 560, 753, 1300, -1055, -2381, 1552, -1376, 2602, 2796, 1240, 1536, 1263, -1225},
    {-2191, 667, -1451, 682, 316, 1423, 998, 3178, 1224, 4023, 759, 736, -1340, -1924, -1175, 1862, 693, -4426, 2155, -2558, -405, 1615, 307, -930, 3088, 1520, -2238, -1364, 591, -997, 371, 2675},
    {-3606, -252, -423, -567, -1284, 213, 794, 1224, 3467, 2277, 37, 359, 1153, -3362, 1342, 114, 1945, -284, 1203, -262, 1066, 1427, 2167, -2251, 3958, 1881, -806, 2138, -1468, 853, -3857, -1756},
    {-378, 2103, 2738, 1160, 363, 386, 49, 2133, 2453, 2277, 2421, 2670, 2118, -6493, -1154, 1270, 599, -3672, -2127, -2565, -519, 190, -2188, -2079, 4648, 1880, 296, -647, -943, 2175, -4172, 1159},
    {-1910, 2964, 1570, 4462, 2643, 1355, 3526, 1831, 3619, 898, -342, 4929, -2787, -4183, -1959, -321, -3633, -6946, -707, -3649, -2295, 1182, -2143, 250, 9292, 6836, -2367, -3356, -3701, -2125, -4524, 2379},
    {-840, 1513, 55, 3264, 1475, 162, -3267, 2674, 2454, 1312, -808, 7599, 1114, -8296, -6021, -49, -524, -5121, 710, -2241, -1543, 93, -6134, 202, 8811, 7125, -334, -2089, -5657, 1004, -3511, 6026},
    {2075, 3342, 2267, 3082, 3602, 498, -157, 2275, 5234, -564, 2414, 8077, 621, -7995, -8915, 3997, 2270, -6195, -1236, -1456, 3619, 1041, -5738, 1049, 6449, 5620, 434, 2443, -4188, 4334, -4412, 2807},
    {2682, 638, 1449, -1584, 2548, -2017, -2130, 2528, 7807, 508, -2052, 8521, 1260, -6475, -6542, 6109, 4047, -7461, -4004, -2627, -777, -2108, -5180, 653, 5901, 5220, 1462, 1651, -7713, 731, -3579, 2603},
    {2225, 4783, 649, -1837, 4626, -1020, -1237, 77, 6481, 1580, -2001, 10153, -1253, -8589, -7089, 3433, 4422, -6153, -4289, 3078, -171, -1073, -7326, 365, 5974, 4979, -433, 869, -5082, 2932, -3178, -324},
    {-644, 6146, 5068, -110, 3804, -5548, -3297, 362, 9540, -1289, 604, 7876, -2990, -5452, -6762, -1852, 2178, -6320, -7062, 1180, 2419, -4248, -4918, -5319, 3904, 8952, -1523, 3852, -6907, -1394, -5962, 1014},
    {2240, 10031, 3087, -2198, 8417, -6358, -3630, 2910, 11163, -1271, -372, 5514, -1406, -10030, -1808, -122, 621, -5793, -6034, 3727, 4011, -8918, -3238, -5938, 3572, 6234, 803, 1829, -7275, 2225, -4125, -1615},
    {-1499, 4952, 2131, -5809, 7563, -4563, -8375, 1731, 7738, -5460, -2385, 7300, -2023, -9585, -146, 1443, 114, -3241, -6005, 150, 2222, -6455, -3864, -2648, 768, 2961, 2512, 2212, -5020, 1174, 788, -5483},
    {-2932, 3903, 2771, -5269, 5495, -9033, -4993, -3653, 7665, -3042, -6156, 2728, 1865, -7674, -1613, 783, 611, 927, -8485, 1620, -343, -6605, 501, -10687, -3355, 3456, 228, -669, -4029, 3176, -2152, -1651},
    {-6738, 1150, -3747, -2462, 6897, -7920, -2653, -4525, 1639, -2909, -7907, 2655, 434, -10475, -3223, 4236, -2899, 3785, -5004, -815, -1472, -6136, -1805, -8914, -5889, 773, 2509, -3217, -5440, 3311, 1295, -937},
    {-6053, 4096, 845, -2287, 3089, -4569, -737, 1654, 768, -4538, -4993, -259, -2325, -6119, 599, 4863, 1006, 2367, -5103, -1218, -328, -953, 384, -8553, -4578, 2428, -2702, 261, -6100, 1050, -358, -2301},
    {-8190, -398, 1113, -4768, 1647, -1023, -2833, 195, 1375, -1478, -886, -4146, -3755, -8273, -60, 4356, -696, 1403, -632, -1943, 584, -693, -1587, -13842, -4690, -2559, -1750, 985, -1315, 1443, 504, -5885},
    {-7673, -1390, 4098, -2820, 1451, 40, -6070, -4944, -1038, 590, -249, -8669, 1983, -4302, -3383, 3331, -1841, -3660, 985, 980, -1396, -3627, 2961, -6504, -5282, -6253, 413, 1125, -262, -5157, 2022, -999},
    {-5469, -5030, -223, -1825, -3508, 3760, -7329, 2222, 3753, 1935, -2818, -10466, 1781, -5461, -393, 2627, 3452, 1939, -176, -4128, 2573, -1740, 1149, -3061, -5648, -5168, -396, -1179, 425, -2592, 2423, -1895},
    {-3921, -1257, -652, -1388, -1891, 4213, -2740, 1460, 3817, 53, -2348, -7594, 474, -2607, -1886, 1570, -2502, 2187, 1837, -1262, 1400, -232, 1182, -4633, -3625, -5777, 1952, 1509, 3336, -1037, 3373, -941},
    {-589, -1423, -1621, -1993, -428, 5459, -5373, 3018, 39, -2477, 2735, -3473, 649, -2289, -955, 2522, 1105, 2165, 3029, 640, -467, 466, -1008, -2479, -6344, -3362, 3648, 860, 2811, -4361, 4146, 2117},
    {2178, -1861, 2108, -320, -884, 3132, -2885, 706, -2266, -1121, -2921, 107, -180, -1732, -1907, 1300, 1830, -978, -532, 3168, 271, 1936, -2817, -1109, -2480, -5157, 1880, 4583, 2972, -1926, 1632, -870},
    {-501, -3098, -2996, -1145, -766, -372, 1814, -2894, -1278, -1651, 1043, 573, -1551, 1735, -3313, -651, -628, 552, -2050, 950, 2094, -1863, 378, 2548, -4640, -819, -2622, -834, -538, -2324, 841, 2032},
    {1598, 1147, 436, -2755, 513, 2217, -360, 205, 3528, -939, 3891, -751, -655, -719, 134, 323, -365, -1611, 113, 442, 1619, -993, -48, 291, -996, 2122, 3085, -101, -1490, 891, 491, -1343},
    {-1153, -154, 1486, 1057, 245, -613, 807, -620, 806, -302, -962, -382, -542, -2161, -3718, 1439, -419, 1302, 815, -3444, 1552, 673, 1360, 922, 363, -990, -176, 3492, 771, -1518, -2053, -2005},
    {2802, -797, 2235, 1814, 314, -596, -2640, 698, -604, 1568, 738, -2319, -2453, -1682, 1361, 1399, 1095, -690, 334, 353, 631, -2455, -667, 1176, 298, -1402, 780, 730, -2769, -454, -1530, 2954},
    {-225, 283, 1964, -4262, 849, 2506, 1978, -773, -428, 1585, 141, -704, 2757, 2383, 3330, 2901, 1691, 1001, 548, -582, -1046, -945, 1298, 2953, -1037, 1203, 2530, 3077, -1604, -1361, -1996, -205},
    {1204, -1506, 1230, 1580, -791, -2878, 412, 921, -442, -218, 1110, -908, -1035, 454, -1960, 1922, 286, 3166, 2215, 492, -2163, 2373, -387, -2587, 2463, 107, -2917, -1225, 1674, -1171, -898, 831},
    {-180, -718, 145, -1584, -565, 2274, 1255, -911, -1247, 879, -229, 159, -92, -438, -2728, -277, 474, -360, 1112, -1035, 1776, 1621, 3848, -656, 1276, 1306, -234, -2309, 563, 2632, -548, -3605},
    {-967, 785, 1311, 1247, -1819, 954, 2714, -1343, 2059, 1811, 1789, 169, -511, -2229, -912, 1213, -529, -2339, 617, 1575, 850, 686, 218, -194, 453, 2310, -2076, -2419, 792, 689, -3066, -1632},
    {-2514, 2435, 2116, 203, -879, 373, -960, -1409, -963, -1336, 451, 1986, -3108, 433, 69, 1542, 2072, -3439, -2536, -2600, -1444, 2619, -1511, 1937, 8198, 1123, -2477, -14, 109, -559, -6850, -3112},
    {-3855, 2168, -408, 3420, 759, 2030, 101, 49, 1162, -1446, 1522, 2097, 945, -1504, -494, 2361, 1801, -5634, 1260, -1992, -738, 3312, -4635, -1972, 5385, 5438, -5263, -2338, -1397, -2443, -5745, 158},
    {-2385, 1413, 3969, 2899, 827, 2241, -1075, 4344, 1122, -398, 940, 3755, 1340, -3431, -2684, 4959, 4590, -6678, -140, -3928, -3505, 5108, -2964, 430, 10656, 6234, -2101, -1852, 3170, -1947, -1450, 1564},
    {2352, 1605, -94, 6508, 1715, 394, -507, 773, -725, 1716, -30, 6205, 1299, -1822, -7878, 5654, 3245, -5783, 1094, -169, -28, 644, -5303, -390, 7175, 5588, 2108, 452, 3463, -3723, -4432, 3980},
    {-3296, -119, 2879, 4073, 1828, 2336, -4832, 1191, 2262, -2226, 220, 7158, 4842, -5091, -11080, 7097, 3391, -6311, -1802, -3189, 233, -450, -2460, -1436, 4848, 3204, -589, 862, 3110, -4438, 1421, 5004},
    {3693, 5429, 3298, 4318, 2166, 265, -2516, 2703, 2284, -2942, 1502, 10724, 5062, -7976, -11008, 3943, 5496, -4345, -550, -2948, 183, -159, -4685, 3682, 1570, 1501, 1338, -141, 1074, -2322, 2186, 5683},
    {5638, 7690, 1156, 3417, 1258, -2056, 588, -1354, 2097, -4047, -1011, 11914, 2253, -9407, -12319, 2282, 6429, -3039, -4137, 5364, 451, 352, -6210, 2993, -2584, 2659, -5581, -1547, -2930, 456, 5547, 1510},
    {6108, 4689, 862, 4246, 2886, 1344, 194, -1787, 1473, -4906, 4476, 9859, 2913, -259, -7764, 1358, 2390, -5083, -3689, 6452, -1811, -1789, -1024, 1739, 792, 3975, -5054, -1181, -3980, -87, 3262, -630},
    {783, 7275, -278, -1668, 3026, -5498, 7998, -2812, 2909, -8254, 2257, 8557, 1424, -7034, -5600, -3077, 3699, 176, -3802, 2607, 521, -4228, -4757, 2665, 1624, 5377, -1815, 20, -9204, 2931, 6212, -1242},
    {853, 4866, -1086, -1756, 2651, -6459, 2224, -93, 589, -6580, -554, 7272, 3289, -4898, -7372, -1284, 4259, -1759, -7181, 986, 431, -5212, -4291, -5807, -1561, 1337, -1702, 3728, -9847, 3143, 5132, -462},
    {-6445, 3779, 244, -6032, 2542, -5960, 2142, -2124, -2089, -3655, -507, 2460, -469, -3691, -6336, -4126, 2441, -6812, -2391, 1877, -233, -7381, -1035, -8690, 3419, 6792, -2822, 7780, -6245, 5507, 4119, 2864},
    {-7105, 2832, -898, -4004, 2292, -9158, -4195, -3902, 1646, -5176, -4518, 12014, 5440, -5108, -7090, -461, 390, -3515, -1487, 2184, -1812, -4834, 678, -10932, -951, 4679, -2234, 3955, -3152, 6352, -286, -824},
    {252, -173, -3425, -3681, 6579, -11135, -9085, -5123, 287, -4292, -6818, 10085, 2545, -11587, -6890, 699, -2887, 3434, -2705, -973, -1977, -2792, 1297, -12655, -5402, -2295, 1404, -1048, -4714, 4083, 4095, -1919},
    {-4917, 473, -1922, -2879, 5825, -9842, -10444, -4631, 2622, -1899, -5060, 1611, 3962, -12273, -5152, 2569, -5063, 6911, -2982, -4767, -5983, -1391, 414, -8314, -4372, -1141, -1014, 295, -3822, 4796, 345, 2787},
    {-4020, -979, -207, -4807, 4754, -1240, -7889, -6299, 3186, -4987, -3461, 647, 1835, -14667, -4835, -1130, -7200, 2798, -2988, -3808, -1281, -654, -1194, -8319, -2040, -332, 1882, -1454, -2802, 277, 397, 282},
    {-1408, -2548, 912, -1716, 4977, 1109, -10031, -408, 5415, -3578, -4701, -3754, -151, -10241, -5911, 616, -1731, -57, -3575, 779, -1432, 2052, -1503, -5954, -5843, -6356, 738, 241, -838, 2896, -3885, 434},
    {-1987, -338, 2112, -3715, -548, -1239, -9394, -4377, 3172, -3450, -1226, -6522, 4647, -3304, -2872, -2164, -5373, 1422, -1617, -660, -2246, -2264, 2582, -5023, -995, -5874, 2821, 4893, 2501, -3690, 321, 145},
    {1907, 1624, -106, -3622, -5261, 2037, -11249, -4478, -10, -2078, 1889, -6268, 450, -1461, -1597, 2693, -1430, 5708, 633, -1354, 518, -217, -3209, -3585, -6495, -8342, 2518, 972, 3983, 365, 1193, 220},
    {-729, -3, -2861, -1234, -3249, 4802, -5602, 1598, 1060, -1, 1061, -7355, 1901, 685, -3169, 2782, 708, 5215, 2127, -3034, 2194, -683, -3025, -7519, -7048, -3540, 3353, 2158, 6751, -3855, 1874, -2379},
    {1046, 763, -1056, -754, 510, 3281, -2683, -1603, 979, -3471, -2030, -1023, 2064, 575, -2076, 1855, -1594, -1038, 1074, 22, -666, 1010, 2173, -4360, -3839, -1979, -61, -1028, 1583, -4624, 268, -2037},
    {1081, -2531, -416, -3417, -2239, 2490, -3060, 854, 379, -655, -1848, 705, 1674, -2797, 125, -2983, 2428, 1362, -2727, 1113, -2451, 839, 1242, 448, -1783, -2025, 430, 143, 1037, 106, 2671, -379},
    {-1291, 1238, -2551, -3714, 1195, 3695, 719, 2058, -765, 1693, 1485, 581, 623, 1223, -500, 457, 1859, -1025, -15, 223, 1150, 743, 0, -1758, 1956, 26, 452, -1677, 2718, 267, -2097, 1227},
    {1666, -279, -1245, -1463, 2698, -598, 1542, 1335, 1639, -643, 2516, -511, -1336, 757, -1692, -1017, 132, -1867, 940, -1887, 476, 1148, 191, 312, -3563, -1873, -660, -37, 2323, -937, 131, -873},
    {-2367, 2550, 331, 569, -3229, -21, -561, -654, 929, 2217, -725, 188, 195, -1517, -1213, 1203, -2535, 1285, -3087, -2082, 1051, 3126, -2473, 3819, 481, 1363, 1282, 1740, -109, 3163, -204, -1197},
    {-1110, -3236, -3417, -1395, -417, -1860, 1234, 1351, -1305, -4047, 2217, -1827, -1041, -3665, -1937, -268, 840, 845, -1911, -1420, -141, -542, 71, -2041, 1081, 889, 1341, -1756, -2015, 914, -1931, -688},
    {-391, -1420, 1176, -3390, -2864, -851, -4810, -1585, -946, 2671, -1797, 684, -632, -1793, 976, 327, -775, 979, 1256, 2279, 1247, -1632, 458, -2616, 103, -1867, 40, 687, -74, -1099, -4113, 2468},
    {596, 74, -1835, 954, -413, -249, 1030, 2483, -519, -2869, -3205, 1408, 1290, 781, 2269, -554, 1112, -1564, 1555, -1097, 702, 2173, -80, 3052, 3266, 1293, -1483, -1350, 475, -824, -2728, 0},
    {-4406, -2168, -1174, 423, -1254, 1016, 648, -2347, 1740, 2207, -209, 3667, -3646, -1956, 679, 1262, 182, -976, 1377, -1958, -676, 1287, -1748, -2115, 6325, 5162, -897, 1079, 2927, 1446, -5526, 2800},
    {-3033, 1072, 1239, 286, -266, 1280, -1461, -3819, 998, -2864, 1482, 2012, -2761, -920, 716, 4807, 4157, -1193, -900, -3546, -1563, -713, -90, -1887, 8157, 5391, -2183, -1981, 5432, -2954, -1849, 2167},
    {-3916, 3931, 1334, 1032, -1781, 469, -2484, -1575, 459, -926, 6357, 1312, -611, -2161, -4774, 1429, 6105, 36, -767, -353, -393, 2455, -2970, 1938, 11481, 4816, -2818, 309, 2649, -3136, -3305, 1100},
    {-86, -120, 3577, 1858, 74, 638, -3226, 587, 1269, -3883, 3343, 4776, -3247, -3906, -4731, 3615, 3714, -3525, -1150, -5157, -605, 1037, -1046, 3997, 11830, 3408, -2103, -2668, 4634, -6677, -3061, -2204},
    {2032, -564, 3587, 6204, -200, 2984, -4309, 254, 861, -6731, 4631, 8730, 95, -2858, -9024, 7485, 3325, 588, -2185, -994, 2308, 1733, -945, 1283, 6150, 1354, 152, -7658, 5012, -4576, -4812, -434},
    {1720, -1529, 6014, 3870, 1084, 5114, -279, -653, -8859, -5346, 3271, 6642, 557, -3300, -8290, 7591, 7440, -2478, 1012, -2070, -2709, 5281, -2853, 4274, 3115, 2582, -1776, -9734, 3910, -7265, 1967, 936},
    {690, 2355, 8019, 3585, -236, 956, -1623, 786, -7613, -9594, 6378, 7152, -1300, -1855, -7129, 7253, 7230, -1518, 102, 660, -330, 3252, -4389, 8647, 4222, 5027, -2994, -3768, 1033, -1288, -512, -475},
    {-686, 2793, 5379, -22, -1166, 2420, 6343, 699, -2296, -8086, 10671, 9524, -1183, -2150, -7393, 6514, 4286, 1489, -2103, 4856, -3283, 2317, -5210, 8278, -3110, 3098, -6681, -272, -4438, 2112, 6707, -3265},
    {607, -2831, 4948, 697, 184, -599, 5182, -4874, -3978, -9155, 8686, 7045, 224, -5033, -4334, 6485, 4253, 3837, -4007, 2397, 3542, -809, -2215, 4744, -1192, 5286, -3254, -3619, -5489, 5733, 6480, -2503},
    {2099, 1884, -1456, -2264, 57, -3187, 11187, -8834, -2998, -6743, 1639, 9254, -1084, -4706, -3495, 5147, 6852, 5414, -3756, 1401, -3670, 1631, -6218, 8083, -127, 6151, -1008, -1079, -7237, 8336, 5559, -2439},
    {-1690, 2551, -81, -4030, 719, -7114, 7405, -4616, -8073, -5008, -1029, 4066, -1681, -8132, -2336, 3932, 3107, -962, -653, -786, -3007, 1010, -5721, 6380, -4668, 4003, 2170, -126, -4882, 7264, 428, -2299},
    {-422, -2132, 2102, -3594, 5930, -8820, 7813, 394, -9682, -3762, -2041, 6239, -3193, -8319, -3047, 673, 846, -2327, -6651, 1861, -3000, 1212, -1474, 4670, -2792, 1084, 8069, -4628, -7102, 7172, -5063, -641},
    {-2102, 1085, 3944, -2129, -1956, -11551, 4567, -3590, -9083, -3068, -543, 8163, -6492, -12664, -4125, -613, -731, -4188, -2643, 513, -3550, 5196, -1158, 2943, -1891, 5054, -365, -1603, -8717, 5487, -3424, 3789},
    {1696, 1784, 3767, -2395, 686, -9051, 127, -10308, -6697, -696, -957, 2487, -6082, -10269, -4551, -1841, 2616, -1556, 644, 676, -4769, 413, -2995, 7781, -8429, 1593, -1986, -6322, -5412, 1429, -3497, 78},
    {221, -48, 2835, -3561, 2061, -11481, -2702, -5492, -719, -209, -2815, 3842, -10142, -10292, -3927, -1986, 1188, 4322, -202, 103, -2774, 2665, -4570, 7255, -7098, 4584, -745, -693, -6064, 1491, -1733, 3674},
    {3141, -790, 3046, -407, 4671, -6204, -9642, -11427, 576, -4253, -5686, -685, -2836, -6204, -3548, -276, -2077, 938, -3614, 1170, -3828, -1218, -3432, 5594, -5742, -4722, 3209, -660, -715, 1668, 758, 587},
    {5590, 1320, 2932, -6422, 1551, -4309, -8709, -8655, -237, -2897, -2290, 3426, -5238, -3481, -2943, 1727, -1021, -1052, 301, 1413, -535, 903, -1917, 1284, -7891, -663, 1712, -375, -2135, 1655, -1209, 300},
    {5661, 1894, 2706, -4185, -131, -3983, -10011, -10854, 566, -3325, -1868, 1166, -290, 1428, -2141, -2718, -1944, 4680, 2531, 201, 1362, -711, -5778, 3445, -2808, -1996, 708, 1164, -1520, 2249, -2353, 4106},
    {3518, 474, -1020, -2903, -1038, -4292, -8288, -8186, 2659, -1103, -1575, -1176, 2368, 4902, -789, -347, 854, 6878, 2057, 666, -4544, -3904, -2978, -7478, -4477, -8157, 1219, -329, 2037, -447, 1616, 3122},
    {3034, -257, -617, -1415, -2644, 5460, -8166, -3175, 4267, -5066, -647, -1600, 654, 6714, -2687, 1856, -1834, 1787, 3040, 2547, -2418, 166, 19, -6831, -10273, -9987, 4404, 369, 9526, -1427, 3716, -2383},
    {1102, 1865, -1230, -6165, -537, 5422, -5266, -2414, 3285, -1787, -2436, 702, 3092, 4283, -1275, 1642, 484, 1915, 2158, 1827, -1910, -259, -3225, -4021, -7458, -8135, 2589, 5071, 6272, -619, -1799, -2888},
    {-121, -1765, -667, -2843, 6154, 2686, -4732, -1475, 3202, -4185, -2249, 3452, 2782, 3762, -1903, 6105, 815, 2491, 951, 1163, -466, 1646, -896, -416, -3926, -422, 1575, 1632, 1315, 2184, -1296, -2193},
    {-1053, -1916, -121, -75, -20, 132, -388, -839, -103, 1569, -857, 2288, 69, 362, 239, 1038, 630, -1699, 4398, -1426, -527, 925, 1296, 1446, -457, -2747, -1862, -872, -212, 450, -276, -668},
    {440, -143, 104, 1174, -336, -2239, -1459, -118, -2446, -1110, -225, -941, 1578, -83, 676, -696, 121, 138, 1062, 1203, -252, -1509, 756, 908, 48, 1086, 4119, 1434, -712, 235, 246, 1724},
    {-180, 1841, 4004, 2834, -622, -151, 1640, -1648, 2705, 1317, -2347, 2054, 2341, 1770, -723, 107, 607, 375, 1469, -1393, -994, -142, -1591, 151, 2183, 2132, -1965, -1186, -1327, -570, -1768, 2727},
    {1903, 1529, 764, -3683, 771, -1041, 670, 2106, 1284, -1153, 1552, 2092, 1091, -55, -1903, -455, -574, -2469, 1466, -1118, 237, -238, -2957, 2171, 1510, -2192, -1908, 3296, -1428, -2696, 406, 1991},
    {-1137, -2645, -1564, -1382, -2958, 205, 3226, 1274, 379, -1926, 1232, -3196, 450, 1999, 1305, 2532, -1784, -673, -1147, -375, 1570, 2091, -1661, 2899, 2388, -265, -2744, 4776, -977, 518, 443, 174},
    {-2857, -1845, 1368, 311, -1015, -2945, 2916, -461, -723, -3980, 1288, -697, 1231, 406, 3700, 610, -98, -2406, -1064, 575, 2348, 981, -1983, 3388, 1319, 5103, -2742, 222, 3198, -2741, -1239, 1304},
    {-5566, -2902, -1032, -1294, -6, 604, 232, -2695, -2689, -1248, -416, 1444, 1071, -340, 2039, -480, 3042, -1099, 1709, -2014, -313, -2464, -2648, -2792, 5835, 7590, -6028, -943, 2346, -4096, -6206, 2381},
    {-1252, 3501, -2519, -172, -500, 3744, -4025, 1010, 1024, -4058, 5559, 3748, -2640, 250, -563, 188, 4180, -5162, -422, -1830, 606, 806, -374, 4619, 8134, 3509, -2142, -89, -57, -2840, -4920, 523},
    {-3045, -198, 1937, 1451, -3225, 677, -6012, -1177, -4450, -6487, 7089, 5374, 1070, 238, -1484, 4417, 4923, 448, 2128, -3430, -474, -1181, -4863, 4382, 9309, 3914, -2737, -4804, 5674, -8277, -1871, 3353},
    {3950, -3355, 5141, 1177, -1175, -350, -8239, -2492, -1157, -8079, 6488, 6081, -826, 1838, -4097, 5522, 4413, -346, -2336, -1371, 2905, 1461, -1153, 2296, 9009, -432, 440, -6580, 9677, -5350, -723, 1497},
    {4348, -197, 3837, -510, 2260, 1672, -5027, -1242, -8415, -9632, 3336, 6732, 2803, -6766, -6961, 8065, 5706, 2551, -2469, 4293, 447, 3719, -2977, 5951, 1076, -1728, -696, -6806, 5889, -6559, 2615, 477},
    {1557, -907, 2468, -2455, -870, -2188, -1748, -1601, -8752, -12551, 8431, 4813, -2269, 0, -7042, 3153, 9776, 5534, -1159, 2136, 2712, 2944, -2476, 10699, -501, -3868, -1223, -6359, 1977, -2871, 2869, -1306},
    {1820, -3374, 3145, -5334, 661, -2957, 134, 1835, -4999, -11051, 7814, 6448, -1997, -2245, -1868, 4085, 4622, 6106, -2413, 6291, 1925, 646, -4857, 10360, -3303, 604, -5037, -5394, -1577, -1010, 4375, -1914},
    {969, -8870, 4467, -1647, -1481, 2995, -477, 3121, -6670, -4182, 3580, 3484, 2816, -4357, -5583, 8353, 5373, 10610, -1831, 1409, -299, 3215, -8547, 7223, -685, 5978, 1169, -5489, -2284, 272, 4869, -2052},
    {2064, -5695, 2320, -2941, 2234, -2944, 5947, -7496, -7114, -6111, 3872, 706, -1363, -5029, 2891, 4652, 3212, 1083, -1749, 5748, 363, 6465, -6785, 10471, -3341, 6491, 2712, -4379, -5320, 4714, 6567, -3381},
    {4512, -3409, 590, -2417, 19, -3696, 7481, -6565, -7410, -3450, -1588, 967, -2749, -3187, 4808, 1023, 2667, 3941, -2969, 5438, -3086, 6503, -9061, 12483, 188, 9486, 432, -1621, -4177, 5777, 6665, -447},
    {3791, 5100, 2465, -641, -65, -4913, 9128, -2210, -6573, -1980, -2273, -2568, -789, -3098, 5091, 7881, 853, 516, -4982, 1330, -5992, 13551, -11832, 8017, -3207, 1837, 9434, 158, -9479, 10267, 4196, 4019},
    {5088, -334, 4809, 1246, 2178, -8948, 7241, -5999, -5062, -924, -3686, 3779, -5276, -2505, 1336, -2291, -6, -8331, -3887, 5470, 2, 7946, -6661, 12357, -3326, -703, 5967, -8150, -11350, 7312, -2601, -1368},
    {4841, 3794, 2671, 2095, 2441, -10673, 1905, -8275, -4616, -4555, -2501, 2505, -3837, -425, 4684, -2012, 2247, 896, -1742, 6720, -4138, 7611, -5485, 16321, -9331, -1806, -971, -7286, -9297, 4469, -3590, 203},
    {3103, 1325, 1921, -164, 1965, -12628, -5327, -2340, -1855, 1690, 1539, 517, -8927, 4974, 6402, -6660, 7270, 571, 275, 1003, 301, 3739, -790, 14412, -8809, 698, -1393, -8373, -8412, -2390, -156, -1073},
    {6206, -808, 4088, 649, 3207, -7672, -9807, -7173, -4369, -2765, 362, 256, -6772, 3221, 5213, -5889, 3651, 3442, -1510, 6002, -353, -276, -2028, 13000, -10200, -1357, 2217, -4709, -3581, 957, -1154, 2457},
    {8949, 2490, 6859, -1382, 3735, -8483, -9632, -10922, -2769, -2878, 959, -884, -5697, 3991, 4032, 828, 1644, 3935, 1652, 4001, -1100, -5846, -3745, 5875, -12933, 3655, -1353, -3666, -5260, -3096, -920, 6},
    {7198, 1369, 7704, -413, 1081, -9588, -7252, -7235, -6567, -2527, 2685, 167, -3206, 8325, 614, 133, 1660, 772, -665, 1324, 1392, -395, -5027, 8126, -14086, 5006, -2591, -2153, -2459, -326, 1012, -263},
    {9245, 392, 4544, -1682, -64, -8452, -3967, -8957, -4794, -657, 2815, 1731, -1606, 7140, -1742, 632, -739, 2021, 2736, 3457, -2217, -2596, -2098, 3807, -10480, 105, 4471, -731, -6051, -1299, -1706, 1921},
    {6343, -83, 792, -127, 848, -4405, -4644, -8862, 598, -696, 1698, 2624, 3298, 8395, 1435, 547, 275, 1261, 14, -1575, -2287, -3072, -2901, -2998, -4584, -6512, 7075, -525, 1321, -3191, -2095, 1316},
    {4253, -1225, -222, -1630, -2172, 4533, -5324, -8891, -1301, -5066, -1179, 3503, -2001, 10378, 2387, 2206, 99, 3903, 2925, 4100, -1471, -8160, 1453, 166, -6773, -14283, 7395, -917, 8189, -839, 697, -2790},
    {1929, -2047, -616, -553, 2360, 6912, -2590, 828, 5102, 220, -3685, 1478, -1471, 4933, -752, 5676, 4227, 3791, 2934, -704, -504, -3808, 869, -1410, -10141, -10557, 5409, -2108, 4316, 478, 1918, -5119},
    {2413, 2444, -51, -3555, 2026, 4551, -2087, -226, 2586, -6754, -2702, 4799, 1619, 3413, -1014, 4321, -34, 1680, -546, 1806, -5026, -1267, -2761, -82, -7393, -6564, 5253, 2503, 6023, -669, 2363, -2900},
    {-2175, 493, -2858, -1873, 1515, 3267, 1004, 1531, -1513, 1386, 1044, 450, 2648, 1771, 950, 635, -964, 2056, -422, -680, -855, -327, -58, -2025, -1719, -1930, -1250, -178, 2009, 1051, 935, 538},
    {-2568, -4276, 485, 2221, -2503, -1613, 509, -1136, 2756, 2615, -829, 1329, -661, -662, -4447, -369, -2488, 1690, -77, 2778, -519, -42, 317, -592, 11, 2430, -1378, -651, -399, 2157, -1566, 1746},
    {2687, -176, -1504, 780, -482, 946, -699, -1078, 818, -148, 1821, 1810, -975, 1338, 500, -350, -3810, -1926, 560, 5, 1156, 47, -175, -2526, -403, 3228, 2570, -151, -1896, -3714, -168, -2028},
    {1931, -315, 2300, -1067, 1729, 446, 621, -47, -467, 1566, 693, 773, -244, 1200, -252, -923, 1670, 1114, 1606, -136, 2557, 1197, 90, -1024, -1689, -2321, 515, -453, 1169, -476, -1719, -1944},
    {1368, -888, -2257, -1494, 1953, -392, 2568, -2042, 635, -1236, 723, -2274, -109, 1199, 2584, -355, 10, 1687, 1826, 5756, -1580, -390, 1490, -2206, -634, 3902, 942, -906, -3137, -2547, 719, -120},
    {-3740, -1061, 44, -1476, -908, 470, -358, -456, -2999, 16, 2089, -1596, -1411, 2880, 977, -175, 3913, 1744, 3477, 1203, 2262, 17, -2259, 1999, 3676, 2103, 1196, 374, 1907, -1429, -3523, -3194},
    {-5282, -4189, 2863, -207, -1537, 2218, -7977, -1423, -570, -3211, 5328, 1697, -1533, 101, 1874, 3454, 2848, -175, 4317, -2251, 1083, 1568, -1542, -572, 7212, 8563, -2066, 1076, -743, -1378, -10151, -1838},
    {1793, -1635, 1414, 2410, -2614, 822, -4755, -2920, -6630, -5231, 3628, 2052, -1125, 2124, -1671, 8078, 2914, -2202, 994, -140, 2774, -2250, -1941, -742, 4872, 2191, -1820, -4398, -68, -5262, -7183, 2086},
    {1865, -73, 4608, -1577, -377, 3274, -5714, -4419, -4584, -6142, 3196, 4629, -1083, 630, -4065, 5218, 4145, -583, 996, 930, 3176, -1107, -1855, 2197, 11887, -1155, -983, -4126, 3875, -6723, -2744, 127},
    {1593, -2665, 7331, -2706, -422, 4017, -6445, -3027, -5757, -12702, 9141, 2753, -2366, -1551, 4351, 7310, 9205, 2636, -5901, 3253, 2536, -2805, -129, 4291, 6196, -3388, -170, -4531, -1330, -6709, -6454, 1886},
    {4326, 1192, 6191, -2308, 1916, 2629, -1219, -1467, -10119, -10467, 3751, 4618, 1018, -2301, -860, 5614, 6848, 4042, -3882, 4124, 4023, 2621, -4874, 5881, -867, -2929, -1618, -3477, -2008, -3493, 7184, -3022},
    {2196, -3088, 4814, 960, 2654, 581, -3275, -394, -5554, -6728, 2751, 6197, -398, -3777, 2504, 4049, 3282, 3502, -612, 1337, 5492, 1278, -2311, 4991, 387, -4337, 646, -9564, -383, -4231, 2925, -3279},
    {6083, -6398, 4226, -2730, 866, -1472, -6142, 4175, -6049, -9326, 4000, -559, 1055, -7079, -2805, 1354, -474, 3681, 348, 3781, -919, 4642, -4528, 6772, 987, 1087, 2716, -3992, -1265, -4003, 1038, -146},
    {9320, -4208, 2626, -1153, -1146, 1959, -4567, 1510, -6161, -3982, 5267, -2136, 4527, -5270, 258, 4778, -329, 11498, -2282, 5380, 757, 4858, -3386, 7690, -4636, 2517, 4415, -971, -543, -689, 5082, -1340},
    {2910, -8595, 1572, -1675, -1620, 2758, -5298, -4151, -3247, -7313, 2958, 2305, 2001, -2334, 5846, -3560, -2499, 6272, -3109, 1631, 1241, 6962, -1568, 9945, -971, 10998, 5654, -4858, -2852, 4435, 1873, -844},
    {5885, -3476, 95, 539, 1303, 7188, 2858, -8934, -3158, -4859, 4998, 3781, 1088, 2989, 3349, -5771, -3882, 3235, -2287, 7433, -2318, 11150, -4766, 7808, 791, 9693, 1692, -4330, -7547, 10314, -5232, -1575},
    {5328, 2447, -365, 4203, -1954, -3861, 4153, -6323, -5881, -5432, 4268, -837, -7928, 4515, 7766, -3464, 1265, 1446, -4791, 4013, -946, 8460, -8421, 12608, -73, 9727, 4956, 728, -10901, 10194, 163, 1518},
    {773, 6782, 670, 3366, -446, -11476, 3174, -5915, -3737, -2203, 65, 5173, -7809, 12432, 6712, -3984, 3638, 576, -972, 1876, -45, 5069, -5432, 12516, 3759, 2818, 1450, -1789, -13569, 5164, -2699, -5100},
    {5361, 610, 1319, 290, 5159, -18307, -3728, -10205, -2326, -2080, -2524, 6238, -8119, 10524, 7456, -9118, 4035, 201, -3845, 3581, -3177, 2526, -1203, 16796, 139, 98, -3312, -4435, -9795, 2971, -966, 217},
    {4322, 1616, 3045, -13, 2412, -14647, -5315, -3106, -1562, -3640, -2313, 3765, -8019, 12035, 7698, -10301, 5703, 376, 1334, 3041, -338, -320, -3693, 9344, -879, 3395, -4640, 1008, -3601, 1430, 97, 1685},
    {7572, -2542, 6275, -1463, 4253, -8006, -8610, -11931, -4232, -5513, 525, 2530, -9559, 11315, 8969, -3253, 4120, 6337, 2536, 4430, -1649, -2597, -705, 10549, -7192, 4105, -6134, -2483, -1638, -2821, -576, -3647},
    {9642, 1844, 1115, -235, 3503, -5376, -3715, -3058, -2614, -5339, -267, 5138, -5249, 8537, 3057, -5690, 3395, 524, -2993, 7335, -5991, -3340, 50, 10375, -8181, 9372, -1895, -3113, 178, 706, -1641, 245},
    {9110, -1144, 62, -3382, 5978, -3809, -3629, -4431, -501, -5501, -1907, 7333, -6584, 8161, 7016, 3223, 5857, 4984, 480, 2915, -2174, -4888, 1794, 2820, -10872, 2466, -493, -1289, 306, 2327, 1773, -1538},
    {8484, 712, 4995, -403, -1115, -2201, 446, -3650, -4608, -276, -1945, 11307, -3494, 4187, 776, 275, 5678, 2621, 1671, 690, -6960, -3466, -207, 4496, -10165, -1123, 5257, 612, 491, -183, 344, -1572},
    {9019, -1775, 1239, -1238, 2489, -2214, 814, -7141, -1546, -4077, 727, 6315, -4075, 7044, 3381, 5595, 1461, 1240, 932, 556, -1971, -6432, -2444, 6104, -2220, -3168, 8572, -4829, 4213, -1158, -6221, -1655},
    {7113, -5110, -2481, -3767, 3137, 2830, -4436, -6038, 1356, -4658, -4076, 11720, -1088, 5387, -972, 2069, 3803, 8172, -17, 4574, 1842, -6538, -3965, 2450, -7057, -13237, 13525, -2125, 4320, 205, -526, -3627},
    {4601, -2404, -3813, -5833, 20, 11796, -3018, -5600, 3956, -7865, -6046, 9162, -3080, 4791, 1810, 4935, 6714, 7314, 1488, 5275, -829, -4849, -1969, 923, -12799, -15683, 10341, 233, 11723, 250, 1356, -9701},
    {2080, 2176, -3477, -2010, 2497, 4487, -2635, -2618, -21, -2108, -1684, 5189, 365, 3285, 2692, 4625, 3128, 5134, 2651, 1502, -1615, -662, -1624, -894, -7836, -4805, 7114, 2620, 13087, 1793, 1762, -4883},
    {425, -268, -416, -772, -1704, 2221, 1, -997, 2462, -1641, -2151, 899, 30, 3321, -58, 1871, 1886, -1066, -943, -560, 1073, -1467, 449, 3136, -1408, -674, 561, 3291, 2526, 819, -3207, -2065},
    {850, 1906, 600, 1764, 3909, -83, -118, -903, 305, -803, -605, 26, -973, 1278, 2016, 779, 235, 1827, 801, -1774, -347, -1279, -715, 845, 883, 329, 497, -242, 586, 675, -899, -2092},
    {-1065, 1744, -107, -1440, 852, -937, -476, 150, 2067, -2203, -329, -588, -968, -2857, 1586, -3804, 979, -222, -1738, -2604, 950, -1094, -1672, -1109, 893, -439, -1502, -875, -981, -1384, 1314, -2659},
    {324, -2449, -2001, -1270, -743, -800, -2486, 1362, -3825, 950, 1511, 1221, 770, -232, -3228, -898, 1641, -663, -291, -1822, -2739, 129, -541, -601, -2571, -1184, -437, -1348, -1809, 95, -737, 3138},
    {2188, 1333, -812, 443, 90, -4180, -1589, 221, -5183, -609, -503, -2155, 626, 1538, -711, 1266, 4599, 1298, -648, -441, -1776, -494, -1464, -351, -1084, 3008, 1588, -257, -2773, 109, 1744, 4683},
    {294, 308, 1667, -773, -2899, -136, -3629, -2544, -4085, -2768, 2738, 1601, -2120, 3980, 3494, 2400, 1588, 3243, -4205, -959, 2467, 1283, -1487, 1012, 2033, 2728, -2896, -4417, 1419, -1859, -5742, -3201},
    {-2807, -3674, 1561, -1511, 955, 429, -2199, -3802, -3436, -6167, 4072, 728, -3953, 2233, 2790, 2746, -898, -1533, -1791, -2660, 3145, 4296, -4491, 2759, 8412, 8430, -3405, -1415, -3856, -3601, -10384, -2098},
    {540, 409, 6712, 371, -440, -857, -1683, -4361, -6337, -6133, 8482, 6977, -67, -1855, 317, 7290, 3723, 318, -3190, 2215, 2292, -182, 2686, 2974, 8240, 2318, -694, -6119, 1975, -4650, -2466, 2162},
    {2695, -1052, 8634, -6094, 559, 6635, 1154, -5713, -9016, -10292, 5499, 3258, 852, -2879, -2836, 3415, 6331, 2689, -4485, 3213, 4479, 646, 745, 7021, 6464, -2437, 273, -5343, -2365, -7424, -2400, 192},
    {844, -4982, 7654, -2932, 2004, 5125, -190, -5763, -3563, -11215, 6771, 1161, -2149, -7293, -1138, 3912, 4650, 4164, -2444, 1055, 2822, 3261, -2519, 7352, 3632, -2215, 876, -3404, -3192, 1442, 1780, -2653},
    {4282, -3391, 6470, -3004, 2228, 4155, 1946, -247, -3735, -6613, 3619, 2477, -1479, -5304, -3470, 7153, 4745, 2721, 1093, 747, 3049, 7063, -1048, 6460, -302, -3208, 844, -2918, 1787, -583, 2194, -6410},
    {8146, 1212, 4212, -628, 3182, 334, -3254, -2199, -7596, -5803, 3807, 845, 87, -4645, -3351, 1259, 3981, 2339, -1427, 3340, 3010, 6232, 47, 6752, -203, -4411, 7026, -2274, -1625, -1646, 2382, -3529},
    {7784, 845, 2618, 644, -186, 2669, -1923, 404, -7588, -5452, 2753, -2238, 380, -11306, -1204, -527, -3788, 5694, -4079, 7354, -1055, 8779, 6513, 9760, 2770, -620, 8542, -1674, -3976, -927, 7522, -245},
    {5544, -113, 3683, -1879, -2714, 6793, -974, -1860, -4484, -8617, 4144, -7147, 3424, -8503, 1085, 1467, -2839, 13565, -5797, 8846, 1436, 10303, 1547, 9610, -4807, -5510, 10310, -663, 4175, 2271, 14183, -622},
    {975, -1143, -2680, -1132, -4303, 12247, -1389, -2108, -6807, -7369, 2597, -5739, 3592, 3406, 1623, -4968, -5701, 13617, -1900, 6925, 2093, 9193, 2971, 5936, 199, 2761, 5910, -3404, 648, 1936, 11187, -223},
    {-1878, -1667, -2195, -857, -4386, 17554, 4189, -11869, -6056, -7812, 4991, -3363, 1816, 8310, 9212, -10769, -2368, 10455, -1479, 2350, -1646, 7343, -1711, 12273, 2706, 17230, -71, 2119, -5846, 7326, -205, 6184},
    {-3138, -442, -1134, -2128, -1175, 11403, 10285, -696, -4083, -9740, 6664, -4784, -7225, 12128, 9900, -3942, 1917, 5040, -3408, 82, 1607, 4471, 869, 14937, 10214, 23042, 1219, 3223, -13808, 10522, -10107, 1533},
    {-3618, 6295, 984, -148, -3762, -6364, 1444, -1609, -4545, -2151, 5973, -5351, -3798, 11979, 6844, 3065, 4278, -3673, 1640, 714, 775, -2891, 1685, 12739, 11343, 13169, -9672, 10889, -13330, 5463, -738, 7748},
    {-1349, 3745, -189, -7154, 1713, -19676, -7988, -1046, -4811, -697, -1527, 2958, -3921, 9236, 9713, 1086, 8353, -365, -2295, 3714, -3689, -9601, 6212, 7393, 14308, 6500, -8738, 5201, -5348, 28, -1380, 6745},
    {6602, -1383, 4439, -5376, 455, -19058, -6639, -4162, -4456, -904, -2038, 6031, -6707, 9354, 11451, 823, 9539, 4155, 2032, 3213, -3502, -7398, 4894, 4367, 16927, 5374, -9523, 7004, -3571, -3644, -1806, -2982},
    {10749, -1226, 3106, -6501, 2486, -10440, -1875, -6894, -5730, -768, -3984, 3445, -6027, 10594, 10706, -2156, 7221, 12511, -144, 5994, -4421, -9126, -908, 3963, 15528, -1178, -9076, 2268, 2285, -616, 2269, 1365},
    {10756, -5929, 2413, -2119, 1596, -6264, 1436, -5635, -5280, -825, -4776, 4090, -5175, 5673, 6134, -3106, 5600, 5200, -246, 3508, -1490, -6959, -40, 1432, 16676, 4307, -749, -2406, 3523, -1623, 2148, -2973},
    {9869, -2075, 1606, -1250, 6036, -1903, -179, -3674, -5125, -1400, -3478, 9917, -6676, 4513, 6735, 531, 7107, 3442, -2554, 2073, -1424, -7902, 5837, -517, 12660, 5140, 1797, -382, 5899, -2691, -642, -1268},
    {4442, -4574, 153, -1345, 2900, -410, 3722, -3765, -3673, -4325, -2940, 10317, -4241, 3791, 2752, 5841, 5921, 3916, -3504, -2112, 602, -5833, 5356, 1078, 4930, -2766, 6666, -5913, 9558, -4161, -4518, -6092},
    {7190, -1463, 1341, -2565, 2888, -3810, 2858, -3823, -3550, -2389, -5252, 14328, -5791, 6043, 5043, 6153, 4333, 4233, -2685, 1871, -3760, -5785, -817, 1931, 7747, -2488, 15504, -1748, 6824, 916, -5148, -4357},
    {7446, -1216, -1460, -6289, 4909, 4763, -4090, -4270, 2662, -8375, -4360, 18821, -3045, 670, 4253, 1410, 5086, 4007, -2272, 6749, 3293, -6749, -2118, 5764, 382, -11333, 17389, -2804, 5349, -811, -2506, -6868},
    {3954, -2856, -4771, -10213, 2314, 11460, -8465, -1690, 7837, -7265, -6374, 13831, -1589, 7061, 7258, 1555, 5435, 9494, -3701, -1113, -814, -1829, -5461, 3073, -10610, -9105, 12573, -1160, 10246, 1910, 16, -13149},
    {-1351, 1038, -2664, -3018, 2822, 6636, -6011, 1900, 3160, -6937, -7884, 8278, 250, 4822, 2095, 8441, 1449, 3302, -3528, 1920, -2324, 1685, -1697, 1729, -11443, -2479, 5215, 3397, 7810, 1305, -2635, -9202},
    {-177, 450, 130, -1004, 1425, 1669, -554, -496, 771, -3028, 4216, 783, 843, 1845, 1225, 857, -1164, 1681, 1752, -3180, -1940, 1816, 1967, 1956, -594, -2766, 2330, -295, 1699, -174, -47, -1831},
    {2960, 713, -772, -3579, -170, 4901, 4444, -1471, -1065, 321, -215, 461, 359, -194, -562, -774, -1258, -1560, 323, 794, -383, 1989, -423, 348, -1955, 2067, 2120, -2314, -982, 1992, 1865, 972},
    {605, -1136, -3054, -563, 96, 1760, -31, -310, 456, -958, 2377, -3456, -1890, 1903, -1396, 2522, 5671, -2594, -1340, -2023, -2969, -639, 380, 1808, 1187, -2238, -296, -883, -223, 1335, 1808, 4330},
    {-1949, -1045, -592, 1004, -2470, 926, -342, -470, 584, 1337, 1402, 915, 533, 3272, 422, 533, 1471, 1307, 1320, 179, 257, 1314, -417, 1275, -1038, 667, -3, 549, -284, 1601, -2219, 1449},
    {-2550, -2629, 1396, -1892, -2159, 1481, -1001, -3828, -1033, -1497, 2976, -453, -1107, 2824, 3502, -2619, 346, 2862, -2749, -1261, 1450, -488, -1128, 244, 532, 990, -185, -442, -26, -1513, -1429, 2220},
    {-681, -692, 1094, -1308, 2, -4043, -3745, -871, -1127, -795, 1239, -2590, -2023, -1035, 4028, 856, 1872, 3494, -1613, -3937, 1518, 1860, -1429, 1286, 3518, 2689, 788, 92, -2124, -1168, -3967, 511},
    {-225, -5306, 5367, -814, 145, 2304, -1508, -2091, -1948, -4394, 5196, -133, -1884, 3301, 1498, 335, 1229, 1705, 1784, -2334, -550, -547, 1619, 2852, 4047, 4837, -1231, -590, -326, -2565, -6216, 1043},
    {-2622, -5847, 5111, -3556, 1979, 3368, -1738, 2338, -5399, -10719, 4089, 2475, 834, -140, 1684, 4560, 3601, 2354, -1534, 4059, 459, 988, -63, 3111, 5346, -937, 1455, -2605, -3612, -2268, -2218, 2786},
    {3533, -4901, 8445, -1922, 1445, 6470, 1685, -1433, -6111, -4383, 2625, 1344, 2748, -6624, -3122, 977, 159, 727, -1387, 3290, -48, 3777, 3440, 2575, 5612, -330, 3195, -2831, -4253, -457, 856, -2024},
    {3569, -919, 2811, -905, 1995, 10381, 2290, -2024, -5062, -5536, 5674, -3430, 2172, -4833, -3866, 1054, -677, 6215, -495, 3010, 4448, 8277, 4301, 492, 4059, -5053, 9365, -2325, 2277, 948, 15, 595},
    {6940, 5416, 2462, -2485, 558, 4307, -316, 91, -4674, -2109, 1106, -102, 5672, -6661, -3763, 4689, -1295, 4689, -2508, 1340, 914, 5576, 1933, 1820, -1317, -10717, 12065, -3308, 1557, 1659, 2686, -4326},
    {5774, 3088, 1149, -4216, 3119, 4734, 90, -2778, -4094, -4724, 5271, -4251, 4088, -3158, -3020, 1624, -717, 8262, -921, 3185, 1486, 2377, 6106, 7006, -2564, -13390, 10172, -2573, 6435, -273, 4261, -4549},
    {3248, 2103, 1650, -757, 528, 10477, -249, -3267, -6174, -10324, 2419, -6592, 8389, -2436, -5734, 529, -5688, 3595, -647, 8167, 1974, 5155, 8673, 7660, 288, -11659, 11326, 1104, 5825, 1172, 6466, -2136},
    {1223, 5413, 170, 813, -2353, 10443, -2944, -6649, -4617, -9426, -657, -4652, 5938, 1475, -996, -1293, -7205, 11518, -2442, 5602, -698, 5669, 7152, 7204, 1613, -6494, 5318, 2005, 5990, -1192, 16274, -932},
    {-4783, 4128, -1094, 846, -3422, 19156, -575, -8017, -4240, -5266, -2797, -8501, 4927, 5300, 1301, -2762, -3606, 15970, 39, 7454, -2930, -16, 7275, 9596, -1505, -12457, 1630, 1408, 2950, -384, 10453, -136},
    {-13141, -6088, -1435, -5142, -5694, 24167, 399, -4029, 750, -12302, 243, -9687, -3731, 4625, 15198, -3892, -2553, 16524, -5186, -1754, -1587, -1776, 1930, 11751, 218, 8926, -115, 1909, -911, 6214, -7895, -1367},
    {-8251, -3050, -836, -9094, -2970, 22302, 4461, -1087, 2427, -9246, 5108, -7340, -6969, 3468, 16394, -9685, -1037, 836, -3312, 1092, -2801, -9627, 10693, 15334, 6035, 15664, 1210, 6066, -13250, 14859, -14617, 121},
    {-5290, 5661, -2275, -10190, -2829, 1366, -6943, -361, 1137, -1935, 7136, -10103, -6807, 13388, 10509, 2227, 753, -2209, 5707, 7406, 638, -12522, 7463, 5311, 12995, 10817, -5125, 6987, -500, 8250, -3846, 3593},
    {-2576, 1996, -2697, -7788, -5732, -15981, -7492, 3406, 788, 479, 2447, -636, -7068, 6221, 16946, 7298, 5710, 1559, 4230, 4135, -2800, -6770, 13216, 5474, 19238, 5275, -8848, 6277, -1639, -5905, 2417, 1638},
    {2730, -353, -2404, -8770, -3479, -15322, -4526, -579, 792, 1219, -1345, 7446, -6334, 1634, 7979, 225, 5040, 7795, 2782, -1492, -1056, -3754, 5838, 1749, 29546, 1773, -9821, 4868, -943, -7551, 481, 2615},
    {7362, -3266, 2857, -1539, -99, -11532, 806, -6831, -3326, 5101, -4872, 7028, -5778, -943, 12579, -2823, 1428, 6230, 591, 2198, -2742, -6331, 7193, 2422, 32767, 707, -6841, -2886, 6, -2729, -3532, 404},
    {4548, -3917, 4775, 341, -1121, -8459, -1446, -9130, -6221, 685, -4077, 1274, -3127, 1822, 8415, 2025, 5202, 1863, -143, 6544, -1690, -8047, 9297, 1181, 32767, 3626, -1867, -3403, 814, -1039, -6754, -2287},
    {5077, -746, -245, -88, 5100, -8132, 5471, 2003, -8033, -1393, -7797, 10118, -9938, 6184, 5603, -2178, 5835, 3495, -5301, -288, 1553, -6804, 7554, 1384, 31244, 5383, 1249, -5102, 4387, -1188, -1643, -8018},
    {5362, -5246, -189, -881, 1956, -7394, 5772, -1595, -8048, -2711, -2437, 7904, -8024, 3295, 5085, -1337, 5107, 4222, -1634, -3810, -542, -5510, 5913, 6149, 22469, 3998, 8243, -4716, 6761, 1435, -2507, -2338},
    {6373, -5595, 351, -3078, 5653, -7506, 2975, -4265, -3859, -650, -6274, 11521, -4647, 5972, 8624, 487, 6893, -612, -2753, -2601, -875, -8201, 5137, 7757, 18014, -4131, 11108, -4806, 2546, -3512, -749, -6395},
    {2462, -4875, -2833, -8064, 8852, -296, -395, -1895, 4196, -6366, -3380, 16646, -4217, 3730, 4152, -4624, 5601, 5484, -3865, 2705, 3224, -4137, 2472, 7712, 6891, -9518, 14674, -357, -738, 3758, 147, -7614},
    {1068, -626, -276, -9289, 6589, 4843, -6356, 2686, 9123, -4548, -478, 13347, -3729, 3506, 7745, 1257, 6121, 5029, -1780, 4843, -4514, -1718, 1825, 2929, -2276, -9806, 10409, 2212, 7802, 2244, 1550, -7653},
    {-901, 1033, -1290, -4278, 4240, 2879, -5170, 3500, 4170, -9083, 255, 6855, -1930, 3403, 4853, 4159, 3018, 3077, 863, -252, -3692, 776, -2850, 3364, -3370, -2494, 6991, 3871, 8881, 365, 1545, -7841},
    {-27, 554, 1669, -4387, -3289, 3186, -568, 828, -646, 1043, 2069, 1539, -237, 401, 795, 2888, 2746, 3908, -1359, 3253, -2482, 2591, 2757, -468, 1117, 931, 1280, 3040, 1841, 1646, -113, -3036},
    {-1141, -595, 158, -1352, 761, 441, -1045, -2004, -8, 549, -3721, -2659, 1993, 2114, 2590, 1214, 915, 945, 2971, -70, -2080, 763, -794, -135, 2037, 733, -2370, -1269, 1104, -867, -3495, 2400},
    {542, -756, -218, -837, 862, -2407, -1995, -2247, 1491, 2790, -478, 447, -1680, -718, -2704, 688, -4238, -316, -393, -319, -358, -307, -293, -1686, -596, -613, -985, -1279, 2693, 2284, -669, 2729},
    {939, -795, -1521, -3906, -413, 15, -820, 952, 1142, 356, 273, -1582, -63, 774, -859, -1177, 164, -691, 140, 1541, -1796, -2180, 114, 353, 985, 1658, -1643, 168, -2693, -968, -287, -1437},
    {-1112, -4581, 1700, -2729, -592, 1378, -698, -943, 124, -902, -890, 611, -3557, 2047, 1088, -557, 1925, -1423, -2421, -844, 1006, 1192, -363, 1856, 373, 3101, -711, -936, -697, 1233, -3777, -1836},
    {-5398, -1718, 1196, 450, -840, -1028, -1667, -1980, 1, -2659, 2997, -820, 375, 5585, 4024, -3119, 2959, 2648, -417, -1115, 4476, 1785, 683, 1483, 1953, 2439, 1335, 1154, 1453, -639, -1839, 2949},
    {-2926, -5048, 6058, -2115, -2775, 1947, -1806, -2668, -1756, -4631, 42, 51, -6474, -1471, 4077, 3280, 1718, 2950, -744, 2619, 3265, -1858, 1905, 4867, 3784, 987, 1931, -967, 1795, 491, -1333, 435},
    {787, -7205, 10198, 405, -2170, 7114, 2005, -4568, -3988, -1305, 2495, 2011, -1037, -348, -587, -3809, -3028, 2852, -3421, 110, 2060, 2270, 5534, 3657, 5492, -3385, 5429, 1698, 742, -157, 3974, 570},
    {6080, -3457, 4696, -3587, -2891, 5977, 7414, -7259, -3307, 113, 513, -2554, 5207, -2647, -2321, -1085, -1404, 2903, -4375, 1136, 2059, 4204, 6705, 8471, 3892, -9833, 6934, -4928, 633, 3707, 6573, -1467},
    {1572, -6472, 2215, -3384, 2766, 11211, 6880, -4511, -2245, -497, 4642, -3309, 1452, -4202, 590, -551, 937, 4425, -4509, 4416, 4281, -1499, 8893, 3526, 2050, -12818, 8381, -3288, 1795, 699, 2641, -827},
    {7640, -1448, 1051, 566, -1143, 7283, 9886, -4820, -3642, -388, 179, -6673, 1302, -97, -3202, 282, -361, -1871, -849, 4465, 2073, -303, 8309, 4266, -2212, -11992, 7538, -6750, 2883, 5802, 3319, -2002},
    {2228, 2832, 1179, 176, -4472, 9626, 8400, -12447, -1352, 747, -1614, -9263, 4067, 2003, -6137, 2198, -1118, 1815, -2995, 6944, 4772, -3228, 10085, 2060, 929, -11035, 6757, -8131, 10438, -592, 5168, -7208},
    {-1511, -475, 182, -416, -1894, 11275, 5114, -12878, -2704, -1985, -3239, -5194, 4710, 4174, -2431, 1907, -823, 5262, -2565, -1746, 9152, -2806, 8838, 3772, -69, -7493, -1140, -4755, 10733, -6559, 11568, -6405},
    {-8610, 2579, 1154, -4317, -4133, 11665, 7807, -11072, -2413, 202, -8477, -4276, -3120, 6366, -1349, 3784, -2014, 7853, -437, -120, 2469, -2344, 7405, 7602, 3624, -8699, -6555, -6105, 10500, -3535, 15516, -6949},
    {-8994, 5107, 1761, 201, -6389, 13675, 3795, -13543, 3783, 1540, -14756, -9417, -2390, 5256, -1992, 4298, -2240, 12795, -2804, -5148, -1100, -8583, 6075, 4815, 1784, -20746, -4150, -3705, 13236, -1211, 2950, -4079},
    {-12755, -6652, 4781, -9614, -3399, 20646, -1784, -10449, 9017, -1542, -9652, -6322, -13171, -778, 12926, -702, 908, 5488, -4535, -8118, -3901, -6857, 9652, 8197, -2850, -12039, -2632, 1121, -2861, 11562, -14154, -5119},
    {-11472, -5807, 8773, -15199, -3309, 20508, -1765, -3758, 6789, 298, -2203, -8458, -12100, -2891, 16334, -3736, -5051, -13426, -6, 5823, -1909, -7323, 8907, 3868, 3166, 7664, -3312, 3225, -8723, 16432, -17530, -10824},
    {-4464, 5893, 5593, -5536, -7101, 8155, -2410, -2049, -5057, 4427, 1269, -12271, -10760, 520, 14990, 4222, 3915, -15887, 7860, 11065, 2162, -5772, 11716, -1891, 3676, 8873, -8143, 7383, 2623, 3734, -631, -7124},
    {5515, 1232, 3335, -4117, -7646, -2649, 524, -511, 111, 4020, 418, -3307, -8700, 5100, 10106, 7077, 4205, -6284, 7452, 7716, 107, -2994, 10399, -3082, 2711, 2010, -6385, 2985, 6101, -4205, 9113, -3020},
    {-2429, -152, 3607, -1361, -4877, -5893, 1542, -4225, 1864, 8375, -535, 2062, -12191, 527, 10272, 7184, 3943, 3100, -217, 2479, 1156, 5095, 5038, 2199, 9717, 2708, -8297, -1365, 555, -4266, 6816, -3900},
    {887, 542, 8398, -821, -5541, -2259, 3896, -3618, -3245, 3210, -4293, 1392, -5398, 303, 11365, 2631, 796, 3331, -49, 1360, -2743, 1315, 1695, 1575, 15546, 1620, -3094, -2436, -49, -3915, 3050, -2310},
    {3996, -587, 2998, 6682, -350, -3738, 5010, -1815, -2933, 9039, -7051, 371, -2740, -2396, 10044, -3719, 2251, -3045, -2953, -3783, -1667, -1481, 4738, 2550, 26890, 6079, 145, 1862, 425, -1962, -984, -1767},
    {5633, -2916, 7324, 1931, -320, -10346, 13198, -11, -6928, 8424, -4490, 864, -9896, 1507, 9037, -6952, 2904, -4120, -1433, -2512, 4476, -2695, 4915, 9120, 30135, 8676, -5150, -5200, -3793, 259, 1573, -2628},
    {2657, -5183, 4161, 1145, 4007, -9518, 14581, 519, -3414, 7405, -1404, 1267, -6057, 3492, 5073, -8235, 594, -3722, -2867, -8171, 2544, -5416, 7124, 5578, 23463, -3386, 8323, -2866, -3869, -1050, 3756, -3044},
    {7876, -5437, 4592, 1099, 2725, -4173, 7834, -530, -1021, 3212, -4428, 6004, -2162, 5488, 6997, -9107, 5940, -8135, -7218, -1196, 3311, -6689, 6563, 8160, 18972, -6777, 9053, -4260, -4280, 25, 2421, -5641},
    {4299, -7967, 1987, -7218, 6893, -1979, 1788, -1235, 5577, -585, -4337, 10591, 276, -293, 3079, -7892, 2687, -2735, -3738, 1080, 6684, -1868, 5610, 4684, 12006, -6126, 12416, -3003, -3152, 1500, -2329, -6094},
    {6360, -5196, -89, -7877, 4299, 3239, -5648, -2630, 5672, -3266, -3672, 8458, -2607, -35, 4935, -1988, 5490, -197, -5927, 3152, -1460, -447, -622, 1189, 5921, -4287, 11226, -484, -4455, 3907, -2820, -7723},
    {1081, 1754, -80, -3872, 2038, 1093, -3692, -663, 877, -5896, -73, 2570, -691, 4038, 2275, 425, 5492, 868, -3317, 1711, -4620, 1080, 1008, 915, -4327, -19, 3649, 1054, 7251, 1358, -1024, -7143},
    {1878, -150, 2367, -1839, -1225, 743, 912, -635, 3200, -5222, -2892, 2922, 2428, -134, 2704, 546, -1541, 3347, -1148, 1281, -2364, 1560, 1377, -715, -1352, -1206, 1314, 644, 1546, 1789, -1099, -1024},
    {-187, -1206, 331, 2253, -1920, -239, -3956, -2261, -2473, -3097, 2552, 501, 2178, -529, 36, 1210, 989, -745, -2800, -108, -1070, -1660, 988, 703, -857, -2452, 746, -645, -377, 2400, 2583, 28},
    {165, 1957, 1756, 2392, 457, -1508, -925, -1161, 1433, 2272, 1248, 2977, -168, -1124, -442, 2403, 1387, -2393, -332, -427, 3582, -71, 1545, 519, -613, 1887, 1502, -508, 2819, -1378, 372, 1920},
    {2478, -2713, 306, 541, 1297, -1145, 662, 927, 1551, -1882, 3057, -1121, -1376, 3192, 4457, -522, 1025, 167, 960, -3250, 369, 1648, -1223, -310, -202, 1822, 1078, -927, -12, -378, -718, -110},
    {837, -1862, 768, -492, 259, 732, -2218, -1517, 419, -1559, 2140, -4393, -455, 2633, 3264, -315, 542, -687, 1064, -598, 2663, -1465, 625, 863, -173, -2155, 1370, 339, -918, -2452, 98, -2707},
    {-2703, -1190, 2595, -304, 353, -1719, 1817, -1965, -1905, -4731, 550, -2366, -2887, 5231, 3544, 607, 1360, 1565, -2584, -1170, 4167, 945, 4087, -214, -86, 1456, 442, 3107, -3689, 3406, -1166, 3224},
    {-1575, -3607, 8838, 386, 1402, 1768, 1284, -3572, -5190, 699, -298, -3274, -4692, 6987, 3027, 781, -1257, 1662, -5058, -701, 2136, -571, 3105, 5750, 1729, -708, 292, -3907, -3442, -786, 2916, -5438},
    {-2964, -8691, 6078, -659, -1408, 10513, 8388, -11321, -1738, 4053, -3287, -894, -1471, -509, 1556, -1753, -2282, 432, -6545, 878, -570, -1067, 4218, 7238, 4123, -4654, 3537, -1795, 1068, -1447, 7146, -1646},
    {-1636, -7136, 1972, -2929, 2613, 9131, 8358, -10569, 2005, 2179, -4320, -6066, 297, -300, 1359, -5946, -1443, 463, -2668, 388, 1971, 2245, 6097, 3041, 228, -10514, 5154, -3804, 3255, -153, 11211, -1358},
    {-5148, -2045, 4767, 597, -3462, 8666, 8313, -13200, 1879, 4479, 3400, -5180, -479, 5444, 103, -4260, 73, 5192, 1849, 1192, 1812, -4147, 6821, -1398, 3707, -12149, 3947, -5243, 11369, 1685, 9163, -1614},
    {-77, -2453, 1827, -1482, -2851, 3550, 8179, -12414, -735, 4060, 1513, -5967, 136, 5578, 946, 78, -207, 4471, 889, -2463, 2706, -3264, 4607, -626, 2292, -4211, -2792, -4267, 11206, -766, 9850, -5912},
    {-1992, 242, 1433, -2992, 1270, 7664, 9497, -9764, 1448, 8022, -3541, -7962, 5069, 3147, -2009, 536, -2676, 1687, 709, -4771, 5510, -4306, 4641, 2605, 1298, -4417, -6198, -7764, 9364, 347, 5121, -6254},
    {-8135, 4296, -1205, 1070, -1261, 6839, 2942, -14144, 3321, 10642, -11088, -1023, 3414, 1627, -3468, 5918, 1280, 3376, -442, -10321, 9686, -759, 4799, 689, 4470, -4094, -4668, -5338, 16907, -3326, 11341, -6098},
    {-7482, 1904, -9689, 1783, -3008, 4297, 6032, -11500, 2806, 10647, -19391, -4128, 1905, -612, -9846, 10305, -115, 5545, -1676, -13725, -2108, -2975, 2503, 366, 2188, -14919, -3963, -6797, 19646, -8425, 9290, -5111},
    {-10210, 3950, -7450, -240, -3205, 7937, -5562, -12119, 6622, 13343, -24046, -3733, 2860, -2819, -9618, -632, 259, 4827, 2602, -12408, -4518, -8234, 3780, -8842, 2998, -18427, -4472, 2461, 17933, -381, -7238, -2991},
    {-6014, 1577, -2244, -11156, 1609, 14473, -2665, -8869, 7368, 12455, -20449, 1961, -3106, -5277, 1793, -3420, -1990, -6478, 1792, -9581, -8510, -4726, 7103, -6852, -2248, -11648, -6188, 4675, 1912, 12742, -15294, -8569},
    {-3279, 7278, 10751, -10910, -2343, 18530, 605, -4353, 2945, 7637, -6522, -2894, -8040, -5505, 13539, 1027, -1503, -21122, 3337, 4227, -5140, 386, 5375, -3086, -908, 8949, -9874, 8867, -7694, 16537, -17615, -15950},
    {697, 2069, 11913, -6572, -6263, 7495, 3108, -6096, 997, 1842, 445, -4613, -9320, 5335, 8784, 4370, 1550, -22652, 6827, 9343, 3316, -2134, 10076, -8445, -1413, 7374, -7220, 896, 3398, 5313, -1654, -7869},
    {2052, 1083, 12796, -1735, -7961, 2247, 2954, -1945, 864, 3124, -173, -3800, -6925, 2980, 1433, 9628, -3549, -10671, 6466, 2752, 1808, -1849, 7732, -3647, -2624, 6936, -8771, -6379, 3439, -10853, 3181, -1875},
    {4818, -2959, 11230, 2233, -5734, 356, 4955, -7831, 1915, 3640, -122, 3882, -10692, 278, 1778, 4734, -3183, -2217, 1557, 3361, 1393, 4949, 5044, 4281, -5479, 7034, -9222, -3908, -4554, -8082, 7642, -3669},
    {1581, 1077, 9495, 6986, -7711, -533, 2952, -7882, -2252, 3136, 1459, 2379, -6243, -2074, 5661, 4030, -2120, 2670, 152, 752, -3989, 2496, 2161, 671, -4397, 5247, -4017, -4285, -5163, -2716, 4892, -1500},
    {3612, 4426, 6738, 10824, -3256, -138, 9226, -2398, -6165, 4111, -6612, 6927, -595, -1090, 3938, -2816, 2569, -3355, -3118, 1265, -6710, -963, 752, -185, 5530, -4702, -317, -2389, -4681, 104, 7222, 588},
    {935, 119, 7827, 9808, 1910, -3105, 10402, -3592, -4616, 5618, -4312, 3844, 692, 1115, 2205, -5237, 3297, -6579, -2305, -2034, 400, -1447, 5483, 1115, 10740, -1417, 3650, -5179, -1414, -1019, 3068, -6014},
    {5153, -3465, 7306, 9695, 1314, -5402, 15975, -402, 11, 5914, -2752, 285, 2282, -418, 586, -8889, 5055, -11537, -3340, -1274, 1922, -7149, 8201, 163, 20069, -5804, 5451, -7598, -6356, -1378, 3194, -4105},
    {4231, -7933, 4060, 2435, 4789, -4971, 14667, -1374, 2914, 7288, -4667, -4742, 1034, 3963, 732, -10622, 1848, -5819, -4033, -3847, 7285, -4962, 7577, 672, 20303, -7498, 6116, -7815, -7436, -5730, 2907, 482},
    {-56, -10565, 2694, -549, 2561, -1104, 9590, -1781, 8810, 6066, -2609, 2169, 2296, -1681, -1129, -12865, -15, -2886, -5343, -5787, 6837, -3554, 10095, 62, 15789, -10586, 6211, -7655, -14401, 2992, 1067, 1242},
    {2058, -5748, -3255, 511, 210, 882, 1507, -3333, 7535, 1509, 120, 2640, 1596, -4324, -2799, -9066, -350, 2373, 602, -288, 4509, -5680, 24, -972, 11399, -2673, 1391, -6178, -7794, 1292, -2522, -2224},
    {-724, -152, 1174, -2737, -708, 3733, -3837, 1867, 1259, -743, -979, 2146, 2927, -256, 1384, -1267, -581, 509, -2126, 2236, -1582, -2184, 1952, -431, 2812, 2605, 4067, -1545, -2213, 3365, -4408, -3517},
    {435, -3209, 90, -1935, -1536, 1413, -1340, -1727, 1057, -3105, -195, 1796, -1929, 381, 1872, 837, 1156, 2121, 1798, 1061, -3373, 163, 2123, 1225, 1413, -352, -1265, -1077, -2974, 1933, 196, -802},
    {-1375, -2961, 198, -1423, 2998, 1985, -2003, -919, 729, 356, -562, 93, 898, -816, 754, 1101, -1767, -1918, 904, -1947, 1520, -1038, -1475, -993, 2317, -1463, -2229, 1470, 268, 970, 3137, -1988},
    {3105, -2149, 428, -1320, 1246, 1495, 191, -1301, -421, 2595, 883, 1632, -2524, 2136, -2071, -2071, -2124, 1066, -2659, -2087, 1083, 775, 2380, 1850, -619, 2153, 2209, 3679, -383, -1570, -953, 1075},
    {-1696, 381, 1711, 128, 679, -3775, -1563, 2127, 919, -657, 120, 3903, 427, -3146, 1297, -2016, 891, 661, -882, -1527, -295, -109, -629, -2094, 793, 3386, -1855, 1516, 1266, 2354, 459, -1267},
    {788, 591, -730, 1570, -1319, 970, 1781, -2682, -537, -1374, -284, -50, -2484, -981, 2322, 2761, -170, 2654, -439, -2712, 3444, -610, 1260, -1870, -1794, -656, 901, -1352, -1442, -1625, -1241, 1286},
    {-1911, -2408, 1753, 137, -1609, -3176, 2056, -2660, -4180, -377, -684, -3089, 62, 1871, 1810, -583, 1836, -2113, -1806, -1584, 1028, 1350, 364, 477, 2068, 363, 141, 325, -5074, -2887, 2817, -1169},
    {-1295, -4370, 3319, -1585, 1268, 594, 3977, -5124, -4983, 3247, -5791, -183, -5894, 2473, 4270, -237, -382, -2050, -954, 68, 1572, 1312, 2112, 2811, -628, -3811, 2675, -294, -913, 1156, 10364, -2161},
    {-2046, -4367, 1241, -3898, 331, 4875, 5673, -9043, 1099, 3706, -4083, -3944, -4051, 67, -326, -2463, 480, -2573, -1049, -4485, 3293, -2255, 5304, 557, 897, -7787, 6225, -4966, 6890, -1291, 14006, 852},
    {-3132, -4787, -1652, -300, 1779, 6723, 6282, -10632, 4619, 9089, -6964, -8080, -2352, 3839, 2880, -4717, -1660, 2340, -2640, -3694, 1547, -214, 8913, -3754, 4023, -10992, 4538, -4391, 5330, -63, 14098, 70},
    {520, 511, 1486, -3108, -78, 1881, 7889, -10424, 1215, 9859, -8518, -6030, -3587, 4980, 1100, -4796, 3117, 3196, -878, -2107, 2665, -109, 6953, -4496, -775, -12044, 1454, -5132, 9364, 2131, 13549, -1921},
    {-25, 4446, -3216, 404, -2224, 2928, 5687, -10091, 1491, 10360, -10350, -7402, 291, 1387, -1899, -4629, -3496, -175, -383, -6777, 4822, -2791, 4977, -6293, -301, -1115, -994, -3963, 8965, 967, 11180, -2944},
    {-2385, 3635, -5164, -1549, 1602, 1260, 3866, -9313, 5876, 8646, -13040, -2733, 5704, 6048, -4122, -1561, 1130, -78, 931, -5403, 4144, -5474, 4768, -4869, -977, -4472, -4156, -7268, 10495, 2661, 10780, -7843},
    {-1778, 2931, -8884, -873, 2202, -982, 5262, -3341, 3838, 12152, -16547, -631, 7436, -889, -5713, 667, 3638, 1492, 1169, -13578, 5765, -986, 2767, -1933, 524, -5005, -2187, -5494, 12255, -4512, 9800, -6072},
    {788, 4175, -9647, -1066, 459, 567, -1109, -1309, -2214, 13579, -18698, 1654, 8569, 1096, -14007, 3927, 2194, -51, 207, -8463, -3948, -5843, 7507, -6468, -1397, -10287, 1755, -2910, 14874, -5260, 3107, -6613},
    {-2398, 5520, -11122, -4927, 5503, 4408, -6775, 3932, 3926, 15995, -16826, 4977, 5427, 1457, -11306, -369, 4275, -2253, 4867, -3315, -14025, -131, 6512, -11152, -643, -13307, -3002, 7147, 10163, 7154, -7238, -10439},
    {986, 11018, 1796, -8864, 4277, 9266, -2713, 8011, -120, 12212, -11586, 1333, 1384, -204, -5459, 2791, -2329, -13348, 4859, 3951, -14242, 5412, 5278, -10236, -758, -4744, -2608, 4681, -8482, 17314, -15518, -9363},
    {3091, 11116, 9704, -8768, -1063, 5772, 2777, 7461, 3972, 3566, -4745, -4038, -1443, 6923, 3871, -501, -4104, -15558, 7178, 4914, -1777, 6311, 1155, -5345, -994, 3536, -8697, 3690, -10752, 17026, -13610, -10296},
    {6910, 3495, 11109, 2014, -6636, 11469, 4447, 1879, -309, 3090, -2947, -5177, -4501, 6404, -2626, 240, -8715, -15646, 9196, 8673, 2129, -4571, 8271, -10011, -3144, -534, -8931, -7795, -699, 5758, -8236, -11038},
    {3484, -1127, 8868, 6162, -5920, 4757, 5214, 1704, 1509, 8, -3155, -4068, -5535, -409, -7954, 6631, -11520, -12750, 7690, 7703, 1705, 1316, 7583, -5562, -1790, 5605, -5792, -5457, -5425, -6570, 1385, -7631},
    {2406, 2522, 6873, 10517, -8062, 3200, 3039, -3284, 2696, 820, 4564, -1003, -5739, -420, -11919, 4010, -2686, -5108, 9183, 3041, -6494, 821, 4800, -600, -3616, 8419, -5512, -2529, -4616, -7924, 4030, -808},
    {-9, 581, 2925, 11881, -8787, 314, 4852, -8060, 1131, -151, 2622, 2908, -4277, -3032, -6657, 3955, 4428, -3690, 1312, 2251, -4116, -519, 2219, -1155, -5312, 3296, -2789, -2523, -6105, -4836, 3974, -1828},
    {196, -4794, 7870, 9055, -6129, -612, 9368, -2238, -164, 2789, -1566, -669, 2341, -6189, -3630, 1148, 8316, -7945, 1541, 2326, -5477, -205, 2545, -3793, -8450, -882, 2874, -3183, -917, 336, 8217, -3351},
    {-2327, -1485, 4615, 12106, -3219, 1655, 8935, -3091, -641, 488, -4834, 1975, 5005, 376, 3144, 4912, 7728, -8300, 1411, 636, -4163, -2861, 5224, 818, -1229, -6734, 2813, -2592, 1257, -2356, 3722, -6446},
    {-267, -4279, 3841, 7150, 1852, -2605, 12454, -4516, 167, 3986, -1101, 551, 5616, 3198, -2570, -167, 4723, -8236, -1807, -5128, 5042, -5669, 2614, 2082, 7970, -8590, 4819, -2582, 2477, -4105, 2121, 171},
    {1223, -6417, -199, 4738, 1110, -1113, 9067, -2354, 3650, 4099, -2531, -2238, 3892, 627, 1838, -6828, 3262, -1615, 2477, -7500, 7100, -6844, 3454, -1135, 12721, -10028, 4304, -7709, -5921, -3498, 5982, 3557},
    {-3007, -9767, -3609, 709, 4238, 3499, 6421, 4780, 5908, 5346, 143, -1362, 5446, -4198, -301, -9546, 943, -314, -811, -7628, 5992, -7717, 2619, -2731, 12999, -4628, 7095, -5388, -11043, 451, 2907, 4817},
    {528, -6581, -4311, 488, -327, 1665, -201, 4091, 143, 3589, 1608, 2227, 6160, -3403, 1494, -3594, 827, 1737, 1468, -4886, 2809, -4414, 3472, -1526, 9883, -1592, 2747, -1553, -9813, 731, -849, 2503},
    {4316, 1392, -627, 1318, -738, 735, -2339, 829, -5279, -5004, 677, 2478, 1211, -54, 188, -50, -1493, 137, -159, 3919, 53, -1801, 788, 584, 3542, 4382, 1259, 1016, -3495, -141, -2704, 3977},
    {-555, 421, 287, -798, 191, 2805, -4, -1148, 2291, -3037, -2933, 2120, 2333, -1045, 1009, 4117, -460, -614, -106, 603, 1897, 1717, -1511, 2161, 707, 2703, -1676, 443, -1137, 1519, 656, 150},
    {3564, -2411, -3265, 705, -1172, -267, -2916, 1008, 498, 452, 2382, -1785, 2598, -567, 121, 3324, -1293, 2382, -3182, 1413, -771, 1878, -288, -4349, 2459, 1101, 840, 1984, -163, 2042, -1900, -3214},
    {-567, -1042, -1051, -405, -1900, 2018, 912, 3461, -32, 1908, -2027, -1867, -2868, 936, -3016, -1223, 1701, -254, -1169, 1084, -173, -2321, -1600, -367, 172, -620, 643, -29, 321, -2454, -3544, 1358},
    {-1272, 1889, 292, 2671, -1598, 3339, -2849, -630, -1308, -141, -788, 275, -81, 1483, 829, -1761, -2968, 483, 49, 652, -365, 886, 564, 696, -131, 201, -2008, -477, -537, -1306, -843, -127},
    {1242, -2194, -1373, -2095, -1138, -3231, 1152, 867, -665, -44, -530, -1487, -581, 3544, -1342, -1092, -1816, -134, 841, -1192, 117, 366, 1616, -932, -1118, 459, 425, 1253, 1675, 2318, -2546, -1523},
    {-2393, -2005, 1020, -241, 1363, 201, -86, -2864, -365, 480, -2032, -1043, -1350, 1589, 1799, 2281, 864, 3, 843, -554, 811, -1569, -961, -454, -1100, 791, 1325, -1485, -1641, -63, 912, 966},
    {286, -6708, 3650, -1587, -4620, -3279, 3249, -2199, 866, 4178, -4159, -1942, -4304, 3660, -645, -258, -87, -4539, 1701, 1984, 2082, -722, 1435, -406, 1865, -123, -3931, -3976, 3192, -2957, 7151, 2209},
    {715, -6101, -1909, 763, -3594, 1592, 2042, -7053, 1538, 9514, -3398, -2514, -980, 2677, -535, -3669, 2224, -92, -262, -6613, 1721, -5806, 3800, -3625, 2912, -8523, -172, -2744, 13010, -1962, 10826, 1013},
    {-2032, -2546, -1456, -1345, 1625, 1318, 6839, -5437, 2071, 16790, -8157, -3473, -1437, 2341, 801, -1873, -2564, 1023, -703, -9098, -184, -2850, 8477, -5077, 2630, -7548, 5140, -4576, 4870, -1339, 9794, 6930},
    {1471, 470, -5475, -1976, -3013, -6652, 4890, -4464, 3492, 14037, -10505, -8829, 2003, 4226, -4332, -4167, 3337, 1919, -13, -10549, 5604, -923, 6199, -4661, 78, -4270, 1243, -2568, 7097, 767, 10536, 6890},
    {2145, 2349, -5518, 98, -389, 1302, 250, -422, 5509, 11030, -12719, -8848, 682, 2019, -1838, -7040, 3119, 1437, 5729, -7963, 3800, -322, 5285, -5218, -1247, -3063, 1362, -2050, 8314, -237, 8808, 692},
    {-1319, 5244, -8953, -2531, 3048, 2404, -1743, 4923, 5315, 13992, -16462, -6824, 117, 3254, -1975, -5787, 3257, 1395, 3445, -9076, 7623, -2169, 7181, -6653, 967, -3385, 1581, -1247, 5973, -589, 7472, -5481},
    {4468, 79, -13975, -3451, 385, 2454, -3347, 5886, 2584, 9443, -16175, -1691, 3865, -1567, -5297, -2986, 3136, 2261, 2765, -5316, 1293, 413, 5064, -2736, -2828, -6969, 5895, -9061, 4205, -1886, 2915, -9314},
    {4568, 894, -13664, -2435, 2763, 3355, -792, 9320, -1870, 10481, -11937, -957, 3523, -267, -9077, -846, 3404, -7186, -128, -1863, -7194, 779, 10780, -7739, 3377, -12463, 7536, -7415, 3919, 2713, -385, -6906},
    {-401, 8796, -12155, -8596, 4567, 1415, -731, 12027, -4436, 10463, -2830, -3213, 2986, 3996, -8722, 868, 1755, -12803, 1453, -4659, -18198, 1004, 8285, -9860, 1877, -6364, 577, 1399, 2116, 6639, -5155, -12720},
    {4417, 8809, 514, -7047, 4255, 5489, 379, 9160, 191, 3951, -596, -166, 4421, 1162, -5920, -8652, -2272, -14145, 3601, 5495, -13311, 3913, 6094, -7691, 1092, -641, -3952, 12, -11811, 16367, -13917, -10112},
    {3585, 9627, 9395, 1469, -2115, 6075, 1139, 7635, 1417, -1373, 1008, -361, 2709, 5233, -335, 2563, -4579, -14627, 6219, 5486, -4359, 1352, 359, -9564, -663, 2259, -7112, -3057, -7608, 15200, -15227, -12756},
    {2346, 5601, 8316, 6775, -5322, 6024, 2313, 3665, -998, 3875, -1004, -3553, 976, 5362, -4169, 4882, -10685, -8343, 8754, 1046, 3160, -892, -6, -10922, -2810, 2460, -6520, -8145, -2854, 3278, -6420, -13445},
    {1839, 2926, 4359, 7028, -7065, 3249, 5959, 4406, -3807, 6133, 2257, -5517, -3297, 4169, -6996, 8380, -7828, -7670, 12433, 1114, -2395, 1165, 7697, -7849, -4760, 1667, -5733, -3948, 2384, -6248, 2969, -7151},
    {789, -3211, -516, 7607, -9340, 1719, 1466, -4867, -4069, 2973, 3964, 1656, -3089, 2312, -8580, 4917, 8333, -13794, 8294, 3533, -1015, -574, 8499, -3110, -955, 3545, -5565, -5879, 3087, -8154, 6231, -3449},
    {-1222, -3158, -276, 8123, -10671, -1647, 4353, -3752, -3774, -797, 9503, 1375, -1765, 3004, -1191, 1315, 10409, -13533, 2673, 5814, -3420, -4255, 6009, -1520, -1464, 1377, -1430, -6135, -2522, -4755, 3843, -79},
    {-7626, -6160, 2600, 8654, -5016, -2499, 7648, -1189, -7185, 2067, 7409, -1909, 2081, 4030, 1233, 3674, 11159, -14467, 2003, -718, 1926, -5996, 3017, -583, -4665, -1633, 1255, -4415, 259, -6724, 783, -1504},
    {-2281, -7565, 2266, 9092, 1724, -4060, 6448, -1276, -2038, 4505, 2067, -6610, 4518, 4458, 488, -409, 12110, -11579, 1754, -4987, -2748, -2871, 1534, 3925, -7398, -3276, 2556, -4505, 444, -5384, 2199, 232},
    {-7399, -4802, 1015, 2010, 561, -5144, 4340, -1062, 6195, 3452, 2897, -3555, 3258, -828, -2621, -1933, 5317, -6217, -1370, -8895, 5065, 1619, 33, 736, 2294, -3292, 3772, -3034, 1172, -3913, 1636, 2918},
    {-4881, -8143, -5834, -2584, 2454, 2342, 5754, 2965, 2484, 4126, 4241, -5526, 1670, 891, -2954, 1205, 5711, -2978, -207, -9691, 9425, -1515, 3437, -1065, 7996, -4048, 4041, -2045, -1099, -6317, 3078, 3043},
    {-627, -5303, -7547, -3225, 620, 3547, 1703, 6945, 6784, 2952, 5935, -1149, 267, -4519, 934, -4230, -488, 391, -2277, -12588, 9969, -1826, 2475, -1967, 11620, -1933, 4194, -5543, -4631, -2731, 1345, 6431},
    {488, -3400, -5908, 1544, 2238, 1900, -4320, 2480, 4401, -1666, 4570, -1481, 4355, -5123, 1920, -5045, 317, -159, -2648, -6194, 3943, -2195, -1346, -1076, 8650, 177, 1568, -2078, -7395, 1740, -1783, 7575},
    {301, 1663, 2156, 1276, -2541, 278, -3494, 2260, -1287, -912, 2171, 4267, 4941, -4331, 346, -293, -1163, -53, 537, -1891, 1624, -2538, 2372, -1086, 4817, 2603, -1729, 2091, -9126, -367, -2752, 4170},
    {304, -81, 2502, 521, -2331, -469, -670, 888, -472, -627, -209, -431, 425, -3104, -1442, -1670, -2384, 1800, -587, 1804, -39, -3284, 1478, 73, 238, 1818, 2412, -1477, -4192, 843, 196, 2231},
    {-2745, -299, -853, -977, -145, 386, -508, 1316, 798, -1854, -1999, -2733, 411, 946, -1204, -638, 1553, 982, -1236, 2512, -1521, 975, 1879, -1060, 2394, 1849, -1996, -311, 274, -507, -2466, 11},
    {461, 711, 567, -2095, 425, 1193, 1947, -340, 925, -1735, -489, -42, 3873, -1107, 1365, -3114, 1590, 319, 302, 653, -1707, 1300, 1754, 18, 2045, 216, 791, 1791, 3636, 205, -916, -61},
    {493, -2286, -551, -3854, -3455, -1095, 2030, 954, -3270, 1380, 593, 2576, -296, 405, 1437, -639, 62, -47, 564, -3155, 1066, 2302, 145, 3074, -555, -1017, -1085, 112, 2181, 1674, -1801, -1688},
    {-415, -5661, 190, 1401, -608, 280, -1053, 579, -490, -961, 5198, -1125, -1405, 2967, 1189, -777, -293, -591, 2443, 218, -1590, 1094, 1440, -1237, -707, 1290, 2105, -3543, 450, 2583, 422, 273},
    {-4339, -1590, -960, 635, -1555, -3636, -192, -648, 66, 245, -73, -792, 2114, -1166, -1150, -174, 693, 160, -1730, 3215, -103, -918, -4504, 63, -1928, 614, -3771, -718, -934, 66, 1974, 2944},
    {-2171, 658, 644, 4602, -637, -4085, 1839, -3415, -3662, 7472, -1880, 2008, -3408, 5106, 255, 2339, -158, 279, -298, 1805, -2323, -2261, -2713, -2591, 2708, 298, -597, 3195, 2527, 313, 5598, 3263},
    {-168, -3692, -2348, 1802, 2377, -6792, -1499, 1101, -1867, 14011, -8480, 2457, -822, 870, 1341, -2246, 719, -1951, 2151, -3939, 965, -3495, 143, -4681, 3091, -1133, 3617, -1174, 4859, -3719, 9965, 11041},
    {-986, -6457, -6027, 286, -608, -6714, 2305, 902, -1734, 16500, -8698, -4526, 2921, 249, 302, -875, 3617, -4259, -6230, -5905, 1121, -3720, 3419, -2432, 5704, -5786, 8793, -3810, 5210, -1095, 1761, 12174},
    {4866, -6617, -5160, 2781, -1002, -7854, -3235, 298, -489, 12768, -12480, -7610, 1559, 1797, -1915, -7865, 3055, -717, -54, -10164, 5195, -3331, 7125, -4250, 5374, -5799, 5759, -3081, 4174, -1457, 7828, 11319},
    {3214, -1500, -6920, 588, -3161, 786, -6663, -1115, -86, 9538, -15893, -13244, 4718, 1953, -2981, -10478, 2963, -4228, 3738, -6297, 2485, 2685, 3823, -933, 1769, -3585, 943, -1511, 6423, 1412, 8348, 8617},
    {7266, -3779, -10625, -1670, -1265, 3706, -8691, 1249, 2156, 4314, -16216, -8758, 151, 4761, -3254, -12674, 3970, -4842, 4293, -4286, 471, 2702, 6046, -3941, 0, -1828, 624, -7161, 6729, -2929, 1389, 598},
    {7913, 179, -14453, 356, 3499, 2526, -3357, 7503, 3224, 8491, -12126, -6133, -544, 6003, -4371, -4660, 3521, -3802, 5618, -3941, -2836, 9357, 5570, -464, -1553, -2896, 1147, -11056, 2192, -1226, 4887, -4886},
    {3543, -937, -12913, -2355, 6670, 5197, 3981, 11956, -5446, 7575, -1223, -3244, 879, 5212, -8137, -960, 356, -9901, 6494, 113, -10682, 3870, 5245, -2151, 1825, -3157, 5069, -5888, 2763, -558, -1691, -8043},
    {964, 3130, -11801, -3712, 5785, 8371, 698, 8093, -5207, 2076, 4850, -1763, -719, 2513, -7377, -4380, -1313, -8282, 7571, 1138, -19141, 4314, 7134, -5629, 254, -4177, 1133, -563, 4269, 9411, -3771, -12821},
    {3084, 11298, 2090, 1180, 3848, 9645, -1434, 13188, -1089, -1600, 6605, -1029, 5646, 2634, -7075, -6741, -7855, -13395, 4248, 5967, -11703, -296, 1802, -11170, 3758, 444, -5395, -2654, -6526, 15962, -15962, -7961},
    {3067, 7161, 8700, 5308, 1316, 9587, -4191, 8689, 777, -997, 4014, -4610, 4309, 4434, -3339, 2125, -14379, -14927, 6670, 2089, -75, 114, 5666, -12958, -695, 399, -8381, -5053, -4473, 10468, -23283, -8979},
    {-42, -2359, 3482, 12088, -7819, 4169, 2811, 5261, -4526, 4712, -1760, -4864, -437, -57, -7185, 10593, -5669, -4198, 8044, 4190, 2736, -893, 3908, -7612, -137, 4044, -7635, -6990, -2447, -209, -9794, -13176},
    {3551, 3666, -2607, 11905, -5669, 5187, 1817, -595, -6945, 8028, -661, -6453, 733, 1581, -8246, 4808, -2737, -7516, 9041, 8721, -3683, -997, 3170, -7828, -4791, 6872, -5514, 632, -4274, -3355, 2572, -7209},
    {-14, -9693, 476, 3834, -9669, -1352, 2512, -1379, -9496, 7051, 3863, -489, -3899, 4215, -3157, 4238, 11691, -7716, 8908, 4979, -2494, -751, 14536, -131, -3260, -143, -6035, -5181, 2735, -8742, 4309, -2378},
    {-4042, -8745, -3850, 695, -8262, -1754, 1657, -292, -3994, 3484, 3836, -1505, -3479, 5520, 1430, -452, 16933, -8643, 1585, 3141, 286, -2544, 9666, 3379, -2153, -4184, 3621, -4362, -2890, -4806, 2379, 1536},
    {-3128, -8756, -967, 6387, -1508, -793, 471, 557, -3615, 5300, -757, -174, 605, -3321, 895, 3293, 15383, -13569, -1313, -4501, -3915, -3148, 3323, 503, 241, -5165, 2029, -1765, -1173, -9970, -4728, 3581},
    {-5852, -7282, -2456, 3823, 2701, -3652, -1179, -2181, -942, 8156, 3612, -7610, -3248, -2722, 3546, 6370, 13571, -10217, -2900, -14085, 4778, 1082, 1438, 7184, -3500, -3834, 1964, -5272, -3530, -2281, -2974, 4847},
    {-5294, -6605, -1573, -1875, 2885, -881, -1969, 2869, 2860, 6106, 6643, -7414, 330, 2206, -1517, 2890, 11126, -6432, -445, -14351, 3907, 3084, 2930, 3875, 21, -2213, -1816, -806, -1422, -5085, -610, 2953},
    {-7513, -1252, -5461, -389, 1998, 2819, -2770, 2025, 202, 6202, 5030, -4036, -5974, -2571, 2242, 1877, 4395, -1308, -1360, -12235, 6125, 2597, 6368, -797, 6688, 2304, 549, -2922, 1817, -6624, 4431, 1224},
    {-2142, -4256, -7249, 621, 2623, 5985, -4250, 1712, 3230, 847, 3947, 1807, -1416, -2669, 78, -2621, 2883, 6787, -1172, -12529, 7829, 1887, 908, -815, 4832, 3154, 1611, -160, 498, -3113, -1085, 4595},
    {-550, 1645, -8726, -712, -1121, 1428, -3729, 6897, 1640, -206, 4381, -2267, 4175, -4982, 1416, -3597, -386, 1174, -3234, -10561, 1870, 949, 2878, 3965, 8764, 5021, 3784, -1004, -8073, -565, -3517, 6744},
    {6440, 173, 623, 1442, 1611, -857, -3577, 5249, -740, 1198, 1017, 1419, 5689, -5288, -1462, -4819, -3386, 1131, -1429, -1493, 23, 3597, 1614, -110, 1351, 5218, -1355, -777, -8465, 5545, -2776, 2829},
    {2160, -1298, 240, 2706, -441, -3859, 961, 2496, -2493, -101, -1980, -1941, -2410, 1653, -1312, -2999, -3069, -1000, 130, 1487, -2262, 72, -263, -1054, 2828, 1401, 1077, 3070, -1493, 1644, -925, -544},
    {-1157, -2205, -105, 977, 680, 2003, 2936, -3861, -670, 405, 1398, 809, -3394, -575, -1856, -2078, 861, 394, 22, -2799, 1067, 2840, 1745, 1706, 1081, 776, 575, 664, 252, -603, -502, -1061},
    {-1302, 311, 2454, -1655, 917, 217, 160, -2503, -1737, 84, 699, 118, -2276, -1079, -751, 2077, -1474, -3247, -1003, -1877, 854, 1463, -601, 2033, 2974, -447, 1351, 2016, -806, 1477, 1988, -1008},
    {3368, -1105, -1410, -960, 1334, -630, 1108, -48, -1356, -2183, -1025, -87, 3792, 2887, 2991, 431, 3313, 3114, 1672, -2807, -266, 1915, -2441, 1035, -529, 833, -2158, 235, -333, 1222, 180, 2605},
    {-776, -798, 3668, 1459, 1, -322, -1433, 1862, 1043, 1369, 1278, -794, 523, 575, -652, -2187, 2343, -2727, 13, 584, 1468, 2185, -4006, -3168, 1345, -900, -1400, -2424, -701, 342, -2307, 2631},
    {2668, 2497, -3189, -1349, -512, -2373, -1494, -151, -904, -297, 275, 2223, 158, 2573, -1239, 3162, -768, -1609, 2122, -2655, 1774, -692, -1302, -161, 878, -616, -2110, 4527, -418, 3756, -1081, 2215},
    {-1511, 326, 1507, -442, 3054, -4714, 105, 71, -3520, 3640, -5345, 4945, -657, 401, -2029, -477, -1384, -3556, -1288, -1250, -3066, -4957, 229, -3156, 4867, 2181, 1185, 1940, -4414, -642, 1184, 5638},
    {1973, -3027, -1321, 833, -433, -5277, -451, 791, 129, 9447, -5832, 2332, -3655, -190, -122, -1910, 3552, -4021, -3294, -6341, 2870, -6322, 1389, -603, 7225, -1539, 5504, 2381, -4097, -341, 6290, 8263},
    {3074, -5365, -4429, -871, -2448, -6828, -3556, 6037, -447, 13093, -5501, 1343, 2042, 4419, 1965, -4514, 4414, -5658, -1592, 1021, 4107, -6793, 6004, -7241, 8133, -6594, 7233, -2677, -3895, -1513, 134, 11914},
    {3858, -11082, -880, 3222, -4199, -1587, -3941, 5431, -572, 10258, -7756, -8153, 390, 7239, -2974, -3993, 3574, -4624, -3181, -3654, 6808, -7805, 13597, -9146, 5509, -2631, 2585, -3356, -2347, -3932, 4458, 18915},
    {6843, -16697, -2503, 891, -2111, 2676, -5456, 589, -2642, 2895, -9626, -14284, -127, 5992, 2803, -5904, 7161, -1576, -1125, 3073, 7402, -506, 15563, -1728, 1571, -5860, -1728, -7809, 1006, -5590, 3123, 17130},
    {7126, -14828, -4803, 1684, 3024, 2714, -7022, 6286, -443, -1091, -10275, -9468, 3332, 4401, -3862, -10008, -1250, -3737, 4361, 5593, 76, 4957, 9939, -2075, 6147, 4159, 528, -9350, 2407, -3270, -2723, 15102},
    {12863, -12089, -12078, -3821, 5195, 3864, 582, 8930, 1884, -2482, -8322, -10266, 1912, 2344, -1438, -12827, -4621, -5586, 4482, 10383, -4685, 7146, 2896, 2861, 1724, -11, 504, -8613, 74, 5690, -1608, 7064},
    {4867, -8133, -11195, -115, 7222, 1842, 6434, 6615, 2151, 3875, 2544, -11529, 1955, 5100, -10463, -8308, -8879, -7309, 1250, 3184, -14034, 8055, 1375, 1738, 1153, -198, 4349, -4983, -398, 5999, -4593, 5157},
    {10735, -4227, -7658, 1545, 7431, 5866, 454, 4145, -4237, -1572, 5294, -4464, 1990, 5731, -13109, -1606, -5316, -6660, 1101, 3949, -19983, 8231, 1957, -3848, -2796, 979, -3521, -2112, 82, 11312, -9348, -1721},
    {333, 308, 4532, 8260, 2607, 7026, -4727, 10406, -6192, -4682, 10317, -3990, 2570, 5357, -10302, 7998, -7943, -16246, 5405, 9427, -12287, 5635, -427, -9905, 3183, -1261, -6034, 3066, 1901, 14332, -20959, -3551},
    {2256, 1105, 3802, 15505, -6219, 12604, -244, 8631, 301, 1302, 6092, -10519, 2508, 636, -9046, 3343, -9163, -12939, 6038, 6948, 2106, -1056, 2644, -11902, -415, 926, -11151, 920, 1136, 5824, -19633, -4722},
    {8771, -3937, -4668, 8888, -5684, 4712, -4053, 1327, -5496, 4745, -4417, -4158, 5863, 1823, -7021, 6198, -1893, -6039, 5544, 3452, 7334, -3624, 10798, -9106, -4437, -2950, -1268, -3711, -600, -5007, -2321, -7071},
    {4771, -476, -4351, 8255, -11846, 3015, 1168, 6689, -11275, 4783, -1075, -3346, 6164, -199, -4371, 3439, 1303, -4301, 4714, 7473, 1499, -4030, 11537, -4089, -1146, 120, -4981, 2353, -4150, -4514, 1885, -4310},
    {4630, -6419, -9486, 5906, -6355, -5303, 1715, 852, -8089, 5425, -232, 1080, -2187, 1442, -944, 5401, 10165, -3150, -2658, 5241, -7031, -183, 11890, -1249, -589, -402, 1118, -4093, 396, -6699, 3878, 2373},
    {-1455, -3431, -6000, 4857, -4353, -1707, -1774, 3048, -6161, 5256, -486, -1117, -5925, 845, 780, 6932, 12199, -8657, -3094, -1192, -5799, -1713, 2927, 1067, 144, -1924, -303, 2627, 2845, -3602, -2141, 9145},
    {-5994, -7810, -3740, 3699, -225, 1091, -5824, 1765, 1533, 4684, -791, -6192, -1492, -577, -1930, 6289, 13120, -4979, -2482, -9315, 94, 34, 98, 1863, 293, -2082, 5919, -4365, 4330, -6790, -4566, 11295},
    {-17, -5711, -8691, 2080, -867, 412, -5938, -1169, -1612, 3187, 900, -3551, -1732, -859, -1361, 2303, 10623, -5503, -5733, -12991, 475, -929, -189, 4944, 136, -2247, -1599, 1848, 1865, -11010, -910, 8301},
    {-4686, -1906, -8182, 1464, -2590, -1999, -8153, 5964, -3803, -920, 2850, -4326, 504, -282, -3641, 47, 10905, 1784, -3288, -9577, 3766, 1384, 1381, 1047, 732, 6284, 3087, 2572, 4193, -8182, -2674, 6500},
    {-9302, 1059, -4885, -2654, -3512, 2784, -7635, 2876, 2957, 439, 3611, -736, -1511, -1867, -4712, -4657, 5562, 872, -4853, -6330, 5505, 1839, 2527, 1845, 4006, 3033, 3566, 3894, 1436, -2484, -3513, 6566},
    {75, 957, -5436, -231, 3685, 4988, -7702, 1440, 421, -1010, 3070, 2859, 2143, -4094, -841, -1315, -49, 263, -3266, -9150, 1983, 3556, -354, -566, 8915, 3334, 1968, -460, 435, 2166, -7147, 6978},
    {3098, 1822, -3611, 1315, 1614, 1958, -6731, 7296, -484, -4436, 1363, -651, 4677, -3088, 1262, 279, -2690, 413, -749, -4453, -2389, 4862, -2972, -364, 7652, 6821, 6310, 4143, -2959, -740, -5363, 2827},
    {3625, 3268, -5332, 3129, 399, -1494, -1472, 473, -4610, 257, 742, 5334, 5771, -553, -5486, -4337, -1490, -428, -461, -351, -3813, 769, -2294, -1296, 4818, 5432, 200, 3725, -3179, 820, -5146, 6965},
    {2609, 563, 1006, 1519, -101, -1102, -1728, 219, -614, -1467, -190, -884, 1260, -1744, -4017, -2582, 1227, 1837, -1090, 2815, -1751, 987, -501, 1049, 3303, 3418, 318, -2743, -2953, -1441, 66, 5488},
    {3314, -3629, -1649, 3277, -543, -442, 204, -842, -286, -2473, 574, -331, 3160, -245, -986, -132, -3294, 2623, 2945, 404, -59, 1505, -387, -1762, 2073, 1242, -1056, -1834, -40, -202, -342, 2057},
    {-757, 1252, -2449, -1343, -2532, 1942, 330, 1643, 1161, 727, -567, 373, 3153, 1223, -469, 1394, 199, -754, 2076, -456, 2863, -2787, -1313, -2673, -1673, 1935, 1592, 300, 1028, -604, 589, -1761},
    {-2367, 597, 1728, 2022, -3416, -430, -1445, 1382, -397, -2911, 694, 2594, 216, 1371, 1477, 1502, -916, 55, -2004, 684, 2077, -1710, 1472, -521, -2403, -5661, 2959, 2568, -1108, 105, 400, 1430},
    {528, -3060, -3419, 268, -1999, 2146, -591, -899, -3125, 1266, -16, 182, -885, 1027, 102, 826, -2581, -2065, -2914, -712, -1360, 323, -3034, 1153, 930, 3407, -361, -589, -833, -77, -1231, -585},
    {905, 1178, 1592, 1798, 1862, -788, -3248, 515, 3499, 952, -1470, 6044, 1541, -4552, -774, 2205, 1313, -3272, -691, -517, -1015, 2174, -2623, -3216, 9, 2643, 2154, 569, -1113, 2234, -4863, -624},
    {187, 1013, 2036, -123, 815, -6764, -7487, -1999, -2921, -2333, -3558, 3877, 550, 1271, -227, 985, 355, -1130, 1213, -2791, -2844, 3032, -4133, -4061, 1961, 3177, 1972, 3637, 309, 3843, -2963, 2619},
    {1825, 1000, -1269, -4897, -609, -5753, -6077, 3726, 1679, 6684, -9859, 8634, -1532, 1366, 1554, -2162, 4313, -1530, -3086, 731, 4054, -6453, 333, -4988, 1459, -4474, 6935, 3186, -3402, -4091, 2346, 5936},
    {1905, -6895, -5722, -138, -839, -1774, -8403, 9282, 4147, 7678, -8967, 5756, 3747, 3137, 2022, 1753, 9527, -5056, -6402, 5263, 2768, -5815, 7291, -4387, 1883, -5657, 15197, 4649, -4082, -877, 4739, 7958},
    {2486, -10733, -1375, 1419, -4295, 2172, -3179, 3486, -6770, 6873, -10898, -3922, -800, 6000, 1040, -2663, 6823, -8446, -7619, 3589, 3672, -8547, 13320, -3824, 1375, -3279, 7655, -2920, -5066, -5571, 591, 12143},
