#ifndef MNIST_WEIGHTS_INT32_H
#define MNIST_WEIGHTS_INT32_H

#include <stdint.h>

#define INPUT_SIZE 784
#define HIDDEN_SIZE 32
#define OUTPUT_SIZE 10

// Q16.16 fixed-point format: 16 integer bits + 16 fractional bits
// Range: -32768.0 to ~32767.99998, precision: 1/65536
// These weights are pre-quantized offline for efficiency

const int32_t W1_fp[784][32] = {
    {-1378, 6750, -1634, 2965, -2821, 525, 4655, 2033, 2845, 412, -721, 2155, 1287, -2214, -728, -1631, -3149, 4273, 365, 3068, -1250, 1875, -4786, -1326, -1374, -1488, -2992, -34, 570, 226, -1389, -2934},
    {-4924, -1755, -4375, -7240, 3178, -3013, 107, -382, -1291, -638, -1462, -1433, 2671, 883, 5977, 961, -980, -1325, -2605, 5262, -1768, -429, 2226, 2590, 3864, -3161, -4251, 2802, 646, 832, 230, 5},
    {-7615, -1403, -10, 1659, -3013, -9371, 1669, 2246, -2325, -245, 5411, 575, -2477, 2488, -181, -870, 2189, -800, -1180, 3366, -388, -632, -11909, -656, -1878, -2108, 1948, 3166, -5158, -8778, -1330, 1137},
    {1018, 2048, 750, 2307, -5985, -5992, -2715, -1376, 2035, -1140, -151, 1629, 2326, -4191, 2212, 441, 1098, 132, 2674, -112, 6974, -993, 1286, 760, 937, 239, -1321, 191, -3708, -2183, -894, -877},
    {1149, 652, 2793, -5315, -5876, -1605, 1270, 448, 7660, -5335, -1195, -4264, 2057, 1422, -450, -1414, -4103, -1221, 771, -8430, -1240, 3316, -3495, -4343, 6815, 3408, -1345, -573, -2051, -2285, -4286, 1042},
    {7177, 9859, -8327, -5405, 1229, 194, -5490, 3167, 489, 2060, -482, -1652, -105, 1682, -2830, 1324, -4820, -927, -2994, -1372, 5587, 2126, -6284, -528, 1318, -4169, 7292, 191, 1116, 592, -1210, 1243},
    {1350, 1156, -729, -479, 5445, 2086, 1918, -1222, 3384, -1392, -1712, -1045, -7125, -3009, -3992, 222, 1698, 1644, 2611, -457, -2170, -3706, 4100, 1537, 2114, 2692, -4340, 4504, -3996, -1665, -2567, -3674},
    {-630, -2956, -1734, -3935, -508, -1862, 700, -3606, -8051, -1918, 1158, -6953, -3773, -4368, 2747, 7387, 2613, -5767, 3380, -89, 2251, -3264, -2065, -1634, 3529, 2723, -133, -2796, -1934, 2425, -6663, -1384},
    {-725, -1779, -4046, 3627, 1080, 8097, 3046, -8936, 1234, 424, 596, -2362, 747, -7212, -5228, 5253, 3352, 1072, 1934, 9350, 2708, -456, -2253, -822, -2850, 5304, 4276, 218, -801, 4250, -941, 4321},
    {-2730, 7742, -2621, 888, 5349, -2646, -1077, -878, -1313, -1056, 5163, -2886, 8147, 2604, 3842, 6363, -3939, -1543, 3388, 1726, 3131, -6441, -797, 1238, 2867, 1247, 2228, 2280, -3367, 317, 3606, 473},
    {210, -2405, -4594, 6198, 1420, -342, -9994, -3696, -861, 2157, -2959, 3158, -2392, 233, 1087, 1009, -2914, -3908, -80, -553, 2674, -4122, 8320, -2671, 4009, 2683, -3821, -660, -4981, 2479, 5205, 2219},
    {-2940, 1573, 4090, -302, 200, -201, 2642, -1481, 2013, -145, -1008, -48, 5891, 2796, -2823, -447, -2715, -4595, -213, 193, -3515, -2200, -1457, 1845, 3886, -37, -1262, -2685, -3985, 1280, 29, 1056},
    {-6492, 735, -5809, 4143, 264, 5951, -2613, 6809, -621, -202, -6317, -3627, -3526, 1419, -2797, -697, 3637, -177, 4475, 2195, -2266, 4077, 763, -158, 3488, 3664, 1168, 7973, 2180, -4660, 1678, -2223},
    {-1112, -3314, -2462, -3382, -5729, 3157, -1811, -1986, -6825, 511, -671, 2066, -4899, -1223, -8163, 166, -1677, -1490, -7558, 1088, -6349, 5241, -280, -4041, 3756, 394, -2251, -258, -471, 1540, 1270, 3391},
    {4108, -365, 970, -1121, -1697, 43, -2263, 1572, -6107, 2341, 941, 49, -2402, 4671, 7754, 3136, -2409, 288, -2077, -2288, 407, 945, -3633, 4853, -4114, -6996, 3518, -78, -3174, -2308, -6433, 353},
    {2812, 825, 7188, 1218, 6595, -2050, -2202, 7958, 1459, -1297, 181, 5076, 5187, -9426, -3791, 3007, 315, 904, -6481, 1889, -1160, -1359, -623, 648, -1427, 1211, 43, -1466, -3430, -3796, -1435, 5792},
    {58, 3905, 759, 5805, 2210, 1135, 5889, 708, 1306, -774, 5613, 3678, 1560, 4941, 2961, -304, 2504, -1983, -1490, -1318, -907, 1833, -647, 4821, 1101, 3558, -4322, 131, -1191, 3412, 531, 5729},
    {1488, 3371, -1285, 2050, -9051, -1113, -2069, -1433, 473, -2361, 329, 3878, 3607, 1332, 3104, -1981, -4826, 1675, 5967, 1148, 3246, 221, -5030, -1201, -3781, -3947, -2278, 828, 1472, 8218, -4999, -4047},
    {-580, 6673, 2281, 582, -8434, -1630, -189, -2397, 5665, -2806, 5678, -1635, 2991, -53, -925, 1291, 4226, -1559, 2697, 757, 4646, -2023, 209, 3037, -541, -1194, -7110, -6696, 2991, -45, -2689, 1840},
    {264, 2646, -5481, -6337, 3578, -5449, -346, -2072, 3005, 235, -3430, -4030, 3698, 746, 2070, -4364, 2082, -3446, 598, 1403, 3106, 719, 2892, -1265, 1840, 838, -1104, -557, -3416, 3819, 2175, -308},
    {2218, 1334, -449, 1760, 143, 1896, -2347, -4135, 1346, -37, -2885, 1271, -73, 681, -7287, -58, 823, -9321, -5035, 2597, 417, 1904, 4855, 4246, 960, 2534, -6372, 2285, 175, 1419, -1314, 2181},
    {1225, -6691, -794, -2738, -648, 2943, -2041, 1477, 20, -3047, 1600, -45, 3894, -3591, 228, 19, 1037, -4731, -1368, 112, 56, 4051, -1629, 1185, -1715, -3365, -3586, 2960, -1725, -2668, 19, -4502},
    {3886, -2842, -1909, -5209, -1351, 1506, 987, 1375, -534, -1786, -3427, 6280, -597, -768, 5529, -5233, 3168, -2972, 2836, 579, 752, -1336, -1199, 1742, 2022, -241, 1316, -368, -1075, -1570, -441, -1771},
    {2261, 1332, -5297, 3908, 4932, 4350, -228, 3913, 956, 408, 3020, 4377, -816, 3805, -4541, 1677, -5723, 887, -1435, 3826, 43, 1138, -1647, -4544, -2017, 1839, 3292, -1838, -3708, -1679, -882, 1055},
    {-3555, -3799, 3787, 1986, -168, -4745, -2270, 1557, 953, -1610, 3188, -5650, -1147, -336, -5888, -2871, 3405, 6451, 2211, 970, -4072, -3654, -874, 4146, -1278, 656, -1610, -577, -2263, -2752, 1192, -2624},
    {-519, -2374, -4400, 889, -3662, 989, -2884, -193, 1545, -1648, -7382, -1644, 2217, 567, 4089, 4414, -1249, 3008, -3644, -1852, -4934, 4066, -3581, 2181, -1841, -2553, -10249, -1496, 1061, -8205, -3183, 3494},
    {-3349, -5678, 3475, 4680, 1788, -2879, 1945, 321, 76, 3557, -2290, 2310, 1061, -1336, -1469, 2490, -1467, 786, -3903, -3030, 1291, 2121, 2790, 3864, 3088, -2213, -2265, 2107, 758, 1236, 1176, -891},
    {-669, 5464, 372, 2460, 256, -4002, 3890, -4857, -648, -2577, -3765, 1870, 8535, 1367, -7903, -5359, 2758, -4602, 3247, 4848, -1556, -2331, -2666, -4636, -581, 4747, 2845, -2322, -3991, -4240, -1959, 12},
    {-309, -453, -1796, -192, -374, 2638, -1366, 131, 3659, -5418, 166, -6486, -5762, 3968, -6750, 5223, -3050, 3085, 778, 7561, 4119, -2420, -228, 2435, -1764, -4589, 189, 2403, 1234, -1502, -15, -4272},
    {-1065, -1044, -5654, -196, -6568, 175, -2199, 5293, 457, -269, -2072, -914, 1773, -343, -1674, 572, -5620, 2747, -205, 2343, 2426, 3602, 8408, 2461, 2718, 1695, 859, 6541, 2318, 2749, -4368, -5419},
    {-2621, 536, -4615, -5147, 4625, -2475, 1070, -179, 1581, -2567, 319, 897, 1474, -248, -1284, 2043, -1814, -475, 1978, 3472, -2452, 1197, 1317, 340, 4761, 5697, -3863, -1382, 2467, -285, -1537, 1401},
    {-3389, -2301, 1413, 3182, 5210, -3723, 706, 2989, -6622, 406, 3309, 604, 2776, -7242, 220, -3387, -8596, -3625, 3837, 1667, 606, -2264, -2007, 1348, -989, 1328, -3647, -2418, 2499, -2332, 2546, 525},
    {-2358, -4219, 2210, 3608, 1500, -4544, 775, -2123, 193, -3623, -2940, 1198, -1741, -457, 4446, -4719, -1960, -2615, 1011, -4553, -3293, -473, -7074, 232, -2631, -6329, -2803, 2861, -5471, 8358, 825, 5078},
    {-3967, 4808, 3392, 4742, 620, -791, -3483, 1110, 3393, 2175, 7734, 1524, 760, 4120, 4467, 3374, 2728, -2324, -317, 6497, 5152, 1445, -155, -2658, 51, -2221, -2243, -2641, 5856, -60, -1176, -3876},
    {-3607, -4411, -181, 1876, 4748, 1959, 2465, -6026, 989, 1577, -970, 1172, -5612, -2904, 435, -5246, -6478, -1933, 2987, -2810, 4361, -4804, -5933, 2422, -1908, -1756, -637, -1757, 6402, 894, -2158, -1480},
    {-4245, -3804, 1109, -1651, 1743, -4790, -1177, -1621, -81, 2580, 1301, 2742, 4219, 354, -1855, -2541, 3258, 4204, -4325, -3383, 1069, -2912, 2589, -463, 2245, 1146, -1446, 2962, -2114, 1403, 1819, -1032},
    {187, 8778, 112, -326, 5470, -3768, 9849, 3890, 1356, 5250, 1403, 529, 779, -572, -3235, 2579, 1057, 1516, 5074, -3526, -1962, -778, -2066, -6915, -4535, 1839, 2552, -1531, 666, 5603, 5883, 50},
    {-2691, 947, 1610, 668, -99, 1405, 7684, 2418, -1269, -752, 3379, -2247, 2945, -4952, 4742, 4730, -253, -2760, 4656, 1120, -6043, -2369, 1387, 1167, 1478, 1580, 3608, -2717, -1419, 4871, 6445, -1205},
    {-1921, 7001, 6243, 2312, 3446, 243, 1010, -4920, 1265, -2810, 3314, 3231, -4926, -3499, -7374, -1394, 1782, -1308, 3255, -2371, 3776, -2031, -4980, -9852, -3916, 3687, -2854, -2272, 1912, -4800, 1726, 5842},
    {-4494, 1276, -190, 1140, 618, -1247, 1113, -2400, -1442, -1529, -4835, -1987, -1273, 141, 749, 1926, 1391, 975, -230, 7804, 880, -4933, -3821, 1447, -3871, -4255, 189, -6011, 2599, 439, -1673, 586},
    {-1263, 6192, -4854, 1002, -973, -1802, -1437, -1527, -1453, 3838, 6100, -3987, 1727, -3016, 4207, -2340, 862, 4552, 2562, -4143, -165, -2990, -7900, -1875, -2973, -4471, -2638, -1642, 4381, -4061, -1108, -3124},
    {-2768, 685, -4832, -2998, 2894, 216, 1559, -781, 4035, -2915, -2296, 87, -1611, 6450, 2317, 2870, -1456, -1715, 727, -2195, -1206, -6094, 860, -2606, 6757, 596, -1936, -5293, 4282, 47, 4467, 2337},
    {-690, -2262, -2346, 1082, 9179, -1315, 5647, -5692, 6489, -108, -273, -2311, 83, -2089, 3962, -438, 1565, 4005, 8447, 664, 4240, 3159, 3569, 3245, -2037, -1580, 92, 1758, 885, -961, 4704, 2355},
    {635, -7586, 3214, 4717, 7885, 6446, 686, -489, -973, -3082, 509, 1704, 3336, 1178, 1580, -6227, 4327, -3696, 3394, -1616, 2362, -3548, 2349, -3630, 497, 444, 1754, 4653, 1530, 818, 3289, 211},
    {6853, -1880, 1947, -242, -1351, 791, -1370, -3524, -2965, 3485, 2005, -1953, 1759, 3039, 2920, -2476, -3095, 769, 3515, 4720, -2957, -1005, -4131, 1442, -586, -355, -4975, 2791, 1231, 3420, -1445, 575},
    {6419, 4034, 445, 1648, 3738, 5289, -2344, 7783, -1634, -7001, -1292, 1932, 2721, -673, -50, 145, 1822, 452, 159, 2728, -3258, -2882, 59, 194, 2534, -1024, 4688, 2625, -5480, -1370, 5802, -43},
    {1236, 1528, -2659, 1790, 612, 1761, 2282, -3060, 3869, 2635, 1264, 452, 2434, 2525, -925, 1238, 1447, -2519, 2519, 2267, -3477, -1800, 2034, -4217, 307, -5179, -680, 1817, 3271, 622, 1773, -270},
    {-5752, -2398, 3954, 1909, -29, -236, 7764, -1013, 965, -261, -837, 3627, -3478, 1298, 647, -5880, -4187, 1935, -1535, 2932, 846, 775, -5499, -996, 699, 2570, -6904, 2995, 1729, 1064, 3475, 118},
    {-509, -6103, -3039, -4799, 1982, 98, -2527, -1548, -2560, 2198, 3613, -3715, -967, 3517, -4486, 6445, -3104, -342, -1699, 4622, -3339, -835, -2091, 1724, -2027, 4717, -7986, 5034, -2383, -706, -3826, 4733},
    {6488, -1179, 620, 3299, 2604, -510, 2633, 2452, 2096, -6596, 2943, 5528, -2639, -1474, 3048, 1268, 4363, 2019, 1491, 4764, -2197, 1858, -3951, -2282, 666, 4348, -3162, -2979, 291, 5736, -426, 3277},
    {3443, 6895, -2831, 3455, -3053, 2584, -2217, 223, -3167, -3953, -10417, 1857, -494, -1266, 3713, -2824, 5165, -3870, 817, 3642, -1628, -3998, -5292, -789, -1120, -213, 327, -1600, -55, 2919, 3918, 2299},
    {-589, 678, 769, 1563, 1124, -103, 2034, 3362, -3550, -2697, 1181, -59, 601, 3428, -1768, -1767, -1646, -3200, 2233, -5270, -4501, -5127, 888, 5249, 149, -675, 635, -1472, 91, -524, 1464, 479},
    {2657, -763, 2046, -980, 3339, 1751, 3160, 6915, -1099, -1399, -2402, -3469, 4488, 1475, 495, -3635, 4181, 2299, 2135, -426, -1726, 4140, -1154, 343, 1250, 5689, -475, -3035, -6110, 1868, 1535, 1508},
    {-727, 826, 1668, -2438, 194, -2335, -596, 109, 4031, -3851, -432, -660, -2159, -1673, -1280, 1990, -1189, 5333, 5131, -1512, -1359, 4307, -1071, -1112, -1556, -778, 1446, 8764, 3494, -1274, -1243, -3642},
    {-3026, -2202, -3491, -4352, 880, 4754, -3583, 1365, 139, -4368, 3967, -966, -980, 2942, 4276, -3573, 2596, -2400, -2321, 3416, -1446, -1022, 2580, -4358, 2893, 1105, 61, 91, 3568, -8618, 2135, -16},
    {1477, -2172, -301, 3668, -4019, 441, -5131, -3, -790, -1264, -8220, -5945, 1758, 2669, -1069, 2316, -2027, 4695, -3458, 5872, 3086, 43, -994, 286, -1771, -633, -3474, -2902, 2473, 403, 5410, -1547},
    {-2780, 4264, 1980, 2544, -389, 185, -1301, 3308, -1838, 186, 765, -821, -1755, -5000, -340, 2890, 4970, 5642, 3052, 5039, 301, -1667, -4341, 513, 1418, 670, -27, 5085, -319, 3270, -2673, -2475},
    {-2109, 558, -3953, -4611, -3225, 1401, 4164, -2645, -5457, 1381, 698, 3827, -609, 992, -2658, 2825, -2730, 583, 633, 3148, 569, 164, 2483, 1813, -2903, 1208, -1595, -2525, -1360, -600, -2617, -729},
    {4084, -718, 2402, -6196, 3284, 2180, -1188, -1649, -2512, -543, -2700, -6820, 1447, 358, -537, 1482, 925, 3123, -349, -4445, 2172, 1955, 1745, 1472, -2389, 1618, -2898, -4914, -1933, -4804, -2073, -2062},
    {257, 2059, -2200, -608, 4019, -1976, -4599, 706, -4, -5703, 1992, 652, 4514, 5524, 6401, 4909, -6308, -252, 3458, 78, 2643, 4150, 3365, -1663, -1557, 3701, -886, 3949, -826, -2066, 4818, -6055},
    {-6158, 2434, 2705, 1643, 1621, 1371, -2306, -1292, -1643, 598, 2681, -1613, 5981, -149, 1039, -3531, -1993, 3049, -8865, -580, -1584, -8584, 6408, -792, -4708, -4805, 2397, -4606, -3926, 3793, -7287, -1216},
    {5444, 835, 1510, 1647, -3085, 1100, -3590, 518, 623, -5594, -2708, -1587, 1734, -3195, -5004, -3944, -6343, 5106, 661, -231, -1364, -3851, 2077, -3901, 45, 2634, -3344, -654, -493, 4974, 731, 1655},
    {-946, -6589, 12, -7087, -5648, -1289, -9, 2981, 3780, -164, -4626, -1855, -1078, -3071, 2376, 3071, -145, 594, 8059, -109, 160, -2669, -1927, -2209, -7518, 1943, 1, 7721, 3919, 2563, 2841, -1765},
    {2486, -1435, -360, 2896, 754, -3094, 249, -3819, -2906, 3742, -2889, 1302, -4799, -2859, -4963, 2203, 4076, -363, -3861, -5408, 2249, 3787, 729, -1069, -484, -944, 2093, 1042, 1215, -3825, 4230, 2878},
    {-1292, -2862, -5725, 722, 8418, 3055, 2645, -1187, -2910, -13, 8486, 1452, 633, 4694, -508, 2700, 613, 1834, -5143, 1203, -1790, 13, -2659, -3013, -1878, 1984, 3622, 2483, 3395, -2411, 3272, -4074},
    {3657, 3146, -3068, -4506, 330, 1343, 686, -7041, 283, 1310, -3114, -4948, 1605, 6069, 5381, -3976, -1264, -2038, 3823, 2933, 1012, -2518, -3741, -2930, -2258, 2655, 387, -5133, 3200, 3376, 13155, 4922},
    {4711, 4637, 953, 3322, 389, -60, 1906, -3480, -11526, -1347, 2487, -2590, -115, 3240, 1218, 3084, -1022, 1381, -3058, 5458, -39, -3623, -1095, 860, 215, 3648, -3559, 816, 5463, 402, 6325, -2271},
    {217, -4456, 4590, -2416, 6340, -5475, 3012, -2243, -7984, 5663, 5352, -593, -5382, 3009, 2191, -4000, -6427, 2902, -8668, -733, -2495, -2820, 1439, 1873, -3088, 3876, -5484, -3646, 7848, -3396, 2255, -5293},
    {3325, -4058, 1806, 3808, 4218, -2491, 8217, -7647, -851, -1147, 3485, -1718, -1595, 4190, -149, -6185, 258, 3952, -1002, 2819, 1370, -6639, -362, 3523, -4735, -280, -12638, 1721, 7268, -864, 6478, 4113},
    {3223, -8220, 225, 1955, 13819, -6199, 3356, -2710, -6955, 5818, 3022, -3620, 1221, 6169, -5650, -3337, -601, 1808, 9330, 41, 3856, -2691, 2019, -2890, -4452, 715, -8306, 3391, 10580, -1429, 4720, 2849},
    {4740, 1289, 605, 3024, 8087, -7007, 11075, -4326, -6293, -1661, 2095, -455, -4177, 2377, -3564, -2572, 1663, -10844, -5494, 2001, 5128, 1182, 1038, -4945, -7655, 7699, -11151, -3813, 10965, 325, 3706, 3858},
    {5409, -7452, -5524, 2640, 3388, -8037, 5496, -1328, -3410, -761, 5379, 2780, 1678, 9428, 2026, -2409, -1891, -884, -551, 618, 1907, 38, -246, -701, -13254, -4571, -3944, -603, 9411, 964, 7065, 98},
    {11401, -1168, -3398, 375, 3667, -2907, 4300, -1514, -668, -493, 6752, -1158, -2977, 6553, -384, -1437, -2158, -1179, 906, 976, 6070, 2706, 2225, -475, -16265, 72, -1334, -5756, 4467, 1653, -2016, 10513},
    {4188, -4179, -5721, -1319, 5803, 1953, -1597, 626, -2836, 5577, -4691, -2848, -1044, -3428, 1677, -4029, -4482, 5203, -6220, -4522, 1553, 19, -2757, -1832, -7663, 6896, -9968, -4556, 1370, -851, 9969, 6298},
    {763, -2850, 2628, -241, 3345, 5689, 345, -4479, -2893, 3254, 4238, 2884, -1822, 1104, 2026, 1018, -4757, 5042, 807, 1378, -468, -3694, -2628, -4247, -6245, 3347, -3098, 3644, 11274, 4421, 1793, -1893},
    {12080, 308, 3307, 658, 2562, 6002, -847, -1333, -1815, 3297, 6641, 1359, -1977, -5215, 188, 2844, -523, -5969, 4113, -3159, 4698, -3924, 3277, -543, -6730, 538, -5260, -350, 2600, 6559, 2834, -2802},
    {1618, -5305, 4255, 1961, 4428, -3334, 4153, 1731, 1646, 6402, -690, 1319, 94, -2261, 3237, -2222, -1060, 2104, -3206, 872, 283, 4932, 2996, 85, -9463, -1326, -4615, 854, 6212, 4179, -2708, 3477},
    {3482, -225, -1461, 7431, 5234, 123, 1254, -559, 1254, 6030, 5728, -302, 1044, -6881, -1445, 2328, 1475, 2160, -5760, -2257, -6177, -1627, 726, 1991, -1756, -2783, -1, -1143, 3408, 1860, -1616, -4078},
    {4768, 986, 2856, -336, 4049, -1526, 3672, 3823, -1728, 3283, 857, -6009, -3596, 2826, -5742, 599, 412, -781, -1879, -771, -2577, -1432, 518, 2750, 4521, 1787, 4357, -3133, 8547, -1432, -2931, -337},
    {-5, 819, 476, 3591, 522, -1446, -2061, -1957, -1725, -1814, -179, -284, -1554, -6598, -1693, -2735, -4191, -3911, -1581, -608, 2849, 1556, -1178, -665, 3, 1981, 2958, 1762, 2312, -5250, 5026, -2109},
    {-1456, 10599, 2536, -2556, -2782, 7008, 182, -1515, -151, 793, 8147, 4794, -569, 5601, -820, 2472, -753, -2470, -1834, 1049, -1681, -841, -2832, 5299, -255, 1849, 6010, -511, 24, -3232, -801, 1063},
    {3932, -2556, -1088, -5317, -2799, -370, -4120, 1560, -2671, -2986, -3146, 2791, -1401, -1441, -3717, 2579, 534, -632, -1655, -10601, 6509, 8515, 398, 3117, 7367, -850, 508, 1291, -2459, 1590, 766, 860},
    {301, -3994, 2100, -775, 3450, 4096, -473, 965, 35, -1069, -4740, 4708, -298, 6733, -254, -5798, 646, 282, -4992, 866, 2794, 1599, -1361, 1902, -1018, -3029, 1333, -4180, 3853, -3788, -8680, 2055},
    {-833, 2330, 4203, -647, 3746, 2867, 4789, -363, -88, 771, -2051, -2124, -248, -1652, -4127, 5, -101, -5131, -2103, 4381, 3315, -1150, 2838, -795, 296, -123, -467, 1559, -6275, -1522, 290, 4158},
    {-3495, 2899, 2945, 171, 3128, -1946, 73, -7383, -474, -4061, -1306, -2153, -3921, -6299, 3083, 4146, -4918, -490, -3388, -592, -752, -2871, -1471, 1482, 2113, -2731, 365, -2648, 3070, 3637, -1610, -255},
    {-5941, -42, 281, 2859, -2147, -4102, 2630, 3006, 6426, 1516, -5502, 3098, -2792, -1978, -3015, -293, -1646, 4280, -5077, 3624, -182, -4049, -638, -4852, -3640, 2162, -2866, 262, -564, -3450, -2149, -1982},
    {840, 1495, -292, -1560, 1406, 5537, 2738, 6083, 6674, -3282, -1270, 3062, -2020, -922, 1135, 2701, 2553, 2073, 1134, -3430, 3409, -1112, -1690, 6206, -486, 2413, 1792, 1966, 4666, 7402, -3496, -991},
    {-531, -2846, 2980, -3322, 2592, -468, 1432, 1912, -1941, -4588, -1469, 513, 4617, -1635, -5467, -2304, -3435, -7566, -3034, -3889, -205, -434, -770, -318, -696, -149, -1605, 2853, -519, 1920, -2291, -1373},
    {-5813, -2044, 797, 3009, 771, -264, 4300, -1701, -3425, 6867, -2508, -1583, 2119, -1769, 3263, 819, 7171, 1418, -2445, -831, 1941, -3749, 3015, 5502, 5218, -5681, 2898, -3729, 5319, -1475, 2284, 625},
    {1992, 1484, -3714, 757, -4523, -822, -1123, -1016, 3007, 842, 3497, -567, -7722, -896, -1169, 7785, -238, -1820, 4691, -4680, 510, -3546, -4244, -909, 1214, 3867, 1387, 1837, 4485, -3312, 1725, -285},
    {4967, -1321, -1145, 3546, 1259, 2266, -1180, 1243, -390, -2067, 5092, 1033, 2117, 7383, -5472, -3638, 1896, 2932, 7049, -4198, -568, 3067, 4913, -3056, 649, 3541, -1533, 4926, 5055, -2279, -2911, 982},
    {-405, -5279, 5675, 765, 4512, 296, -244, 12, -7547, -1057, 4569, -4875, -3227, -183, 1495, 2005, 1567, 5103, -462, -3687, 2151, -2487, 3183, -702, -1030, -1149, 4046, 1297, -1856, -3156, -422, -5742},
    {3590, -2932, -4297, 418, 8019, 5766, 4681, -8177, 77, -955, 5022, 2491, -3944, -5366, 4848, 2940, -833, -1218, 1751, 3384, -592, -133, -7019, -43, -7443, 2379, 4064, -955, 7694, 981, 1055, 2126},
    {4776, -1336, -4546, -1017, 9834, 1231, 9944, -6531, -5195, 2748, 3501, -1638, 5146, 7876, 251, -6470, 979, 3446, 343, -729, -4313, 6852, -6598, -906, -952, 6434, 6010, -2479, 13807, 9871, 2985, -2606},
    {9107, -1136, -208, -942, 7846, 888, 2767, -13261, -5957, 1992, 9641, -6488, 2497, 3795, 12904, -228, -1174, 8296, -5899, -2381, 5355, 4163, -5014, -249, 90, -1139, -4308, 2009, 7735, 12020, 3807, -8318},
    {7544, -8316, 1724, -2486, 6734, 835, 2016, -8221, -5817, 2750, 4749, -8380, -5942, 10033, 1630, -442, 226, 8109, -7754, -9002, -7225, 4924, -496, 3518, -4782, 7285, -2202, 1464, 8670, 13719, -1739, -4165},
    {14588, -7407, -16848, 1617, 11862, -2159, 2103, -8565, -12585, -2493, 7205, -22833, -3491, 12360, 880, -6125, -1019, 5493, -7224, -2929, -12059, 344, -2640, 8886, -1557, 8603, -8715, -1756, 18375, 7278, -4279, -1842},
    {10186, -4453, -9759, 10815, 17016, -3748, 11043, -10372, -7426, 3263, 9593, -14948, 1938, 17490, 5421, 2975, 3294, 4548, -5547, -5381, -3431, 972, -4036, 7870, -5011, 9060, -11300, 2328, 20775, 5768, 3225, -5096},
    {12597, -7517, -11810, 2413, 8435, -12426, 238, -11164, -12219, -186, 13440, -14006, 638, 16054, 3900, -6115, 2735, 5668, -1136, 762, -3949, -574, 635, -446, -7491, 1618, -142, 3659, 12750, 8514, -5364, -5158},
    {14356, -3071, -20049, 17450, 6524, 5204, 1054, -8799, -10105, -483, 7260, -9750, 10159, 23377, 7382, -1748, -684, 8889, -2445, -6352, -7629, -1183, -1020, -2631, -17035, -127, -6941, 317, 9969, -1066, -668, 2199},
    {13377, -1050, -8622, 10312, 629, -3408, 1208, -8950, -15048, -3344, -1106, -4186, 3373, 17826, -2313, 1088, -1963, 174, -684, -7023, -8369, -2868, -795, 621, -14204, -4408, -663, 4963, 7499, 5623, -5636, -3186},
    {8097, -4225, -6180, 2957, 7029, 3494, 3392, -10625, -9251, -1073, 12256, -8218, 6657, 7118, -3599, 2045, -2720, 3937, 5129, -5436, -6637, -5172, -826, -4173, -12440, -6193, -6101, 3186, 11033, 1577, -658, -1779},
    {13116, -1961, 1469, 11557, -1335, 3429, -5359, 2936, -3287, -561, 7272, 3329, 7515, -3923, -5791, 9549, -6598, 7492, 3874, -6173, -4419, -10365, -3274, -5119, -378, -3658, -820, 1059, 11931, 28, -1720, -2798},
    {4777, -2832, 5683, 8649, 4743, 3133, -1801, -957, -8302, -733, 5107, -557, 931, -5234, -1537, -707, 876, 6196, 3974, -4819, -2037, -8575, 2509, -1708, -4816, -1253, -2406, -9, 6420, 7144, -4374, 7923},
    {8372, -9319, 2488, -28, -110, 4517, -7117, 2109, -7958, 1169, 6337, 2141, 2137, -8639, 7953, 5466, -2312, -372, 5308, 3310, 6889, -6475, 3812, -489, -6289, -4971, -9256, 4576, 9558, 3923, 2951, 1293},
    {10609, -2776, 9628, 4575, 3219, 6972, -587, -185, -4406, 1244, 964, -359, -5383, -7596, 344, -49, -2257, -486, -2966, 2776, 5559, -7409, 864, -1630, 218, -1163, -7910, 1922, 9816, 1778, 4614, 1916},
    {3287, 169, 11640, 352, 1619, -4403, 912, 2082, -2099, -612, -762, 1819, -453, -14939, 1111, -4209, -685, 651, -2492, -1117, -763, -5196, 2368, -4244, -99, 375, -2704, -1315, 6346, -552, 6360, 3162},
    {-1427, -1850, 912, -681, -1819, 1231, -1032, 1165, -8420, -323, 2696, 4372, -126, 2030, -3126, -5056, -4867, -6076, -981, 455, -5924, -8647, 1788, -2355, 10357, 1909, -2200, -3087, 6493, -5085, -333, 4864},
    {1374, -1851, 5241, -1120, 98, -2433, 3171, -1404, 1408, 3443, -5015, -669, -93, -987, 3093, -1315, 210, 1611, -2614, -3873, 783, -8774, -1767, -7040, -3212, -2760, 3488, -722, 522, -365, 7329, -1296},
    {-5185, -4280, -128, 1031, -1561, -1670, -330, 132, 2068, -518, 589, -146, -4259, -1820, 1941, -3299, -577, -1015, -1456, -1019, -1075, -1770, 1112, 3655, 1805, -6113, 802, 2392, -7224, -936, 3228, -725},
    {5864, 851, -2955, -3686, -2956, 6164, 2458, 2729, 7536, -7129, 8739, -5411, 2102, 1127, 8265, -920, 257, 5262, -618, 524, 1989, 5321, 62, -4041, 299, 5797, 5202, 1057, -508, 1259, 4505, -3133},
    {3155, -5512, -529, -3448, -7226, -6943, -4803, -1858, 2538, 2082, -8048, 2062, 996, 2944, -3856, -1579, 1952, 337, -3020, -1542, -2725, 4804, 112, -958, 69, -7300, 628, 6100, -1097, -788, -2524, 2316},
    {-216, -7, -3130, -69, 1580, -1498, 314, -689, -2879, -4080, -6451, 2627, 791, -2197, 2355, -1340, 7937, -3085, 1138, -458, 1215, 5165, 745, 7152, -3730, 5716, -4414, -631, 2053, -48, -5511, 2395},
    {840, 748, 1353, 1465, 8238, 2624, 7335, -842, 7268, -786, -2613, -6066, 2301, 4688, -1706, -1375, -1697, 43, 3185, 689, -7070, 2428, 3304, -2222, -4773, 1262, -2017, -1156, -4795, -1015, 4760, -802},
    {3060, -5614, 3084, -2090, 737, -4898, 2858, -1867, -514, -7066, -2649, -1561, -1215, -2085, 2151, -510, 132, -3062, -779, 633, 4714, 476, 522, -1238, 6612, -1031, -2791, -3013, 4905, -17, -33, 3471},
    {3361, -5624, -2442, -1391, 43, -1541, 4279, 2325, 1862, -2369, 540, 678, 35, 2938, -4998, -4493, -6099, -6711, 5178, 3186, -4496, 4783, 7220, -1711, -2670, -2340, 1778, 1759, 1795, 2282, 227, 1612},
    {101, 1935, 4856, 1535, -2292, 2362, -5763, -553, 2451, -2651, -1901, -2095, -3632, 1861, -1981, 815, -2514, -954, -2144, -2278, 4048, -419, -124, -1149, 1869, 4925, -1356, 805, 4133, -251, -1422, 194},
    {5021, 1213, -305, 1339, 1694, -827, -1813, -1686, 7570, 950, 3175, -5393, 4320, 231, 2103, 985, -4824, -3672, 2556, 1080, 3662, 1386, 471, 2996, -1960, -3428, 2452, -2045, -672, 4312, -4516, 4277},
    {2152, 2783, -4079, -1672, 8406, 396, -6021, -3558, -2928, -1082, 1725, -5981, 2653, -1283, 3377, 380, -4036, -2489, -1577, 379, 1705, 4116, -4771, 1546, 1865, 3578, 6574, -2426, -6526, 3206, -997, -1664},
    {9263, -5564, -2633, 145, 8275, 877, -3044, -5838, -7438, -2676, -1836, -2901, -1892, -769, 2073, -70, -1241, 6437, 1365, -1323, -4308, 5000, -2072, 297, 6515, 4376, 7454, 2324, -1626, 4807, -7650, 7805},
    {18245, -6559, -9731, -7094, 11090, -3676, -705, -4091, -8716, -1070, 3675, -6831, 2376, 7127, -2133, -6796, -3290, 2544, -10095, -2991, -4971, 2444, 454, -1212, 4959, 9758, 5443, -369, 1269, 9423, -3781, -4830},
    {8179, -565, -9571, -3279, 13833, 2022, 2545, -10222, -7302, 778, 1605, -19216, -8712, 6261, 2646, -4421, 407, 3246, -11594, -2184, -11824, 1349, 5770, 5106, -950, 10321, 9775, -288, 3755, 2762, -4993, -779},
    {8697, -6488, -12874, -2901, 15658, 2154, -100, -10752, -16477, 311, 5397, -10787, -831, 9134, 3761, -6224, -39, 12128, -3498, 2317, -7149, 636, 3243, 1875, -1927, 12960, 7383, 3990, 2167, 8389, 1651, -5710},
    {5794, -3545, -15080, 3245, 12977, 2870, -1845, -11491, -7666, 1451, 5801, -21640, -6486, 10397, 7596, -600, 4283, 13431, -9284, 1706, -8784, 7481, -2032, 12190, 3968, 5999, 10656, 8288, -113, 9798, -9364, -14360},
    {6575, -8608, -10523, 3332, 9827, 2053, -5497, -19576, -12084, -2235, -7334, -24129, 1986, 22719, 5562, -2239, -2443, 7979, -11354, 3616, -10770, 4345, 966, 11068, -909, 10988, 5080, 3715, -7319, 9343, 1207, -4505},
    {7625, -13478, -19982, 7792, 4800, -8072, 5609, -20229, -19710, -4837, -8066, -16800, 2970, 21943, 7911, -3823, 6405, -358, 4789, -3631, -1164, -1991, 3514, 11148, -7314, 2597, -361, 6449, 573, 1650, -2068, -1264},
    {9269, -3087, -12347, 6910, -5274, -2087, -904, -21875, -25514, -11615, -6124, -17736, 1508, 29489, 6623, -11993, -2898, 4846, 5287, 2590, -15270, 2898, 7588, 552, -3261, -2623, 193, 7709, 1391, 2585, 5523, -4789},
    {3885, 4889, -15271, 13986, -19252, 134, -10554, -17839, -13206, -12544, 3032, -13767, 4530, 22263, 4642, -964, 5455, 2843, 2126, 5080, -12295, -4792, 2769, 8293, -11361, -9126, -1393, 4455, 7193, 2032, 13367, -5455},
    {16510, 35, -3948, 6339, -20066, 2153, -8358, -12793, -16869, -8034, -2289, 4168, 10642, 19208, 8188, -5160, 1979, 12137, 3456, 7663, -17014, -1332, 7928, -3928, -1711, -295, -4149, 1259, 6311, 8548, 10727, -9211},
    {9646, 743, -683, 12549, -19747, 3158, -4796, -11412, -15778, -7716, 1243, -2922, 517, 16768, 8899, -7090, -5142, 4179, -2696, -3513, -20924, -10275, 9207, -7589, -4202, -3389, -6252, 7046, 5142, 11036, 12496, -8104},
    {10036, -1152, -3746, 8247, -17884, 8033, -11450, 1178, -9683, -2165, -3100, 5314, 6513, 8684, 2625, -3131, -6010, 5668, 1591, 11863, -8550, -4504, -1928, -3886, 5646, -1949, -1797, 8961, 12698, 11373, -2182, -2346},
    {15639, -2587, -2668, 8543, -18967, 3327, -4586, -1309, -9968, -4363, -502, 7186, 8758, -2869, 7333, -2714, -4527, 2827, -5866, 947, -133, 590, -473, -11636, 712, -2639, -8811, 3777, 14973, 6570, 2430, -1398},
    {13160, -534, 1579, 2101, -5783, 4592, -4655, 955, -12498, -3390, -1794, 5808, 5412, -11037, 1475, -2019, -5398, -5596, -1652, -2816, -385, -6149, 5705, -13377, 1591, 1412, 4699, -9115, 15669, 3662, 10950, 6780},
    {6539, 2488, 7983, 2342, -9885, 2574, -9090, 1182, -7864, 1667, 6560, 8882, 1137, -19686, -683, 802, -9197, -5242, -1241, 1843, -1012, -5410, 2608, -4539, -1027, 2474, -3689, -2280, 11297, 1375, 2461, 5512},
    {5759, -5626, 11891, -950, -13328, 1370, 5256, 3618, -7549, 8867, 2734, 7730, -4093, -17438, -1772, -2537, -6554, -6827, 244, 1557, -1792, -5503, 3008, -8004, -5915, -3924, -1299, -2049, 9309, 5939, 1884, 812},
    {2784, 1041, 4170, -215, -2389, 113, -229, 7641, 1293, 1072, 3745, 2662, -685, -13006, -4036, -1679, -255, 2339, 3892, 468, 995, -8207, -820, -4317, -2655, 6998, -4363, 598, 5148, 39, -3442, 3616},
    {-2828, -1819, 6001, 515, 146, 114, -8715, 4301, -6325, -1056, 1126, -2241, -5348, -5198, -5270, -3257, -8208, 1502, -2805, 5870, -3195, 3137, 3009, -10713, 4315, 811, -2048, 5350, 712, 6330, -1122, -939},
    {-3398, 1874, -5141, 1029, -1847, 173, 1114, -1405, 3913, 480, 5287, 574, 2750, 4086, -301, -1831, 556, 4171, 4559, 956, 6238, 5376, -67, -2411, 1776, 6406, -927, 4162, -1345, 6381, 766, -3937},
    {1194, 1922, 74, -1581, 328, -2513, -3581, 9446, 906, 967, -4243, -1801, -22, -4726, 1945, -726, -647, -1741, -1570, -1796, 667, 6421, -4432, -3664, -3967, -2461, 3359, 4160, -1158, 1309, 1392, -387},
    {2861, 1371, -4641, -8533, 10, 222, -1945, 975, -4774, -7243, -3488, 4458, 2274, 3098, 6052, -741, 865, 81, -818, -3, 2172, -1174, -5953, 3936, 4009, 5723, -3791, 493, 2570, -3258, -3603, -3392},
    {3636, -4054, -3091, -5440, -4276, 1245, -1810, 3132, -510, -2600, 769, 1560, -3452, 450, 535, 2684, -5945, 384, 502, -268, -4575, -2970, 80, 1305, -427, 3081, 4249, 1564, 2309, -5273, 4749, 2137},
    {142, 2898, -6533, -1682, -6302, 3550, 1647, -2012, -972, 8459, -4704, -1153, 6033, 6372, -3309, 458, -897, 5504, -3350, -521, -4638, -1351, 1857, 304, -3096, 10893, -1158, 8863, -895, 308, -2688, -388},
    {-1133, 662, -1470, 2850, 3083, -2437, 3076, 2457, 14, -1949, -2169, 1440, -3984, 1183, -904, 1047, -4995, 5524, -3543, -7060, 3633, 1133, 141, -1651, 2227, 269, 3797, 2072, -3979, 3069, 6173, -1866},
    {-680, -595, 1236, -2831, -382, -6143, 1638, -2373, 1523, -6648, -2441, -773, -379, -695, 2499, 1713, -944, 6038, -5236, 588, -9151, -3582, -1326, -830, -808, 2730, -5886, 6201, -5793, -1869, -1049, 2315},
    {3704, 313, -3966, -1250, -3654, 961, 481, -107, -6295, -1404, -1976, 2863, 6445, 2138, -2415, 1805, 466, -619, -6261, 1544, 804, -3800, 408, 9774, -5256, 6012, -800, -1093, -6085, -3837, -4494, 7334},
    {12006, -2660, -11106, -407, 5041, -7584, -6242, 515, -2253, -5523, -3861, -2009, 7461, -4343, 1133, -1688, -3624, 1935, 5259, -5142, -948, 1400, -482, 240, 160, 3132, 4011, 141, 2528, 809, -8095, 7704},
    {10429, -10222, -15358, -10573, 7400, 1212, 5576, 654, -1092, 3764, 624, -7764, 6556, 665, -1855, 4506, 5005, -5069, 4617, -8213, 2634, 3242, -3272, 3501, -1537, 1996, 9822, 1021, -1569, -4895, -8249, -471},
    {6478, -9363, -15272, -8441, 12864, -457, -4707, -1281, -3770, 4788, 456, -8729, 3228, 2641, 587, 3010, 5918, 5731, -6214, -4515, -661, 4438, 1036, 12974, 1478, 9320, 14707, 361, -976, 3246, -12764, 863},
    {10474, 541, -3947, -14255, 7977, -8417, -3511, -4619, -5498, 6162, 7578, -17637, 1007, 2965, 1338, 2060, 3575, 2727, -5540, -3341, 3002, 6599, -1214, 5620, 1591, 13506, 17659, 4762, -3322, 6610, -9424, -1702},
    {1702, -6272, -4664, -11792, 5768, -1718, 1005, -3960, -8005, -2188, 381, -23838, -494, -6032, 9839, 523, 7186, 4490, -6816, -1795, 7364, 5333, -4506, 8962, -5785, 14542, 9375, 2404, -7918, 9276, -4800, -6549},
    {3930, 6368, -5442, -9947, 9717, -425, -4768, -7724, -4294, -5740, -5295, -28536, -10375, 6142, 10242, 165, 1936, 3670, -8797, -3654, -3940, 6376, -3371, 3429, 2497, 16174, 374, 3693, -5302, 8090, -5544, -11876},
    {-12998, 6626, 8477, -3074, 5208, 4401, -7337, -13866, -12214, -10308, -1960, -22142, -18380, -1029, 804, 1050, 3217, -3028, -7915, -4774, -12487, 5906, 2511, 3045, 5437, 14762, 6334, 11772, -17012, 6415, -13131, -14250},
    {-2284, 1681, 225, 586, 10404, -1752, -4205, -12504, -9625, -7151, -15159, -16037, -16720, 12465, -8319, -6163, 8076, -13917, 7003, 1702, -11536, 6884, 5991, -311, 3157, 17965, 11592, 4211, -19168, 3518, -1064, -7414},
    {-4963, 2667, -1179, 8095, 17365, 4514, -2993, -13713, -17907, -1925, -15048, -13290, -9992, 16450, -5662, -7150, 8238, -10217, 7382, -5444, -13033, 806, 827, -3087, -7064, 7148, 10174, 11085, -8768, 5103, 3418, -15231},
    {-2015, -1543, -2847, 10204, 239, 979, 4974, -12092, -18597, -1593, -18215, -5184, -12472, 21235, 250, -1793, 1098, -9323, 4335, 3412, -6912, -538, -312, -5630, -16022, 14831, -2660, 157, 312, 3154, 1921, -9642},
    {3131, -11913, -4445, 6323, -14323, 6407, -632, -11212, -16323, 656, -15052, 4610, 4065, 32764, 2167, -76, 7804, -8303, 1785, -6392, -7196, 4163, 11633, -1437, -7270, 13676, -6409, 6562, -1181, -7798, 1955, -6389},
    {9944, -11449, -7450, 2382, -18305, 7955, -8959, -13027, -10639, -4090, -10462, -6008, 662, 28031, 5746, -10714, 1855, 8995, 2912, -14, -17080, 676, 2828, -1715, 1446, 21860, 2978, 10026, 3788, 3651, 1845, -9851},
    {8163, 4145, 1491, 1207, -30469, 21674, 5751, -16168, -17933, 6190, -4270, 2687, -3998, 13919, 5593, -5732, 870, 3133, -4609, -3796, -24830, -13083, 14808, -10475, 3504, 20373, -2200, 11723, 7469, 6063, 7584, -15110},
    {6530, 4123, -6009, 1838, -34567, 12871, -4055, -9796, -25519, 4783, 3111, 1144, -1225, 8222, 12323, -10437, -5904, 7011, -5443, -4463, -26689, -7362, 1071, -9625, -775, 12443, -6245, 9909, 10029, 9124, 1529, -12369},
    {11047, 1417, -9247, 4581, -24074, 7895, 4668, -18282, -20381, 3042, -1149, 7722, 1660, 4435, 8227, -7073, -6810, 2075, 667, -3616, -20323, -12478, 4708, -3380, 12327, 1053, -4386, 8457, 13595, 4006, 5889, -5122},
    {5197, -4557, -1131, 4092, -32146, 11260, -7061, -10796, -15407, -5135, -2969, 6745, -8061, -1574, 7680, -7809, 5206, -403, 4428, 3191, -18962, -8617, 1247, -4709, 2039, 4741, 304, 2391, 16100, 5775, 10373, 3042},
    {4912, 9483, 5344, 6955, -27601, 4375, 3364, -161, -4322, -7209, 2217, 10422, -7537, -3106, 1876, -5310, -13661, 4328, 5821, 11158, -10898, -3319, -4994, -1986, -673, 885, 1193, 2545, 6794, 4452, 1309, 4814},
    {1129, 1310, 8876, 6591, -19774, -4022, -3217, 4180, -2661, -1078, 4189, 11634, -9479, -15146, 7784, -3989, -5053, 986, 6677, 7163, -3558, 5036, 3885, -2935, 141, 3454, -4022, 4806, 11673, 5603, 9054, 9498},
    {7649, 7144, 13536, 6496, -7942, 13, -1192, 5034, -1839, 640, 3019, 12354, -11565, -15335, 6667, 3930, -9984, -2077, -1450, 360, 12082, -2577, 1071, -4619, 880, 11072, -3550, 1632, 7231, 9686, 2042, 4354},
    {3818, -2354, 1414, 7021, -10477, 2393, -6573, 6191, -4505, -4719, -601, 8883, -2878, -9991, -4165, 8306, -8, 702, 1035, 6983, 6315, -8896, 3223, -11257, -302, 326, -7331, 2551, 4273, 8159, 9522, 675},
    {3040, 1148, -3543, 1623, -3507, 1955, -3831, 4140, -1511, -550, 5458, -2586, -2106, 2752, -160, 1715, 1727, 4016, 6222, 5572, -4522, -7922, 1005, -6100, 3462, 3024, -1778, 6106, 56, 1895, 3727, -3062},
    {2005, 2080, 298, -1236, -381, -619, 451, 1246, -299, -1276, -3647, 471, -2926, 3164, 4340, 2421, 4496, -181, 153, -62, -4383, 5909, -1012, -511, 1076, 497, -4726, -1070, 193, 147, -85, -5934},
    {-2055, 59, -2429, 1753, 3472, -2255, 7127, -1636, 136, 2404, -2446, 4187, 1469, 1170, -1008, -1325, -1985, -4788, -7345, -2453, 1376, -3693, -5021, 6218, 4044, -2569, 2425, -8356, -2671, 4006, 2378, -1113},
    {3683, -2737, 5809, -3269, 8069, 1154, 4632, -1147, -4647, 2189, 1375, 1560, -2437, 947, -1405, 559, -672, -1490, -3467, -278, -1885, 225, -4043, 1078, -3672, -2686, -181, 238, 172, 4001, 1023, 8},
    {207, -4229, -948, -6096, 285, 4166, -4453, -2862, -2282, -2879, -2212, -636, -780, 5240, -1623, -5450, 5271, -5152, -575, -2947, -3765, 905, 1188, 3183, 1249, -1408, 1453, 1082, 2615, -2408, -5803, 9977},
    {-480, -1055, -1828, 1334, -1111, -1265, 480, -1029, 637, -2824, -143, -873, 2524, 1403, -2289, -4625, 359, 721, -2817, -1580, -2748, -2498, 670, 1079, -2651, -81, 8143, -2130, 2322, -73, -856, 2597},
    {560, -3983, -2992, 2533, -715, -2345, 2535, 1079, -709, -4695, 4708, -5891, -1060, -2871, 518, -5199, 2808, 413, 2282, 1222, 2677, -3001, 250, 4212, -798, 753, 4797, -5459, 3643, 4655, -6104, -4925},
    {8957, -865, -6568, -2549, 1135, -4835, 1359, 2551, -2747, -229, 629, -6972, 6348, 298, 351, 6049, -2530, 1970, 327, -2724, 3298, 1461, 2934, -1632, 4385, 976, 854, 1347, 696, 137, -9900, 1188},
    {4494, -1424, -6814, -1787, -16, -4286, -574, -1256, -4100, -1385, -5638, -2274, 6476, -5328, 3905, 8691, -2908, -779, -8722, -8874, 3434, 2349, 1678, 8105, -3580, 6377, 11862, -1391, -3900, 2825, -13251, 4073},
    {4713, 4305, -11157, -10450, -273, -10035, -7746, -1299, -1766, -1272, -2860, -15125, 2197, -2424, -2965, -1007, 1338, -45, -2678, -7679, 9161, 6639, 803, 12818, 937, 8131, 10282, 2167, -121, 2153, -15994, -5332},
    {983, 3124, 284, -14730, 3835, -6900, -3626, 450, -7508, -7214, 1748, -16151, -6508, -8117, -1750, 621, 8968, -52, -7265, -9576, 4559, 4730, 6310, 6633, 4782, 17474, 20111, -6636, -2807, -740, -21854, -5086},
    {2743, 8606, -1513, -12301, 214, -11985, -10292, 1307, -7920, -7101, 1414, -23110, -256, -12542, 8028, -1245, 10845, 712, 6208, -5283, 1420, 3927, 2083, 5685, 3654, 17944, 21081, 1081, -6317, 3451, -4603, -9541},
    {8365, 4524, -804, -12459, 346, -4675, -12033, 1212, -2682, -9059, 1359, -24189, -3910, -2606, -3421, 6130, 9788, 5533, 2906, -6309, -2825, 12851, 254, 6853, 13105, 19278, 6196, 3606, -7529, 4510, 1120, -13624},
    {-854, 11277, 1333, -609, 7836, 1133, -12459, -648, -12974, -6926, -7911, -26226, -1004, -4710, -1253, -1599, 11598, 2525, 20341, -2964, -6103, 16425, -2519, 4275, 6801, 20273, 1107, 9252, -12307, 8808, -8840, -25770},
    {-12611, 6471, 6066, 10420, 12247, -2768, -8281, 9111, -6638, -5733, -1860, -12911, -4565, -7434, -3408, 7296, 5309, -6183, 21566, 867, -1667, 13410, -5795, 1077, 7595, 14367, 4623, 2858, -5393, -3741, -14702, -12885},
    {-1157, 13916, 3234, 6200, 14472, -4010, -4879, -1010, -9489, -2683, -3345, -591, -9446, 4951, -5134, 931, 4934, -7957, 17504, -5526, -18799, 2635, -2978, 5480, 4804, 14960, 2121, 5762, -10427, 3939, -8285, -22389},
    {-2333, 2466, -3960, 10047, 12679, 9513, 781, 8640, -16098, -11455, 768, -3175, -998, 20464, 202, -358, 408, -11924, 28069, -4722, -16468, -199, -4207, 545, -9369, 17837, 4728, 4947, -13251, 10648, -15052, -14310},
    {-6564, -45, -684, 16945, 14652, 12809, -1120, 7974, -15657, -4128, 13817, 11639, -5317, 30067, 1697, 380, 7235, -9225, 16980, -1671, -15471, 4162, -8576, -4843, -7618, 8919, -3121, 8720, -16469, 2577, -8175, -8900},
    {-662, -2287, -4211, 6126, 9748, 12265, -905, 7564, -16007, -6990, 17631, 6772, -5399, 32415, -4091, -2573, 6984, 3791, 12401, 948, -18053, 3520, 5815, -2043, -2843, 10052, -6539, 981, -8388, 3641, -5710, -12895},
    {-5000, -4379, -7832, 3251, 13228, 18585, -6665, 11478, -17050, -12004, 7696, -3377, 11808, 31357, -8157, -5753, -489, -722, 3875, -10511, -16889, 4124, 2162, 1225, 1769, 12152, -9375, 6379, -7611, 9017, -1999, -11322},
    {-9112, 4554, 7908, -385, 342, 11698, 2655, 10900, -13100, -2058, 9129, 3864, 13073, 22559, 2870, -2725, 5728, -70, 7975, -9557, -22055, -6567, 2580, 3135, 13746, -4665, -7368, 6709, -11957, 7639, -5096, -9035},
    {-8626, 7088, -8741, 923, -3682, 16787, 4289, 6037, -12789, 6198, 9923, 4897, 12067, 20943, 9365, -5517, 2269, 479, 10922, -14343, -24329, 837, 1451, 1064, 13253, -6269, -12614, 5557, -6034, 17892, -7295, -3224},
    {-4989, 7648, -2614, 4368, -22919, 10737, -7377, 882, -8787, 390, 4429, 9321, 234, 6373, 3646, -3702, -2249, 3591, 13219, 4104, -28664, -1798, 3644, -2118, 16373, -10110, 2907, 9457, -2095, 22721, 16, -9568},
    {2676, 5743, -2408, 9187, -22650, 4553, -2246, 8262, -4308, 4138, 2683, 7565, 4029, 8853, 1753, -5493, -7244, 6817, 9253, -3882, -23985, -2232, 3094, -752, 4399, -17330, 4265, -1190, 5804, 19662, -4524, -4201},
    {-5033, 10900, -10803, -166, -34258, 1284, 7188, 1401, 1300, -2798, 4430, 9851, 1983, 3476, 6201, 3998, 297, -104, 8033, 3094, -14257, -5386, -436, 3364, -5032, -3207, 4591, -3630, 1006, 10182, -9421, 2900},
    {-5390, 12653, 7464, 8176, -29036, 38, 5476, 1682, 10092, -1136, 2254, 10138, 307, -2666, 4640, -624, -636, 4348, 2971, 900, -9036, -1283, 1130, -2248, -2449, 1993, 5004, -1959, -6681, 13029, 3805, 3808},
    {1738, 5187, 9742, 8023, -24766, -514, -6866, 3570, 18933, -4536, -2075, 7584, -13178, -16985, 4180, -628, -7137, -636, 8568, 7491, 2173, -2937, 9258, 5406, -1285, 3936, -4121, 689, 2230, 6356, 7452, -4296},
    {4212, 3745, 4022, 9715, -14280, -1221, -6870, 6242, 3719, -8145, -1081, 11663, -6084, -13073, 4045, 2273, -7050, 1064, 9744, 13237, 2076, 3369, -1595, -3056, 2553, -2427, -3509, 12489, 6004, 9759, 10529, -3328},
    {4718, 6256, 7080, 4593, -3800, 3214, -13859, 219, 3671, -11313, -2198, 2250, 121, -5185, -6647, 8793, -5890, 6907, 2607, 5447, -2364, -5620, 7108, -1230, 1142, -4256, -6087, 9136, -2933, 2355, 4773, -3995},
    {-6243, 4978, 3652, 147, 1010, 2313, 369, -4889, 431, -5436, 553, 4028, 1192, -3587, 417, 3839, -1920, 4991, -1496, 2972, -1812, 3776, 268, 4586, 322, 2015, -1930, 6003, -7145, 6313, 1286, 877},
    {2269, -3480, 1378, -1153, 5087, -1012, -2117, -960, 1723, -7848, 2112, -580, -6774, 3748, 4618, 561, 890, -4430, 2647, -161, -162, 7305, 42, 3420, 705, 1897, 2660, 2001, -397, 231, -3931, -4253},
    {424, 195, 5178, 317, -1810, 678, 677, -2710, -649, 2413, -449, 1384, 139, 1757, -4514, -1258, 808, -1988, 748, -1145, 1138, 6518, 1204, -3024, 1514, 293, 5271, -2561, 6383, -2609, -3205, 814},
    {-590, 1550, 5039, 1906, -777, 2535, -4197, 2555, 901, -1204, -7389, 4236, 980, 1008, -4114, 4543, 3151, -4502, 877, 1514, -4399, -34, -3056, 870, 2077, -3075, 2044, -284, -2494, -5030, -2844, -3384},
    {2240, -254, -1165, -1624, -731, 743, 2614, 1217, -4541, -3227, -4634, -1184, -4763, -554, 1192, -10570, 6012, -3735, 609, 1461, 2505, 426, 1500, -1154, -2041, -3078, 3105, -2403, 690, -2307, -3071, 1432},
    {-1742, -2907, -1052, -1379, 1174, -3186, -1552, 120, 3529, 161, -4873, -1219, -1175, -208, -3293, 2725, 1327, 945, 2151, 868, 2530, -513, 3143, 5569, 38, 5015, 114, 1068, -3047, -3759, -4687, -957},
    {13267, -4261, -16780, -4296, 8442, -2060, -54, 1334, -2336, -5683, -6612, -10555, 7603, -1660, 2491, -2348, 6214, 1761, 3140, -1671, 2485, -293, -825, 10136, -1437, 5456, 5311, -7000, -3602, -1106, -12482, -3739},
    {12155, 864, -12507, -6493, -5796, -2813, -6078, -2690, -3875, 1466, 4906, -4210, 8132, -8965, 1382, 2563, -1324, 6313, -2559, -5139, 4477, -2154, -2770, 10651, 3000, 13253, 10477, -801, -4357, 795, -15691, -3028},
    {8119, 6130, -15857, -13534, -2623, -10299, -6438, -3799, -777, 84, 8224, -21426, -1285, -7162, -621, -77, 12957, -1358, 2401, -29, 6753, 10420, -5002, 11002, -1531, 12686, 14787, -1770, -7721, 3941, -18144, -9688},
    {754, 5975, -1273, -6147, -1662, -13607, -4654, -2647, -3937, -8083, 10945, -21501, -1119, -14926, -7306, 2286, 11334, 3481, 3339, 12169, 8349, 3518, -3735, 5661, -357, 9845, 22622, -2759, -2959, 2658, -6762, -12472},
    {-1503, 6521, 15509, 2398, -3739, -2617, -5374, 3049, -5903, -12726, 1079, -20665, -4645, -12580, -11381, -2692, 6981, 5523, 13395, 10410, -7784, 5881, -4382, -1175, 11738, 15295, 15032, 1391, -3972, 4727, 2771, -24019},
    {-4608, 11762, 7094, 3101, 4832, -11040, -10185, 10962, -4123, -6980, 2827, -15034, 3839, -7100, -3620, 7176, 9765, -667, 11166, 584, -3550, 8961, -6888, 2883, 2805, 11900, 5350, 4629, -10621, 2376, -7513, -22558},
    {-10851, 17536, 3673, 11169, 11443, -6222, -5601, 8061, 852, 342, 6261, -8402, -3593, -9234, -1622, 6489, 11746, -1305, 23437, 4769, -2822, 14947, -7460, 8932, 2475, 3672, 2328, -2347, -11133, -6390, -3834, -20894},
    {-6695, 14031, 5532, 4448, 4851, 1970, -7286, 14730, -6086, -2673, 7164, -901, -11458, -16780, -3461, -2351, 6054, -1415, 18695, -135, -4248, 11196, -4995, 11450, 4126, 709, -3699, 5758, -5287, 4911, -11465, -10830},
    {-2992, 7764, -5073, 7362, 17798, 4800, -3376, 22908, -12038, -1748, 12140, 6614, -9941, 348, -6090, 4011, 10301, -10157, 25209, -448, -6914, 9097, -6452, 19776, 2991, -8826, -4744, 2777, -1429, 1970, -11784, -12552},
    {-17534, 6796, -8234, -2975, 18218, 18104, 4473, 15668, -12103, -1768, 17428, 7564, -5093, -3078, -5596, 7976, -652, -7575, 21435, 3477, -18214, 9397, -14884, 12789, 5614, -3676, 3384, -4852, -15409, 7217, -13907, -3823},
    {-4364, 2868, -14029, 6028, 18210, 16305, 1752, 15517, -17429, -11549, 19935, 5508, -12068, 14391, -1351, 3211, -6548, 1684, 18209, -7715, -20801, 12360, -15811, 31, -13995, -13286, -8920, 2895, -16696, 12831, -11471, 9330},
    {-9611, -3488, -9596, 8444, 22284, 26218, 166, 9085, -10372, -4920, 6741, 6886, 7339, 25746, -18690, -8352, -748, 8416, 8825, -3352, -24042, -7953, -1658, -3429, -1966, -15289, -1505, -3543, -14677, 8766, -5651, -6714},
    {-11673, 12807, -3569, 10537, 24476, 15812, 2138, 14862, 5918, -808, 5428, 4267, 11927, 31342, -5456, 1673, 6640, 10386, 8983, -5157, -13291, 856, 6269, 5669, 3444, -19728, -11616, 768, -20296, 11209, -15328, 284},
    {-18263, 8358, -4743, 4112, 12600, 6867, 8093, 16240, 13457, 708, 3395, -1738, 15301, 22035, 2548, 699, 10140, 7886, 12193, 2179, 2431, 4101, 4779, 1453, 8309, -17271, -14218, 4244, -26820, 17744, -8345, -1430},
    {-14124, 22895, 321, 4976, 2006, 7419, 3230, 9245, 11310, 8231, 4545, 10710, 13202, 17453, -2712, -3117, 4162, 8969, 13875, 5340, -9938, 2607, 6036, 4603, 14117, -18706, -7187, 5011, -11737, 16583, -14130, -7849},
    {-14613, 18015, -2061, 2291, -12070, 3292, 6892, 8530, 15974, 5281, -4541, 10634, 10103, 11623, 1008, 483, -73, 540, 15778, 5338, -4516, 3144, 3006, 5756, 10461, -5050, 837, 2523, -11749, 16660, -12334, 1546},
    {-17222, 12788, -2547, 2091, -16111, 3932, 2803, 12324, 20756, 1206, 386, 13882, 16295, 14752, 1020, 1563, -3295, -1043, 6276, 7038, -5226, 1367, -5378, 6196, 8787, -13877, 355, 1250, -6268, 4118, -15067, 2671},
    {-15716, 11302, -299, 911, -17583, 4848, 12771, 5972, 16175, 305, 449, 17272, 250, 8671, -2140, 3144, 1275, -287, 5971, 6781, -8741, 1945, -307, 2651, 7899, -5312, 3708, 7787, -4070, 6848, -15371, 132},
    {-11441, 9235, -3534, 7848, -30232, 1163, 1280, 4273, 21722, 4084, -3366, 8036, -6012, 6613, 3103, -1877, 1844, 3822, 3680, 957, -3355, -958, -1955, 4543, 8300, 1641, 8322, 6280, -12457, 2487, 385, -4559},
    {-8811, 4698, 12740, 6604, -30087, -4846, -4425, 5470, 19098, 719, -2812, 14358, -6127, -8730, 1423, -181, -3605, 3222, 15942, 6540, -2859, -4335, 8843, 3974, 5900, 176, 907, 1012, -6674, -2281, -205, -5309},
    {-6156, -2803, 16044, 3927, -20518, -110, -8874, 6243, -1081, -5588, -1807, 10594, -14920, -18902, 8882, 1957, -7352, 10005, 11868, 12608, -1106, -11221, 11146, -2989, 5574, 1941, -7382, 7364, 2794, 3011, 5879, -6065},
    {-62, 4227, 6857, 5407, -8170, -4897, -14713, 2310, 2544, -7803, -2099, 626, -2933, -10906, 3271, -525, -3049, 1893, -1342, 10675, 3405, -2414, 2639, -429, 67, -10769, -836, 7254, 1961, 988, 8604, -1262},
    {1495, 1623, 2871, -1762, -1892, 2514, -4770, 5945, -4380, 255, 3467, 3692, 3500, -977, -2125, -474, -2230, -783, 7421, -4527, 677, 2715, 251, -2922, 2976, -5690, -1234, 6136, 88, -3533, -1912, -5270},
    {-2441, 1434, 7048, -876, -818, 2700, -6266, 1390, 80, -6918, -5566, 2114, 2128, 872, 3073, 1819, 2381, 3747, -360, 510, -4159, -2123, 265, -3809, -1757, 5049, -589, -729, -1809, -833, -766, -4299},
    {7069, 505, 4606, 4957, -4557, 1773, 6958, -621, -4179, -2673, 384, 1024, 507, 3725, 3378, 201, 2683, 224, 95, -4254, -5328, -4599, -931, 1996, -5251, -7233, 1876, 1791, -2452, -619, -664, 319},
    {-2028, 3394, -1730, -867, 997, -4115, -2270, -1145, -718, 734, 434, 4634, -5441, -384, 1572, -2566, 3870, -2428, 1139, 4972, 2645, 3814, -4042, -5031, 835, -4242, 1166, 1269, -830, -3245, 4661, -2647},
    {-1413, 6087, 2175, 5535, -3810, -7724, -1772, 252, 1485, 716, -1616, 1646, 3813, 6561, 4590, -4247, 3993, 1412, -585, 2874, 5278, -3284, 4135, -5961, -1470, 6283, 1153, -4234, -1778, 6143, 4983, 1237},
    {-1186, 1625, 38, 1800, 406, 4234, 2932, -2137, -3834, -5240, 329, -622, 7527, 399, -3941, 1874, 4123, 2104, 3153, 256, 3836, 1905, 1535, 2320, 593, 6895, 4572, -1483, -113, 2725, -1808, -958},
    {4595, -2875, -16544, -5123, 6149, -3301, -3591, 3794, -591, -6233, -2925, -8569, 15114, 857, -3308, 1030, 5856, 1346, -2806, -4970, 5460, 1495, -6205, 13484, -2387, 6729, 6721, -5795, 4969, -479, -18338, 420},
    {3593, -1153, -11106, -9433, -3815, -10018, -792, 415, 1712, -3304, 6719, -7172, 7120, -6815, -2710, -1473, 3607, -822, -7668, 1246, 995, 10326, -1175, 10460, -1718, 8245, 12144, -105, -2386, 3356, -15315, -7130},
    {2907, 3723, -8202, -9240, -4683, -6381, -5699, -2804, -2085, -6756, -2341, -21642, 3466, -10527, -2656, -33, 7868, 363, 3175, 5389, -5340, -467, 868, 7863, 65, 13748, 17111, -6823, -6598, -635, -5015, -13272},
    {766, 3919, 2275, 561, -1121, -18545, -6661, 1370, 536, -9114, -7808, -20567, 11195, -8510, -5408, 1724, 16286, -1442, 12605, 17326, -4097, 4698, -2720, 8156, 479, 8963, 16796, -4062, -4470, 1169, -6332, -24800},
    {-7887, 10374, 5989, 7067, 10517, -1991, -4933, 11410, 2084, -10063, -1879, -13097, 5298, -15134, -10676, 4609, 13564, 4524, 15745, 3245, -5533, 7692, -4904, 272, -5638, 7193, 7433, -1430, -8759, -1007, -3065, -22820},
    {-11536, 11225, 15550, 14321, 7269, -3545, -2735, 15922, 4240, -3282, -3077, -10719, 3871, -13034, 2012, -4365, 7216, -5117, 11826, 7486, -1597, 10959, -7844, 3919, -2395, -774, 10006, -4633, -10083, 5349, 8392, -16502},
    {-8778, 10706, 2885, 9174, 9398, -6397, -1018, 8478, -11575, -1918, 3912, -13526, -1295, -10611, 2688, -4050, 13369, -1867, 13593, 12364, -6003, 15295, -13245, 14556, 5643, 5625, 46, -3062, -3760, 1181, -1699, -11030},
    {-10341, 11840, 11574, 5681, 6813, 1540, 4235, 9608, -14059, -7322, 8995, 31, -7600, -14249, -529, 4180, 5777, -2069, 11788, 13200, 3160, 14528, -12781, 22718, 169, 1186, 146, -6417, -10751, 3643, -1835, -4067},
    {-8323, 11451, -7224, -875, 3763, -2920, -3191, 11080, -21468, -5419, 11731, 185, -8641, -23132, 3537, 2095, 10112, -61, 20888, 6880, -12611, 4333, -15292, 21670, -1470, -23543, 2156, -8297, -14902, -2016, -47, -5268},
    {-3740, 7531, -26198, 3594, 15184, 9966, 4081, 1105, -15473, -5981, 5552, 13098, -19513, -23382, -8744, -2729, 2952, 5873, 16619, 10982, -12772, 6864, -16637, 18771, -8131, -27589, 7470, -15660, -12249, -2294, -3251, 2478},
    {-9075, 6162, -30032, 299, 27843, 10990, 4995, 624, -7943, -3969, 7389, 7227, -2260, 4212, -12204, -3962, 442, 7161, 11794, 153, -14168, 12930, -23738, 540, -26452, -21531, -686, -8063, -28494, 8727, -9326, 1680},
    {-12853, 14978, -14498, 293, 21669, 8545, 6326, -678, 12832, -9034, 3592, 3774, 17392, 29074, -2609, -1500, -849, 9340, 3991, -3001, -4320, 7850, -7433, -3357, -18177, -15873, -6565, -15347, -31945, 5234, -16507, -653},
    {-7059, 20177, -7928, 12688, 4381, 15908, 9687, -1986, 11522, 4698, 6640, -4538, 16527, 41947, -1328, -5928, 8802, 13289, 10654, -1280, -10411, -4565, 9537, 3749, 12833, -31909, -3582, -1396, -31436, 4323, -8198, -9396},
    {-10812, 14041, -10303, 11034, 199, 6229, 12400, 1063, 26833, 7536, 1968, -2226, 11251, 34130, 9966, 5693, 5904, 10534, 1982, 1794, 9269, 5000, 8969, 14959, 17432, -24238, -10044, -4252, -24182, 3486, -11998, -1513},
    {-14994, 20748, -3577, 10689, -2088, 1210, -761, 6485, 28140, 2656, -10004, 540, 16329, 23288, 2338, -502, 1662, 7040, 13701, -443, 3993, -6621, 559, 11982, 23412, -25461, 7169, 6249, -28980, 8856, -21544, -7743},
    {-12621, 15700, -8767, 11586, 693, 3953, 3259, 6177, 15860, 11267, -8596, 453, 10594, 18642, 6839, -10009, -626, 10015, 13011, 7844, 1675, 6738, 3628, 8294, 19896, -7880, 13464, 4271, -18029, 3755, -17646, -10101},
    {-16240, 12911, -8793, 2662, -6284, 3300, -2523, 8802, 27444, 6154, -2172, 6861, 6489, 14265, 5682, -3430, -4914, 8463, 9488, 9695, 3683, 3678, -3776, 12377, 7608, -10950, 4859, 12903, -12054, 1970, -9242, -17945},
    {-15651, 11698, -1424, 6095, -14622, 10883, -1805, 11918, 15725, 3969, -2086, 13604, 5842, 14060, 2779, 2912, -6186, 3196, -1219, 1871, -4355, 1763, 3547, 4360, 8973, -9018, 8642, 7686, -18075, 1434, -10129, -6890},
    {-12849, 7919, 422, 7967, -22156, -188, 988, 9690, 3570, 4160, -12368, -786, 1462, 15462, -1562, -2653, 1027, 11668, 7715, 5092, -3067, 2932, -5241, 7667, 9776, -8778, 6659, 5779, -18213, -2642, -5174, -13518},
    {-21513, 14049, 18432, 8206, -22753, 3937, -5946, 2671, 13852, -4405, -2676, 5506, -17806, -8613, 5552, -4045, 4914, 8861, 10423, 10854, -5296, -5625, 19296, 2387, -2453, -17475, 3212, 11889, -20122, -3307, 8621, -13362},
    {-10906, 8948, 27854, 12044, -17397, 4242, -16835, 12054, 16311, -9380, 2495, 10720, -18955, -23155, 3554, 2068, -4895, 7300, 12349, 14428, -5090, -10581, 15263, -3401, 473, -14268, -10302, 18295, -9391, -5017, 13880, -17632},
    {-7000, 8731, 4881, 4342, -7007, -537, -19739, 10603, 8890, -10346, -1703, 7779, -5635, -11590, 7026, 5830, -2595, 3779, 6925, 13464, 2795, 1136, 4995, -675, -4155, -3891, -3883, 10911, -4752, 7763, 9387, -6936},
    {-2251, 4805, 3570, 8334, -569, -5828, -9172, 683, -283, -5520, -888, -1197, -7640, -4197, -2894, 9838, -2059, 2995, 3826, 2661, -2559, -282, 4817, 285, 2924, -6762, -75, 3621, -6780, -449, 3864, -3565},
    {1095, 1095, -1098, -2576, 2112, 3362, -3099, -1510, -2724, -2881, -3569, -2467, -314, -254, -1200, -1847, 3600, -2580, 1735, 2039, -1575, 1685, 1068, 2129, -47, 3301, 3227, 3400, -2771, -2850, 4005, 216},
    {40, -2517, 674, 2411, -1889, 1308, 1156, -300, -3740, -1708, -2012, 4650, 2052, -6390, -2238, -1041, -1952, -366, 1463, -310, -1738, -1853, -733, -5875, -3461, -3727, -932, 433, 1696, -2706, 4788, 3140},
    {805, 842, 1802, -378, 2247, 1625, 2940, 914, 898, -1154, 3853, 1381, -812, -1503, 2784, -1386, 2562, 36, -339, -2252, -6533, 3660, 1572, -8316, -1234, -1305, 240, -3536, -2844, 1215, 4669, 2624},
    {-4724, 461, -5834, 5479, 1412, 737, -2773, 2537, 7933, 1637, -399, -4494, -1904, 2451, 3483, 3484, 2673, 4857, 1858, -1667, 1711, 2678, 1171, 779, -5468, 2136, 1681, -5827, -3192, -7256, 3531, 923},
    {-521, 1234, -10262, -2094, 8462, -6523, -2648, 1441, -4653, -1205, -4397, -2881, 595, -189, -2280, 333, 8628, -1499, -2076, -1608, 6685, 7033, 834, 7690, -7070, -200, 7940, -1829, -90, 1299, -9474, -2131},
    {5354, 5878, -20923, 2837, 2984, -5941, -6308, -58, 573, -3533, 4056, -14363, 13020, -761, -3444, 2629, 9337, 8855, -1183, 3120, 3542, 8404, -3877, 7540, -5048, 10262, 6099, -3618, 2099, 2016, -10990, -7824},
    {-3643, 3739, -8754, -9344, 762, -8084, -1415, -542, 4459, -3864, 4502, -15768, 5874, 196, -6931, -1833, 2982, 3079, 5950, 8092, 88, 6987, -7582, 13637, -2298, 5215, 18335, 533, -6271, 1610, -9915, -14106},
    {-9029, 4406, -581, 6273, 6868, -2074, -2676, 1922, 4667, -2186, 2441, -16380, 610, -10921, -10112, -1523, 9345, 6778, 9158, 12367, -8620, -3548, -6543, 2390, -5011, 5308, 14756, -3843, -6737, -4495, -7344, -18011},
    {-2146, 9665, 1923, 9577, 2683, -5711, -5863, 3448, -3004, -11373, -1738, -19357, 11761, -16918, -17369, 1187, 1137, -1547, 8982, 10496, -4759, -5440, -13272, -204, -4027, 1544, 8098, 1164, -7027, -4633, -4505, -19067},
    {1459, -1061, 3352, 9565, 11859, -5184, -7749, 1394, -5687, -7346, 8095, -10448, 10517, -11927, -4074, 6087, 5021, -1111, 13985, 11530, -7443, 6658, -13657, -3337, -392, 970, 7485, 1914, -2989, -1733, -561, -20426},
    {-10351, 5895, 11309, 1494, 4373, -5731, -6427, 7853, -1445, -3518, -1343, -6590, 1633, -9649, -4508, 4198, 2215, 2312, 1982, 4601, -2990, 8857, -11843, 4729, 3045, -2508, 5385, -4922, -15046, -249, 3645, -11930},
    {-21696, 12322, 16470, 1495, 18484, 6669, -4570, -2118, -21676, -6554, 5633, -4168, 1160, -8118, -8866, 1593, 2287, -5966, 7833, 15980, -2601, 6278, -18202, 11375, -5548, -6030, -2250, -4397, -14147, -10364, 1776, 13544},
    {-10911, 18210, 37061, -1298, 1635, 162, -1767, 5840, -15842, -16924, 4704, -1295, -3937, -25034, -666, -1488, -2787, -8635, 24802, 15891, -2281, -3838, -25937, 15839, -5719, -5084, -2184, -7617, -17310, -11474, 1609, 2563},
    {-8384, 13686, 16010, -10392, 4677, 10555, 3157, -544, -5368, -5010, 1839, 9012, -17162, -27064, -1866, 6295, 3708, -90, 22248, 9531, -1884, -1301, -23938, 29825, -19549, -15297, 10401, -11075, -18833, -9544, 2522, 787},
    {-15761, 12685, -26031, -12366, 24026, 15330, 6232, -8397, -3995, -9419, -4158, 11312, -30183, -28455, -8013, 9372, 79, -5141, 12279, 11554, 2796, -6161, -17529, 19701, -37593, -21956, 5643, -11549, -22621, -22960, -3489, 7185},
    {-6186, -391, -45239, 1604, 41380, 11801, -1159, -6811, 14622, -8563, -6425, 7366, -585, -10318, -19483, 1344, 5641, 8228, 9650, 3949, 8892, 5971, -23598, 11093, -39112, -23190, 2965, -12267, -13591, -18605, -11841, -6166},
    {-786, -7416, -20937, 1933, 13453, 11683, 95, -9371, 18761, -17277, -7777, -1468, 15714, 23089, -17621, 12604, 2367, 4825, 1247, -11674, 18016, 16464, -22912, -4220, -22, -20160, -10987, -7767, -23386, -18380, -23472, 357},
    {-2417, 3165, -15075, 16577, -9838, 5172, 12703, -3024, 17980, -2689, -8911, -18629, 17376, 25526, -7406, 865, 9760, 8208, -1561, -12254, 20781, 7202, -17043, 7817, 27797, -18173, 5037, -10913, -28188, -18182, -17306, 3203},
    {-13804, 16680, -12101, 5436, -7023, 4030, 11135, 4725, 15449, 2873, -4893, -15696, 13864, 24739, -7246, -1468, 9739, 6648, 4473, -4272, 13465, 10276, -231, 14926, 26424, -22760, 13902, -6919, -26140, -10357, -8695, -8772},
    {-18409, 20972, -4637, -2705, -7317, 4649, 11588, 5669, 21611, 5547, -10614, -16785, 4233, 19569, 3861, -3423, 3756, -2387, 13894, 609, 18642, -1310, -900, 10958, 14262, -10246, 25404, 9895, -19530, -7886, -8557, -2751},
    {-11783, 10529, -8890, -2428, -5080, 3189, 10025, 1487, 12783, 13333, -10803, -11914, 9440, 17228, 6417, -3170, -88, 1395, 17460, -2513, 12033, -7114, 5884, 13221, 10555, -11705, 30379, -3741, -16405, -14149, -8641, -15829},
    {-8372, 6279, -5141, 3994, -2936, -2648, 5831, 7156, 9071, 5398, -8660, -8706, 13348, 14518, 8113, -4834, -6347, 5494, 3315, 1149, 2044, -6833, 5292, 6131, 14399, -17209, 13642, -1818, -16113, -20673, -2227, -15749},
    {-11021, 11093, -698, 2135, -12975, -488, -6720, 9253, 9499, 2867, -5808, -2374, 8635, 6071, 5195, -549, 1649, 7648, 6495, 1189, 1919, -6510, 9394, 12077, 8919, 62, 10881, 11196, -8616, -15476, -6172, -20196},
    {-8843, 5952, 1925, 8368, -13462, -3093, -4135, 12302, 10996, -1762, -12072, -2777, -1039, 18259, -1683, -2155, 2598, 13918, 8761, -104, -1672, 1625, 10382, 20372, 11564, -12284, 11548, 15180, -11844, -11528, -1495, -18727},
    {-13412, 8859, 18272, 19422, -14400, 1950, -2565, 8553, 7034, 43, 703, 7138, -11980, -5255, 2529, -4053, 6560, 13031, 19279, 10250, -8287, -3530, 2176, 6218, 3297, -9981, 6496, 14926, -19885, -15835, 3542, -13963},
    {-17649, 7981, 10265, 21549, -15624, 119, -19852, 7845, 19368, -12194, 7864, 3896, -17329, -17450, 9880, 442, 400, 20128, 10540, 20162, -5726, -1301, 13278, 656, -3094, -20824, -2061, 27070, -5724, -3152, 6268, -15734},
    {-966, 6614, 4123, 14117, -4785, -5793, -21460, 570, 11275, -17963, 2617, 5862, -9315, -13509, 7327, 12558, -8318, 9323, 10851, 17141, 2710, -2053, -1638, 4750, -1529, -14248, -5396, 22823, 1046, -4469, 1508, -7018},
    {-2003, 4009, 1971, 3466, -601, -2244, -2981, 630, 2604, -9395, -911, -5597, 2214, -29, -2191, 955, -3593, -2067, 6425, 3737, -1413, -2000, 5294, -6532, -2341, -3966, 1940, 4649, -2865, -648, 753, -2194},
    {2806, -5484, 3561, 889, -1173, 1793, -566, -2402, 15, 1224, -5788, 356, 11217, 4398, 1704, 227, -526, -5627, 2737, 5644, 5638, 8544, -340, -3022, -3398, 6006, 2475, -382, -463, -2627, 640, -399},
    {-1304, 313, -4445, -1821, 3672, 2213, -6798, -184, -4321, 3115, -1969, 814, 1182, -2623, 3902, 3407, 5570, -3000, -2982, 3243, -4210, 1322, -5753, -2793, -4601, -3201, -3284, 1628, -3073, -54, 2475, 325},
    {6582, -1091, -147, -768, -782, -775, 1760, 8007, -2580, -7275, -94, -455, -1783, 365, -3592, 13, -4833, -4826, 1193, -5489, 1178, 3, 856, 754, 506, -204, -2083, 5446, -2209, 3496, 3400, 795},
    {3792, 3266, -5201, -1993, 1138, -2607, -2942, 2001, -378, -319, 4738, -5571, 1223, 4358, -268, -2554, 1266, 941, 248, -1645, 3270, -3333, -5492, 8552, -6950, -4064, -1629, 152, -2356, 5426, -4972, -1009},
    {-4602, 5620, -3352, 169, -1329, -2985, 1416, 4422, 2257, -4721, -2, -5700, 4051, 4401, -622, 8051, 2222, 5578, 5312, -2619, 7820, -697, -2037, 3075, -4144, -5031, 10236, 581, -1980, -1808, -2954, -5977},
    {-4524, 6789, 170, -6278, -1310, -4652, -3578, 3542, -641, -1841, 3716, -8378, 12599, -2558, -817, 7716, 5348, -2296, 4628, 4228, 8959, 3781, -2081, 16423, -5234, 7762, 4431, -6378, 1243, 2170, -9106, -7345},
    {-6523, 8370, 7724, -4096, 5981, -5986, 7622, 1543, 2292, -1559, 8575, -9241, 2486, -2096, -17132, -8662, 10994, 6293, 5538, 6349, 1748, -9733, 462, 9343, -4411, 8157, 13006, -7608, -8284, -2954, -6243, -10954},
    {-1091, 12825, 8450, 292, 12556, 1479, -4908, 384, -10445, -2103, 5554, -22024, -7540, -11459, -20227, -5709, -351, 5791, 9197, 7149, -17164, -13058, -16950, -1857, -3465, -2420, 14866, 58, -10112, -5286, -3592, -20782},
    {-9165, -3833, 14603, -1677, 5550, -3024, -10048, 5096, -3647, -8419, 7277, -23023, 2257, -11612, -15374, 4058, -4817, 6211, 1089, 14537, -10738, -7853, -14656, 702, -6394, 2267, 5293, 5543, -6035, -2929, 11541, -23211},
    {-14229, 10547, 22395, 9465, 4764, 2236, -5511, 3382, -8188, -3974, 4206, -4413, 2850, -13125, -2372, 641, -2339, -7170, 8138, 11651, -9314, -4145, -15009, -6739, 614, 2310, 2199, -908, -4188, 1522, 6473, -4081},
    {-20520, 8133, 32408, -3940, 3172, 2887, -7340, -2435, -1908, -5189, 7037, -3313, -3715, -13006, -4358, 6931, -1022, -8278, 6677, 7360, -6875, -4067, -21074, -11701, 3434, 6861, -7570, -2656, -13991, -9888, 9928, -11544},
    {-11410, 9265, 27785, -3065, 2445, -3223, -2653, -2989, -3960, -10889, -25, 1973, -15987, -17862, -8640, -1023, -1023, -5213, 16221, 12207, -6335, -3952, -22202, 3330, -919, 4632, -3832, -6775, -10800, -16284, 12576, 4876},
    {-11721, 19098, 32201, -8935, -2716, 15673, -1656, -3039, -4116, -13308, 2279, -6201, -24310, -12559, -12814, 4044, -4056, -10888, 18638, 15353, -4017, -9960, -26874, 20045, -13718, -3005, -5382, -10750, -6778, -18568, 5772, 9828},
    {-48, 8187, 27502, -20434, 2979, 6627, -8909, -7787, 5500, -13178, -9402, 15136, -38313, -29363, -1610, -2474, 8855, -7091, 19388, 15344, 6305, -24899, -9132, 23761, -28329, -15526, 5458, 3716, -1401, -22145, 202, 4469},
    {1994, -165, -17290, -7400, 16599, 18417, -10835, -9481, -1108, -5895, -2381, 6436, -19686, -42251, -2137, 4505, 19177, 4249, 18230, 10864, 12945, -20256, -3453, 40841, -43992, -18593, -760, 1238, 3135, -24478, -9498, 1613},
    {-8363, -15024, -30521, 13094, 20075, 8368, -7988, -8287, 3909, -11311, -1012, 9294, 3108, -20592, -5227, -5970, 32499, 11527, 11679, 14058, 15510, -12651, -9782, 37891, -18235, -32056, -3070, -10929, 5063, -24472, -8602, 246},
    {-5074, -17991, -11367, 9486, -14129, -1959, -7937, -2905, 11546, -18428, -5459, -4875, 22428, -1943, -3666, -4255, 24672, 5891, -3265, 2231, 38958, 12097, -14082, 15163, 21182, -18685, -3627, -9590, -1633, -32402, -7140, 11848},
    {-7012, -2065, -6875, 12532, -12342, -131, 969, 1016, 8484, -11156, 6589, -13779, 20942, 7080, 2931, -3508, 31804, -267, -3409, -16428, 22938, 7265, -21263, 19712, 38944, -15980, 13794, -5600, -5045, -23371, -18509, 10220},
    {-5011, 7627, -10125, 4449, -7407, -1603, 5651, -14648, 10620, -4082, -10137, -20332, 9649, 6326, 12535, -2532, 23094, -123, -2251, -24236, 18479, 8898, -12828, 22758, 21666, -5242, 20428, -7429, -12227, -18469, -21923, -3423},
    {-1513, 8445, -303, 269, -80, -1945, 4551, 1344, 13249, 8256, -10958, -17984, 16590, 14754, -4501, -8642, 11893, -2209, 1011, -10563, 5130, -8817, 950, 11325, 12906, -6640, 32188, -2340, -12885, -22063, -12227, -17779},
    {-5322, 5630, -8253, -8924, -458, 1161, -2873, 3247, 5210, 2730, -15463, -21929, 17216, 19249, 4932, -10936, 4202, -3409, 4927, -6130, 7530, -11063, 7785, 7957, 7218, -10418, 26709, -507, -14727, -23053, -1119, -13878},
    {-8351, 7870, -11035, 591, 3038, 2089, -9029, 7578, 9029, -1126, -4976, -27931, 21529, 13651, -4608, -6498, 4888, 5497, -5319, -1388, 6320, -16219, 7463, 6010, 1666, -16430, 22457, 3065, -13261, -20173, -3677, -21280},
    {-14180, 5949, 247, -3506, -7321, -2545, -6290, 10107, 14419, 400, -9752, -17156, 11426, 17382, -2468, -5539, 7481, 7413, -3208, -2800, 268, -7982, 1897, 10288, 1685, -14626, 12815, 5963, -3808, -23163, -3578, -14148},
    {-11535, -472, 8163, 7271, -1092, 2854, -2294, -3263, 14186, 3801, -12113, -10149, 14418, 20653, -6488, -675, 13435, 8640, 7525, 1347, -972, -3198, 10802, 8269, 1064, -10749, 14091, 11527, -10852, -22488, -3636, -18744},
    {-17063, 3968, 10397, 14990, -2790, 3392, -3546, -11274, 8657, 5152, 7441, -11722, -15710, 6032, 3509, -1132, 11699, 16824, 12648, 4365, -11488, -2293, 6948, 2475, 3945, -27461, 9383, 15715, 1855, -18761, 4151, -16458},
    {-11273, 14235, 12840, 23296, -873, 1321, -10398, 407, 15228, -10319, 6253, 1687, -22045, -15205, 11901, -4068, 9861, 17919, 9812, 18367, -5340, 1966, 10058, -7039, -4255, -23267, -6304, 23757, -4006, -4231, 4638, -18181},
    {-6642, 10376, 7922, 14162, -5222, 3989, -16155, 12406, 13271, -15495, 8024, 2224, -8741, -11867, 9837, 471, -3517, 10093, 10239, 20131, 287, 1808, 5636, 5610, -4579, -11351, -5558, 20577, -3002, -3407, -379, -6025},
    {3920, 867, 428, 1462, -1073, -1570, -10605, 6020, 4205, -6497, 754, -2388, 1810, -2750, 3776, 1934, -281, -2405, -5051, 4592, -2267, -1213, 633, -2314, -3232, -4866, 1193, 3715, 2188, 3393, 1004, 2444},
    {3778, -3592, 2071, 1915, -2465, -7116, 3148, 3689, -4281, 1326, -3602, -7079, -297, -963, 7, 3139, -3861, 923, 4903, 1083, -8604, 587, 2523, -1714, 2120, 1492, -1032, -1871, 2694, -836, -666, 2358},
    {-3011, -1119, 360, -3705, 5564, 3881, 382, 910, -4317, -774, 1550, -7872, -1578, 2462, 891, 312, 3436, -4973, 6699, -1362, 5919, 1919, 1592, 1878, 3751, -2414, -2086, 745, 907, -271, -1152, 5522},
    {-3543, -3141, -3465, -1032, -2524, -2173, -216, -4015, 6353, 867, 744, 2870, 4230, -1822, -1968, 1484, 284, 3269, -4436, 170, 2919, -3017, 456, 654, 4510, 1093, 645, 342, 577, -717, 2531, -6270},
    {-292, 3732, 2541, -4306, -824, -5868, 2993, 545, 375, -886, 6227, -3131, 6915, -3205, 471, 4647, 3214, -1584, -5487, 122, 9554, 1950, -6272, 5612, -5491, -1743, -6081, 2026, 5900, 2231, 1047, -3660},
    {-3270, -1433, 2946, -79, 535, -5774, 1544, 4467, 7049, 378, 7471, -5751, 12325, 7241, -3450, -146, 9454, -2926, 4277, 923, 2197, -530, -4850, 6246, -4789, -209, -824, -4853, -4350, -3204, -8290, -2094},
    {-6675, -3945, -3053, -838, 9030, -6835, -1081, 5455, -859, -4251, 3542, -3851, 11250, -7514, -11793, 1775, 5310, 7143, 160, 6841, -2014, -13355, -1162, 4661, -5072, 1685, 13571, -4556, 1367, -1549, -1978, -16277},
    {-6237, -220, 12580, 4, 9784, -7800, 3180, 4028, 4840, 1906, 8342, -9473, -6405, -7569, -23971, -3352, 2645, 8164, 11058, 14334, -4824, -17742, -7604, -3391, 2479, -1048, 7951, 679, -396, -4729, -6958, -15439},
    {-12532, 4087, 30031, -884, 5557, 8043, 6749, 5045, -1272, -1601, 3617, -19470, -6870, -6783, -15270, -3474, -2978, -7555, 13861, 7510, -196, -24611, -5933, -14873, -1714, -4254, 10113, 4735, -2725, -7759, 959, -16252},
    {-15492, 6009, 36490, 407, 10193, -1871, 381, -1590, 2855, -5082, 3543, -12777, -1995, -12047, -17266, 2208, -381, -7364, 15432, 8520, -146, -29580, -1434, -8522, -420, 1168, -294, -2051, -2190, -12930, 10849, -15225},
    {-10757, -4373, 31818, -1672, 11718, -118, -10163, 10349, 3425, 1047, 3298, 1585, -991, -3355, -7962, -149, 113, -11296, 9657, 5387, -2221, -25939, -8709, -16587, 2799, -1339, -5064, 561, -8508, -12138, 12915, -3688},
    {-11460, 5344, 26488, -4299, -6248, -2931, -8439, 4526, 3774, 1868, -2903, 5972, -6174, -16111, -13018, -5595, -42, -7932, 14160, 2773, -2798, -38460, -8438, -11675, -1062, 16106, -5767, -8556, -11978, -15210, 10614, 1895},
    {-13099, 13598, 24440, -6298, -7939, 2364, -4128, 3392, 11091, -4666, 322, 13429, -1031, -13651, -9629, 327, 9309, -10724, 12601, -605, -3709, -46212, -6907, -5236, -18587, 7842, -4701, -3657, -7696, -17789, 3006, -1224},
    {-4237, 12409, 26141, -10371, -983, 9649, -5307, 3145, 10852, -17268, -7843, 4521, -3725, -1788, 638, 4840, 11612, -13590, 11278, -7426, -3199, -43788, 3673, 4220, -16915, 568, -2010, 1373, -8587, -25117, -4676, 4778},
    {-2011, 6752, 22005, -13307, -6984, 12836, -15306, 198, -3209, -12000, -13007, 20532, -13162, -30503, -532, 1701, 15225, -5290, 15211, -6326, 10999, -40398, 23892, 27765, -26713, 4242, -3550, -24, 1240, -22237, -1664, 6856},
    {4882, -15169, 1299, 12189, 4049, 10070, -8192, -11278, -12125, -3829, -105, 13883, 3846, -41515, 3934, 680, 24773, 6679, 10605, -4718, 1662, -45020, 38578, 50529, -27962, -20156, -9468, 10592, 14931, -16636, 777, 3633},
    {10128, -41103, -14852, 15524, 7105, 9724, -18281, -973, -5876, -21676, -2081, 9448, 25090, -20703, -1661, -4714, 27776, 11955, 12218, 7048, 10589, -21395, 19811, 40954, 9997, -32294, -7646, 3051, 16273, -24966, -7, 16394},
    {2545, -36868, -3620, 10705, -12847, -6257, -22984, 8992, -1962, -34839, -855, 2803, 27305, -9171, -3147, -1881, 21980, -10587, 11350, -9377, 23916, 2649, -1817, 23706, 38426, -15259, 8211, -3018, -957, -17927, -8338, 18735},
    {812, -11247, 8369, 774, -7161, -2460, -13204, 2098, 4165, -31143, 3467, -3726, 13269, -16023, 3453, -4301, 18990, -21427, -3264, -20169, 17382, -745, -4242, 9498, 30097, -2593, 5279, -10981, 8957, -7975, -13322, 5901},
    {1312, 2414, 791, -1381, 10160, 2976, -12149, 4631, -6599, -19014, 1795, -14491, 19588, -2361, 11281, -1852, 15978, -14214, 9713, -26471, 2551, -5898, -10236, 4761, 9249, -8361, 17180, -7799, 3405, 1348, -21282, 4077},
    {-6975, 1878, 1430, -5818, 13818, -1689, -6419, -2851, 941, -8507, -5031, -15738, 13890, 7559, 4439, -3169, 11623, -6726, 9416, -20939, 11703, -11972, -8079, 2319, -4291, -14998, 22402, -7472, 4807, -5577, -8924, 4049},
    {-5565, -8953, -6458, -6325, 8041, 1665, 4097, -7260, -7075, -652, -2990, -24684, 16899, 14645, 6963, -5240, 8593, 1154, -10802, -15789, 4252, -21837, 1299, -927, 12981, -9164, 17916, -3221, -9268, -14476, -5194, -13194},
    {-9619, -10332, -5940, -7625, 18466, 2891, 992, 3463, -22, 4737, -14853, -24379, 26692, 23233, -13017, -3628, 14532, 345, 1825, -13662, 10137, -16781, 3427, 2371, 1745, -15537, 22813, -8001, -1468, -22994, -12526, -16052},
    {-14758, -4606, 7245, -3113, 2895, -254, 5148, 3812, 4846, 11474, -2806, -10311, 14189, 25496, -10236, -329, 15308, 3297, 1559, -14959, 7772, -6640, 2790, -704, 2744, -15194, 10446, -544, 6102, -19631, 1540, -19055},
    {-17175, -11538, 10545, -1454, 5319, -3620, 1196, -8325, 6136, 4215, -1081, -14040, 11385, 22046, -11112, -7773, 15501, 5348, 11400, -9382, 582, -8646, 11508, -2710, 566, -15338, 19357, -4111, 1698, -25912, 141, -25735},
    {-6452, -6946, 10890, 11802, 1893, -4281, 3809, -11584, 5237, 5354, -356, -6622, -11971, 10184, 1148, -7058, 10729, 9416, 13645, -3861, -12432, -8201, 17428, -11718, -4826, -21595, 12282, 2820, 7423, -20491, 2760, -17281},
    {104, 2051, 4845, 15549, -4305, 4966, 1421, -8533, 8073, -2632, 734, -6054, -14257, -6994, 11017, -1697, 9799, 19732, 4294, 5686, -12009, -4499, 9331, 624, -2099, -24455, 3915, 9190, -734, -6311, 4573, -8597},
    {-758, 265, -4491, 5162, -295, 3681, -5592, -3178, 9451, -12864, 1044, -2674, -2982, -6478, 3992, 3773, -84, 6158, 9160, 13574, -3489, 4634, 1917, 5086, 2015, -6232, 7722, 13101, 1310, -1411, -1604, -1318},
    {-1458, -4662, -377, 4139, -439, -3740, -9079, 6322, 192, -6013, -8298, 3104, -7018, -1980, -2657, 4216, 2161, 4274, 954, 5687, -1055, 2043, 3567, -918, 294, -2938, 8180, 3329, -352, 3237, 7042, -8289},
    {3086, 226, -1670, -2783, 5255, 1603, -4784, 3606, -7780, 2508, -4869, 5744, -2109, 1579, 643, 4671, 5475, -2964, 2263, -3648, -94, -3179, -4627, -4331, -24, -1297, 1223, 591, -784, -210, -3151, -921},
    {-1516, 2251, -5954, -9453, -2296, 1411, -3567, 1044, 1936, 2544, -1907, 1569, 1003, -1248, -4032, -1447, 373, -1926, 2439, 4055, 4815, -8820, 2181, -867, -1302, 7933, -1830, -917, -1952, 3198, -1074, 2162},
    {3437, 3840, -1481, 67, -4687, 4799, -2204, 4938, -5655, 398, -2344, -2624, 879, -5128, -793, -4913, 3891, -709, 88, 4663, -953, -222, -4504, 2098, 3277, -3759, -2484, -989, -2356, -5718, 1791, 1456},
    {-1578, -1083, -7576, -1970, -604, 119, 2732, -7315, -2746, -5104, 4965, -5520, -3603, 3819, 2308, -2398, 13298, 1165, -71, -2371, -1996, -3027, 3718, 3734, -11075, 3988, -3445, 355, -2904, -987, -2244, -97},
    {-4366, 1076, 526, -2463, 3272, -3936, -168, 2898, 225, 2346, 9182, -693, -194, -5631, -4250, 4610, 9385, -170, 3717, -2559, 3998, -3280, -263, 3678, -5055, -6024, 584, 130, -1277, 4406, -2486, -2920},
    {-9670, -2545, 6376, -7280, 12704, -3740, 2837, 13404, 2602, -7490, 7216, -12289, 9620, -328, -17176, 3914, 2711, 3904, 16392, 1133, 1094, -14156, 3846, -1224, -3931, -4959, 939, 3288, -357, -334, -5729, -5876},
    {-6366, -1936, 20831, -2965, 8409, -858, -1294, 11851, 1428, -390, 6533, -9724, 145, -12429, -19872, -1374, 1147, 497, 12172, 1533, -1066, -33440, 15649, -10504, 1115, -14465, 13026, 28, 638, -12614, -363, -6145},
    {-8585, 4578, 38813, 6516, 7086, 991, 4636, 11899, -839, 7649, 10175, -7918, -5959, -14729, -9198, -4196, -1796, 60, 14176, -229, 1162, -38163, 6645, -12533, -11218, -16114, -1858, 3389, -5067, -10070, 5021, -5979},
    {-13689, 7549, 28627, -1873, -4543, -855, -5738, 10101, 3965, 8176, -3753, -5039, -1103, -8322, -12075, 6358, -591, -8860, 14654, -844, 7797, -54930, 10339, -11262, -10331, -980, -10136, 3607, -2123, -12579, 9419, -3991},
    {-8056, 6534, 24569, -8303, 2115, -2620, -10595, 7190, 14078, 4333, -4439, -519, 6486, -2171, -11145, 3557, -3408, -17281, 4689, -3569, 5986, -43103, 13718, -9232, -14834, 2458, -13060, 6318, -2095, -14493, 3431, -4255},
    {200, 3470, 8254, -1565, -6971, -2007, -7371, 5386, 13974, 1423, -3534, 8890, -5037, 3066, -9266, -2697, 4167, -12330, 8075, -15142, -5010, -52731, 19562, -19974, -15637, 5043, -9405, -8340, -11386, -16628, 4161, 1071},
    {6720, 7036, 6827, -7730, -21547, 5416, -18335, 12702, 13571, -11152, -3288, 4941, -2519, 6007, -1950, 11643, -1898, -7250, 976, -19876, -2707, -54566, 28957, -22184, -22414, 5828, -10972, 13811, -5477, -10828, 2360, 2835},
    {8829, -210, 15531, -3928, -24619, 19062, -4368, 10726, 8881, -5468, -3072, 14856, -7183, -2512, 5440, 3333, 1803, -18464, -7725, -25748, 836, -46032, 45123, -19747, -20160, 9829, -6648, 8672, -9243, -7235, 1015, 4099},
    {7131, -10718, 8926, 6, -33970, 13701, -6729, -8678, 4101, -5098, -11553, 12889, -5813, -28608, 21569, 3989, -4020, 3680, -8775, -25644, -1357, -33128, 57985, -1589, -22854, 15064, -5653, 12158, -4633, -9469, 6474, 18695},
    {-549, -32278, 9668, 18631, -2508, 16476, -12549, -11236, -3101, -494, -8734, 12870, -3681, -42914, 23077, 4382, -5509, 18889, -1931, -21539, -5120, -31900, 42637, 17948, 858, 10773, -10508, 8448, 8714, -5552, 8492, 24948},
    {11303, -45430, -8973, 21109, 19734, 3900, -17814, -3354, -6409, -18520, -6040, 14798, 27981, -8510, -1966, 8947, -3353, 8175, 18708, -183, -784, -15047, 18716, 34746, 21889, -7632, -2492, 2167, 15878, -10973, -1881, 24804},
    {1186, -35527, -2816, 915, -371, -423, -20728, 13185, 3440, -34234, -8369, 11603, 20151, -2149, -7461, 5267, -629, -10676, 8256, -11552, 14333, -13227, 972, 9257, 21671, -8516, 10998, -14638, 19153, -9185, -3792, 18350},
    {4473, -17788, -54, -8893, 5051, -321, -15792, 6618, 3954, -29138, -9197, 4035, 16320, -11008, -9541, -2276, -156, -17924, -5600, -15283, 11622, -13857, -505, -2998, 10993, 12925, 15856, -19782, 11743, -10408, -1779, 12284},
    {-3706, -9241, -2783, -4916, 9646, 4064, -7477, -376, -2583, -8821, -6754, 671, 21409, -2957, -39, -2192, 5999, -23138, 11203, -16322, -4426, -13363, -2473, -1071, 5974, 2131, 19456, -14796, 6474, 115, -8669, 13666},
    {-313, -3138, -2516, -18620, 13159, -292, -11192, -251, -4206, -9535, -5058, -6292, 15905, 2166, -3499, -1711, -443, -18987, 10555, -12227, 8742, -13365, -6718, -6620, 1717, -5769, 17021, -11072, -2669, 7853, -16527, 8879},
    {-5031, -15052, -974, -13796, 5507, 4891, 511, -3669, -5684, -2, -6632, -9864, 2959, 17388, -8988, -6506, 1288, -8659, 5842, -8942, 3072, -23740, -1423, -13181, 7702, -4981, 14593, -3046, -9465, 1352, -6825, -457},
    {-5666, -11331, 6423, -19602, 4954, -3362, 899, 3049, -3161, -3236, -11774, -7340, 3650, 11886, -20984, -5549, -61, -11191, 5828, -14207, 3679, -10778, 2514, -5482, 7725, -7603, 15003, -8822, 7481, -7478, -2679, -14052},
    {-9216, -14548, 14181, -7814, 3545, -4309, 7338, -8916, -5067, 16651, -8776, -7782, 1903, 19077, -22676, -6890, 15874, -11530, -2091, -17123, -933, -10960, 13873, -7597, 14130, -541, 12418, -16908, 2550, -23679, 5380, -9613},
    {-4448, -10280, 16926, -10667, 894, -4857, 15874, -5552, -2900, 25095, -2526, -4783, 7190, 9049, -11886, -4085, 22526, 2853, 5087, -13617, -6224, -15985, 11962, -10232, 2383, -7634, 13331, -15872, 7802, -18273, -3375, -14203},
    {1157, -7539, 14178, 12164, 10449, -3569, 14185, -7692, -9167, 27280, -4046, -4191, -3156, 4856, -18954, -6380, 16545, 4440, 7356, -20428, -6953, -18800, 8405, -9615, -7458, -9878, 8186, -8657, 10939, -26627, 1712, -10813},
    {-1786, -5548, -843, 2901, -368, -1148, 21427, -14551, -6399, 22346, -4072, -8918, -9193, -1334, -4287, 2352, 15416, 9142, 1272, -11338, -6362, -6568, 6576, -2812, -7656, -705, 2139, -4954, 7492, -10839, 347, -5773},
    {-631, 4495, -2486, 1509, 3961, -1152, -228, -11390, 2315, -797, -8950, -1629, -7496, -1782, -1045, -6715, 3101, 8643, 3481, 2379, -3511, 1970, -9266, 2059, 3497, -471, -369, -106, 650, 1207, -48, -1206},
    {-2541, 1526, -826, 1254, -2623, 1719, -1298, -145, 5958, -909, 3043, -2629, 160, 4973, 2325, 4036, -141, 3345, -2179, 2439, 1343, 5267, 1477, 1608, -242, -7770, 2677, 5414, -2450, -101, 3717, 7038},
    {9010, -6692, -1171, 30, -3177, 3797, 8633, -7122, 3875, -2448, 316, -9344, 1724, 457, -2097, -3955, -1846, 820, 646, -1397, 191, 1450, 560, 3049, 4385, 7820, 1489, 3746, 3742, -5210, 2936, 367},
    {-3405, -3804, -23, -3832, -173, -5584, 1434, 1178, -1378, 7443, 5229, 4144, 889, -5477, 1155, 623, 1109, 2589, 3606, -2565, 2118, -1333, -6772, 2889, 472, 7651, 620, 4188, 3691, 1756, 3147, -1107},
    {422, -3062, -2939, -1389, -3087, 4934, -8589, -1204, -2520, 3835, 5612, 998, 4078, -3190, 1353, -8237, -6777, 653, -1372, -3683, 5605, 3403, 3173, 1750, 3301, -2029, -1485, -4806, 4756, 6208, 877, 443},
    {-1436, 2550, -66, -1396, 1533, -4535, 197, -5386, 1661, 572, 5548, -2094, -3037, 7866, -4823, 1651, -295, -2247, -4104, 2731, -2987, 1622, 282, 231, -4369, -2289, 501, -6131, 812, 3531, -5835, 4191},
    {-5298, 1740, 4785, 1306, 10035, 4309, -4299, -502, -1004, -2870, -2948, -2585, 3663, 3197, -11449, 1018, 5460, -1606, -765, 4330, 542, -5593, -73, 4347, -5927, -603, 945, 5132, -2869, -5405, -952, -8135},
    {-12467, -4950, 6051, -1422, 10503, -837, -1661, 10906, 5492, -1320, 2510, -5643, 5001, -4055, -13904, 7077, 4807, -1615, 16353, -13261, 2218, -16704, 4723, -2551, -4741, -7166, 3473, 1810, 3748, -4538, -5111, 78},
    {-10121, -12137, 22322, -8856, -1881, -949, 6190, 12022, 8467, 8776, 3398, -13579, -1961, -11332, -14120, -2876, 4302, -5728, 12235, -8912, 2522, -32338, 15733, -14114, -9623, -12058, 1925, 2090, 4108, -6831, 719, -5752},
    {-3956, -382, 30819, -850, -1044, -3474, 7479, 16280, 10441, 15490, 3425, -12128, 4679, -10736, -4924, 4720, -9484, -6751, 6165, -17602, 7966, -50506, 19527, -17893, -13734, -3327, -220, 4659, 2163, -8000, 2107, -13338},
    {-6536, 1894, 19938, 484, -1417, 1262, -17, 14393, 14705, 11433, -1767, 720, 1655, -561, -4860, 7545, -11233, -6817, 4298, -16287, 3720, -46595, 23871, -21452, -10699, -4527, -9436, 11258, -4587, -16800, 6240, -7933},
    {-1282, 4780, 8714, -864, -15597, 1672, -7918, 8262, 6645, 7660, -4094, 1300, 1490, 2894, -641, -2134, -15048, -11654, 8582, -25544, 2922, -43731, 27540, -17016, -6786, 1017, -14995, 6629, -9270, -17747, 10722, 4709},
    {2534, 7228, -6417, 249, -18782, -2515, -8494, 7397, 15469, 5184, -6520, 3354, -7827, 1363, 1277, 1648, -13800, -3798, -507, -23946, -11886, -34603, 36422, -21453, -12582, 137, -13632, 4111, -11974, -13239, 14992, 9209},
    {3591, 6831, 681, -2001, -10596, 6037, -7454, 6424, 15111, -3846, 6045, 2002, -8327, 6556, 4055, 10130, -7465, -6395, -18053, -22980, 3244, -26802, 33715, -39484, -17525, 12924, -6798, 8542, -12338, -8777, 8173, -1391},
    {-8019, -3034, 18411, -1672, -22382, 13546, -5375, -1895, -3852, -1927, -3171, -161, -4031, -474, 25759, 3617, -10774, 2584, -17297, -22382, 1751, -5016, 38614, -39369, -19864, 20938, 3191, 13027, -18522, -6979, 14542, 972},
    {-2522, -22212, 16373, 13222, -22394, 21850, -7304, -12115, -1146, -7105, -7974, -82, -15878, -19287, 32421, 6482, -20083, 19992, -19704, -17069, -3344, 202, 31863, -33289, -6679, 16417, 166, 14562, -14623, -5246, 10870, 19286},
    {5967, -33997, -8363, 18715, 14689, 12598, -10535, -11354, -12459, -12419, -11774, 6898, -7565, -17472, 12037, 8954, -24232, 26008, -2924, 2018, 4106, 2650, 17846, -14517, 21005, 9843, 4399, 5750, -2011, 605, 14070, 24732},
    {10689, -31856, -11570, 10139, 19907, 847, -19740, 1822, 2467, -28873, -11740, 12151, 17330, -666, -1305, 6234, -18496, 11565, 9010, 5875, 2245, -151, 2758, -5187, 19453, 1671, 6049, 2368, 13272, -6718, 10588, 29974},
    {12267, -27634, 50, -9015, 3490, -14002, -8627, 6092, -1749, -27299, -19569, 17951, 8208, -3128, -15538, 2938, -16387, 682, 16882, -1708, 7488, -17291, 8944, -9215, 14343, 6733, 11629, -12640, 13122, -10956, 14499, 11501},
    {10191, -17673, -4091, -11065, 14313, -5240, -10991, -4116, -1988, -16094, -16460, 7371, 10070, -513, -19266, 2410, -12761, -10552, 1191, -13846, 10199, -10633, 3280, -937, 11469, 10330, 11556, -17837, 12444, -6346, 8479, 13950},
    {146, -8916, -4973, -8700, 2896, 794, -4787, -3003, -2243, -8541, -18392, 2306, 11161, -1474, -4343, -1574, -9495, -9240, 2609, -13171, 7338, -5004, -6319, -6361, 6072, 9994, 11684, -18974, -847, 7736, -5511, 18820},
    {-1313, -15890, -5671, -8560, -1970, -7925, -3562, 5778, -6313, 3824, -5291, -7985, 6435, 3090, -7475, -3272, -8323, -3179, 6756, -7972, 6885, -11733, -317, -10384, 9554, 12050, 15923, -12219, -4286, 4467, -8184, 11606},
    {-1176, -15527, 8051, -15193, 847, -3854, -3608, -3574, -5478, -598, -3461, -1637, -8023, 7408, -13681, -3449, -5682, -9187, 12201, -2883, 6658, -13076, -7988, -4701, 16696, -1253, 3575, -5414, -2603, 10724, -2013, 1444},
    {-2984, -14050, 8723, -16279, -4678, 2850, -2830, 10840, -74, 4644, -4909, -6152, -4518, 1400, -30910, 6936, 5396, -5886, 14063, -1386, 308, -13377, 8708, -6804, 13096, 2567, 9320, -1176, -1688, -4952, 13600, -11117},
    {-2931, -17746, 15809, -9871, 3283, -7654, 8528, -1981, -7493, 11030, -699, -12308, -1071, 1751, -21961, 785, 7596, -7085, 3142, -11683, 4178, -6556, 11374, -15717, 2285, 8621, -291, -7764, 6445, -2338, 4462, -19778},
    {-4353, -15034, 16864, -8033, 3046, -12606, 12911, -2378, -11229, 29083, -5421, -9998, 209, -860, -6877, -31, 16535, -6176, -1212, -19485, -4798, -9526, 15984, -9777, -13831, -2912, -1747, -10350, 7724, -8429, 1671, -15557},
    {6069, -7024, 18656, -996, -6013, -2612, 24836, -14718, -13615, 26541, 4911, -12807, -8109, -10001, -4884, -8438, 18878, 915, -7270, -19228, -503, -10357, 3011, -10009, -14776, -878, -4773, -7271, 15356, -13792, 792, -15801},
    {5758, 1385, 748, 2041, 3549, -4607, 11181, -19615, -14146, 22272, 6922, -14626, -4783, -2468, -2846, -6375, 17167, 7389, -12174, -11598, -10361, 7039, -2274, 1712, -5978, 1267, -4175, -8509, 9734, -10214, -553, -5969},
    {961, -1562, -7456, -2139, 2840, -199, 9028, -13464, -1041, -1195, 8719, -9607, -3458, 1345, -7635, -3478, 4754, 9725, -1035, 3337, 166, 2774, -3519, 5237, 388, 3560, 5943, 263, -6972, -701, 624, 516},
    {21, 5411, -1127, -4308, 2081, -3974, 4599, 2563, 4204, 535, -324, -3978, -2204, 684, -993, -1242, 791, 4732, 4240, 2549, 543, 3584, 509, 9252, 3346, 6414, 4894, -726, -3982, 2616, 884, 993},
    {1855, -1363, 2809, -104, -1816, -938, 947, -291, -7057, -4931, 997, -1457, 350, -5148, -2960, 39, -2383, 2478, 4844, 2370, -1394, 2343, -2579, -89, 729, -2784, -2262, 5068, -1340, 1124, -1158, -5248},
    {365, 451, 3544, 3404, -408, -1723, 802, -1063, -3884, -1689, 7197, -4416, -2643, -4389, 5275, -7, 2955, -827, -2473, -6733, 2861, 617, 4001, 6283, -3189, 1459, -2027, 2151, 148, 2755, 509, 5368},
    {-6036, 3896, 7511, -5949, 1463, -6205, -5278, 1940, -1056, -4006, 10539, 878, -2934, -1615, -4786, -269, 3349, 2129, 1460, 1939, 3960, -782, 2674, 1087, 4530, 504, 2765, 1451, 60, 8130, -4171, -2052},
    {-1946, 2699, 591, -1619, 496, -170, -735, 1214, -4065, 7124, 5235, -881, 780, -923, -2955, -1401, 5, -833, -293, -269, -4759, -1605, 988, -906, -3396, 594, 1381, -816, -4201, 2719, 1756, -432},
    {-143, -714, -2596, -163, 3176, -7791, 3614, 1286, 2731, -569, -2850, -6870, 2, 1164, -1785, 2001, 7446, 2408, 763, -2093, -1093, -6490, 946, 1153, -2590, -3398, 2744, -676, 3664, -775, 63, 559},
    {-3631, -7739, 4332, -3010, -2629, 396, 2622, 11835, -539, -867, 3926, 2815, 4592, -9771, -4231, 3249, 1454, -6522, 1020, -7036, 5614, -13167, 5452, -7346, -3731, -6824, 7669, -1416, -369, -457, -3160, -3721},
    {-722, -2937, 13763, -3757, -19791, -1433, -296, 14121, 8097, 7514, 1595, -5735, 1081, -1353, -196, 1487, 4502, -12264, 3677, -24262, 10553, -29560, 19960, -20695, -14323, -806, 2402, -3933, -314, -8410, 1918, -13218},
    {-5754, -2774, 10164, -4780, -13504, -1165, 19856, 9555, 7280, 18369, 12176, -3164, -2169, 680, 1535, -1172, -7439, -5853, -933, -21578, 9051, -32860, 20764, -24208, -12591, -7802, 3846, 5840, 1334, -10481, 4317, -3519},
    {-3775, 10249, 4723, -3540, -14489, 951, 21710, 16447, 10549, 17098, 7979, -5721, -704, 3044, 7323, 1925, -13451, -5152, -5582, -34749, 11384, -14796, 18059, -22596, -9472, 1117, -5405, 4119, -2625, -7288, -3085, -2433},
    {-1318, 4940, -8744, -4197, -16406, 4411, 10541, 8549, 11445, 18658, 7605, 4758, -4449, 839, 1902, 356, -13992, -9050, -1990, -29626, 6037, -9736, 22582, -18908, -5762, 4423, -12742, 8587, -3220, -4980, 10285, 1905},
    {1588, 148, -603, -1228, -14295, 8926, 1068, 6664, 12410, 4980, 8595, 3636, 1397, -339, 15131, 11576, -9687, -5907, -11631, -28094, 3578, 6765, 20049, -22889, -1168, 4824, -12376, 2377, -3624, -4860, 4656, 3001},
    {-12909, 6717, 13963, -5227, -9984, 19385, -2452, 5554, 8125, 3352, 6548, -2756, 1493, -2016, 27526, 4344, -2762, -8659, -14234, -23233, -1836, 14681, 21453, -26259, -7025, 6546, -7173, 3684, -2336, -7313, 11896, 322},
    {-9084, -18576, 20812, 2747, -11957, 12486, -3174, -10105, -5490, 6780, -4223, -8459, -12405, -5280, 32627, 952, -1526, 11838, -24976, -3215, -2728, 15079, 26786, -45561, 6754, 15199, 1911, -56, -12833, -17011, 14195, -135},
    {2455, -32685, 9043, 14343, -4152, 6116, -11078, -9756, -4110, -1541, -15673, -3738, -900, -7507, 16864, 6597, -10559, 21972, -17665, -2045, 11154, 16830, 11175, -34375, 12004, 13369, 312, 1073, -12530, -7746, 4779, 13610},
    {16439, -33598, -2280, 13909, 11221, 2941, -13881, -10822, -1926, -11530, -16173, -94, -6654, -12182, -8019, 7375, -15608, 18173, -5267, 6882, 2078, 17272, 2545, -14960, 22568, -514, 6835, -52, -3755, -2981, 20285, 16247},
    {15552, -18383, -19742, 3205, 3557, -12973, -10629, -7117, 2217, -15046, -21311, 12007, 8334, -368, -12775, 10804, -11257, 7828, 7627, 7154, -778, 8771, -7566, 2240, 26519, 190, 16847, -4779, 7926, 3509, 20909, 17660},
    {10815, -16622, -3521, -13456, 6252, -8992, -5525, 1619, 136, -17845, -23283, 7179, 10787, 1885, -15376, 12356, -19107, -2935, 8015, -1613, 9411, -2142, -274, -3653, 13735, 5874, 11272, -12862, 8275, -5929, 23910, 11546},
    {9487, -11273, 948, -23981, 4444, -2189, -13534, 4151, 9119, -10874, -15388, 9907, 11176, 2125, -13541, 4293, -19006, -10559, -1526, -11008, 14537, 746, 4198, -4477, 15051, 7872, 10538, -10819, 6226, -8564, 15899, 18417},
    {-5173, -20633, 4837, -13814, -7886, -3944, -9591, 8102, 11071, -3330, -14317, 1262, 8909, -3526, -2125, 4955, -1972, -7668, -2086, -5905, 15764, -4193, 507, -5703, 15891, 9431, 19744, -13471, -6802, -6687, -11805, 12513},
    {134, -32312, 6919, -15505, -3818, -7622, -1877, 2255, 8275, 7931, -2162, -7104, 4080, 1778, -1180, 184, 3576, -5434, 5784, -729, 11566, -6248, -15504, 604, 17373, 7044, 16691, -7318, 1338, 50, -17674, -424},
    {-3652, -29338, 6520, -24136, -12736, -8374, 4873, -442, 10094, 9497, 111, -7154, 4180, -4355, -18539, 677, 9232, -15905, 7949, -1974, 15119, -14683, -1273, 85, 12769, 6393, 13553, -2866, 6176, -3354, -12341, -12604},
    {768, -22669, 12451, -20238, -3365, -9966, 9540, 3180, -3818, 7521, 10017, -3546, 226, -2316, -8195, 4810, 9891, -12055, 6979, -2881, 14577, -8559, 3229, 17, -2814, -6938, -5575, 845, 7519, 8436, -4387, -21646},
    {8720, -14300, 9562, -17204, 6917, -184, 2924, 3660, -5971, 12926, 7234, -19814, 4857, -1749, -198, 2265, 7193, -6091, -3301, -8342, 6147, -8085, -6504, -3692, -9648, 2782, -8879, -2602, 4896, -1664, -6962, -16272},
    {7020, -12442, 15397, -10674, 3106, -8067, 7938, -2656, -6905, 13268, 10314, -24773, -3660, -15863, 2850, 2889, 13275, -4203, -13150, -20636, 6075, -9702, 1982, -3271, -21125, 3625, -13501, -251, 7085, -10073, -4841, -16527},
    {310, -5000, 15921, -3117, 200, -6645, 12273, -4371, -10291, 10882, 8993, -24629, -3365, -16414, 4282, 2637, 12388, 7256, -16086, -17273, 3426, -2384, 3834, -2559, -23153, 8768, -14137, -4599, 7983, -10558, -7565, -10814},
    {-3268, 2935, 8474, -1188, 2468, -4493, 13030, -10231, -8135, 17953, 7316, -15466, -6112, -14713, 7942, -4526, 9227, 4324, -13137, -10147, -2046, 2319, -4097, -435, -9523, 7151, -6539, 144, -2106, -5880, 137, -7430},
    {-517, -1574, 651, 110, 6164, -1935, 11197, -8003, -10275, 5984, -905, -9376, -3145, 4935, 3970, -6215, 1953, 4370, -3746, 2087, -122, 6658, -6409, 1578, -5, 5022, 4893, 3106, 2132, 682, 7822, -2257},
    {-3174, -8, -5981, -6099, 4733, -1178, 5871, 2766, 3315, 2253, 2125, -7096, 418, -1425, -5733, -1039, -2310, 829, -5077, -2915, -2477, 3366, 5645, 181, -2640, 1791, 3588, -3553, -4314, -2008, -1564, 1195},
    {3710, -1082, -1018, -3561, 4104, -191, -5771, 2109, 4372, 4672, 2226, -477, 308, -5705, -257, 7632, 2884, 7157, 3722, 1259, 5746, -1771, -1730, 3038, 6608, 3255, -2887, -401, 2761, -1349, -1183, 1592},
    {-5843, -2975, 4347, -149, -3262, -783, 4969, 2245, 2378, -1033, 2450, -2351, 3966, 5084, 2498, 2412, 2614, -2062, -1925, 2704, 2872, -3497, 3505, 3443, -7930, 745, 374, 5542, -3151, 4087, 3009, -5621},
    {-2580, 1945, -1478, -4188, 802, -4169, 5069, -1906, 652, 1902, 1421, 1323, 7845, -8232, -8652, 2493, -945, -1234, -597, -1400, 6092, -5432, -5421, 2846, 3585, 3209, 5200, -507, 1421, 2571, 2395, -1421},
    {-2182, -6982, -1469, 2730, 1877, -7486, 333, -3200, -391, 21, -735, -3121, 1282, 894, -2837, -1046, -3362, -4069, 5571, 3185, -844, -264, 2721, -3735, -6638, 4583, 5575, 3293, -2435, -3722, -1081, 793},
    {-2732, -3701, 324, -266, 889, 1236, -2921, 2497, 3062, -5231, 490, -5622, -10210, -141, -1673, -1094, -3053, -1914, -6597, -2936, 3319, -5906, -273, -973, 63, 5538, 2666, -1313, -3719, 2786, 5441, -932},
    {541, -10839, -930, -2759, -8656, -152, 579, 989, 611, -3, -1179, -8128, -1322, -2156, 3681, -1922, -3010, -9088, -826, -14289, 12858, -7524, 5074, -7092, 2829, -3561, 3414, 6429, -3239, -928, 2176, -3195},
    {2052, -6889, -3414, -1453, -13005, 4278, 17514, 1806, -1179, 3790, 12565, -7797, -1808, 8833, 12726, -4298, -2836, -3498, -12664, -26116, 7678, -5972, 15456, -16444, -4572, -6986, 6834, 4323, -3298, 6145, -5768, -6678},
    {1372, -7577, -3405, -53, -10844, 88, 25456, 15016, 5180, 3762, 13277, -14773, -5328, 4644, 5121, -6833, -6551, -3929, -6939, -30022, 9167, -3967, 15982, -15260, -11147, 2612, 2151, 1081, -1554, -3142, -3574, -17608},
    {450, 596, -3739, -4358, -15541, 6688, 23100, 10490, 4209, 18948, 10514, -3788, -6209, 4878, 20280, -13229, -4987, -5973, -5743, -29843, 15914, 3853, 14312, -19770, -3372, -5441, -3532, 1823, -6260, -6323, -4623, -12181},
    {-4712, -1552, -4186, -7935, -13077, 13037, 24456, 9373, 5821, 10604, 4975, 2109, -8825, -7643, 18579, -988, -9646, -4415, -3769, -24815, 2910, 12777, 17681, -14959, 5119, 3, -7335, -12583, -7068, -1464, 3871, 3348},
    {-6292, -713, 5244, 4483, -14853, 22781, 18568, 8131, 9210, 11722, -5720, 1167, -6224, -7800, 35556, 15807, -4943, -575, -11863, -14399, -2368, 14544, 15555, -9390, 7819, 3306, -10365, -20755, -10921, -1997, 6897, -1474},
    {-15947, -14750, 19912, 6023, -8518, 22774, 14394, 8570, 12571, 9319, 1523, -3132, -3243, -12177, 37609, 24441, 269, 3797, -19558, -5481, 2616, 10727, 9404, -12335, 6698, 1052, -3019, -8361, -660, -2766, 8023, 7619},
    {-5700, -33051, 21596, 8500, -2835, 9378, 2293, 9895, -2556, 12924, -7616, -4078, 5663, -6496, 10412, 21129, -2072, 14966, -18999, 6212, 433, 10438, 9776, -26423, 8029, 8844, -144, -12018, -11108, -7734, 13741, 19156},
    {-4266, -29713, 7666, 20331, 6751, 323, 2433, 2259, 5664, 4844, -19871, -2954, -5888, -16191, -948, 28675, -8542, 28137, -20305, 15181, -6413, 13125, 12769, -20174, 10988, 11077, -9060, -2913, -985, 2565, 8395, 15100},
    {18987, -26969, -11877, 18532, 9519, -14459, -4525, -7865, -5860, -7819, -27358, 3716, -2486, -12726, -14967, 7877, -15618, 24481, -12332, 22776, 3203, 20822, -5493, 3411, 24934, 10593, 3524, -10949, 8901, -5297, 17505, 17101},
    {23623, -19956, -11727, 4906, -420, -19421, -958, -4430, 376, -6259, -28867, 3132, 10606, -6021, -17810, 14710, -16220, 11438, 7116, 15970, -5514, 9568, -4816, -4838, 25162, 14491, 3649, -17779, 11700, -8022, 23751, 7510},
    {16529, -17037, -3058, -25010, 1431, -13903, -10753, 418, 2440, -8647, -17009, -271, 9817, 5868, -11871, 11243, -16352, -9293, 9898, -9187, 13335, 1009, 2687, -7481, 14708, 10606, 13884, -9886, 9635, -378, 8408, 1732},
    {10746, -13476, -7786, -22499, -1687, -3675, -5056, 4462, -7228, -670, -8625, 6344, -1414, 3689, -7169, 4249, -15701, -4646, -4027, -5280, 6783, 1372, 1288, -7211, 18651, 15726, 10093, -7445, 4997, -9376, 5823, 23057},
    {-8479, -23039, 14822, -13292, -3035, -1362, -6882, 12234, 13218, 4620, 11290, 520, 7541, -5997, -13192, 4091, -5627, -7563, -13244, -8591, 16814, -8195, -2565, -6955, 6746, 4070, 24223, -11230, -13725, -6042, -16092, 3972},
    {5039, -25174, 17559, -7892, 2924, -3635, -1441, 12528, 10727, 12147, 12058, -2989, -738, -10208, -15033, 2564, 9223, -6386, -12624, 798, 12189, -11897, -3217, 7258, 10453, -1457, 22201, -1615, -809, -1525, -13843, -8534},
    {7138, -23284, 8880, -24277, 718, -834, 4653, 796, 4711, 5208, 20956, -5228, 1626, -7169, -3445, 223, 5781, -9037, -5923, 5668, 13886, -8776, -1267, 3304, 1135, 2250, -2882, 3234, -1379, 500, -12483, -24008},
    {5501, -13203, 3270, -23115, 5903, 1042, 7502, -3385, -16747, 12579, 17975, -18122, 9452, -9606, 9899, 14423, 12580, -10847, -2233, -9507, 13623, -15269, -884, 2551, -2087, 1652, -6759, 10508, 1403, 3714, -18707, -29151},
    {2904, -9163, 14228, -11306, 376, -2646, -3218, 2343, -9476, 8593, 14558, -21793, 10731, -10564, 17664, 10644, 18854, -574, -6574, -13073, 5531, 2658, -3399, -5034, -16397, 9669, -15423, 16657, 2638, 3085, -21663, -15031},
    {1755, -11311, 10291, -15765, 1302, -5681, -5679, 7107, -12758, 3580, 8202, -20320, 6193, -12890, 14297, -889, 7711, 259, -9313, -15570, 15117, -7781, -2208, 3495, -18642, 16963, -674, 6955, -1388, -3960, -15449, -22869},
    {5669, -2380, 3034, -2418, 1553, -5010, -682, -3999, -6915, 6671, 8773, -14015, -5232, -10691, 16103, 5008, 10625, 10878, -11334, -13895, 5335, -5281, -4115, 3546, -22734, 4289, -4758, 8014, 1445, -3344, -10095, -11486},
    {410, 5607, -1707, 1121, 4934, -795, 5831, -17107, -12272, 856, 11286, -14711, -11314, -7026, 12967, -7643, 6850, 6495, -10001, 1740, -3016, 3581, -7280, 4799, -11496, -110, 5129, 8488, 4654, -6362, 4472, -10532},
    {-1993, 6414, -3626, -3187, 1800, -998, 1744, -9403, -9635, 1390, 8483, -7565, -1222, -374, -2397, -6870, 5235, 6941, -10288, 4337, 2641, 9044, -8794, 5995, 1715, 9714, 9103, -3474, -4146, -3610, 10782, -3926},
    {-4019, 6156, -9683, 1527, -5060, 2786, -711, -6423, -7503, -939, -486, 2312, -6575, -277, -1169, 1442, 5116, 4170, -5096, 3180, 947, 8753, -4009, 7005, -1774, 3342, 6349, -28, -4100, 3967, 2223, -6186},
    {4033, -1961, -1034, -4169, 1703, -375, 279, -197, 1547, 505, -3425, -2325, 1806, -3707, -3883, -2030, 708, -3686, -4456, -3397, 11850, 2794, -4420, -326, 2665, -2215, -1443, 993, 1923, -8562, -2804, 1625},
    {4331, -2143, 507, -4752, 2374, 3013, -8707, 303, -12183, -6532, 650, -1846, 3048, -1714, -4556, 316, 1528, -6272, -5152, -1699, 4034, 863, -5520, 5316, 1073, -1450, 3527, -7475, 2134, 1378, -1686, 552},
    {-3086, -7460, 3714, -1064, 2053, -268, -552, 6025, -2155, -3498, 788, 4938, -1682, -3627, 8137, 4089, 6126, -1165, -7413, 626, -3014, 5759, 389, 1494, 2448, -3607, -11, -1970, -5520, 2820, 470, -7765},
    {3293, -2681, 1656, 5175, 4788, 4573, 807, 552, -3122, 1536, -5839, -3567, 2939, -4634, 2242, 10701, 3723, 5208, -2458, -2348, -2541, 4517, 1343, 1838, 6231, 985, 5987, -2897, -4129, -269, -1495, -53},
    {3033, -1141, -1880, 2099, 2786, -6089, 856, -8988, -1820, -3604, 4065, -8319, -1178, 4336, 120, 1573, 1552, 6291, -2279, -3155, -585, -1909, 123, 9787, -2918, 2846, 3491, 1793, -1978, 2291, 3751, 1314},
    {-5673, -5335, -3666, -8717, -6140, 7327, 2089, -10891, -5369, -6002, 11059, -4229, 1408, 13645, 9002, -612, -2156, -587, -2884, -15585, 966, -5221, 6438, -2435, 254, -7281, 4731, 7705, -2922, 3344, 168, -6649},
    {-2731, -4840, -2488, -4548, -13777, 9295, 12705, -2721, -5554, 7078, 13199, -1577, -9106, 10695, 14109, -7801, -5356, 5307, -13275, -26063, 7124, 5537, 7593, -7669, -3396, -5853, 9633, 6934, -3450, 2150, -7549, -15541},
    {-124, -7611, -3233, -9661, -9513, 7199, 22609, -1181, -1739, 4498, 20932, -10193, -7826, 7307, 12986, -15359, -1490, -7326, -11023, -24612, 17889, 15049, 13038, -17292, 5990, -4586, 16073, 3515, 898, -8703, -2489, -23054},
    {2972, -6229, 2026, -14245, -12762, 8390, 23645, 6550, 2520, 10525, 12960, -6804, -2222, -3705, 18022, -19351, -3957, -7538, -9930, -23174, 11119, 15515, 11066, -14190, 1658, 6332, 3850, -15198, 2833, -13295, 1886, -18370},
    {-8092, -10696, 14141, -7867, -7438, 13419, 18778, 9146, 8096, 10708, 4741, 1342, -5510, -8141, 24744, -13313, 2319, -5999, -5217, -13878, 16921, 15220, 10726, -18941, 2575, -6302, -3185, -32877, -6588, -12825, -8088, -9616},
    {-168, -7704, 7818, 1094, -8216, 30195, 23505, 11670, 7785, 17870, 3352, 1811, 4679, -2705, 40554, 2872, 2012, 4945, -11779, -2429, 2335, 20820, 8505, -5785, 7021, 5469, 896, -45102, -3645, -13319, 7111, -3142},
    {-7488, -13140, 13949, 12343, 4260, 25706, 26109, 6855, -1048, 15730, 6122, 2967, -997, 4967, 20967, 13175, 978, 13675, -14266, 9889, -6710, 9718, 4664, -13390, 3886, 4066, 1818, -36766, 1216, -2559, 14091, 10034},
    {-2518, -20186, 12189, 11854, 12611, 2632, 31806, 2366, -4956, 17250, 3937, -2716, 22, -4686, -4363, 25254, 444, 21289, -24786, 12281, -6143, 4998, 9122, -18905, 15080, 2361, -4871, -28231, 5777, -127, 8924, 19712},
    {-3966, -16354, 4698, 15630, 1852, -7232, 9244, 10729, 4315, -5617, -9209, -1326, -7616, -2565, -12153, 20639, -8960, 31182, -15193, 17636, -4125, 9391, 1973, -9614, 28168, 12344, 7846, -15401, -4483, 5111, 15134, 13126},
    {15055, -19972, -10554, 9346, -2998, -14918, 1522, 5398, 1851, -13855, -14257, -492, 3595, -9273, -14349, 15688, -15879, 28256, -6682, 20926, 2255, 21412, -6868, -1830, 23770, 25732, 6365, -20472, 5112, 11325, 2847, 9785},
    {12480, -19329, -9802, -13130, -11285, -25078, 4084, -726, 40, -3490, -21883, 5645, -3161, -10954, -17533, 3685, -18406, -3354, 3390, 13387, 122, 8541, 3357, -7216, 12933, 19940, 225, -20581, 11740, -1886, 17536, 16207},
