#ifndef MNIST_WEIGHTS_RELU_H
#define MNIST_WEIGHTS_RELU_H

// Trained with ReLU activation (better for INT8 quantization)

#define INPUT_SIZE 784
#define HIDDEN_SIZE 32
#define OUTPUT_SIZE 10

const float W1[784][32] = {
    {0.00099255f, 0.00139459f, 0.01650077f, -0.06383892f, 0.09017209f, 0.07024920f, 0.01494898f, -0.08689034f, -0.05666024f, -0.01023288f, 0.00633572f, -0.01201238f, 0.02189243f, -0.00588383f, 0.00971916f, 0.05238455f, 0.01909803f, -0.01514076f, 0.06204957f, -0.12028365f, -0.00491688f, -0.04893143f, -0.01627397f, 0.09550093f, -0.08157584f, 0.00964402f, 0.03163873f, -0.00214374f, -0.09024547f, -0.01871171f, -0.02797685f, 0.03172973f},
    {0.05151108f, 0.01140624f, 0.00786780f, 0.05388588f, 0.02479747f, 0.08480663f, 0.07457771f, -0.05698911f, -0.07417297f, 0.04787948f, 0.02035693f, -0.00993767f, 0.01945691f, -0.08876035f, 0.10548637f, -0.04908016f, -0.00672786f, 0.06004914f, -0.00224444f, 0.03909935f, 0.02147453f, -0.00509986f, 0.02900398f, 0.03560169f, -0.01434195f, -0.05065439f, -0.08246240f, 0.02816243f, -0.05284504f, 0.03689577f, -0.04688514f, -0.00755277f},
    {0.02160843f, 0.04189261f, -0.06203128f, 0.02432285f, 0.02805377f, -0.03320665f, -0.05337642f, -0.07186884f, 0.00498616f, 0.05878162f, 0.10043824f, 0.00377953f, -0.04960721f, 0.03208609f, 0.01128059f, -0.06426096f, -0.01920153f, 0.03776841f, 0.00230483f, -0.07406568f, 0.04855641f, -0.05641786f, 0.00645855f, -0.01557089f, 0.10466400f, 0.05127055f, 0.11885792f, -0.01491573f, 0.02506405f, -0.09773121f, -0.02541665f, -0.01574120f},
    {0.02407521f, 0.05992663f, 0.03204651f, 0.02110584f, 0.03951380f, 0.03044437f, 0.03147969f, 0.09914794f, -0.05180882f, -0.00506167f, 0.07113751f, -0.07656141f, -0.08142903f, 0.00082837f, 0.00986903f, -0.05755639f, -0.04380762f, -0.04568161f, 0.03988209f, 0.05564295f, -0.00434961f, 0.06126889f, -0.05499751f, -0.01178556f, 0.07036728f, -0.08824920f, -0.05678183f, -0.09314335f, 0.00614328f, -0.01952468f, -0.03225529f, 0.04921221f},
    {-0.07355597f, 0.06172129f, -0.06159676f, -0.04400634f, 0.04855667f, -0.05703990f, -0.04695533f, 0.08045557f, -0.05385756f, -0.08888591f, -0.01032270f, 0.05093372f, -0.05977479f, 0.04434410f, 0.10115728f, -0.04168265f, -0.03079153f, -0.01103767f, -0.02393407f, -0.01645621f, 0.00435432f, -0.08694186f, -0.04640540f, 0.01211430f, 0.00601682f, 0.03683326f, 0.08175972f, -0.02456482f, -0.02741001f, -0.02296512f, -0.06009174f, -0.00628454f},
    {-0.00741484f, 0.02580046f, -0.00933782f, 0.00354507f, 0.02928516f, -0.03566503f, 0.00855475f, 0.00288414f, -0.04418533f, 0.02254815f, -0.05794506f, 0.05097044f, 0.00035933f, 0.07221102f, 0.01322672f, -0.06558418f, -0.04003019f, 0.02456015f, -0.09530697f, -0.02475733f, -0.03943127f, 0.03026626f, 0.00053413f, 0.08343409f, -0.11236387f, 0.05594001f, 0.02966846f, -0.00132066f, 0.09763403f, 0.00893421f, -0.09533088f, -0.03825244f},
    {0.00634483f, -0.06868085f, -0.03053588f, -0.00366579f, -0.04889551f, 0.11014489f, 0.05534757f, 0.02091124f, -0.00923717f, -0.01673305f, 0.03392560f, -0.06974037f, -0.01793989f, -0.01338456f, 0.00005180f, 0.00109069f, -0.06934706f, -0.02450299f, 0.01798347f, 0.04398245f, -0.05293135f, -0.08111418f, 0.03611156f, -0.00800151f, 0.00713903f, -0.00600706f, -0.00417749f, 0.03462617f, -0.00815903f, -0.02688640f, 0.07137894f, 0.00743525f},
    {0.11822487f, 0.05553871f, 0.00906529f, 0.00842346f, -0.06594157f, -0.06975676f, -0.06453370f, 0.04569749f, -0.05437246f, -0.03273567f, -0.00699267f, -0.01645124f, -0.04878865f, -0.06391345f, 0.01983197f, -0.06302198f, 0.04059048f, 0.03106471f, 0.02158899f, -0.01046770f, 0.01181927f, -0.06009457f, -0.00992291f, 0.02961018f, -0.01107135f, -0.08961396f, 0.06005178f, -0.08633678f, 0.02629084f, -0.01009843f, -0.11366335f, 0.02250748f},
    {-0.07380198f, -0.06234574f, 0.03946560f, 0.04210796f, 0.02276696f, -0.02572472f, 0.01487040f, -0.01789472f, 0.03221038f, 0.04187306f, 0.05919683f, -0.07762066f, 0.03594798f, -0.01077869f, -0.10842999f, -0.04704747f, 0.01305393f, 0.06179726f, -0.04614085f, 0.07229801f, -0.04310133f, 0.04040058f, 0.06688129f, -0.05881896f, 0.03136821f, 0.02114238f, 0.05822526f, -0.02411763f, -0.03782962f, 0.03680841f, -0.06178294f, 0.07805890f},
    {-0.04574048f, 0.00945834f, -0.00902866f, 0.00120720f, -0.02241662f, -0.01439624f, -0.01932721f, 0.00542949f, 0.00829304f, -0.00598611f, 0.13549883f, -0.10697395f, 0.02255559f, -0.00761562f, 0.02703703f, -0.02027521f, -0.00165852f, 0.00744010f, -0.04555283f, -0.00278782f, -0.07581693f, 0.01006214f, 0.07564678f, 0.00959540f, -0.00664346f, 0.03918219f, 0.00296451f, -0.02984425f, -0.05953600f, -0.06537884f, 0.02184880f, -0.10342034f},
    {-0.05371761f, 0.05153532f, 0.00140321f, -0.02607748f, 0.00528489f, 0.06123749f, 0.03198632f, -0.03440032f, -0.01123192f, -0.00457757f, 0.04093700f, 0.04064092f, -0.03511882f, 0.05075209f, -0.01435402f, -0.02537636f, 0.03084970f, 0.01322171f, -0.01946607f, 0.02160417f, -0.02142567f, -0.07158896f, 0.02838674f, 0.01221573f, 0.03907036f, 0.09449054f, -0.01808659f, 0.07057540f, 0.09107972f, -0.00475303f, -0.00911642f, -0.05469315f},
    {-0.04633402f, 0.02278286f, 0.04388427f, 0.07029910f, -0.03110157f, -0.04325893f, -0.00873926f, -0.05567293f, 0.01421445f, 0.05498962f, 0.15828866f, 0.01039562f, -0.02592625f, -0.02144938f, 0.06729148f, -0.07866553f, 0.05746388f, -0.00630637f, -0.08350653f, 0.02308924f, -0.06056937f, 0.00919961f, 0.02451722f, 0.05045850f, -0.02258806f, 0.02960005f, 0.08521238f, -0.00566703f, 0.01799348f, 0.01401340f, -0.04141147f, 0.03818931f},
    {0.02700575f, -0.07864174f, 0.04751575f, -0.00736202f, 0.00301002f, -0.16011992f, -0.02559803f, 0.11002634f, 0.03772104f, -0.04171320f, 0.06135427f, -0.02789693f, -0.05221074f, -0.03749310f, 0.00650009f, 0.02927583f, -0.02028711f, -0.02063116f, -0.09688258f, 0.02416480f, -0.00137883f, 0.05864826f, -0.03179928f, 0.00560837f, -0.00489816f, -0.01860741f, -0.00155771f, 0.01100131f, -0.07055672f, 0.00074347f, -0.01307437f, -0.02498478f},
    {-0.01353924f, -0.01799821f, -0.03059600f, 0.04719748f, -0.11258653f, 0.04078766f, -0.09250557f, 0.03239243f, 0.00716800f, 0.03527972f, -0.00994355f, -0.09588067f, 0.05866998f, 0.10062303f, 0.00739414f, -0.03892264f, 0.05269708f, -0.00629220f, 0.10720386f, -0.05141757f, 0.02585255f, -0.02904021f, 0.01858761f, 0.08220960f, -0.07013789f, -0.08158372f, -0.01943791f, 0.08421690f, -0.01841301f, 0.01432890f, -0.00712049f, -0.06391210f},
    {-0.04311899f, 0.04276662f, 0.07015055f, -0.02688752f, 0.00156472f, -0.09810781f, -0.03923122f, 0.01308812f, 0.00790416f, -0.07467218f, -0.01674075f, 0.00534932f, -0.03253189f, 0.00168808f, -0.02164889f, -0.04694030f, -0.00559528f, -0.00625752f, 0.02711042f, 0.08879670f, 0.02711844f, -0.06718793f, 0.05328589f, 0.06028355f, 0.01753578f, -0.08965118f, 0.05084435f, 0.06422187f, 0.01421105f, -0.03450136f, -0.03493690f, -0.01810359f},
    {0.00258687f, 0.00028467f, 0.09702325f, 0.02756126f, -0.01776428f, 0.05208433f, 0.04781921f, 0.05692467f, -0.02940367f, -0.02025223f, 0.02989292f, 0.08070953f, 0.00226825f, -0.04812810f, 0.11295154f, 0.11748490f, 0.00771051f, 0.00833223f, 0.08023479f, -0.08782912f, -0.06918282f, 0.07107480f, -0.02732082f, -0.03409957f, 0.04471098f, 0.03677983f, -0.00968615f, 0.00257491f, -0.02943615f, 0.03536958f, 0.02513367f, -0.01475920f},
    {0.11817423f, 0.05182579f, -0.03498373f, -0.04202120f, -0.05946090f, 0.01197355f, -0.00974545f, -0.04998731f, 0.00723548f, -0.07782151f, -0.01081153f, -0.10859957f, 0.04773956f, 0.09890514f, -0.01438176f, 0.01066095f, -0.01672876f, 0.05631355f, -0.02406448f, 0.05687598f, 0.03589957f, -0.05827119f, -0.06459948f, 0.01889554f, 0.05715067f, -0.04590905f, 0.03236639f, 0.11685306f, -0.04314897f, 0.03959966f, 0.10786143f, 0.08555780f},
    {0.05796922f, 0.01959149f, -0.06087497f, -0.02750466f, 0.00003597f, 0.00528357f, -0.03267991f, -0.15820204f, -0.08086279f, 0.01302903f, -0.02800997f, -0.01669099f, -0.04820977f, -0.06419075f, 0.03785358f, 0.03167851f, -0.02506469f, -0.08940811f, 0.07569092f, -0.02812925f, -0.05251716f, -0.05161172f, -0.03476475f, -0.04963143f, 0.02422374f, -0.02629553f, -0.00387610f, -0.06644164f, 0.00045106f, 0.02567660f, -0.04477008f, 0.02791076f},
    {0.03961522f, 0.00619239f, -0.05055092f, -0.04917914f, -0.15022523f, 0.06704109f, 0.05896206f, -0.01591191f, 0.06450073f, 0.05885337f, 0.06546059f, -0.01562248f, -0.03448096f, -0.01296009f, -0.07800364f, 0.05591364f, -0.05905197f, 0.00831139f, 0.03104390f, -0.05301813f, 0.04775694f, -0.06390688f, -0.02938320f, 0.01881341f, -0.01193696f, -0.02457235f, 0.03632029f, -0.00862982f, -0.02179835f, -0.01549900f, -0.06832788f, -0.03961471f},
    {0.00733033f, -0.07491717f, -0.01898174f, -0.00327899f, -0.07575111f, -0.02715817f, -0.05720291f, 0.04931055f, 0.03699448f, -0.02340654f, -0.03331016f, -0.05346062f, 0.00917918f, -0.03441773f, -0.02417645f, 0.01789940f, -0.02766041f, -0.06289617f, -0.03570229f, 0.05536425f, -0.03074940f, 0.07504426f, -0.05983877f, -0.10714163f, 0.00826954f, -0.05844891f, 0.08636003f, 0.01815989f, -0.06247518f, -0.04093669f, -0.06058509f, 0.01671555f},
    {0.02175142f, -0.00246948f, 0.03884101f, 0.09929993f, 0.02515695f, 0.01061786f, -0.06809637f, 0.07760547f, -0.03659328f, -0.05355536f, 0.01151132f, -0.12454277f, 0.08590092f, -0.06637524f, 0.00756862f, -0.01621318f, 0.05421249f, 0.00707151f, -0.06024681f, -0.01912916f, 0.01772669f, 0.01885484f, 0.10181929f, -0.00008297f, -0.02327658f, -0.02135881f, -0.10240393f, -0.01100913f, 0.03269502f, -0.05919733f, 0.01800240f, 0.00105423f},
    {-0.00217275f, 0.08376578f, 0.05485975f, 0.02029250f, -0.01991594f, 0.07527555f, -0.02264095f, 0.00118966f, 0.03807059f, 0.03414970f, 0.02114155f, 0.02585189f, -0.03360151f, -0.02864653f, 0.02260157f, -0.04089648f, 0.01994300f, -0.04889938f, 0.00358013f, -0.05839718f, -0.05383860f, 0.10363921f, 0.04062230f, 0.08114378f, -0.01958394f, -0.01907585f, -0.00082415f, 0.04397831f, -0.10450535f, -0.02102970f, -0.09002740f, 0.08179371f},
    {-0.09400382f, 0.00779064f, -0.00604968f, -0.00410413f, -0.01387268f, -0.00264200f, 0.06381677f, -0.00121063f, 0.00254999f, -0.01663815f, -0.07497508f, 0.03244145f, 0.05366638f, -0.02577233f, 0.03389617f, 0.06832145f, 0.02096835f, -0.03849996f, 0.02366936f, 0.09653440f, 0.00145766f, -0.01910913f, -0.06229625f, -0.02275074f, -0.06680849f, 0.07646080f, 0.11669308f, -0.02275288f, 0.03231113f, -0.03371579f, -0.03007164f, -0.00999815f},
    {0.11320688f, -0.04591440f, -0.04116790f, 0.01336879f, 0.02765319f, 0.00838459f, -0.04854579f, 0.02761337f, -0.06364059f, 0.00006896f, -0.03182222f, -0.00890804f, -0.07442558f, 0.01122821f, 0.05004639f, 0.12891548f, -0.08494378f, 0.00125848f, 0.00143788f, -0.01013449f, -0.01346288f, 0.06501038f, -0.07485761f, 0.06242939f, -0.00987097f, -0.01633473f, -0.00366678f, 0.03992025f, -0.01779749f, 0.02481393f, -0.01393614f, -0.07249411f},
    {0.04678091f, -0.01599465f, 0.03803125f, 0.19265136f, -0.02013959f, 0.02465570f, -0.08225788f, -0.05324053f, -0.03120466f, -0.05546054f, -0.07893084f, 0.07550196f, -0.03384908f, 0.01525597f, -0.06464203f, 0.04528912f, -0.03484397f, 0.03469838f, -0.10020014f, -0.01182196f, 0.05911227f, -0.05308420f, -0.02361239f, -0.08238020f, -0.00490810f, 0.01712259f, -0.05298530f, -0.00615605f, 0.03827708f, -0.01711472f, 0.01014204f, 0.13313654f},
    {-0.08450530f, 0.01120905f, -0.05795418f, 0.01433921f, 0.00294480f, -0.01869064f, 0.01669467f, 0.03735238f, 0.05653279f, 0.09216744f, -0.02450571f, 0.09005699f, 0.02511739f, -0.04971466f, 0.06491255f, -0.02637124f, 0.03787488f, 0.01421990f, 0.09351811f, -0.04626079f, 0.03984492f, 0.10786973f, 0.03924641f, -0.10819364f, 0.01302984f, -0.01751837f, 0.01264938f, 0.04531912f, 0.06237682f, 0.01063029f, 0.01833746f, 0.04231664f},
    {-0.01507666f, 0.04354205f, -0.08113611f, -0.06437640f, 0.03588514f, -0.06272076f, 0.04479514f, -0.04522066f, -0.02188034f, -0.06526435f, 0.01403596f, -0.01359083f, -0.05981831f, -0.03609864f, 0.04400810f, 0.06638365f, -0.02840378f, 0.00939361f, -0.02074387f, -0.05721492f, 0.01577031f, -0.00648669f, 0.05887608f, -0.02746184f, -0.00793997f, -0.06539370f, 0.02231920f, 0.04329983f, -0.11417724f, 0.08144899f, -0.01478990f, 0.06952904f},
    {-0.05272714f, 0.00117046f, 0.03892481f, -0.01610978f, 0.01870468f, -0.02105084f, 0.00681761f, -0.09036887f, -0.05965578f, 0.02338041f, -0.01829552f, -0.04253385f, 0.00334939f, -0.01745910f, -0.13351216f, -0.03687776f, -0.02058283f, -0.03813247f, -0.00689584f, -0.02616868f, -0.01624014f, 0.02815131f, 0.00355339f, -0.06167452f, 0.01777175f, 0.02578652f, 0.01142137f, -0.04374377f, 0.04233247f, 0.04332581f, -0.07802394f, 0.02619758f},
    {-0.03049241f, -0.01597251f, 0.02224084f, -0.05241977f, 0.00146916f, 0.00108953f, 0.05445205f, -0.05226227f, 0.04107753f, 0.02703234f, 0.01836749f, -0.01180497f, -0.02047769f, -0.05008891f, -0.07672700f, -0.00225082f, -0.11066372f, -0.01728884f, -0.04448944f, 0.09724828f, 0.01108846f, 0.01345793f, 0.00825058f, 0.05526821f, -0.04035418f, -0.03731821f, 0.02526430f, -0.02218263f, -0.03556110f, 0.01406632f, -0.07299517f, 0.08886937f},
    {-0.01253077f, 0.10849766f, -0.01248193f, 0.04212784f, 0.06748305f, 0.09642557f, -0.03495118f, 0.00581286f, -0.02697457f, -0.00703671f, -0.03149722f, -0.02893408f, 0.01551351f, -0.05625458f, -0.03148453f, 0.00857818f, -0.02927735f, -0.10214701f, 0.05274759f, 0.01868208f, -0.02259478f, 0.03461093f, -0.15274146f, 0.08026752f, 0.02865457f, -0.01620303f, -0.08548711f, 0.03356214f, -0.02170856f, -0.02551723f, -0.01664961f, 0.01275391f},
    {-0.05841219f, 0.05110511f, -0.09855130f, 0.00186198f, 0.00365889f, 0.06495701f, 0.10057925f, -0.00250373f, -0.02040814f, -0.08403066f, 0.00911413f, 0.04403182f, -0.03571398f, -0.01926727f, 0.03615959f, 0.07639678f, 0.04744946f, 0.00326836f, 0.02871619f, 0.01555274f, 0.02671655f, 0.09404896f, 0.05278678f, -0.07685751f, 0.00110320f, -0.03208751f, -0.01704295f, 0.04958091f, -0.02933999f, -0.01614774f, 0.00924588f, -0.00758005f},
    {0.02784176f, -0.03901033f, 0.01295819f, -0.01449505f, -0.05169178f, -0.02014422f, 0.05131897f, -0.01993613f, 0.04455149f, -0.02236522f, 0.03442694f, -0.00306980f, 0.01308195f, 0.04121653f, 0.10362314f, -0.01517287f, -0.01917548f, -0.02860810f, 0.02010388f, -0.01373378f, 0.11251435f, 0.01485493f, 0.03583180f, 0.03663579f, -0.02863132f, 0.04991815f, 0.06061170f, -0.05254910f, -0.08000436f, -0.01603862f, 0.07221132f, -0.05923988f},
    {0.00373343f, -0.04350005f, -0.04340799f, 0.05271333f, 0.01310396f, -0.01868627f, 0.00860012f, 0.05688349f, 0.01061220f, 0.03579414f, 0.00998682f, 0.01657623f, 0.05041133f, -0.08046494f, -0.02843797f, 0.04967335f, -0.07471739f, 0.02528533f, 0.01591074f, -0.01248707f, -0.06501884f, 0.00422502f, -0.03381142f, 0.08638179f, -0.00494331f, 0.06979187f, 0.03019721f, 0.02116208f, -0.02857082f, -0.04850877f, -0.00025040f, 0.05390245f},
    {0.04250990f, -0.04808969f, 0.02299383f, 0.04341304f, -0.15733330f, -0.09410266f, 0.03282425f, 0.02395350f, 0.01628483f, 0.08865822f, 0.00490180f, -0.02518729f, -0.01229876f, 0.00656289f, 0.03433778f, -0.07102436f, -0.11480309f, 0.01160125f, 0.04802703f, 0.05009550f, -0.00190246f, -0.05964271f, -0.01223976f, 0.00659431f, -0.05630370f, 0.01630784f, 0.07183320f, 0.02660406f, 0.00807210f, -0.03537869f, -0.08185591f, 0.00758162f},
    {0.00969937f, -0.01435178f, 0.04287779f, -0.04722208f, 0.03623250f, -0.09611351f, 0.00195201f, 0.12809026f, -0.01703592f, -0.01105690f, 0.05019253f, -0.06394409f, 0.07579833f, -0.00687795f, -0.01008353f, -0.03470517f, 0.00667739f, 0.00776333f, 0.01755319f, -0.11982034f, -0.00727623f, -0.07648454f, 0.01768883f, -0.00145571f, -0.06071013f, 0.03301835f, 0.00864552f, -0.00034808f, 0.00495109f, 0.00564472f, -0.00722079f, 0.00412237f},
    {0.01110204f, 0.06180705f, -0.11124756f, -0.03773408f, -0.00120106f, 0.10786991f, -0.09876971f, 0.06078306f, -0.03891025f, 0.05077848f, -0.09190983f, 0.06534234f, -0.02776579f, -0.07205922f, -0.04690201f, -0.07283380f, 0.07915086f, -0.13311325f, 0.05286871f, -0.02209375f, -0.04065949f, 0.00686734f, 0.04007313f, -0.06205405f, -0.00352108f, 0.08934000f, 0.07692634f, -0.06626462f, -0.07229750f, -0.00654767f, 0.07849483f, -0.00001381f},
    {0.04235602f, 0.00179475f, 0.04408394f, 0.03358024f, 0.00909528f, -0.05631778f, 0.09736993f, -0.09604138f, -0.08562465f, 0.00887189f, -0.03292060f, 0.03817362f, 0.06518740f, 0.13700859f, -0.06818183f, -0.01307395f, -0.04564954f, 0.00969766f, -0.03242168f, 0.03283297f, 0.02121301f, -0.04442256f, 0.00857950f, -0.03787857f, 0.04797511f, -0.03901696f, 0.00382140f, 0.07947243f, -0.06890093f, 0.15001764f, 0.04711718f, -0.08876653f},
    {0.06377703f, -0.03296060f, 0.00216850f, 0.03111597f, 0.01257496f, -0.00570319f, -0.03094089f, 0.03967214f, 0.03697652f, -0.02165686f, -0.02775122f, 0.06806470f, -0.09383435f, 0.00987398f, -0.03432542f, 0.04333201f, 0.01974570f, -0.05960030f, -0.00698958f, 0.16268595f, 0.03764313f, 0.03959258f, -0.04052453f, -0.07370382f, 0.02087168f, -0.02835693f, 0.04743539f, -0.04895383f, -0.07622636f, 0.08537551f, 0.04437309f, -0.00926277f},
    {-0.04934582f, -0.02432811f, -0.01374399f, -0.06304354f, -0.03750858f, -0.00124602f, 0.00993517f, -0.02281616f, -0.00791793f, 0.02552874f, 0.01387646f, 0.04087608f, -0.03141570f, 0.06806468f, -0.05078152f, -0.02715857f, -0.02751964f, 0.04856105f, 0.04499228f, 0.05905870f, 0.01801045f, -0.06576249f, -0.06148303f, 0.03705205f, 0.04206641f, -0.00255033f, -0.01094438f, -0.10249822f, 0.04010568f, -0.00444095f, 0.01577059f, -0.05330720f},
    {-0.07452119f, -0.10053732f, 0.01222583f, 0.06621698f, -0.08325719f, 0.11368319f, 0.06579211f, -0.02724178f, -0.04678606f, 0.03406795f, -0.03801149f, -0.05527300f, 0.00482657f, -0.07275523f, 0.01717463f, 0.00357644f, -0.01566620f, 0.08131984f, 0.02857673f, -0.00111800f, -0.02322661f, -0.04606333f, 0.08311393f, -0.01832140f, 0.02332985f, -0.00744197f, 0.11114124f, -0.01200918f, -0.07068630f, 0.06162787f, 0.00373006f, -0.04996848f},
    {0.02609713f, 0.00763725f, 0.00585183f, 0.01663709f, -0.00192323f, 0.00518589f, -0.04471398f, 0.05211365f, 0.02635559f, 0.02427554f, 0.00336025f, -0.01550176f, -0.03852747f, 0.00576714f, 0.00120364f, -0.03965047f, -0.08577627f, 0.00933683f, 0.07712285f, 0.01514974f, 0.07751552f, 0.06329895f, 0.01100406f, 0.03166252f, -0.03249959f, 0.01540789f, 0.00265113f, -0.04688741f, -0.00787538f, 0.01157106f, -0.00231618f, 0.03139089f},
    {-0.00936804f, -0.02042705f, 0.05639490f, 0.02396929f, -0.06836726f, -0.04933028f, -0.07182765f, -0.01601151f, -0.04808003f, -0.02708039f, -0.05693536f, 0.02898406f, -0.09245196f, 0.02709525f, 0.07421185f, 0.00661793f, -0.00436011f, 0.02512318f, -0.08036480f, 0.09642174f, 0.08234052f, -0.00372506f, -0.05480648f, 0.00160303f, 0.01876248f, -0.02259614f, 0.00052340f, 0.00636773f, 0.06242949f, -0.02730672f, 0.00657215f, -0.01194117f},
    {-0.01243472f, 0.00472655f, -0.02823761f, 0.01363835f, -0.02120577f, -0.02687640f, 0.02149757f, -0.01154367f, 0.00906350f, -0.02007767f, 0.09605477f, -0.03782732f, -0.08341016f, 0.02147688f, 0.00219706f, 0.02748963f, 0.01666176f, -0.03244736f, 0.06359947f, 0.00195382f, -0.08020970f, 0.00536527f, 0.00597295f, -0.00925188f, -0.01399337f, -0.07257317f, 0.00395961f, -0.05325937f, -0.07575431f, -0.08344990f, 0.01966739f, -0.05183991f},
    {-0.08840523f, -0.00890953f, 0.00565776f, 0.03540916f, -0.07036288f, 0.05351010f, 0.01693835f, -0.08038130f, 0.05848016f, 0.02942168f, 0.02113844f, 0.02596544f, 0.00949896f, 0.04499558f, 0.00859218f, 0.01092331f, -0.01139630f, 0.07176209f, 0.00150458f, 0.06171189f, 0.03982602f, 0.01935850f, -0.00070750f, 0.06631999f, 0.01644700f, -0.00082287f, -0.01564612f, 0.05120998f, -0.01322351f, 0.00039956f, -0.05614940f, -0.06065718f},
    {-0.03730766f, 0.00796327f, 0.04500341f, 0.01553958f, 0.06358465f, -0.06300765f, 0.00792366f, -0.03293270f, -0.00454353f, 0.01785367f, -0.00141109f, -0.01125575f, 0.02663972f, -0.00485087f, -0.01170516f, -0.00346302f, -0.03028243f, 0.01468575f, 0.10046025f, -0.08900813f, 0.02412239f, -0.07651628f, 0.01757913f, -0.08750789f, -0.00082124f, -0.02773779f, -0.01223768f, -0.04977828f, -0.02563053f, -0.00320186f, 0.00169456f, -0.06784124f},
    {-0.00199616f, 0.01553719f, 0.03603855f, 0.06063035f, 0.03033112f, -0.04964880f, 0.04325781f, 0.00971822f, -0.05702786f, -0.00034949f, -0.00597128f, -0.01947978f, -0.00531486f, -0.07423675f, -0.00739679f, 0.01608633f, 0.05190819f, -0.01101537f, 0.07638299f, 0.06333952f, 0.02858685f, -0.02876623f, 0.02040862f, -0.01793482f, 0.01923312f, 0.02325940f, 0.00848626f, 0.04763232f, 0.08016672f, 0.09454652f, -0.04422571f, 0.01815109f},
    {0.07921508f, 0.07842756f, -0.04499732f, 0.10637831f, -0.05848145f, 0.06908722f, 0.01744933f, 0.07697170f, -0.14335689f, -0.03815358f, -0.00173297f, 0.02534571f, 0.01116924f, 0.08162802f, 0.06738294f, 0.01719142f, -0.00097403f, 0.08203067f, 0.02649531f, 0.08191904f, -0.07393107f, 0.01844907f, 0.05576108f, 0.03535849f, -0.02115705f, -0.08847970f, 0.07549476f, 0.05774248f, -0.05208122f, 0.02090355f, -0.01255648f, -0.03543858f},
    {-0.02494368f, -0.01728362f, -0.00235436f, -0.01360984f, -0.03195769f, 0.04810147f, -0.01609578f, -0.04817623f, 0.01798194f, -0.08335221f, -0.02948829f, -0.00415783f, -0.07414524f, -0.00297080f, -0.11736150f, 0.07909843f, 0.05628922f, -0.04523669f, 0.00201969f, -0.01174206f, -0.06460845f, -0.02098195f, -0.00390732f, 0.03236039f, -0.07935109f, 0.00399938f, 0.05572558f, -0.05984600f, -0.05073872f, -0.06360916f, -0.04020023f, 0.08361169f},
    {-0.05832471f, -0.02974908f, -0.02594131f, 0.04830733f, -0.10799994f, 0.02368378f, -0.01637700f, 0.01694320f, 0.11458614f, -0.03647289f, -0.03902679f, -0.00577201f, -0.04147932f, -0.07261504f, 0.05470486f, -0.03283954f, 0.12075978f, -0.08376014f, -0.04001623f, -0.00104739f, -0.01381998f, 0.05623566f, -0.04673422f, -0.11144028f, -0.00792191f, 0.00436883f, 0.04252880f, -0.00791947f, -0.06691541f, -0.00141254f, 0.05470560f, 0.03119301f},
    {-0.00014880f, -0.01278223f, -0.06270627f, -0.04132282f, -0.00830107f, -0.07305352f, 0.06886341f, 0.00024817f, 0.01662707f, -0.01112676f, -0.00768006f, -0.00556847f, -0.05915596f, 0.01811848f, -0.10094892f, 0.04482155f, 0.00399674f, -0.03033082f, -0.04300454f, 0.06293891f, -0.01064773f, -0.04280273f, 0.00048152f, -0.03212599f, 0.02515501f, 0.00595178f, -0.07317724f, 0.00742175f, 0.02403907f, 0.02305620f, -0.04273873f, -0.01341761f},
    {0.10141044f, 0.01627365f, -0.02333056f, -0.05258832f, -0.04596700f, -0.05472647f, -0.06186682f, -0.03847946f, -0.06433671f, -0.05440322f, 0.10339580f, -0.05204173f, 0.01734513f, 0.09160053f, -0.00597193f, -0.03960985f, -0.02579550f, -0.01639552f, 0.03275624f, 0.06667341f, -0.11887841f, 0.04731821f, -0.05972962f, -0.03028096f, -0.01126259f, -0.03285381f, 0.05310459f, -0.12868033f, -0.05750534f, -0.09817694f, 0.03186489f, -0.00988461f},
    {0.02648273f, 0.05740774f, -0.01433404f, -0.06278932f, 0.04364443f, 0.01415280f, -0.08420536f, 0.07405821f, 0.05361760f, 0.02860780f, -0.07370698f, -0.00654653f, 0.04927303f, 0.03891025f, -0.00420771f, 0.05535531f, 0.00968986f, -0.03828163f, 0.01577886f, 0.02668756f, 0.04176529f, 0.08807166f, -0.04039438f, 0.06819909f, 0.02743095f, -0.07898314f, 0.00898569f, -0.05970341f, 0.00096212f, -0.02140174f, 0.08527278f, 0.00338576f},
    {0.02889642f, -0.01701381f, -0.06849105f, -0.00985681f, -0.09651355f, 0.04051139f, 0.04217242f, -0.03040723f, 0.03624902f, 0.02019732f, -0.12228831f, -0.04382823f, -0.00723132f, -0.01264269f, -0.10551926f, -0.01041684f, -0.00474468f, 0.03488100f, 0.01397093f, 0.02132093f, 0.03749737f, 0.01458886f, -0.01024656f, -0.02873628f, 0.04452066f, -0.01904756f, -0.05130128f, -0.02163960f, 0.08820896f, -0.00904105f, -0.00953610f, -0.06817081f},
    {0.03571313f, -0.06786147f, 0.03501036f, -0.07195660f, 0.07858650f, 0.02082907f, -0.03902612f, -0.00403565f, -0.00019005f, -0.00482190f, 0.02541872f, -0.06631788f, -0.03256704f, -0.03062419f, -0.03251905f, 0.07812393f, -0.03761323f, 0.05119093f, 0.01109855f, -0.04507263f, -0.04606847f, -0.04447986f, 0.05883996f, 0.03851942f, -0.01060833f, -0.02054569f, -0.04422288f, 0.01744393f, 0.01306939f, 0.00558106f, -0.01613659f, -0.08510310f},
    {0.01833640f, 0.01025904f, -0.05093929f, -0.12127086f, 0.01531170f, 0.06028776f, -0.00335604f, -0.00617614f, 0.01641258f, 0.11534252f, 0.01663124f, -0.01335767f, 0.07412981f, -0.09195666f, -0.12011881f, 0.00518958f, 0.01738117f, -0.01324808f, -0.10406321f, -0.05686864f, 0.06698339f, 0.02100099f, -0.03883707f, 0.06475829f, -0.05977749f, 0.10843102f, 0.03229615f, 0.04581021f, -0.01750560f, 0.00374974f, -0.03453944f, -0.00260603f},
    {-0.00687461f, 0.03008156f, -0.04042855f, 0.04937793f, -0.01903489f, 0.05228184f, 0.02113618f, 0.02246289f, -0.01441969f, 0.07192398f, -0.00286951f, -0.06096314f, 0.01778143f, -0.08130403f, 0.00126796f, -0.04659816f, -0.02310734f, -0.11580778f, 0.04273354f, 0.01439436f, -0.10794064f, 0.03664017f, -0.10904869f, -0.00143057f, -0.09408803f, -0.00429810f, -0.01477560f, -0.02154194f, 0.02344259f, -0.06956883f, -0.03080250f, -0.08023049f},
    {-0.05218610f, -0.02412388f, 0.13750028f, 0.05102930f, -0.00167374f, -0.01504177f, 0.08292669f, -0.09052894f, 0.02385023f, 0.04578014f, 0.02986836f, -0.07006262f, -0.07880025f, -0.00084983f, 0.02093531f, -0.04825534f, 0.05688788f, -0.00258360f, -0.00538562f, -0.00661887f, 0.04011727f, 0.02724016f, 0.05659847f, 0.11580422f, -0.06225883f, 0.01102150f, 0.00543982f, -0.05785357f, -0.07936822f, 0.03982755f, -0.05332420f, -0.06139162f},
    {0.10283998f, -0.00269327f, -0.02344388f, -0.01101856f, 0.03525855f, 0.06889270f, 0.02106551f, -0.06165558f, -0.00476574f, 0.00027364f, -0.03996001f, -0.07000933f, -0.04082334f, 0.04458545f, -0.03443611f, -0.02938572f, 0.00761931f, 0.02462205f, -0.02600697f, 0.01155659f, -0.04684227f, 0.02121376f, 0.02289632f, 0.04535396f, 0.01034571f, 0.02207058f, -0.01340426f, 0.02506038f, 0.06344932f, -0.03810284f, -0.00949629f, 0.09031931f},
    {0.06332026f, 0.00704195f, -0.05749500f, -0.01592192f, -0.03966587f, 0.07374445f, 0.02971393f, -0.03550792f, 0.03483495f, 0.03270255f, -0.01296907f, -0.03298555f, -0.01662347f, 0.01211776f, -0.07360918f, 0.01881500f, -0.01081318f, 0.08876559f, -0.00469827f, 0.00055311f, 0.04486913f, -0.06302997f, 0.00895903f, -0.00843410f, -0.01930492f, 0.03249273f, -0.01673571f, -0.00558930f, 0.02578800f, -0.10949188f, -0.00605961f, -0.01057419f},
    {0.00636364f, -0.01658436f, -0.01951683f, 0.12245255f, -0.00057748f, 0.01815968f, 0.03111978f, 0.03922365f, 0.03244319f, 0.01010311f, 0.06912109f, -0.00375287f, 0.02713001f, 0.02105063f, -0.00337938f, -0.01395583f, 0.01431998f, -0.01954321f, -0.02536418f, 0.03137071f, 0.02916249f, -0.01067948f, 0.02145804f, 0.02318362f, -0.07200666f, -0.05529660f, -0.06523830f, -0.05760463f, 0.04648015f, 0.11178375f, 0.06734844f, 0.04762088f},
    {-0.02642801f, -0.01311047f, 0.02799310f, 0.00618661f, -0.01354808f, 0.04624977f, 0.06619614f, 0.03062175f, 0.00567695f, -0.07100373f, 0.09115366f, -0.01542181f, 0.12451736f, -0.08303236f, -0.03116851f, -0.06771493f, 0.03958583f, -0.03781171f, 0.05653552f, -0.08272073f, -0.06715003f, 0.09363871f, 0.03316790f, 0.00643464f, 0.11192586f, 0.03234154f, 0.07787889f, 0.01806971f, 0.03351714f, 0.02929313f, 0.01950070f, -0.00261145f},
    {-0.02450052f, -0.01571407f, -0.02116318f, -0.04628364f, 0.02091478f, 0.04097577f, 0.00768814f, -0.00234039f, 0.00980603f, -0.00974735f, 0.00813166f, -0.02963909f, 0.00596552f, -0.07284230f, 0.05488139f, -0.02060242f, 0.07621468f, -0.03433298f, -0.08142348f, 0.04107421f, -0.06025656f, 0.00167060f, 0.02172421f, -0.05542589f, -0.08305996f, -0.07942116f, 0.01983515f, -0.03515636f, 0.04174309f, -0.01930585f, -0.00216495f, 0.00834710f},
    {0.02414750f, 0.02075164f, -0.00961582f, 0.03144317f, 0.07840075f, 0.02438839f, 0.04895005f, 0.03187104f, 0.00892985f, 0.01684058f, -0.14637373f, -0.00030248f, -0.04291038f, -0.05619869f, -0.02794923f, -0.02013364f, -0.10684432f, 0.06991390f, 0.05096206f, -0.03212560f, -0.07526390f, 0.01540341f, -0.01301788f, -0.01970172f, -0.03158069f, 0.03284991f, 0.04872659f, 0.02516587f, 0.00493204f, -0.08361967f, 0.10350550f, 0.01459990f},
    {-0.02049421f, 0.00023757f, 0.05063735f, -0.01567066f, 0.06090584f, -0.01267531f, 0.00565556f, 0.07680414f, -0.01833913f, 0.02674471f, 0.00182171f, -0.02317062f, 0.08396963f, 0.02226504f, 0.00889321f, -0.02709077f, -0.03521581f, 0.03268799f, 0.08626645f, -0.07084137f, 0.09278930f, -0.04115941f, 0.01805761f, 0.01349037f, 0.07918464f, 0.03069222f, 0.01582218f, -0.05078582f, 0.07540216f, -0.08886144f, 0.03672694f, -0.00355632f},
    {0.02000966f, -0.05275689f, -0.04464058f, -0.05468957f, 0.01716853f, 0.01748774f, 0.03603249f, -0.05004417f, 0.02461375f, 0.07000276f, -0.02907400f, -0.04616366f, 0.09211157f, -0.02025063f, 0.03057413f, 0.02163740f, -0.07090418f, 0.04340937f, -0.01323625f, -0.05865014f, -0.03284570f, -0.06574170f, 0.02883105f, 0.02646155f, -0.02677833f, -0.02990902f, -0.01683341f, 0.01429702f, 0.00730071f, 0.00267080f, 0.00679426f, -0.09438451f},
    {0.04471870f, 0.03921383f, 0.05595705f, 0.05536225f, -0.09362337f, -0.04356291f, 0.08520455f, 0.04547468f, -0.01585185f, 0.00082542f, 0.11336051f, -0.01810478f, 0.04358981f, 0.02388718f, 0.00969384f, 0.00855426f, -0.02724202f, 0.01127626f, 0.06153344f, 0.03093802f, -0.05791595f, -0.02837011f, 0.03911480f, 0.05123871f, 0.04586518f, -0.07879829f, -0.08224584f, -0.01862032f, 0.07092648f, 0.09363131f, -0.02118292f, 0.02305069f},
    {0.00476960f, -0.03030924f, -0.00788384f, 0.06729944f, -0.00645979f, 0.04934836f, 0.04225859f, 0.00538473f, -0.06046703f, 0.03726871f, 0.03296958f, 0.00019358f, 0.08030647f, -0.06892500f, -0.03067862f, 0.09211358f, 0.00355004f, 0.01203239f, 0.12827988f, -0.04463687f, 0.08876792f, 0.03396344f, 0.00937228f, 0.01513884f, 0.04702387f, -0.08486602f, 0.02686771f, 0.02149070f, 0.02935689f, 0.07387266f, 0.03584875f, -0.04226819f},
    {0.03550561f, 0.00699917f, 0.05379607f, -0.03912993f, 0.03977382f, -0.09460957f, 0.00308903f, 0.00624266f, -0.00448048f, 0.03580067f, 0.06565648f, -0.02541238f, 0.04644320f, -0.01961823f, -0.03690616f, -0.01506376f, -0.11146614f, 0.00399334f, 0.06973333f, 0.05590076f, 0.07779146f, 0.01166774f, 0.01745721f, 0.03129151f, 0.02246393f, 0.05493588f, 0.14939504f, 0.08032443f, -0.04305360f, -0.08789043f, 0.01259978f, -0.08971323f},
    {-0.01137974f, -0.08464085f, 0.02983219f, 0.01141506f, -0.01793526f, -0.02122824f, 0.04404244f, -0.05036999f, -0.01964322f, -0.08599591f, 0.02791617f, -0.02352380f, 0.08321822f, -0.11464400f, -0.03344632f, 0.03343820f, 0.03265076f, -0.01515643f, 0.09863620f, 0.04576924f, 0.00883959f, 0.00955495f, 0.09613369f, -0.03875679f, 0.01741202f, -0.13345883f, 0.00411466f, -0.04991269f, 0.06329856f, 0.01899941f, 0.03444868f, -0.10913253f},
    {0.03555001f, 0.00827336f, -0.04213323f, -0.00249171f, -0.06578710f, -0.07253778f, 0.02473650f, -0.08373121f, -0.05213786f, 0.01836812f, -0.04556746f, 0.04439810f, 0.07342786f, -0.09163095f, 0.00831123f, -0.00518033f, -0.03737491f, -0.05480571f, 0.04854094f, 0.12572035f, 0.02180471f, -0.04957241f, -0.06023004f, 0.04336429f, -0.05244020f, 0.02056998f, 0.03614536f, -0.00800012f, 0.06782616f, 0.05356982f, 0.06547302f, -0.06727551f},
    {0.09091270f, 0.02234948f, 0.04937536f, 0.03740560f, -0.01729893f, 0.00784486f, -0.04466603f, 0.01288000f, 0.01811929f, 0.00329731f, -0.06674324f, 0.04277617f, 0.00935024f, -0.01083937f, 0.02194739f, -0.07335523f, 0.04154701f, -0.00685258f, 0.12526982f, 0.05087153f, -0.03597553f, 0.10689509f, -0.00166565f, 0.02418486f, -0.04336913f, -0.12160727f, 0.01343820f, -0.05090230f, -0.01363554f, -0.01510386f, -0.01596694f, 0.00321285f},
    {-0.03095474f, -0.00089306f, 0.08868359f, -0.04570068f, -0.02596376f, -0.08446551f, -0.11301439f, 0.04773782f, 0.04071336f, -0.09012531f, -0.01753686f, 0.13959162f, 0.09356499f, -0.03219944f, -0.04605005f, 0.01664112f, -0.06564082f, 0.01723198f, 0.07298819f, 0.05739763f, 0.03999651f, 0.03872880f, 0.02726760f, -0.00991113f, -0.01901179f, 0.00347560f, 0.03391642f, 0.03251856f, 0.06846139f, -0.07566958f, -0.03078661f, -0.08472982f},
    {-0.03229668f, 0.05598252f, -0.01777853f, -0.05989126f, -0.06112917f, 0.12557562f, 0.02280705f, 0.07557962f, 0.05565296f, -0.01775407f, 0.01608033f, 0.10644589f, 0.08882483f, -0.06147764f, -0.02865174f, -0.08180935f, -0.04273126f, 0.05723188f, 0.01634668f, 0.12145828f, 0.01167597f, 0.00678492f, -0.02233204f, -0.04321317f, -0.02630401f, 0.02710035f, -0.09830692f, -0.03518943f, 0.01437367f, -0.00240182f, 0.05438483f, -0.08079499f},
    {0.01737148f, -0.07490120f, -0.08796451f, -0.00123490f, -0.10084085f, -0.00959573f, -0.04804702f, -0.03932526f, 0.00767486f, -0.09751235f, 0.06504943f, -0.02406717f, 0.04215367f, -0.01125740f, -0.06774309f, -0.00696234f, 0.06184245f, 0.04814116f, 0.06072653f, -0.00999066f, -0.00959359f, -0.01207505f, 0.07896312f, 0.03671215f, -0.11170270f, 0.01967010f, -0.00563997f, -0.11960306f, 0.00437297f, 0.00049299f, 0.01135888f, -0.00569174f},
    {-0.00266388f, -0.00844865f, 0.09862163f, -0.04308145f, -0.03435002f, -0.03797804f, -0.02126505f, -0.00659896f, -0.07254672f, 0.14408908f, -0.01585689f, -0.01185342f, 0.06752966f, 0.11221613f, -0.01662888f, 0.03033876f, -0.00171253f, 0.03680908f, 0.02840414f, 0.00404636f, -0.02672557f, -0.00974596f, -0.01526113f, -0.00499861f, 0.08223746f, 0.04049651f, 0.05240332f, -0.02493127f, 0.02919162f, 0.01059950f, -0.03416374f, 0.02296429f},
    {0.01151223f, -0.11785432f, 0.07082672f, 0.00063640f, -0.05452261f, 0.14222438f, -0.06169366f, 0.00221412f, 0.00722678f, -0.02383955f, -0.06671739f, 0.00602096f, -0.05290571f, -0.01833821f, -0.10252950f, 0.03201297f, 0.03275195f, 0.00886934f, 0.01320433f, 0.07893308f, 0.03908870f, 0.03073673f, 0.05977784f, 0.11673361f, -0.06778486f, 0.01646117f, 0.00628639f, -0.01884085f, 0.02814918f, -0.07075560f, 0.02499988f, -0.00173806f},
    {0.01071420f, -0.03085944f, 0.01984391f, -0.07664284f, 0.09344648f, -0.08483408f, -0.07905844f, 0.02147059f, -0.03332635f, -0.00556163f, -0.01005513f, -0.10136746f, -0.00316899f, -0.03692060f, -0.05837553f, 0.02406038f, 0.01434492f, 0.00490362f, 0.03057706f, -0.06312545f, 0.05844035f, 0.06255275f, 0.04055045f, -0.07824612f, 0.03323561f, -0.00208464f, 0.01870329f, 0.02846796f, 0.04562857f, -0.00072276f, -0.02325361f, -0.09302683f},
    {0.05244867f, -0.04975188f, -0.01921423f, 0.00240178f, -0.01522296f, 0.08208842f, -0.03309481f, -0.15449101f, 0.02361537f, -0.08491850f, 0.04948800f, 0.02266118f, -0.00563472f, -0.03565710f, -0.03131051f, 0.02780502f, -0.04125549f, 0.01683864f, 0.06189662f, 0.06304167f, 0.08867569f, 0.01540170f, -0.08793576f, -0.00883939f, -0.01122724f, -0.10232280f, 0.02029118f, 0.02020490f, 0.03833357f, 0.02070813f, 0.01420681f, -0.05116327f},
    {0.07185184f, -0.05580667f, -0.00172821f, -0.04174336f, -0.05252435f, -0.07612030f, -0.00577376f, 0.03004595f, -0.08117771f, -0.04311307f, 0.02936453f, -0.00366036f, 0.11354711f, -0.00872424f, 0.06921005f, 0.04310078f, -0.03964555f, -0.06721687f, 0.03044234f, 0.00911843f, 0.09672534f, 0.00214803f, -0.06077423f, 0.07005882f, 0.06140722f, -0.00657247f, 0.01629718f, 0.11966646f, -0.01523093f, 0.13129086f, 0.03890234f, 0.09114472f},
    {0.04871770f, -0.07046636f, 0.07548904f, -0.07610328f, 0.00082011f, -0.02795930f, -0.01809407f, 0.01628985f, -0.04429869f, -0.00131420f, -0.02223713f, 0.07114316f, 0.02289235f, -0.02156590f, 0.09689455f, -0.00231338f, 0.02515196f, -0.03555886f, 0.02551970f, 0.04457942f, -0.02408380f, -0.07080276f, 0.02453334f, 0.05706173f, -0.00542168f, 0.03193613f, -0.02050074f, 0.08818102f, 0.05759960f, 0.01579480f, -0.00608831f, 0.01362014f},
    {-0.10387941f, -0.03890432f, -0.03709492f, -0.06300295f, -0.01203278f, 0.00581179f, -0.02882001f, 0.00219354f, 0.01571822f, 0.02765333f, 0.05578683f, 0.02966883f, -0.02978435f, 0.02585039f, 0.05599128f, -0.04037724f, -0.06463362f, -0.05696394f, 0.09390785f, 0.01015502f, -0.04244888f, 0.10757310f, -0.03973624f, -0.10785054f, -0.02625546f, 0.03110865f, -0.14460156f, 0.01501450f, -0.12819830f, 0.05063017f, 0.05040032f, -0.06698828f},
    {0.00713616f, 0.09223359f, 0.06875810f, 0.03351361f, -0.00803372f, 0.01108021f, -0.06432811f, 0.05219927f, -0.06568567f, 0.03703307f, 0.02484714f, 0.04149270f, 0.00020096f, 0.02313671f, 0.02969448f, 0.07257645f, -0.02830276f, 0.08307551f, 0.02200744f, -0.01681603f, -0.03937442f, -0.03023667f, -0.03237533f, -0.00925061f, 0.02624564f, 0.02014635f, 0.05660762f, -0.04062311f, -0.08558673f, -0.06924605f, -0.07588503f, 0.10330154f},
    {-0.01655198f, 0.02625290f, -0.01210579f, 0.03740249f, -0.00421782f, 0.04149228f, -0.00672495f, 0.07285366f, -0.02743112f, -0.05537087f, -0.00380268f, 0.01527649f, -0.12445757f, 0.08754685f, 0.03384461f, -0.04447056f, -0.02561176f, 0.04071170f, 0.00267315f, 0.02604329f, -0.05839841f, 0.01910478f, 0.00000712f, -0.00837070f, 0.04459058f, -0.08935493f, 0.12201035f, 0.01760094f, 0.05064162f, -0.02673041f, 0.02084984f, 0.06533529f},
    {-0.02607519f, 0.05370563f, 0.10860016f, -0.03394309f, -0.00883262f, -0.02985992f, 0.02120110f, -0.02095163f, 0.00108855f, -0.10607331f, 0.07611928f, -0.02522206f, 0.08653149f, -0.00624178f, 0.02957028f, -0.12316192f, -0.00412586f, -0.01374805f, 0.10177067f, 0.02053045f, -0.04063339f, -0.05648723f, 0.03228761f, 0.06545463f, 0.08224091f, -0.00148755f, 0.05764205f, -0.00356970f, -0.00263162f, 0.01406655f, -0.00335432f, -0.00575210f},
    {-0.00362191f, 0.06177416f, 0.03274277f, 0.00793199f, 0.08694586f, -0.04961616f, 0.02635260f, -0.02319420f, -0.08479212f, 0.00518564f, -0.01538891f, -0.02421153f, -0.00928153f, -0.00429365f, -0.00579859f, -0.01987271f, 0.00280335f, -0.03372912f, -0.00473489f, 0.00229631f, 0.04006879f, -0.09762602f, -0.02858055f, -0.11154844f, -0.13315249f, -0.00195667f, 0.03236502f, 0.07890026f, -0.10249767f, 0.04921699f, -0.03804664f, 0.04115943f},
    {-0.03426747f, 0.06559393f, 0.01933720f, 0.02546787f, 0.04158169f, -0.05788196f, 0.05123338f, -0.05133410f, 0.00319269f, 0.10016400f, 0.01132447f, -0.03578670f, -0.02664429f, -0.00801551f, -0.00065003f, -0.02760352f, -0.09856123f, 0.01887060f, -0.00167781f, 0.04518191f, -0.02872921f, -0.00311235f, -0.04431835f, -0.04703438f, -0.00140233f, 0.02992894f, 0.03567031f, -0.01805551f, 0.08621616f, -0.09920929f, -0.05101714f, -0.01918085f},
    {-0.03394468f, 0.02615817f, -0.03817678f, 0.00787582f, 0.00089726f, -0.02874703f, 0.11496849f, 0.00010186f, 0.02210336f, -0.03026117f, -0.01366041f, -0.01891623f, 0.07137815f, 0.02964398f, 0.02614759f, 0.00503855f, 0.00968368f, 0.00470169f, 0.04128776f, -0.08045934f, -0.01725044f, 0.00238756f, 0.02784685f, 0.09892381f, 0.00815790f, -0.00880173f, -0.04472584f, -0.06360420f, 0.02830515f, -0.01526882f, 0.08251394f, 0.08114614f},
    {-0.20126202f, 0.03790144f, 0.08266585f, 0.10650138f, -0.05718876f, -0.05569053f, -0.01102356f, 0.00498969f, 0.02436167f, 0.00662771f, 0.03296990f, -0.01920630f, 0.03464576f, 0.10842586f, 0.04281858f, 0.07200135f, -0.03741357f, 0.00658050f, -0.03878267f, -0.08443458f, -0.01606273f, 0.05300291f, 0.01808883f, 0.03351064f, -0.05313351f, -0.02764388f, 0.00639718f, -0.05062933f, -0.00425564f, 0.02174557f, 0.00796375f, 0.06651011f},
    {0.00404499f, -0.02269820f, 0.01800466f, 0.04920536f, -0.00037920f, 0.01208961f, 0.06095291f, 0.02978656f, -0.00009346f, -0.05527638f, -0.04941129f, -0.02510122f, -0.00036865f, -0.01926346f, -0.01391498f, 0.03088882f, 0.05401635f, 0.04822448f, 0.07617610f, 0.00827887f, 0.10092938f, -0.00994189f, 0.01440554f, 0.06199778f, 0.00571430f, 0.05434212f, 0.05409535f, 0.12611190f, 0.01990688f, -0.00145564f, -0.07917585f, 0.04108722f},
    {-0.02218546f, 0.03220736f, -0.00040897f, 0.09458349f, -0.00233498f, -0.03826386f, -0.05362273f, 0.01956132f, 0.02912452f, -0.00335349f, -0.09130587f, -0.01296416f, 0.00842849f, 0.03017384f, -0.00443174f, 0.03350200f, -0.08946846f, -0.07361601f, 0.00208810f, 0.15434807f, -0.03909109f, 0.03986104f, -0.00758634f, 0.02352307f, -0.04531079f, 0.01688957f, 0.01014467f, 0.00186477f, -0.03702005f, 0.17313625f, 0.00767002f, 0.00046504f},
    {-0.03083188f, -0.01915752f, 0.00493503f, -0.01643223f, -0.06262173f, 0.06497347f, 0.01469127f, 0.03184712f, -0.08765003f, 0.03101833f, -0.00507499f, 0.02059251f, -0.04033045f, -0.02605794f, 0.01615980f, 0.04805075f, -0.00250510f, -0.09335104f, 0.00867850f, -0.10063109f, 0.01662419f, -0.02683150f, 0.01640450f, -0.02876478f, -0.01072103f, -0.03383093f, 0.01000133f, -0.00695289f, -0.04561608f, -0.04177369f, 0.06725092f, -0.02596479f},
    {-0.03871114f, 0.06006130f, 0.05768794f, -0.05493447f, -0.02050754f, -0.03977979f, 0.05082761f, -0.04587847f, -0.02791676f, 0.02694763f, -0.02803186f, 0.00331594f, -0.05308346f, -0.07875064f, -0.03075888f, -0.10130314f, 0.03345623f, 0.07046442f, -0.02542134f, 0.07561063f, 0.10055713f, -0.09558414f, 0.02818122f, 0.02595126f, -0.05764084f, -0.02497693f, -0.01439395f, 0.11830553f, -0.02721687f, -0.01946826f, 0.04378157f, -0.06966305f},
    {0.06116152f, -0.07867685f, 0.09294641f, -0.05524822f, 0.01198048f, -0.00109543f, -0.01625271f, -0.06053154f, -0.01460206f, 0.01369396f, 0.04960297f, -0.02118048f, -0.03065313f, 0.00960520f, -0.10144847f, 0.00228665f, -0.10195918f, 0.07892013f, 0.03025342f, -0.00670860f, 0.05219613f, -0.09028669f, 0.02465301f, -0.03515693f, 0.03402581f, -0.11490955f, -0.05951739f, 0.03548258f, 0.01311651f, -0.05676820f, 0.04916411f, -0.05435015f},
    {0.01642388f, -0.01081566f, -0.01046522f, 0.05768317f, -0.01835565f, -0.02867656f, 0.00191242f, -0.01211116f, -0.01603461f, 0.05953386f, 0.02022075f, -0.04761469f, 0.03052505f, -0.01378391f, -0.06119019f, -0.00083996f, -0.03350828f, -0.06286681f, 0.11146532f, 0.00299827f, 0.11826547f, 0.02051470f, 0.01655457f, 0.05636601f, -0.08860036f, -0.06257728f, 0.04928808f, -0.01610863f, -0.02380947f, -0.03174094f, 0.02608604f, -0.10071473f},
    {0.02203654f, 0.10841769f, -0.00649580f, 0.07332554f, 0.06949217f, 0.00773418f, -0.01514779f, -0.04168871f, -0.01397506f, -0.07023781f, -0.05928092f, 0.05670974f, 0.05095708f, -0.04526057f, 0.04117037f, 0.02631375f, 0.02283587f, -0.06082310f, 0.10810202f, -0.00426604f, -0.01606502f, -0.00493319f, 0.08016444f, -0.06594325f, -0.05996714f, 0.05745736f, -0.00930878f, 0.00868868f, 0.02157879f, 0.11214680f, 0.10516217f, -0.05775416f},
    {-0.04602448f, 0.10378005f, 0.05795866f, 0.16394195f, 0.00844750f, -0.07618258f, -0.00108896f, -0.05190682f, -0.02436476f, -0.02730913f, -0.05458761f, 0.00604270f, -0.00585102f, -0.08958153f, -0.04421725f, -0.03985694f, -0.00770266f, -0.06033547f, 0.12522299f, -0.03842962f, 0.09242194f, -0.00958030f, 0.10191169f, 0.03191423f, -0.07595144f, 0.00274340f, -0.08142288f, 0.05737941f, -0.03338473f, -0.05315617f, 0.04602298f, -0.10423310f},
    {-0.07397129f, 0.08899872f, 0.11740896f, 0.06154959f, 0.03231060f, -0.07171986f, 0.03294048f, -0.00136113f, 0.02571981f, -0.07238956f, 0.01312911f, 0.01956666f, 0.04652212f, -0.09379604f, -0.04793665f, 0.05083582f, 0.01752414f, 0.18154128f, 0.02717493f, 0.05237932f, 0.06794113f, -0.11275028f, 0.03348116f, 0.06743943f, -0.00971345f, -0.10362055f, -0.14624708f, 0.02937119f, -0.00366766f, 0.05932400f, 0.06523624f, -0.18455214f},
    {-0.05916980f, 0.04402730f, 0.09611092f, 0.16434770f, -0.06321745f, -0.02371743f, -0.08897198f, 0.06373334f, -0.04607392f, 0.05977012f, -0.05521376f, 0.09341505f, 0.05943746f, -0.17043920f, -0.05712739f, -0.05919558f, -0.00518127f, -0.02236219f, 0.10076306f, 0.07050389f, 0.10118270f, -0.15246786f, 0.03632753f, 0.01608767f, -0.03274805f, 0.01036485f, -0.09344966f, 0.04214209f, -0.00319031f, 0.07360953f, 0.06229624f, -0.01148353f},
    {-0.05051994f, 0.04194513f, 0.12876655f, 0.05739508f, -0.04246134f, -0.09284452f, -0.07446810f, 0.05796552f, -0.05258006f, -0.09190330f, -0.00709362f, 0.14719501f, 0.10348031f, -0.08088808f, 0.01371868f, 0.04124198f, -0.01788135f, 0.04133188f, -0.00317335f, 0.11360638f, 0.07997478f, -0.03053089f, 0.02560572f, -0.03030749f, -0.15345295f, -0.03867050f, -0.14432519f, 0.04803075f, -0.05257782f, 0.02084039f, 0.06229348f, -0.06076287f},
    {-0.07023191f, -0.02035294f, 0.02189738f, 0.11827590f, -0.05948669f, -0.08476999f, -0.05023881f, -0.07691405f, 0.07066820f, 0.01284618f, 0.05223524f, 0.05654290f, 0.00588208f, -0.06770303f, -0.16084299f, -0.02934298f, -0.09911769f, 0.02348204f, 0.06881615f, -0.00001133f, 0.01684968f, -0.02994046f, 0.01974329f, 0.05761809f, -0.08949916f, 0.05350795f, -0.08068369f, 0.01165151f, -0.00586932f, -0.03916865f, -0.06905671f, -0.01213348f},
    {0.00979868f, 0.06683492f, 0.04026170f, 0.10608687f, -0.10024158f, -0.12259598f, -0.05089672f, -0.03205246f, 0.00988344f, 0.04534488f, -0.00595706f, -0.04289693f, 0.01798648f, -0.12590120f, -0.07772696f, 0.12520520f, -0.13175622f, 0.06189574f, 0.02023573f, 0.09898090f, -0.00728635f, -0.11952708f, 0.03457663f, -0.00844374f, -0.09165661f, -0.06516978f, -0.11412357f, 0.03313240f, 0.06223900f, -0.00232700f, 0.07160187f, -0.03068358f},
    {-0.00460087f, -0.04730362f, -0.02402918f, 0.06899997f, 0.01720425f, -0.01187970f, -0.06341391f, -0.03485537f, 0.05417094f, 0.04983249f, -0.02441423f, 0.02538401f, 0.05084133f, 0.05170070f, -0.02598089f, 0.05016397f, -0.14269536f, 0.02201761f, 0.06866038f, 0.08249584f, 0.03316984f, -0.02806580f, 0.10133511f, -0.01483145f, -0.05627210f, -0.04636561f, -0.07657692f, -0.00043122f, -0.04160901f, -0.03456677f, 0.05712489f, -0.05730101f},
    {-0.00101507f, 0.01690719f, 0.03670335f, -0.02337535f, 0.03073497f, -0.11841790f, -0.03164298f, 0.07663405f, -0.10652639f, -0.00594936f, 0.01528805f, 0.11141706f, -0.01452260f, -0.06875356f, 0.01148978f, 0.06230307f, 0.01044822f, 0.05457960f, 0.07307818f, 0.10124188f, 0.02881934f, 0.00538419f, -0.01812747f, -0.05861565f, -0.18038817f, 0.02104542f, -0.05331101f, 0.06749056f, -0.03395144f, -0.02144804f, 0.09878381f, 0.00852441f},
    {0.03055748f, -0.10056425f, 0.01824741f, -0.09563950f, -0.14373183f, -0.06149427f, 0.02767626f, 0.07884416f, -0.01866344f, 0.10099387f, -0.02653077f, -0.00395381f, -0.07980845f, -0.08811594f, 0.00319597f, 0.01861764f, 0.02405032f, 0.03130341f, 0.00326694f, -0.01119412f, -0.00258625f, 0.01600964f, 0.01076760f, 0.00769473f, -0.03992479f, 0.02311095f, -0.04259572f, 0.09500602f, -0.01116368f, 0.04431707f, 0.03308947f, -0.09605852f},
    {-0.05786467f, -0.13650069f, -0.06737289f, -0.04660054f, 0.01886759f, -0.01499390f, -0.09854231f, -0.01057797f, -0.08814975f, -0.04313232f, 0.00863065f, -0.00983204f, -0.04225827f, -0.05115454f, -0.03219448f, 0.07379953f, 0.02623596f, -0.04838876f, 0.03416575f, 0.12987475f, -0.07411744f, -0.09516558f, 0.06989948f, -0.03171111f, 0.04061321f, 0.03518196f, -0.00069107f, -0.00523891f, 0.04738667f, -0.10099740f, -0.03912591f, -0.00909551f},
    {-0.04040967f, 0.02611024f, -0.05505474f, -0.10339821f, 0.02132282f, -0.08837904f, 0.02160024f, 0.03440414f, 0.00410799f, -0.07389638f, 0.06603579f, 0.00949051f, 0.01474640f, -0.01000608f, -0.02326791f, 0.03164284f, -0.08904618f, -0.05521588f, 0.00091894f, 0.05839918f, 0.05375051f, 0.03935788f, 0.07644573f, 0.00743676f, -0.01345095f, 0.07489968f, -0.06535452f, 0.00150204f, -0.01218512f, 0.01959772f, 0.00099768f, -0.04107473f},
    {0.01501996f, 0.03510618f, -0.00012887f, -0.10249484f, 0.01594493f, -0.02288943f, 0.00627827f, -0.05869089f, 0.10464433f, -0.01901653f, -0.10461368f, -0.00403414f, 0.02903161f, 0.13178721f, -0.05427181f, 0.07252682f, 0.00413567f, 0.02872881f, -0.03343942f, 0.10580169f, 0.06427046f, 0.06143575f, 0.09547824f, -0.03517035f, -0.06240501f, 0.00791501f, 0.07215871f, -0.01192925f, -0.04663771f, -0.01490188f, 0.04213727f, 0.09078974f},
    {-0.02043762f, 0.02170231f, -0.10468018f, -0.11380528f, -0.05667631f, 0.05881293f, -0.01137952f, -0.03655487f, -0.04229955f, -0.02323818f, -0.05112879f, -0.08690563f, -0.04660431f, 0.04914808f, 0.06841429f, -0.01920204f, 0.04241798f, -0.00985317f, 0.04926036f, -0.00393551f, -0.01908136f, -0.01450449f, 0.02463687f, 0.07052974f, -0.05496371f, 0.00706745f, -0.00610253f, -0.03828271f, 0.06963585f, 0.00357497f, -0.01614574f, 0.17188570f},
    {-0.12470482f, 0.01791643f, -0.05162506f, 0.02221874f, -0.00732724f, -0.08711389f, 0.07818121f, 0.00423069f, -0.00050469f, -0.12212096f, -0.15727284f, 0.00520773f, 0.03908263f, -0.00499531f, 0.02136665f, -0.05526847f, 0.00563540f, -0.01408160f, -0.00158139f, -0.01452028f, 0.08196960f, 0.02926610f, 0.08605854f, 0.01911356f, 0.05098384f, 0.03760164f, 0.00816580f, 0.02198280f, -0.01069852f, -0.03253232f, 0.04532693f, -0.04558795f},
    {0.04194580f, 0.10223842f, -0.06593265f, -0.01508394f, 0.01066785f, -0.02664876f, 0.03564621f, 0.01502339f, -0.01518776f, -0.03394535f, 0.14906055f, 0.00465191f, -0.00455451f, 0.08368556f, 0.03733011f, 0.01172923f, -0.07403567f, -0.01705613f, -0.07844768f, -0.02746037f, -0.02048324f, -0.05652571f, -0.04112262f, -0.01601633f, -0.04948381f, 0.00235906f, 0.00620396f, -0.01546552f, 0.06707286f, -0.00307843f, 0.00388277f, -0.03081071f},
    {0.00332572f, -0.04599596f, -0.02315128f, -0.01198286f, -0.00440653f, 0.08011159f, -0.03036425f, 0.04595879f, -0.09419142f, 0.02718208f, 0.03346955f, 0.03072625f, 0.03376466f, 0.03824355f, -0.01669498f, 0.04682878f, -0.03947031f, 0.00962843f, 0.07108566f, 0.06888219f, 0.02426535f, 0.01807800f, 0.02064693f, -0.02390658f, -0.06271184f, 0.08477874f, -0.04025088f, 0.01527327f, -0.00032979f, 0.11571911f, 0.08449999f, 0.12533029f},
    {0.04423412f, 0.05114490f, 0.05537286f, 0.02535687f, -0.01890437f, -0.07671634f, 0.03890954f, -0.09492691f, -0.03657766f, 0.01276718f, -0.08447972f, 0.02266681f, -0.06771219f, 0.07617316f, 0.04789384f, 0.05602033f, -0.02310296f, -0.12116807f, 0.06350305f, -0.04505888f, -0.01391156f, -0.11131873f, 0.03820794f, -0.05191344f, 0.10963432f, 0.03944804f, -0.05481965f, 0.04817323f, 0.11361167f, 0.01241583f, -0.03330818f, 0.04624625f},
    {-0.02822078f, -0.08091031f, -0.04976884f, -0.00761896f, -0.03982721f, 0.00576432f, 0.01534513f, 0.00032781f, 0.03694674f, -0.06715395f, 0.03753811f, -0.00862281f, -0.06964929f, 0.02735961f, 0.00172000f, 0.04986779f, 0.04411791f, -0.01838603f, 0.02220806f, -0.12089820f, -0.02240053f, -0.03433959f, 0.04336203f, 0.05201012f, 0.05804380f, -0.10124605f, -0.06500892f, 0.07001588f, 0.04870116f, -0.03882310f, 0.02578862f, 0.00432332f},
    {0.04093716f, -0.08452964f, 0.00501421f, 0.04291954f, -0.07588528f, -0.00912346f, 0.02485633f, 0.04767318f, -0.05513534f, 0.05308373f, -0.02978498f, 0.01835294f, 0.06577886f, 0.08769965f, -0.00209783f, 0.00442578f, -0.06886625f, -0.00366505f, 0.04324697f, 0.01270659f, -0.06690473f, -0.07799831f, 0.00959525f, 0.01197873f, 0.03389562f, -0.03907498f, 0.13927478f, -0.09877579f, 0.02638520f, -0.02373836f, 0.06844943f, -0.08330672f},
    {-0.08811777f, 0.02466574f, -0.04605588f, -0.05855187f, 0.06082206f, 0.06431937f, 0.01726629f, -0.08416329f, 0.04707452f, 0.09534794f, 0.04205065f, -0.03991377f, -0.02200259f, -0.01633924f, 0.05733325f, 0.01960697f, -0.01297476f, -0.01441576f, 0.06505049f, 0.04502083f, 0.02371587f, 0.01656072f, 0.00192565f, 0.04804534f, -0.04299069f, -0.01239364f, 0.09927332f, -0.00008693f, -0.10332829f, 0.00302203f, 0.06148378f, 0.01817233f},
    {-0.04096678f, 0.07010748f, -0.00736757f, -0.07569939f, 0.04122840f, 0.06371690f, 0.02928408f, 0.06457671f, 0.11670063f, 0.00966768f, 0.12707539f, -0.00825515f, -0.01935177f, -0.01748785f, 0.10180299f, -0.11443578f, -0.00819885f, 0.06522492f, -0.01978626f, 0.00320958f, -0.03999508f, -0.14231507f, -0.04587138f, 0.00343466f, 0.07554826f, -0.09299554f, -0.08406481f, -0.00301010f, -0.01428743f, -0.01745908f, -0.03306553f, -0.13306040f},
    {0.04046846f, -0.00780014f, 0.03831352f, -0.03833162f, -0.09181447f, 0.01831567f, -0.01769775f, 0.00150927f, 0.11265806f, -0.03969541f, -0.04169579f, -0.04538537f, 0.00390800f, 0.05457265f, 0.02255466f, -0.05603798f, -0.00967956f, 0.05822608f, -0.04759896f, -0.15643568f, 0.03621647f, -0.01233833f, 0.02079776f, 0.01919572f, -0.02829555f, -0.11856101f, 0.02963880f, 0.03980721f, 0.00465386f, -0.04412538f, 0.02459324f, 0.06136054f},
    {-0.09969760f, 0.02244279f, 0.06411473f, 0.09783576f, -0.06835318f, -0.02188762f, -0.06304996f, 0.00739686f, 0.08859364f, -0.04139774f, -0.02159114f, -0.04159748f, 0.01353803f, -0.06090673f, 0.02790490f, -0.06859255f, 0.05018863f, 0.01530091f, -0.02971063f, -0.05201416f, -0.07681252f, 0.01000115f, -0.03220260f, 0.04274178f, 0.00705429f, 0.04428769f, 0.06481331f, -0.13607138f, 0.04761364f, 0.07268583f, -0.06051176f, 0.05147018f},
    {-0.01810867f, 0.06287613f, 0.01851440f, 0.00939533f, -0.01709356f, 0.03907278f, -0.01571182f, 0.02047600f, 0.08097031f, 0.02418534f, -0.02462024f, -0.01409267f, 0.02050386f, -0.03982582f, -0.09655522f, 0.03747477f, 0.01952034f, 0.03933784f, -0.05102031f, -0.09580120f, 0.01013883f, -0.01671154f, 0.04520601f, 0.00755850f, 0.01001113f, 0.03535111f, -0.00028499f, 0.06538475f, 0.01178930f, -0.04549755f, 0.16274658f, 0.01321373f},
    {-0.06308783f, -0.01842563f, -0.01732084f, 0.12570046f, -0.01644910f, -0.01878418f, 0.03720211f, 0.02425633f, 0.07983398f, -0.12177936f, -0.07561137f, 0.04130331f, 0.06613951f, -0.07059819f, -0.00083649f, 0.09702115f, -0.00138456f, 0.04054487f, -0.00857479f, -0.14807395f, 0.06608856f, -0.04066916f, 0.08309222f, 0.04065724f, -0.07423082f, -0.01867602f, 0.14456178f, 0.06865898f, 0.04028661f, 0.03764212f, 0.02321089f, -0.00729704f},
    {-0.03676834f, -0.02702018f, 0.09726721f, -0.01061760f, 0.01672559f, 0.10230799f, 0.01420866f, -0.06361158f, -0.02724750f, -0.00164715f, 0.04145254f, 0.11722479f, -0.00138839f, -0.09830332f, -0.07254477f, -0.07161199f, 0.05632897f, -0.00822549f, -0.01991739f, -0.01611010f, 0.07692936f, -0.02553830f, -0.00914827f, -0.02339524f, -0.08671340f, -0.11473049f, -0.13172981f, 0.07757097f, -0.05867852f, -0.07022177f, 0.04048326f, -0.04795786f},
    {0.00946066f, 0.14990803f, 0.11592629f, 0.08131055f, 0.00292904f, 0.05489731f, -0.01883893f, -0.04438167f, 0.08291573f, -0.04214847f, 0.01163604f, 0.01381121f, 0.06379352f, -0.04580052f, -0.06638155f, -0.08730266f, 0.07827623f, 0.01048188f, 0.05366789f, -0.01870022f, 0.02147471f, -0.13421159f, 0.05857605f, -0.04296515f, -0.04900699f, -0.04777233f, -0.04767536f, -0.02731885f, -0.05049668f, -0.03922651f, 0.11133188f, -0.05595110f},
    {-0.08445275f, 0.02458594f, 0.05128402f, 0.09354100f, 0.01112372f, 0.11329307f, -0.04342098f, -0.01581089f, 0.01509195f, -0.02516056f, -0.05627840f, 0.01430123f, -0.00494270f, -0.09677232f, -0.13848051f, -0.05272581f, 0.00024993f, -0.05348556f, 0.02496259f, 0.01128330f, 0.09563313f, 0.02054485f, 0.13711120f, 0.04263887f, -0.09671280f, -0.00925301f, -0.13221664f, 0.01209488f, 0.02657924f, -0.06106716f, 0.17784049f, -0.05224281f},
    {-0.03541530f, 0.11065498f, 0.08536610f, 0.10504345f, 0.01375309f, 0.03944525f, -0.13361854f, 0.06095798f, 0.13733036f, -0.02409480f, -0.01084022f, -0.05217916f, 0.02880511f, -0.12792024f, -0.13267038f, 0.02971813f, -0.01398295f, -0.01711887f, 0.06114184f, 0.11125953f, 0.06188025f, -0.17523295f, -0.01423209f, 0.05517314f, -0.06925160f, 0.02926929f, -0.13287089f, 0.00424911f, -0.07197958f, -0.00569634f, 0.03411793f, -0.04930461f},
    {-0.04596512f, 0.12509453f, 0.15540247f, 0.15220555f, 0.07823198f, 0.00023916f, -0.14253412f, -0.02831712f, 0.07641398f, -0.11711785f, 0.06608322f, 0.07957089f, 0.01039284f, 0.00072771f, -0.07764884f, -0.09564962f, 0.04794325f, -0.01002259f, 0.03943829f, 0.01902889f, 0.03873718f, -0.13833365f, 0.10977058f, -0.04454664f, -0.12173806f, 0.07851756f, -0.12837511f, -0.00372449f, 0.04056718f, -0.09339797f, 0.03152648f, -0.03698874f},
    {-0.02367357f, 0.04328204f, 0.09993196f, 0.12652125f, -0.03260497f, 0.00131383f, -0.14546894f, -0.07790718f, 0.10681494f, 0.06534528f, -0.01295838f, 0.07547676f, 0.02023267f, -0.05699923f, -0.00454829f, 0.06162065f, -0.04372138f, -0.02599479f, 0.01811788f, 0.07276647f, -0.07168466f, -0.08409875f, 0.02497725f, -0.01121539f, -0.09838179f, -0.02651979f, -0.08399593f, 0.07133922f, -0.02047794f, -0.09674103f, 0.07960893f, 0.00106452f},
    {0.04609785f, 0.14348096f, 0.01666170f, 0.14877644f, -0.03750286f, 0.07319103f, -0.07465026f, -0.02049103f, 0.04542018f, -0.00659760f, -0.09749073f, 0.04088773f, -0.04547562f, 0.01747561f, -0.06777837f, -0.01958515f, -0.08649071f, -0.05671282f, 0.02213899f, 0.09145307f, 0.02089687f, -0.02470351f, -0.03647756f, 0.05691161f, -0.02421860f, 0.02827957f, -0.08412613f, 0.09975369f, -0.04589842f, 0.00952448f, -0.01358015f, -0.11750936f},
    {-0.02457522f, 0.00379789f, 0.06534612f, 0.13071166f, -0.08320770f, 0.00880109f, -0.15207946f, -0.08238002f, 0.00541963f, 0.04327203f, 0.05768672f, 0.07348095f, 0.03492970f, 0.00772021f, 0.05789250f, 0.10598720f, -0.14736063f, -0.00675734f, 0.19512958f, 0.14578887f, -0.01987077f, -0.05297107f, -0.03839429f, -0.03266386f, -0.10626905f, 0.06802448f, -0.02180122f, 0.14522650f, -0.03537604f, 0.00341192f, -0.02093031f, -0.01946721f},
    {-0.04840163f, 0.03926490f, 0.03936901f, 0.11792106f, -0.02281968f, -0.06690541f, -0.08643875f, 0.02086376f, 0.11563492f, 0.06870494f, -0.00845374f, 0.01022518f, 0.04545802f, -0.10925346f, 0.03972916f, 0.05687389f, -0.21445020f, 0.08230697f, -0.03721979f, 0.14615160f, -0.10088148f, -0.02618649f, -0.12852983f, -0.04667949f, -0.11251810f, 0.00431287f, -0.12558998f, 0.04416626f, -0.02575182f, -0.02040797f, 0.04272061f, 0.00112954f},
    {0.01623290f, 0.01790075f, -0.08260346f, 0.06363782f, 0.04647978f, -0.01918841f, -0.11385522f, -0.05092588f, 0.03192012f, 0.10968444f, -0.01888805f, -0.02908735f, -0.03995130f, -0.08936883f, -0.01447622f, 0.14577542f, -0.07202361f, 0.09245778f, 0.02714677f, -0.03968128f, 0.05503469f, 0.00549997f, -0.03493638f, 0.06968231f, 0.00190405f, 0.02307479f, 0.05065753f, -0.02709427f, -0.14033800f, 0.01769852f, 0.00566545f, 0.01501758f},
    {0.00581012f, 0.09614162f, -0.07656482f, 0.04127882f, -0.02701348f, 0.02456627f, -0.01254718f, 0.03797378f, 0.10673583f, 0.01707203f, -0.01600163f, -0.04829892f, -0.00271753f, -0.03694415f, -0.01911920f, 0.12926387f, -0.07333832f, 0.08790915f, 0.14074246f, -0.01793707f, -0.02885178f, -0.10710521f, 0.01624215f, -0.01146855f, -0.11928263f, 0.15767822f, 0.11320308f, 0.18915339f, -0.04350152f, 0.00519174f, 0.07086664f, -0.03538786f},
    {0.00240567f, -0.05327076f, -0.09839147f, -0.06455128f, 0.04872250f, -0.06891152f, -0.09750876f, 0.02405704f, -0.01196921f, -0.01559005f, -0.00826224f, -0.07324074f, -0.08666271f, -0.06607821f, 0.09577244f, 0.04123890f, 0.00185110f, 0.02896131f, -0.03581496f, 0.07651189f, -0.06055550f, 0.06040953f, -0.03739700f, 0.01916121f, -0.06953888f, 0.08275915f, 0.02316798f, 0.12395640f, -0.02736677f, 0.03838704f, 0.04144811f, -0.08630315f},
    {0.03526746f, -0.02936781f, -0.07917632f, 0.00762424f, -0.04411552f, -0.06628553f, -0.02180973f, 0.05471491f, 0.03610799f, 0.02038333f, -0.09923726f, -0.13655065f, 0.05769498f, -0.02123043f, 0.04376641f, 0.06755656f, 0.18411621f, 0.09035102f, 0.05807339f, 0.07578117f, 0.02705755f, 0.00482292f, 0.00805688f, 0.02178500f, -0.00081544f, 0.03338445f, -0.02883760f, -0.02965096f, 0.03551889f, 0.00769029f, 0.06589701f, 0.01991819f},
    {0.06673228f, -0.04598164f, -0.07413319f, -0.10083176f, 0.09712386f, 0.01205828f, 0.03289787f, 0.19435230f, -0.05772583f, -0.04352285f, -0.01579677f, 0.01194051f, -0.03966117f, -0.05427668f, 0.05500364f, 0.04596318f, -0.01528393f, -0.07761160f, 0.00393752f, -0.03701727f, 0.00993668f, 0.11982228f, -0.03097387f, -0.00467471f, 0.04244131f, 0.08093168f, -0.08454070f, 0.04579593f, -0.04164727f, -0.00430696f, -0.00610928f, 0.04115929f},
    {0.09415215f, -0.00349057f, -0.01731089f, -0.03845994f, -0.00993322f, -0.13042364f, 0.02647316f, 0.07415812f, -0.08203836f, -0.04705866f, 0.04500070f, -0.03310012f, -0.03174762f, -0.05244778f, -0.04758948f, 0.00638669f, 0.09092119f, 0.06461688f, 0.07105937f, 0.01702512f, 0.07395259f, 0.05792752f, 0.03262315f, 0.03754171f, -0.02051709f, -0.04090264f, -0.00900928f, 0.04819291f, -0.04531041f, 0.00644143f, -0.02952492f, -0.03618162f},
    {0.03947902f, -0.10679145f, -0.01137793f, -0.11942847f, 0.06142284f, 0.00985538f, -0.03982449f, 0.11703052f, 0.01769566f, 0.04060537f, -0.07797497f, -0.06426071f, -0.03297766f, 0.02438668f, -0.00662356f, 0.08495836f, 0.06827371f, -0.02618252f, 0.03277941f, 0.00343026f, 0.00223664f, 0.12950392f, 0.06965877f, 0.03129097f, -0.03642585f, 0.09338249f, 0.07378579f, 0.03866632f, 0.08853739f, -0.00352332f, -0.04735518f, -0.07765121f},
    {-0.03262775f, -0.02898402f, 0.03596978f, -0.08176751f, 0.01915945f, -0.00083857f, 0.06624440f, -0.00968716f, -0.02903099f, 0.05357185f, 0.02887538f, -0.05091615f, -0.02955661f, -0.07283121f, 0.13393795f, -0.05690287f, -0.00913610f, -0.05058839f, 0.06461541f, -0.03677090f, 0.03985693f, 0.09441491f, -0.02723644f, 0.05653651f, 0.02453141f, 0.05907440f, 0.01663377f, 0.04804442f, 0.02637601f, -0.05802874f, 0.01698400f, 0.11257833f},
    {0.00299051f, 0.02492968f, 0.11753989f, 0.01592271f, 0.03400898f, -0.01674642f, 0.04541311f, 0.00818620f, 0.00232466f, -0.01659568f, 0.07517524f, -0.04561603f, -0.02917735f, 0.01751016f, 0.03297239f, 0.01705812f, -0.09334681f, -0.00836416f, -0.02033790f, 0.00746431f, 0.01058427f, -0.06353858f, 0.03576488f, 0.02407595f, -0.07669412f, 0.01054194f, 0.02799473f, -0.04599798f, -0.05596072f, -0.08846417f, 0.02963165f, -0.05176969f},
    {-0.02504529f, -0.04376894f, -0.05500666f, -0.01456267f, -0.10451270f, 0.00665628f, -0.07108366f, 0.02579550f, -0.00183285f, -0.02549677f, -0.01764800f, 0.01345960f, -0.01338169f, 0.03448275f, 0.00415413f, -0.06285373f, -0.01796128f, -0.01366112f, -0.05796066f, 0.06053457f, -0.03552106f, -0.01611451f, -0.08277190f, 0.00014239f, 0.04991100f, -0.07042850f, 0.07598999f, 0.03197101f, -0.00480764f, -0.07282547f, 0.12195179f, 0.11390817f},
    {-0.03338282f, 0.03844989f, 0.00461637f, 0.06351423f, 0.02630630f, -0.02380619f, 0.03636199f, 0.04230680f, -0.03204749f, 0.00768852f, 0.10107603f, -0.16570648f, 0.10462271f, 0.06096671f, -0.00565985f, 0.11176924f, 0.05762900f, -0.01214995f, 0.02769256f, 0.04576692f, 0.03014491f, 0.00236182f, 0.07237946f, -0.03828145f, 0.02613439f, 0.05278566f, 0.09184025f, -0.01456366f, 0.06708955f, 0.10359468f, -0.01377939f, -0.02423480f},
    {0.03183949f, 0.08872965f, -0.06823728f, -0.01322552f, -0.05485539f, 0.01504313f, 0.05828600f, 0.00360830f, -0.04496321f, -0.02868328f, 0.03012525f, -0.04724827f, -0.11566408f, -0.06090118f, -0.03537241f, -0.01541120f, -0.05217503f, -0.08487498f, 0.00204893f, -0.00503691f, 0.00687350f, -0.06619687f, 0.02528794f, -0.04172807f, -0.03054386f, 0.00506322f, 0.02035566f, 0.08119736f, 0.00537955f, -0.06944715f, 0.04301503f, 0.00080252f},
    {-0.02068347f, -0.10428934f, -0.15857852f, -0.02633586f, 0.01771185f, -0.04079775f, 0.01419333f, -0.08992309f, 0.04893220f, -0.02366763f, -0.02223592f, -0.05612288f, 0.06313536f, -0.02609204f, 0.01128782f, -0.08524619f, 0.00881082f, -0.04999432f, 0.01428196f, 0.00693983f, -0.00552999f, -0.04506005f, -0.01191216f, 0.11894656f, -0.02376593f, -0.01563614f, 0.01690321f, -0.05031226f, 0.16450368f, -0.02092688f, 0.12769896f, 0.09672235f},
    {-0.04954649f, -0.00694278f, -0.03205067f, -0.04004951f, -0.00810720f, 0.06326022f, -0.09670571f, -0.01588465f, 0.04128046f, 0.02641241f, -0.08050932f, 0.01145564f, -0.00400403f, -0.03213605f, 0.05789789f, 0.00731473f, 0.01464672f, 0.01213730f, -0.02784377f, 0.07394428f, 0.02304764f, 0.01237127f, 0.02744580f, 0.09912975f, -0.04302471f, -0.01867706f, 0.08411012f, -0.01388160f, -0.09781979f, -0.06158251f, 0.10626713f, 0.01975167f},
    {-0.07178168f, 0.06908391f, 0.05572649f, 0.00107399f, -0.06866429f, 0.08742322f, -0.00861424f, 0.04285033f, -0.10156078f, 0.05959555f, 0.00751216f, 0.03475555f, 0.05873528f, 0.06025123f, 0.05874038f, 0.04156059f, 0.07065659f, -0.02194165f, -0.05139977f, 0.01438215f, 0.01104267f, -0.09930766f, -0.00068175f, 0.00165767f, 0.04831524f, -0.08729553f, -0.00759858f, -0.05594773f, 0.04114267f, 0.05608577f, 0.08204605f, -0.05931358f},
    {0.10819162f, -0.03438279f, 0.00427014f, 0.02183475f, 0.05985288f, 0.03750603f, 0.02118666f, 0.03545009f, 0.00360835f, -0.00393507f, -0.01427452f, 0.02706819f, -0.06577324f, 0.06032776f, 0.05374136f, 0.00212738f, 0.03316429f, 0.02040635f, -0.00144731f, -0.00190634f, -0.11270389f, 0.00002540f, 0.02804354f, 0.08254581f, 0.04038785f, -0.03651806f, -0.00050061f, -0.03679162f, -0.00677507f, -0.04542177f, 0.04752536f, 0.03422527f},
    {0.03576958f, 0.03467479f, -0.05539660f, 0.01175205f, -0.02826159f, 0.02980501f, -0.04434637f, -0.06233031f, 0.00874558f, -0.03350832f, 0.09686524f, -0.07431233f, -0.02213353f, 0.01031881f, 0.12492996f, -0.03164561f, -0.01297889f, -0.05078799f, -0.05520973f, -0.04691899f, -0.11017475f, 0.02408665f, 0.05630444f, -0.05484528f, 0.01088266f, -0.05351932f, -0.01427563f, -0.04705401f, 0.02092799f, -0.06551126f, -0.05571512f, 0.01801206f},
    {-0.00550267f, -0.04754552f, -0.00182217f, -0.00270973f, -0.05593399f, 0.05480881f, 0.13745959f, -0.00145841f, 0.00257798f, 0.04517653f, -0.02403375f, 0.00898001f, 0.05897598f, -0.07324281f, 0.00930741f, 0.05595298f, 0.00104116f, 0.03215728f, 0.11306190f, -0.04081008f, -0.05348409f, -0.05328633f, -0.04026735f, -0.00068219f, 0.00988963f, 0.05827390f, -0.06522799f, 0.09042033f, 0.05056512f, -0.02978231f, 0.15247341f, -0.06607948f},
    {-0.06896150f, 0.07256346f, 0.02177172f, 0.01192250f, -0.07811533f, 0.04002858f, 0.04633077f, -0.06158778f, 0.07173487f, 0.02145428f, -0.02373736f, -0.02195286f, 0.00773883f, 0.01158147f, 0.06046329f, -0.04062805f, 0.01903979f, 0.00883291f, 0.04573303f, -0.03546719f, 0.03246488f, 0.04379587f, 0.00529483f, -0.04189786f, -0.05158449f, -0.10335785f, -0.11801849f, 0.03174873f, 0.02007171f, -0.06936437f, 0.06512631f, -0.01728349f},
    {0.03601269f, -0.02218676f, 0.01972575f, 0.00108702f, -0.01601266f, 0.00327583f, -0.03937216f, 0.00476709f, -0.08508551f, -0.08081812f, 0.03092579f, -0.06021098f, 0.01583457f, -0.07086512f, 0.00589846f, 0.00111846f, 0.13463831f, -0.07705962f, 0.05313586f, -0.04089358f, 0.06599193f, -0.09220576f, -0.00680152f, 0.00078785f, -0.07418609f, -0.06503578f, -0.04104108f, 0.04692849f, 0.00913921f, -0.04281000f, 0.01358947f, -0.05290408f},
    {-0.09126044f, 0.05018006f, 0.00959203f, 0.03742446f, 0.03055989f, 0.03552423f, 0.09014730f, -0.02299935f, -0.07887136f, -0.02163952f, 0.02083712f, -0.01572030f, 0.07737755f, 0.09944430f, -0.08590693f, 0.02552364f, 0.12565791f, -0.08052581f, -0.06237551f, -0.03157783f, 0.00819728f, -0.02490127f, 0.04171886f, -0.14530986f, -0.11118456f, 0.00695175f, -0.17447544f, 0.01209880f, 0.08926118f, -0.07105952f, -0.00515950f, -0.01103805f},
    {-0.01336931f, 0.05750434f, 0.15637661f, -0.03220000f, 0.07932755f, 0.05084877f, -0.00600178f, -0.04922237f, -0.03148870f, -0.09565633f, 0.02538105f, -0.00748160f, 0.01373686f, -0.03415432f, -0.02880486f, 0.00812046f, 0.12700288f, -0.00592008f, 0.04320429f, 0.05578042f, -0.00632472f, -0.13153224f, -0.05158841f, -0.02586300f, -0.16598800f, 0.00005692f, -0.21665649f, 0.04842516f, 0.02345041f, -0.01688889f, 0.01390021f, -0.01520564f},
    {0.12650351f, 0.06359634f, -0.03702686f, 0.15693310f, 0.02828360f, 0.18375784f, -0.13980176f, -0.00816242f, -0.00057658f, 0.05916323f, 0.04588858f, 0.06059186f, 0.01462525f, -0.05223793f, -0.05405812f, -0.03535716f, 0.15723698f, -0.15391642f, 0.04777733f, 0.09854671f, -0.00564948f, 0.04455004f, 0.00298875f, 0.06075651f, -0.13531803f, 0.15817755f, -0.13028823f, -0.02964692f, 0.01760655f, -0.06936176f, 0.05458451f, 0.07115977f},
    {0.04958049f, 0.08154889f, 0.03876654f, -0.01783605f, 0.02599629f, 0.09208956f, -0.07559025f, 0.07535323f, -0.00376530f, 0.02334931f, -0.01912083f, 0.01475286f, 0.06210991f, 0.00213464f, -0.00596189f, -0.11159208f, -0.08117829f, -0.10379996f, -0.10025388f, 0.02396549f, 0.03138536f, -0.04615976f, -0.13906357f, -0.04085346f, -0.11753911f, 0.17020630f, -0.15135341f, 0.09503351f, -0.02321252f, -0.07568455f, -0.01492956f, 0.00520141f},
    {0.05300919f, 0.01202118f, 0.11390258f, 0.13389344f, -0.05192629f, 0.11761548f, -0.08377143f, -0.03630159f, 0.00327503f, 0.04005548f, 0.07458291f, 0.10487798f, -0.00021082f, 0.03097683f, -0.05205318f, -0.07003374f, -0.11203121f, -0.01521937f, -0.01218538f, 0.05161549f, 0.05838058f, 0.09020920f, -0.08487645f, 0.00075776f, -0.03712306f, 0.07014200f, -0.09622242f, -0.01256543f, 0.05826212f, 0.07375532f, -0.04740703f, -0.02467063f},
    {-0.00000515f, -0.02778079f, 0.16972862f, 0.08345747f, 0.02668447f, 0.11833968f, -0.17818968f, 0.01498237f, 0.12075571f, 0.01855790f, -0.02127341f, 0.06852756f, 0.02624334f, 0.03599059f, -0.05614132f, 0.06140531f, -0.34868344f, -0.07061317f, 0.02851823f, 0.04794513f, 0.04541181f, 0.04558764f, -0.19460839f, 0.06517019f, -0.09767266f, 0.05425821f, -0.07251698f, 0.05118585f, -0.02807591f, -0.04632224f, -0.03711411f, -0.09892904f},
    {0.10792505f, -0.05811257f, 0.08248852f, 0.06857422f, 0.02894712f, 0.01125067f, -0.15294557f, -0.11956937f, 0.16322269f, 0.07753051f, -0.05518719f, 0.11957074f, -0.07264311f, 0.03034454f, -0.01289768f, -0.03894840f, -0.42507470f, 0.05924093f, -0.05501021f, 0.02114897f, 0.04093402f, 0.02223362f, -0.02969791f, -0.02802340f, -0.00336966f, 0.04597610f, -0.07176092f, 0.02250552f, 0.08562463f, 0.00766027f, 0.03790780f, -0.05653330f},
    {0.01717825f, 0.09469853f, 0.04661645f, 0.07239434f, 0.00163606f, 0.11901400f, -0.09309766f, -0.05559763f, 0.14920711f, 0.03904267f, -0.10056663f, -0.03246003f, 0.02145979f, 0.02875997f, -0.04024390f, 0.03179163f, -0.18673411f, 0.11690596f, 0.09723165f, 0.04086770f, -0.08531848f, -0.01855213f, -0.15229001f, -0.05555439f, -0.11218079f, 0.00373660f, -0.07744470f, 0.07137152f, 0.05660348f, 0.01250794f, -0.05034325f, -0.03707230f},
    {-0.06715434f, 0.09395160f, 0.10661870f, 0.09905118f, 0.10668343f, 0.06758051f, -0.03128952f, -0.03649244f, 0.00993405f, 0.02555220f, -0.01362725f, -0.08220433f, 0.06846980f, -0.06862373f, 0.04763769f, 0.05567289f, -0.00782351f, 0.06309215f, -0.00288450f, 0.07925637f, 0.04453554f, 0.12259062f, -0.04320374f, 0.00468919f, -0.07631118f, 0.14027744f, 0.06036622f, 0.04921730f, -0.06295051f, 0.06982643f, -0.03174644f, 0.00078400f},
    {-0.02718893f, 0.05295946f, -0.08730856f, 0.09714245f, 0.09074152f, -0.02849850f, -0.07473224f, -0.06135406f, 0.10888252f, 0.12406906f, -0.14465406f, -0.08623886f, 0.11477675f, 0.00286195f, 0.10829992f, -0.01059369f, 0.12007916f, 0.13611392f, -0.02821883f, 0.02014959f, 0.08217489f, -0.03625592f, -0.05066955f, 0.00672128f, -0.12911304f, 0.06484348f, 0.07161932f, -0.00766599f, -0.21957227f, 0.06751898f, -0.03532161f, -0.10931549f},
    {-0.09846682f, 0.00844161f, -0.05467759f, 0.11355752f, -0.05880254f, -0.01726388f, -0.00726079f, 0.04497443f, 0.02313098f, 0.00094834f, -0.05453588f, -0.08116341f, 0.02851747f, -0.03178395f, -0.01204116f, 0.02951253f, 0.13463200f, 0.07706301f, -0.03251366f, 0.05466386f, 0.04517956f, 0.03511633f, -0.05063177f, -0.11401667f, -0.10839762f, 0.04999446f, 0.00008207f, 0.09999377f, -0.15321274f, 0.09823029f, 0.07471478f, -0.13790161f},
    {0.02434703f, 0.13473693f, -0.03631248f, -0.10490568f, -0.04641760f, 0.01535876f, -0.05048554f, -0.09868706f, 0.12930124f, -0.01832039f, -0.05727932f, -0.11425234f, 0.04220145f, 0.04674512f, -0.00018548f, 0.04088472f, 0.07622623f, 0.11204163f, -0.02039182f, -0.04748858f, 0.13841800f, 0.00403722f, -0.03768151f, -0.03834541f, -0.09806072f, 0.00661938f, 0.08276471f, 0.06011200f, -0.14620385f, 0.01760222f, -0.02703801f, -0.01394518f},
    {-0.00688440f, 0.05334340f, 0.03193030f, 0.02374039f, 0.00977603f, -0.07628979f, -0.03435661f, -0.02422816f, 0.10513875f, -0.11828461f, -0.04963092f, -0.05870503f, 0.01549097f, -0.07731516f, 0.00140081f, 0.05336574f, 0.12670807f, -0.02451472f, 0.07322371f, 0.03522351f, 0.00782000f, 0.06249273f, -0.17360461f, -0.00970839f, 0.03227438f, 0.02757450f, 0.04969176f, 0.06536189f, -0.14117676f, -0.01028977f, -0.03255648f, -0.12694941f},
    {-0.05983297f, 0.01206386f, -0.03414330f, -0.01778672f, 0.03809520f, -0.20175174f, -0.00203042f, 0.00241364f, 0.02430885f, 0.04267965f, -0.03948449f, -0.04854325f, -0.05242548f, -0.01147005f, -0.07455498f, 0.09492808f, 0.08779368f, 0.03450536f, 0.01828995f, -0.00415949f, -0.02103468f, 0.02307145f, -0.04184076f, 0.00310662f, -0.05173740f, 0.08237197f, 0.09498631f, 0.00735337f, 0.05891583f, 0.10325773f, -0.05458157f, 0.01417138f},
    {-0.00332014f, -0.11497292f, -0.07477770f, 0.02202385f, -0.00638659f, -0.02923732f, -0.02841750f, 0.06447644f, -0.04576315f, 0.03335093f, -0.11497392f, 0.00469578f, 0.01141445f, -0.00492971f, -0.02558157f, 0.10297952f, 0.05263134f, 0.01503129f, 0.09701074f, -0.06173625f, 0.00986892f, 0.03279567f, 0.05020796f, 0.08519503f, 0.03948213f, 0.05294072f, -0.00214809f, 0.07521170f, -0.03964264f, -0.05285299f, -0.02479748f, 0.02874461f},
    {-0.05528214f, 0.01164486f, -0.08237666f, -0.18487380f, 0.05008031f, 0.01329727f, -0.00394027f, -0.02754112f, -0.01755996f, -0.05667728f, -0.06957200f, -0.03163836f, 0.01936456f, 0.00709827f, -0.00087472f, 0.03450020f, -0.05688153f, 0.08057414f, -0.02993784f, -0.04082735f, -0.04799727f, 0.06994681f, -0.06343659f, -0.00151285f, 0.06773855f, 0.01737518f, 0.00939481f, 0.08486872f, -0.02144780f, 0.02551628f, 0.05133504f, 0.07211178f},
    {0.07893110f, 0.05135384f, -0.00423649f, 0.06059645f, 0.07761017f, -0.08073038f, 0.04459536f, 0.09730319f, -0.02455807f, -0.05159982f, 0.00508842f, -0.01037925f, 0.04089095f, 0.07597684f, -0.02239930f, 0.05767503f, -0.00649032f, 0.00387066f, -0.05280047f, -0.02680588f, 0.01160319f, -0.01808478f, 0.04051442f, 0.04064715f, 0.04335503f, 0.06084785f, -0.03516841f, 0.00547578f, -0.00354810f, -0.02656510f, 0.07140850f, -0.05590397f},
    {0.02602208f, 0.02138001f, -0.01962863f, -0.01979546f, -0.04162386f, -0.00767151f, -0.03476403f, 0.00280873f, 0.02209839f, -0.06599801f, -0.01791748f, -0.01627398f, 0.04353889f, 0.02008209f, 0.00000930f, 0.05625909f, -0.05134224f, -0.02208177f, -0.00162833f, -0.01503854f, 0.02108112f, -0.05128805f, -0.06907903f, 0.01668495f, 0.03575124f, 0.10198059f, 0.08338846f, 0.03585176f, 0.05150092f, 0.07117599f, -0.09787640f, -0.01747628f},
    {0.02598331f, 0.05592037f, -0.05994055f, -0.00625798f, -0.03361173f, 0.07222776f, -0.03085551f, -0.10251498f, -0.02838465f, -0.04061963f, -0.00656174f, -0.07759055f, -0.01504279f, 0.02094683f, 0.09696592f, -0.01077673f, -0.07628449f, 0.01511708f, 0.00093893f, -0.02076605f, -0.03778571f, -0.02508855f, -0.05983829f, 0.00496020f, -0.08320723f, 0.03971676f, -0.04706579f, -0.00450125f, -0.03043290f, -0.05978695f, 0.01562167f, 0.05231310f},
    {-0.04731429f, 0.01742778f, -0.00951906f, -0.05853039f, -0.03523402f, -0.00622240f, -0.16289828f, 0.04074177f, -0.07028635f, 0.08392180f, -0.10948150f, -0.06043226f, 0.07349094f, 0.06990027f, 0.02923560f, -0.06445465f, -0.13270882f, 0.06110042f, 0.04983704f, -0.02383176f, 0.06702558f, 0.04546490f, -0.03907905f, -0.01508678f, 0.08595398f, 0.03615366f, 0.06303204f, -0.01187157f, -0.05176137f, -0.00178076f, 0.00059085f, -0.06975597f},
    {0.05014876f, 0.06087751f, 0.00261814f, 0.06547684f, -0.10736779f, 0.00297437f, 0.06283765f, -0.01644263f, -0.11151555f, 0.00922623f, -0.00382810f, 0.04274943f, 0.04019808f, -0.04812266f, -0.03020590f, -0.00927931f, 0.04344819f, 0.03889781f, 0.09342317f, 0.09417673f, 0.03561441f, -0.02724002f, 0.03244453f, -0.03641411f, -0.04069890f, -0.00714728f, -0.14078402f, -0.02707221f, 0.00809000f, -0.04139399f, 0.00581330f, 0.05845265f},
    {-0.07870889f, -0.01879212f, 0.06311836f, 0.00653771f, 0.03737374f, 0.01622007f, -0.02543718f, -0.04983039f, 0.01579615f, -0.00999925f, -0.00730926f, 0.01613399f, 0.00282566f, -0.06349522f, 0.03053460f, -0.04298958f, -0.01882327f, -0.01529959f, -0.00573930f, -0.06215445f, 0.00813983f, 0.06330107f, 0.01548116f, 0.01006281f, -0.04573222f, 0.01591144f, -0.02987953f, -0.05895356f, 0.00911319f, 0.04693796f, -0.02376557f, 0.06349948f},
    {-0.05319788f, -0.04363041f, 0.03809988f, 0.13346883f, -0.09605990f, 0.02013910f, 0.04171581f, 0.07958366f, -0.06636357f, -0.02809241f, -0.00958068f, 0.02928559f, -0.00805358f, -0.00425569f, 0.00529937f, -0.02872058f, -0.06720636f, 0.03613848f, -0.12427922f, -0.02509738f, -0.10427000f, 0.08447235f, 0.00748161f, 0.01302956f, -0.01137375f, 0.02394427f, 0.01865136f, -0.01506829f, 0.06223636f, 0.06645526f, 0.08302773f, 0.01309991f},
    {0.04677260f, -0.06555712f, 0.03780840f, 0.00266138f, -0.01870417f, 0.01355107f, 0.02234440f, -0.00348766f, 0.00863876f, -0.10929020f, -0.02783369f, -0.01526227f, 0.02542640f, 0.02030234f, 0.00239960f, -0.03392962f, 0.01431625f, -0.02185735f, 0.04374874f, -0.02030320f, 0.06905626f, 0.00052527f, -0.00531001f, -0.01405187f, -0.00642433f, -0.02566206f, 0.02945608f, 0.07189072f, -0.04584741f, -0.03741633f, 0.07362802f, 0.03707256f},
    {-0.03942990f, -0.04039814f, 0.03626130f, 0.06045483f, -0.04221783f, -0.01289463f, 0.00484058f, 0.02910460f, -0.04610511f, 0.09648415f, -0.00101341f, 0.02305550f, 0.07320093f, -0.01259521f, 0.12683208f, -0.07870201f, -0.00653788f, 0.04437823f, 0.01650304f, 0.02346356f, -0.00712228f, -0.00787050f, -0.08264622f, -0.06681839f, 0.01595824f, -0.04807628f, -0.16387148f, 0.07103868f, 0.01238598f, -0.03361646f, 0.10191019f, 0.00351885f},
    {0.01360236f, 0.04671835f, 0.09222390f, -0.03207645f, 0.02766877f, 0.00765134f, 0.07648532f, -0.06956931f, 0.00464400f, -0.03467463f, -0.07597224f, 0.01955365f, -0.01378177f, 0.05230320f, 0.05617678f, -0.09893363f, 0.07954701f, -0.02770197f, 0.00832575f, -0.03680768f, -0.06684327f, -0.03762193f, -0.02187695f, 0.00326794f, -0.04973815f, 0.02453214f, -0.02630586f, 0.07492467f, 0.02309576f, -0.00368342f, 0.06008252f, 0.04267454f},
    {-0.00874678f, -0.02202161f, -0.07888169f, -0.01207671f, 0.03423446f, 0.10927907f, 0.15901564f, 0.00654342f, -0.08656657f, -0.01124003f, -0.04588894f, -0.03704021f, -0.02380308f, -0.06602954f, 0.05257376f, -0.01243638f, 0.05777767f, 0.02665086f, 0.05349624f, -0.01418728f, -0.09430422f, -0.01088232f, 0.02843837f, 0.00020842f, -0.03582648f, -0.05484628f, -0.11857543f, 0.04574807f, 0.06324904f, 0.05132298f, 0.04658939f, -0.04443764f},
    {0.00201438f, 0.03880592f, -0.00598045f, -0.01985524f, 0.06014280f, -0.08383902f, 0.07450252f, -0.07532483f, -0.18976268f, 0.00382441f, -0.09226071f, -0.07129984f, -0.01712189f, 0.08057850f, -0.01187898f, -0.06986271f, -0.00854272f, -0.04659308f, 0.03928747f, -0.07661009f, -0.06569368f, 0.03954008f, -0.10192216f, 0.03071847f, -0.06283082f, -0.06280803f, -0.09594482f, 0.15343246f, 0.12195401f, -0.11012543f, 0.02864912f, 0.06089139f},
    {-0.00838444f, 0.06983380f, 0.07031423f, 0.01549692f, 0.04761353f, 0.04264952f, 0.02313960f, 0.00622515f, -0.07710791f, -0.03528100f, -0.04338476f, -0.07639985f, -0.00372378f, -0.03706180f, 0.10640767f, -0.02997369f, 0.09588020f, -0.01109936f, 0.04747538f, -0.08913874f, -0.08502873f, -0.03196549f, -0.01946602f, 0.03184508f, -0.11414399f, -0.01771804f, -0.08119867f, 0.10698721f, 0.03281693f, -0.04190473f, 0.04830459f, -0.03461817f},
    {0.09118734f, 0.20317928f, 0.01768266f, -0.06249026f, 0.06387648f, 0.05697744f, 0.07560787f, 0.05973769f, -0.14385059f, 0.01552288f, 0.16823678f, -0.05244142f, 0.05496475f, -0.08565599f, 0.01125038f, -0.07180950f, 0.13205228f, 0.03467661f, -0.07082140f, -0.01758037f, -0.13800981f, -0.07825129f, -0.12767142f, 0.01828379f, -0.20545474f, 0.06652014f, -0.19689069f, -0.00799770f, 0.05587133f, -0.02292392f, -0.00969717f, 0.02923403f},
    {0.05729257f, -0.03882087f, 0.07433414f, -0.00361488f, 0.14288712f, 0.07426307f, -0.01135672f, -0.02637549f, 0.03013740f, 0.02430304f, 0.10950949f, 0.06569153f, 0.04251007f, 0.01372062f, -0.00837490f, -0.05520239f, 0.07383799f, -0.07090141f, -0.06512077f, 0.07658789f, -0.12267160f, -0.08911645f, -0.05587072f, 0.01085986f, -0.00638615f, 0.05978207f, -0.14368647f, 0.06813991f, 0.12254685f, -0.07718835f, 0.13672193f, 0.03809051f},
    {0.04522588f, 0.04777889f, 0.01438919f, -0.01441603f, 0.07395245f, 0.02231804f, 0.01439187f, 0.13548635f, -0.05975399f, 0.05064632f, 0.11288821f, -0.01778673f, 0.07868811f, 0.00116646f, -0.03517549f, -0.01051258f, 0.03074081f, -0.15691659f, -0.16635047f, 0.07186679f, -0.01062831f, 0.03554995f, -0.10288643f, -0.06524749f, -0.13272794f, 0.06342095f, -0.07052347f, 0.01265639f, 0.05253817f, -0.07431925f, 0.06807740f, 0.04570862f},
    {0.11012721f, -0.03229241f, 0.06849136f, 0.04881767f, 0.20059540f, 0.18237656f, -0.01645226f, -0.05600788f, -0.03329426f, 0.08561039f, 0.01974707f, 0.11282195f, 0.05570110f, -0.02733385f, 0.01077184f, -0.05432530f, -0.18296241f, -0.07286976f, -0.10021319f, 0.03368063f, -0.00969516f, 0.09002519f, -0.11934749f, -0.08220343f, -0.07181771f, -0.07693897f, -0.14624277f, 0.02664804f, -0.01745572f, -0.02669884f, -0.02054807f, -0.04432727f},
    {0.09440165f, -0.00198160f, 0.13050350f, 0.03393318f, 0.08514950f, 0.10581134f, 0.02089583f, 0.03882806f, 0.05642878f, 0.06890519f, 0.14655111f, 0.08344247f, -0.09682020f, 0.00554555f, -0.13717016f, -0.05124176f, -0.43219664f, 0.03365136f, -0.01936543f, 0.03618994f, -0.02286916f, -0.02939897f, -0.06989163f, -0.04139606f, -0.06615333f, 0.06654127f, -0.06888570f, 0.00727807f, 0.05333766f, -0.01929724f, 0.02502232f, -0.04325951f},
    {-0.01905117f, -0.02901866f, 0.06254112f, 0.02886782f, 0.03197773f, 0.15983607f, 0.04621276f, 0.01390046f, 0.06348635f, 0.03609081f, 0.08261713f, 0.08066988f, 0.02511182f, -0.05612492f, -0.07075033f, -0.09170776f, -0.33329545f, 0.01152163f, -0.02509300f, 0.10549765f, -0.01077443f, 0.12671912f, -0.00703463f, 0.03667889f, -0.05429673f, 0.08731800f, -0.00783707f, -0.05706172f, 0.06416271f, -0.02751113f, 0.06788345f, 0.00063446f},
    {0.00627414f, 0.00508127f, 0.09994660f, 0.15056697f, 0.08647901f, 0.04028600f, 0.02402249f, -0.02994778f, 0.07763438f, 0.08626493f, 0.02194748f, -0.00511961f, -0.00215895f, -0.00923596f, -0.11262558f, -0.11813105f, -0.17971769f, 0.08452517f, -0.08712845f, 0.10293801f, -0.01073265f, -0.08617069f, 0.01139150f, -0.04168326f, -0.14693056f, 0.12402679f, 0.07128762f, 0.00144147f, 0.09665104f, 0.12974751f, 0.03367384f, 0.05379609f},
    {-0.13478465f, 0.07869844f, 0.11350853f, -0.01726047f, 0.04211423f, 0.10874596f, -0.03596703f, -0.08178374f, 0.06244718f, 0.11866919f, 0.02500296f, -0.09383805f, -0.01628080f, -0.05241560f, 0.05766082f, -0.15682483f, 0.03595284f, 0.18731489f, -0.15076257f, 0.12065305f, 0.02902235f, -0.02971386f, 0.08719874f, 0.05670109f, -0.07532646f, 0.01491131f, 0.08479011f, 0.07714039f, 0.07294816f, 0.12775412f, -0.00024173f, -0.02503787f},
    {0.04009174f, -0.00318426f, 0.00324984f, 0.12557054f, 0.07148516f, 0.08870645f, 0.13148657f, -0.14252604f, 0.02444752f, 0.08009303f, 0.20028018f, -0.19185317f, -0.02071360f, -0.05697535f, 0.03797744f, -0.00995500f, 0.15794975f, 0.23166898f, -0.20215152f, 0.10212109f, -0.04350236f, -0.03770366f, 0.02002618f, -0.03064814f, -0.13356788f, 0.14645230f, -0.00286251f, -0.01413546f, -0.01024081f, 0.11896756f, 0.02135445f, -0.10603503f},
    {0.00516427f, 0.07991973f, 0.14889487f, 0.14637417f, 0.13080178f, -0.04055405f, -0.00490080f, 0.00827231f, -0.01900311f, 0.05983130f, -0.02740869f, -0.16936310f, -0.06021849f, -0.01789957f, -0.03878646f, -0.06238391f, 0.13911490f, 0.18028140f, -0.11134076f, 0.09961474f, -0.06418666f, 0.04602606f, -0.10264285f, -0.01802553f, -0.14298268f, -0.02022192f, 0.13404429f, 0.05282747f, -0.13997986f, 0.05623954f, 0.00949386f, 0.07690331f},
    {0.04205167f, 0.01835181f, -0.06205150f, 0.01392866f, 0.09246386f, 0.05298986f, -0.00801008f, -0.02094187f, -0.09390459f, 0.09377802f, 0.00096160f, -0.10221295f, -0.05988728f, -0.11047942f, 0.08330270f, -0.02963902f, 0.15028849f, 0.16209113f, -0.03156476f, 0.05350127f, -0.03569728f, 0.04014270f, -0.08954193f, -0.04760690f, -0.07234711f, 0.04168060f, 0.17769735f, 0.05731074f, -0.16695694f, -0.09579191f, -0.02052733f, 0.03892867f},
    {-0.04044841f, 0.04222431f, -0.05511594f, 0.08231855f, -0.00753868f, -0.02612740f, -0.04069815f, -0.09144677f, -0.04463065f, 0.04615311f, -0.01528190f, -0.03347171f, 0.05235423f, 0.05029023f, 0.03624587f, 0.11597313f, 0.05279364f, 0.14464273f, -0.11296188f, -0.02314274f, -0.10334576f, -0.04291683f, -0.08450910f, 0.05142743f, -0.14548114f, -0.09398751f, 0.10139355f, -0.04057807f, -0.07933455f, 0.08748717f, 0.00837084f, 0.05199438f},
    {-0.00231539f, 0.01846420f, -0.02367759f, -0.00857069f, 0.09787390f, -0.09034097f, -0.05701849f, 0.05044053f, -0.03634260f, -0.02061759f, -0.09051673f, -0.00105156f, -0.02415206f, 0.02935067f, -0.01088241f, 0.04693559f, 0.06926736f, 0.10305834f, -0.08043584f, -0.07490426f, -0.10157450f, 0.02223957f, -0.03592461f, 0.02652122f, -0.01213886f, -0.00292672f, 0.08400045f, -0.02889404f, 0.03417946f, 0.06057261f, -0.00710898f, 0.04356379f},
    {-0.08923273f, -0.06508240f, -0.05341320f, -0.12790968f, 0.04026066f, -0.06606412f, -0.09693305f, 0.10006474f, -0.10401828f, -0.07901845f, -0.12731533f, -0.15289061f, -0.02379453f, 0.02864270f, 0.05534850f, 0.15053677f, 0.09658921f, 0.09220963f, 0.06673159f, -0.02683490f, -0.03481026f, 0.13002587f, -0.02449091f, -0.11169602f, -0.03546978f, -0.07267102f, 0.08053090f, -0.08564278f, -0.14737617f, -0.03922578f, -0.11215831f, 0.09437320f},
    {0.02977443f, 0.02923108f, -0.11070974f, -0.04905377f, 0.03444772f, -0.00412957f, -0.08705811f, -0.01163970f, 0.00369319f, -0.11176428f, 0.09726604f, 0.02197659f, -0.06907130f, 0.05489224f, -0.03897004f, 0.09517258f, -0.00684574f, 0.07512859f, 0.10687778f, 0.02190922f, -0.02677523f, -0.00423502f, -0.00290733f, -0.02419891f, -0.08961242f, -0.08420323f, 0.10412071f, -0.01004946f, 0.01130645f, -0.06336810f, -0.02053771f, 0.01068983f},
    {-0.00202278f, -0.01834881f, 0.02523603f, -0.02795302f, 0.09370954f, 0.03807185f, 0.00618098f, 0.00631945f, 0.06660532f, -0.00120097f, -0.08625079f, -0.03235083f, 0.02060025f, -0.04828309f, -0.04555893f, 0.08929929f, -0.02704333f, -0.00417474f, 0.03204277f, 0.13599424f, 0.02828692f, -0.02328589f, -0.05920667f, -0.03877121f, -0.05642767f, -0.06548427f, 0.04763836f, 0.00332806f, -0.07871520f, -0.04263888f, 0.01919760f, 0.00764342f},
    {-0.00898434f, 0.01404978f, 0.13351285f, -0.09326853f, 0.03978899f, 0.03327149f, -0.01446621f, -0.02789255f, 0.01945137f, -0.04864807f, -0.05766682f, -0.07353466f, -0.00099666f, 0.00496519f, -0.07677291f, 0.00783920f, 0.01786712f, -0.00659597f, 0.00660424f, -0.01435930f, 0.08946736f, -0.00582241f, -0.05426972f, -0.14364058f, -0.14198189f, -0.10208575f, -0.09526609f, -0.04882791f, -0.01366043f, 0.06054450f, -0.07787389f, 0.01608169f},
    {-0.08271379f, -0.04395146f, 0.05991464f, -0.03307020f, -0.05093559f, -0.02912401f, -0.00092731f, -0.03347055f, -0.05359793f, -0.00039376f, 0.03870895f, -0.05632265f, -0.02318866f, 0.06877858f, -0.03854362f, -0.02759554f, -0.02582660f, -0.05511023f, 0.03762905f, 0.09315867f, 0.00591339f, -0.00578452f, -0.03031452f, 0.07471655f, 0.05332646f, 0.04650029f, -0.03373219f, -0.00163792f, -0.15277705f, -0.03218496f, -0.09073809f, 0.08144007f},
    {-0.02145883f, 0.03988576f, 0.08795845f, 0.04401006f, 0.03949034f, 0.00370652f, 0.07653118f, 0.06281771f, -0.04120166f, 0.03285397f, 0.00407159f, -0.02363332f, -0.02588018f, 0.03770643f, -0.01972208f, -0.04020034f, -0.03827947f, 0.00868420f, 0.04585158f, -0.07424778f, 0.04048168f, -0.02009382f, 0.04913875f, 0.02809474f, 0.04328774f, 0.02573590f, 0.01579227f, 0.00275889f, -0.03403106f, 0.02212643f, 0.02445367f, 0.01910544f},
    {-0.07113130f, -0.05074073f, -0.03810590f, -0.03119075f, 0.00845576f, 0.04229942f, 0.02919268f, 0.04185599f, -0.14398312f, 0.01174374f, 0.04079043f, 0.05656357f, -0.13101433f, 0.00971283f, -0.05749128f, -0.08292591f, -0.06046363f, 0.04588543f, -0.06077563f, -0.01128475f, -0.04020116f, 0.04808820f, 0.02014405f, -0.00935722f, 0.03377125f, 0.05228309f, 0.00445937f, 0.01693434f, -0.01633645f, 0.05820029f, 0.00966963f, 0.04156512f},
    {0.02875069f, 0.06824600f, -0.05507545f, -0.03921158f, 0.09900983f, -0.04198750f, -0.07011491f, 0.02115719f, -0.07645805f, 0.05240208f, 0.05529708f, 0.10740242f, -0.05806056f, -0.04932235f, -0.02920652f, 0.05397458f, 0.02671569f, -0.03225226f, 0.03755330f, 0.05158384f, -0.02421993f, 0.00184690f, -0.03513474f, 0.07048991f, -0.05852929f, -0.03525648f, -0.00001526f, 0.01823291f, 0.08085808f, 0.08133178f, 0.00505251f, 0.02419425f},
    {-0.00753614f, -0.07895307f, -0.02350221f, 0.04102954f, -0.02226501f, -0.02854319f, 0.03535596f, 0.00330486f, 0.01463359f, 0.03455201f, -0.03094981f, 0.04194703f, 0.05530778f, 0.00604245f, 0.15215422f, 0.02771954f, 0.02820722f, -0.03125389f, 0.03360995f, -0.03493913f, -0.09684054f, -0.06364261f, 0.04497316f, -0.02424643f, 0.10364247f, 0.00421343f, 0.07240396f, -0.03745636f, -0.04979987f, 0.10523011f, 0.00168287f, 0.00390024f},
    {-0.01892064f, 0.06708129f, 0.05880886f, 0.10897611f, -0.06573873f, -0.03544583f, 0.01840126f, 0.02262185f, 0.02062689f, 0.03714645f, -0.01927564f, 0.04700639f, -0.01604964f, -0.02415945f, 0.08553727f, 0.01097817f, -0.06796079f, 0.05529201f, -0.07952622f, -0.13538706f, -0.03814182f, -0.05600520f, 0.06126851f, 0.10150588f, 0.01309581f, -0.02621396f, 0.08641068f, 0.01341960f, -0.01375597f, -0.04797041f, 0.08491635f, 0.04208168f},
    {0.09113182f, 0.08908826f, -0.06110712f, 0.05342533f, 0.04773498f, -0.02322286f, -0.00733442f, 0.00003332f, 0.05261249f, -0.00903761f, -0.10565279f, 0.01188161f, 0.02088182f, -0.08280807f, 0.02604770f, 0.01443564f, 0.03861134f, 0.11453043f, 0.05262504f, -0.03305725f, -0.10826517f, -0.04809155f, -0.03450341f, -0.02597766f, -0.12181825f, 0.03273935f, -0.05119692f, 0.01494821f, 0.01514550f, 0.00987320f, 0.00534661f, 0.03874926f},
    {0.09289452f, 0.01448560f, -0.00121558f, 0.02872175f, 0.04154938f, -0.00112239f, 0.03205239f, 0.00976731f, -0.00200955f, -0.01226477f, -0.00349441f, 0.01890983f, 0.00068838f, 0.05875335f, 0.00972964f, -0.01041222f, 0.06368234f, 0.04124548f, -0.07267584f, -0.14956553f, -0.03585792f, -0.16349239f, -0.01324976f, -0.02144394f, -0.02772355f, -0.01782283f, -0.09463140f, 0.06606534f, -0.00736988f, -0.06920348f, 0.06053323f, 0.05970868f},
    {0.09742079f, 0.07308983f, -0.06738683f, -0.10342523f, 0.13326110f, -0.06035021f, 0.07292670f, 0.07919023f, -0.11780393f, 0.02550010f, -0.13869343f, 0.04866891f, 0.08075101f, 0.00842852f, 0.09039190f, 0.02396873f, -0.00732780f, 0.02896185f, -0.03661932f, -0.01418797f, -0.13122682f, -0.01895808f, -0.12262294f, -0.02546282f, -0.10793549f, -0.10450884f, -0.13821211f, -0.00757738f, 0.04242694f, -0.10993096f, -0.00765097f, 0.15929909f},
    {-0.03622912f, 0.04246141f, -0.08209058f, -0.03910665f, 0.08812741f, 0.01451382f, 0.12820190f, 0.09213296f, -0.10033608f, -0.03069076f, -0.04775784f, 0.01408644f, -0.01678292f, -0.01855654f, -0.04203790f, -0.07447554f, -0.02543250f, 0.00979739f, -0.12892263f, 0.04468556f, -0.04234896f, -0.07429282f, -0.13489650f, 0.02505142f, -0.10249075f, 0.06138419f, -0.21008943f, 0.08856019f, -0.00330975f, -0.07735900f, 0.03147889f, 0.00717624f},
    {0.01637813f, 0.00043847f, -0.03066039f, -0.09154610f, 0.10360443f, 0.03898994f, 0.08662755f, 0.00686023f, -0.12911939f, 0.08405200f, 0.03937699f, 0.05640531f, 0.02880522f, 0.01688622f, 0.10943202f, -0.04680872f, 0.04892990f, 0.01714293f, -0.06854986f, 0.03001912f, -0.08585863f, -0.03168647f, -0.02927310f, -0.04003357f, -0.17250560f, 0.01996564f, -0.08618553f, 0.08404242f, 0.04567308f, -0.03240389f, 0.04336331f, 0.09707226f},
    {-0.01687321f, -0.02258422f, 0.06695256f, -0.08651220f, 0.19483776f, -0.02208666f, 0.03214737f, -0.03378969f, -0.15126508f, -0.01062893f, 0.04499084f, -0.03735902f, 0.08912087f, -0.01234189f, -0.01027862f, -0.13186090f, 0.06277413f, -0.08136032f, -0.11739345f, 0.08662015f, -0.00668788f, -0.04492621f, -0.11416851f, 0.07958617f, -0.08052688f, 0.13110033f, -0.13953649f, -0.00905668f, 0.10055737f, -0.05202379f, -0.04996200f, 0.04598044f},
    {-0.00780857f, -0.07491412f, 0.03087872f, -0.06173798f, 0.18950560f, -0.06910010f, 0.11651311f, 0.04201864f, -0.05753679f, -0.00235920f, 0.18081792f, -0.02318422f, 0.13884247f, -0.10806241f, -0.06026807f, 0.00604468f, 0.12302936f, -0.10871725f, -0.16567476f, 0.00572888f, -0.01679822f, 0.00825170f, -0.10184719f, -0.05706634f, -0.12115700f, 0.13479073f, -0.16031971f, 0.00079762f, 0.02686392f, -0.01049212f, -0.04005386f, -0.05569166f},
    {0.11358195f, 0.07681095f, 0.09463491f, -0.07705638f, 0.16822794f, -0.13966772f, 0.07931232f, -0.02932319f, 0.00718675f, -0.01302358f, 0.16427607f, 0.19266730f, 0.10069808f, -0.09630883f, 0.04962442f, -0.05537409f, -0.00937010f, -0.06088686f, -0.18765419f, 0.11241211f, -0.09158162f, -0.04112608f, -0.05154071f, -0.01669804f, -0.07129458f, 0.02026455f, -0.07330414f, -0.02970845f, -0.03267658f, -0.03913640f, 0.07255412f, -0.07727752f},
    {0.10069180f, -0.04270821f, 0.09602403f, -0.08762710f, 0.15164155f, 0.02291169f, 0.11310191f, 0.04104651f, 0.08122377f, -0.00766124f, 0.16474424f, 0.06098812f, -0.01361820f, 0.00854811f, 0.01986816f, -0.08438492f, -0.31551617f, -0.02332163f, -0.11045121f, -0.07101483f, -0.03086040f, -0.04084001f, -0.06351810f, -0.01794543f, -0.14719214f, -0.10224038f, 0.01137200f, -0.11184184f, -0.02611005f, -0.01503936f, 0.09707018f, -0.09834835f},
    {-0.03302363f, -0.06214784f, 0.10350151f, 0.05121184f, 0.23034976f, 0.24671785f, 0.08030308f, 0.01195128f, 0.00808451f, -0.01916042f, 0.17636752f, 0.09945350f, -0.01498139f, -0.05312881f, -0.05193182f, -0.01882493f, -0.37605086f, 0.03088322f, -0.15992586f, 0.03204186f, -0.03844472f, 0.01878510f, -0.08096964f, 0.00653713f, -0.01521020f, -0.11209780f, 0.08956687f, -0.05096926f, 0.01729569f, 0.08835832f, 0.07049732f, -0.05655317f},
    {-0.01096303f, -0.04561060f, 0.06224704f, 0.07456049f, 0.04333054f, 0.09029931f, 0.06571743f, -0.02186637f, 0.14183365f, 0.01000440f, 0.14865895f, 0.06727439f, 0.04632653f, 0.09051143f, -0.12316921f, -0.16952970f, -0.35392753f, 0.09855190f, -0.09319781f, 0.06792737f, -0.10277743f, 0.02708147f, -0.04535233f, -0.05110866f, -0.07007799f, -0.07294637f, 0.08345861f, -0.07270568f, 0.05250198f, 0.01241742f, 0.12187303f, -0.01854934f},
    {0.05673932f, -0.06242618f, 0.16802062f, 0.05045523f, 0.07159854f, 0.10331525f, 0.22166894f, -0.00044534f, 0.03460010f, 0.00853568f, 0.16995143f, -0.09109812f, 0.03078583f, 0.05959526f, -0.09130192f, -0.10897050f, -0.00477324f, 0.21664198f, -0.16359285f, 0.14847351f, -0.04809973f, -0.02706929f, 0.00409580f, -0.02682793f, -0.08153909f, -0.05332683f, 0.15378137f, -0.01940722f, 0.12308667f, 0.05116898f, 0.00687389f, 0.03300876f},
    {0.00663840f, -0.03671711f, 0.16118817f, 0.09968646f, 0.10794031f, 0.09050898f, 0.13186772f, 0.01559696f, -0.05856437f, 0.13774626f, 0.18869564f, -0.10738934f, -0.00330361f, 0.05056194f, 0.03241703f, -0.19268616f, 0.16460910f, 0.32484211f, -0.21947024f, 0.11786518f, -0.00015000f, 0.06003188f, 0.05827520f, 0.02981489f, -0.05871689f, -0.01469383f, 0.13526743f, -0.09004157f, 0.11352883f, 0.12619492f, 0.08557734f, 0.02663218f},
    {0.00503517f, 0.02587340f, 0.11630742f, 0.06992817f, 0.09652943f, 0.05012259f, 0.03174663f, -0.08125765f, -0.05099102f, 0.18103393f, 0.11514006f, -0.14936854f, 0.01470678f, 0.06036564f, 0.06084049f, 0.02352394f, 0.19706467f, 0.27484332f, -0.10786133f, 0.15765105f, -0.08529064f, -0.00170754f, 0.02012563f, 0.02804412f, -0.05995925f, -0.01042758f, 0.12928654f, -0.05522649f, 0.03319020f, -0.01098660f, 0.01301915f, 0.06231621f},
    {-0.11444906f, 0.03572253f, 0.04834960f, 0.03301665f, 0.14302271f, -0.00536821f, 0.10311630f, 0.04682388f, 0.00098890f, 0.09904857f, 0.06944360f, -0.14874379f, -0.04994522f, -0.01191558f, 0.03338620f, 0.03334273f, 0.10141906f, 0.19317149f, -0.20641330f, 0.04783843f, -0.08370441f, -0.03319845f, -0.00386996f, 0.01620296f, -0.07703700f, -0.11255407f, 0.20159261f, -0.03269565f, -0.01057462f, 0.23089443f, 0.00528671f, 0.11128843f},
    {0.04069533f, 0.03775096f, 0.03114123f, 0.07422486f, 0.02178962f, -0.08010825f, 0.14593021f, -0.00513089f, -0.02098536f, 0.13410698f, 0.16147717f, -0.10891994f, -0.02397567f, 0.04802230f, 0.10747130f, -0.06264600f, 0.15105550f, 0.06981025f, -0.11230899f, -0.05030577f, -0.08315561f, -0.00315059f, 0.01267146f, 0.00142942f, 0.03294020f, -0.03363315f, 0.05796554f, -0.01051280f, -0.09075806f, 0.06208602f, -0.03249444f, 0.06549165f},
    {-0.05286621f, -0.01169578f, 0.03093570f, 0.02657083f, 0.16258884f, -0.12549562f, 0.04698988f, -0.02561205f, -0.04346828f, 0.00175818f, 0.01941248f, -0.16862386f, -0.02322402f, 0.02966864f, 0.04151939f, -0.05198948f, 0.03138710f, 0.03379332f, -0.10956875f, 0.00430311f, 0.11255033f, -0.06667276f, -0.03262917f, -0.01695057f, 0.05372779f, -0.13460568f, 0.18000953f, 0.00385893f, -0.07424455f, 0.04270493f, -0.06264220f, 0.07647890f},
    {-0.05730425f, 0.00194309f, -0.02987855f, 0.09285273f, 0.02288017f, 0.00402225f, 0.06577565f, 0.03084476f, 0.09266654f, 0.07872914f, -0.07752582f, -0.06139407f, 0.02366774f, 0.05898259f, -0.12727762f, 0.06063344f, 0.01964246f, 0.03436819f, -0.12165531f, -0.11112902f, -0.01913210f, 0.07708268f, -0.13023916f, 0.03266511f, -0.03282492f, -0.08389743f, 0.00223331f, 0.12490164f, -0.06726195f, 0.00176110f, -0.00280429f, 0.03913825f},
    {0.02226956f, -0.02414113f, -0.03735854f, -0.02234656f, 0.07901367f, 0.00519334f, -0.06732445f, 0.07831619f, -0.14676394f, 0.12891997f, -0.00890212f, -0.10018536f, -0.04310444f, 0.09409245f, -0.05669084f, 0.03483139f, -0.08436666f, -0.03237317f, -0.00712576f, 0.05889803f, -0.09640702f, 0.01503592f, -0.07968486f, -0.08416393f, 0.13497973f, -0.07091383f, 0.09340047f, -0.06698853f, -0.06554607f, 0.03122026f, 0.04189548f, 0.15032785f},
    {-0.00966143f, -0.01749595f, 0.02061169f, -0.09974994f, 0.08166573f, -0.00438279f, -0.03774922f, 0.10114441f, -0.04607412f, -0.14749220f, -0.06052583f, -0.13774727f, -0.13787371f, 0.12955462f, -0.08488435f, 0.15392687f, 0.08962559f, 0.01608694f, 0.07302805f, 0.11873326f, -0.06107677f, 0.06935613f, -0.06279949f, -0.07941156f, 0.01325981f, -0.06780008f, 0.07821881f, 0.09724591f, -0.06335087f, -0.10354890f, 0.00118472f, 0.12249129f},
    {-0.02167709f, 0.00607703f, 0.03937161f, -0.00778647f, 0.07335365f, 0.00152894f, 0.06016300f, 0.01267630f, 0.00994411f, 0.00831380f, -0.06372023f, 0.04741720f, 0.05392806f, 0.02602455f, 0.04310869f, 0.01893365f, 0.00277009f, -0.01374882f, 0.05016753f, -0.01216229f, 0.03631092f, 0.10569179f, -0.02874033f, -0.10535451f, -0.01749709f, 0.07502199f, 0.06897821f, 0.00470484f, -0.06995957f, -0.05844127f, -0.07552996f, 0.06072404f},
    {-0.05468477f, 0.07875623f, 0.10327373f, 0.00143749f, -0.04877415f, -0.05376041f, 0.02320017f, -0.02074609f, -0.00822999f, -0.04447479f, -0.02877166f, -0.02364121f, 0.05268659f, 0.06021192f, -0.04072902f, 0.01347646f, 0.02678570f, 0.10159159f, 0.03716180f, -0.04785651f, -0.02260110f, -0.01657933f, 0.02120001f, 0.09996035f, 0.03694192f, -0.00667556f, 0.04564334f, -0.01806531f, -0.04349511f, -0.01352694f, -0.02915048f, 0.04079655f},
    {0.03758051f, -0.06577999f, 0.01554504f, -0.02313362f, 0.02320872f, 0.19921436f, -0.02255311f, 0.02277513f, -0.10229251f, -0.00057195f, -0.06061015f, -0.02180400f, 0.05269849f, 0.06961001f, 0.00088806f, 0.00301003f, -0.05297357f, 0.02488454f, 0.09091750f, 0.01241776f, 0.03694013f, -0.07529090f, -0.01228533f, -0.03437616f, -0.01128947f, 0.02724206f, 0.03362591f, -0.00337796f, -0.05589370f, 0.04229071f, -0.01243098f, 0.00067880f},
    {-0.07485546f, -0.08134375f, 0.06384990f, 0.04916412f, 0.10692533f, 0.06735403f, -0.09651834f, 0.08910520f, 0.00277812f, 0.00748535f, -0.01076287f, 0.00275046f, -0.03486755f, 0.03741645f, -0.06375393f, 0.01141601f, 0.02224965f, 0.01979958f, 0.02077771f, 0.08656007f, 0.10391340f, -0.04423518f, 0.00294639f, 0.00364704f, 0.05258488f, -0.01796741f, 0.00572772f, 0.02694361f, -0.02108268f, 0.02933859f, 0.02660441f, 0.07088679f},
    {0.02400622f, -0.04441903f, 0.11495141f, -0.10815044f, -0.03371413f, 0.04480150f, 0.03573931f, 0.03979048f, -0.06572856f, 0.03760688f, 0.01031614f, -0.08178018f, 0.02842708f, -0.08924403f, -0.03423775f, 0.01758560f, 0.06633639f, -0.02585438f, -0.01049026f, 0.05068053f, -0.00633389f, 0.00646980f, -0.02168006f, -0.02337370f, 0.02268800f, 0.04603713f, 0.02363114f, 0.02935591f, -0.09407961f, 0.04115416f, 0.05952274f, -0.01972888f},
    {-0.08389598f, 0.03120896f, -0.04991021f, 0.02134663f, 0.01399082f, 0.04786686f, -0.00306637f, -0.01217247f, 0.05169757f, 0.10202855f, 0.02697754f, 0.00328692f, 0.06196585f, -0.09922179f, -0.05750744f, 0.03985710f, 0.06503954f, 0.00427972f, 0.03345095f, -0.09402677f, -0.03906113f, 0.13519894f, -0.03699682f, -0.01287819f, -0.00194428f, -0.00697796f, 0.00627160f, -0.01180024f, 0.07206112f, -0.02478178f, 0.02674292f, -0.06116576f},
