#ifndef MNIST_WEIGHTS_INT32_RELU_H
#define MNIST_WEIGHTS_INT32_RELU_H

#include <stdint.h>

// INT32 Q16.16 quantized weights for ReLU network
// Q16.16 format: value = int32 / 65536.0
// ReLU activation: max(0, x) - simple and efficient

#define INPUT_SIZE 784
#define HIDDEN_SIZE 32
#define OUTPUT_SIZE 10

const int32_t W1_q16[784][32] = {
    {65, 91, 1081, -4184, 5910, 4604, 980, -5694, -3713, -671, 415, -787, 1435, -386, 637, 3433, 1252, -992, 4066, -7883, -322, -3207, -1067, 6259, -5346, 632, 2073, -140, -5914, -1226, -1833, 2079},
    {3376, 748, 516, 3531, 1625, 5558, 4888, -3735, -4861, 3138, 1334, -651, 1275, -5817, 6913, -3217, -441, 3935, -147, 2562, 1407, -334, 1901, 2333, -940, -3320, -5404, 1846, -3463, 2418, -3073, -495},
    {1416, 2745, -4065, 1594, 1839, -2176, -3498, -4710, 327, 3852, 6582, 248, -3251, 2103, 739, -4211, -1258, 2475, 151, -4854, 3182, -3697, 423, -1020, 6859, 3360, 7789, -978, 1643, -6405, -1666, -1032},
    {1578, 3927, 2100, 1383, 2590, 1995, 2063, 6498, -3395, -332, 4662, -5018, -5337, 54, 647, -3772, -2871, -2994, 2614, 3647, -285, 4015, -3604, -772, 4612, -5783, -3721, -6104, 403, -1280, -2114, 3225},
    {-4821, 4045, -4037, -2884, 3182, -3738, -3077, 5273, -3530, -5825, -677, 3338, -3917, 2906, 6629, -2732, -2018, -723, -1569, -1078, 285, -5698, -3041, 794, 394, 2414, 5358, -1610, -1796, -1505, -3938, -412},
    {-486, 1691, -612, 232, 1919, -2337, 561, 189, -2896, 1478, -3797, 3340, 24, 4732, 867, -4298, -2623, 1610, -6246, -1622, -2584, 1984, 35, 5468, -7364, 3666, 1944, -87, 6399, 586, -6248, -2507},
    {416, -4501, -2001, -240, -3204, 7218, 3627, 1370, -605, -1097, 2223, -4571, -1176, -877, 3, 71, -4545, -1606, 1179, 2882, -3469, -5316, 2367, -524, 468, -394, -274, 2269, -535, -1762, 4678, 487},
    {7748, 3640, 594, 552, -4322, -4572, -4229, 2995, -3563, -2145, -458, -1078, -3197, -4189, 1300, -4130, 2660, 2036, 1415, -686, 775, -3938, -650, 1941, -726, -5873, 3936, -5658, 1723, -662, -7449, 1475},
    {-4837, -4086, 2586, 2760, 1492, -1686, 975, -1173, 2111, 2744, 3880, -5087, 2356, -706, -7106, -3083, 856, 4050, -3024, 4738, -2825, 2648, 4383, -3855, 2056, 1386, 3816, -1581, -2479, 2412, -4049, 5116},
    {-2998, 620, -592, 79, -1469, -943, -1267, 356, 543, -392, 8880, -7011, 1478, -499, 1772, -1329, -109, 488, -2985, -183, -4969, 659, 4958, 629, -435, 2568, 194, -1956, -3902, -4285, 1432, -6778},
    {-3520, 3377, 92, -1709, 346, 4013, 2096, -2254, -736, -300, 2683, 2663, -2302, 3326, -941, -1663, 2022, 866, -1276, 1416, -1404, -4692, 1860, 801, 2561, 6193, -1185, 4625, 5969, -311, -597, -3584},
    {-3037, 1493, 2876, 4607, -2038, -2835, -573, -3649, 932, 3604, 10374, 681, -1699, -1406, 4410, -5155, 3766, -413, -5473, 1513, -3969, 603, 1607, 3307, -1480, 1940, 5584, -371, 1179, 918, -2714, 2503},
    {1770, -5154, 3114, -482, 197, -10494, -1678, 7211, 2472, -2734, 4021, -1828, -3422, -2457, 426, 1919, -1330, -1352, -6349, 1584, -90, 3844, -2084, 368, -321, -1219, -102, 721, -4624, 49, -857, -1637},
    {-887, -1180, -2005, 3093, -7378, 2673, -6062, 2123, 470, 2312, -652, -6284, 3845, 6594, 485, -2551, 3454, -412, 7026, -3370, 1694, -1903, 1218, 5388, -4597, -5347, -1274, 5519, -1207, 939, -467, -4189},
    {-2826, 2803, 4597, -1762, 103, -6430, -2571, 858, 518, -4894, -1097, 351, -2132, 111, -1419, -3076, -367, -410, 1777, 5819, 1777, -4403, 3492, 3951, 1149, -5875, 3332, 4209, 931, -2261, -2290, -1186},
    {170, 19, 6359, 1806, -1164, 3413, 3134, 3731, -1927, -1327, 1959, 5289, 149, -3154, 7402, 7699, 505, 546, 5258, -5756, -4534, 4658, -1790, -2235, 2930, 2410, -635, 169, -1929, 2318, 1647, -967},
    {7745, 3396, -2293, -2754, -3897, 785, -639, -3276, 474, -5100, -709, -7117, 3129, 6482, -943, 699, -1096, 3691, -1577, 3727, 2353, -3819, -4234, 1238, 3745, -3009, 2121, 7658, -2828, 2595, 7069, 5607},
    {3799, 1284, -3990, -1803, 2, 346, -2142, -10368, -5299, 854, -1836, -1094, -3159, -4207, 2481, 2076, -1643, -5859, 4960, -1843, -3442, -3382, -2278, -3253, 1588, -1723, -254, -4354, 30, 1683, -2934, 1829},
    {2596, 406, -3313, -3223, -9845, 4394, 3864, -1043, 4227, 3857, 4290, -1024, -2260, -849, -5112, 3664, -3870, 545, 2034, -3475, 3130, -4188, -1926, 1233, -782, -1610, 2380, -566, -1429, -1016, -4478, -2596},
    {480, -4910, -1244, -215, -4964, -1780, -3749, 3232, 2424, -1534, -2183, -3504, 602, -2256, -1584, 1173, -1813, -4122, -2340, 3628, -2015, 4918, -3922, -7022, 542, -3831, 5660, 1190, -4094, -2683, -3971, 1095},
    {1426, -162, 2545, 6508, 1649, 696, -4463, 5086, -2398, -3510, 754, -8162, 5630, -4350, 496, -1063, 3553, 463, -3948, -1254, 1162, 1236, 6673, -5, -1525, -1400, -6711, -721, 2143, -3880, 1180, 69},
    {-142, 5490, 3595, 1330, -1305, 4933, -1484, 78, 2495, 2238, 1386, 1694, -2202, -1877, 1481, -2680, 1307, -3205, 235, -3827, -3528, 6792, 2662, 5318, -1283, -1250, -54, 2882, -6849, -1378, -5900, 5360},
    {-6161, 511, -396, -269, -909, -173, 4182, -79, 167, -1090, -4914, 2126, 3517, -1689, 2221, 4478, 1374, -2523, 1551, 6326, 96, -1252, -4083, -1491, -4378, 5011, 7648, -1491, 2118, -2210, -1971, -655},
    {7419, -3009, -2698, 876, 1812, 549, -3181, 1810, -4171, 5, -2086, -584, -4878, 736, 3280, 8449, -5567, 82, 94, -664, -882, 4261, -4906, 4091, -647, -1071, -240, 2616, -1166, 1626, -913, -4751},
    {3066, -1048, 2492, 12626, -1320, 1616, -5391, -3489, -2045, -3635, -5173, 4948, -2218, 1000, -4236, 2968, -2284, 2274, -6567, -775, 3874, -3479, -1547, -5399, -322, 1122, -3472, -403, 2509, -1122, 665, 8725},
    {-5538, 735, -3798, 940, 193, -1225, 1094, 2448, 3705, 6040, -1606, 5902, 1646, -3258, 4254, -1728, 2482, 932, 6129, -3032, 2611, 7069, 2572, -7091, 854, -1148, 829, 2970, 4088, 697, 1202, 2773},
    {-988, 2854, -5317, -4219, 2352, -4110, 2936, -2964, -1434, -4277, 920, -891, -3920, -2366, 2884, 4351, -1861, 616, -1359, -3750, 1034, -425, 3859, -1800, -520, -4286, 1463, 2838, -7483, 5338, -969, 4557},
    {-3456, 77, 2551, -1056, 1226, -1380, 447, -5922, -3910, 1532, -1199, -2787, 220, -1144, -8750, -2417, -1349, -2499, -452, -1715, -1064, 1845, 233, -4042, 1165, 1690, 749, -2867, 2774, 2839, -5113, 1717},
    {-1998, -1047, 1458, -3435, 96, 71, 3569, -3425, 2692, 1772, 1204, -774, -1342, -3283, -5028, -148, -7252, -1133, -2916, 6373, 727, 882, 541, 3622, -2645, -2446, 1656, -1454, -2331, 922, -4784, 5824},
    {-821, 7111, -818, 2761, 4423, 6319, -2291, 381, -1768, -461, -2064, -1896, 1017, -3687, -2063, 562, -1919, -6694, 3457, 1224, -1481, 2268, -10010, 5260, 1878, -1062, -5602, 2200, -1423, -1672, -1091, 836},
    {-3828, 3349, -6459, 122, 240, 4257, 6592, -164, -1337, -5507, 597, 2886, -2341, -1263, 2370, 5007, 3110, 214, 1882, 1019, 1751, 6164, 3459, -5037, 72, -2103, -1117, 3249, -1923, -1058, 606, -497},
    {1825, -2557, 849, -950, -3388, -1320, 3363, -1307, 2920, -1466, 2256, -201, 857, 2701, 6791, -994, -1257, -1875, 1318, -900, 7374, 974, 2348, 2401, -1876, 3271, 3972, -3444, -5243, -1051, 4732, -3882},
    {245, -2851, -2845, 3455, 859, -1225, 564, 3728, 695, 2346, 654, 1086, 3304, -5273, -1864, 3255, -4897, 1657, 1043, -818, -4261, 277, -2216, 5661, -324, 4574, 1979, 1387, -1872, -3179, -16, 3533},
    {2786, -3152, 1507, 2845, -10311, -6167, 2151, 1570, 1067, 5810, 321, -1651, -806, 430, 2250, -4655, -7524, 760, 3147, 3283, -125, -3909, -802, 432, -3690, 1069, 4708, 1744, 529, -2319, -5365, 497},
    {636, -941, 2810, -3095, 2375, -6299, 128, 8395, -1116, -725, 3289, -4191, 4968, -451, -661, -2274, 438, 509, 1150, -7853, -477, -5012, 1159, -95, -3979, 2164, 567, -23, 324, 370, -473, 270},
    {728, 4051, -7291, -2473, -79, 7069, -6473, 3983, -2550, 3328, -6023, 4282, -1820, -4722, -3074, -4773, 5187, -8724, 3465, -1448, -2665, 450, 2626, -4067, -231, 5855, 5041, -4343, -4738, -429, 5144, -1},
    {2776, 118, 2889, 2201, 596, -3691, 6381, -6294, -5611, 581, -2157, 2502, 4272, 8979, -4468, -857, -2992, 636, -2125, 2152, 1390, -2911, 562, -2482, 3144, -2557, 250, 5208, -4515, 9832, 3088, -5817},
    {4180, -2160, 142, 2039, 824, -374, -2028, 2600, 2423, -1419, -1819, 4461, -6150, 647, -2250, 2840, 1294, -3906, -458, 10662, 2467, 2595, -2656, -4830, 1368, -1858, 3109, -3208, -4996, 5595, 2908, -607},
    {-3234, -1594, -901, -4132, -2458, -82, 651, -1495, -519, 1673, 909, 2679, -2059, 4461, -3328, -1780, -1804, 3182, 2949, 3870, 1180, -4310, -4029, 2428, 2757, -167, -717, -6717, 2628, -291, 1034, -3494},
    {-4884, -6589, 801, 4340, -5456, 7450, 4312, -1785, -3066, 2233, -2491, -3622, 316, -4768, 1126, 234, -1027, 5329, 1873, -73, -1522, -3019, 5447, -1201, 1529, -488, 7284, -787, -4632, 4039, 244, -3275},
    {1710, 501, 384, 1090, -126, 340, -2930, 3415, 1727, 1591, 220, -1016, -2525, 378, 79, -2599, -5621, 612, 5054, 993, 5080, 4148, 721, 2075, -2130, 1010, 174, -3073, -516, 758, -152, 2057},
    {-614, -1339, 3696, 1571, -4481, -3233, -4707, -1049, -3151, -1775, -3731, 1899, -6059, 1776, 4864, 434, -286, 1646, -5267, 6319, 5396, -244, -3592, 105, 1230, -1481, 34, 417, 4091, -1790, 431, -783},
    {-815, 310, -1851, 894, -1390, -1761, 1409, -757, 594, -1316, 6295, -2479, -5466, 1408, 144, 1802, 1092, -2126, 4168, 128, -5257, 352, 391, -606, -917, -4756, 259, -3490, -4965, -5469, 1289, -3397},
    {-5794, -584, 371, 2321, -4611, 3507, 1110, -5268, 3833, 1928, 1385, 1702, 623, 2949, 563, 716, -747, 4703, 99, 4044, 2610, 1269, -46, 4346, 1078, -54, -1025, 3356, -867, 26, -3680, -3975},
    {-2445, 522, 2949, 1018, 4167, -4129, 519, -2158, -298, 1170, -92, -738, 1746, -318, -767, -227, -1985, 962, 6584, -5833, 1581, -5015, 1152, -5735, -54, -1818, -802, -3262, -1680, -210, 111, -4446},
    {-131, 1018, 2362, 3973, 1988, -3254, 2835, 637, -3737, -23, -391, -1277, -348, -4865, -485, 1054, 3402, -722, 5006, 4151, 1873, -1885, 1337, -1175, 1260, 1524, 556, 3122, 5254, 6196, -2898, 1190},
    {5191, 5140, -2949, 6972, -3833, 4528, 1144, 5044, -9395, -2500, -114, 1661, 732, 5350, 4416, 1127, -64, 5376, 1736, 5369, -4845, 1209, 3654, 2317, -1387, -5799, 4948, 3784, -3413, 1370, -823, -2323},
    {-1635, -1133, -154, -892, -2094, 3152, -1055, -3157, 1178, -5463, -1933, -272, -4859, -195, -7691, 5184, 3689, -2965, 132, -770, -4234, -1375, -256, 2121, -5200, 262, 3652, -3922, -3325, -4169, -2635, 5480},
    {-3822, -1950, -1700, 3166, -7078, 1552, -1073, 1110, 7510, -2390, -2558, -378, -2718, -4759, 3585, -2152, 7914, -5489, -2623, -69, -906, 3685, -3063, -7303, -519, 286, 2787, -519, -4385, -93, 3585, 2044},
    {-10, -838, -4110, -2708, -544, -4788, 4513, 16, 1090, -729, -503, -365, -3877, 1187, -6616, 2937, 262, -1988, -2818, 4125, -698, -2805, 32, -2105, 1649, 390, -4796, 486, 1575, 1511, -2801, -879},
    {6646, 1067, -1529, -3446, -3012, -3587, -4055, -2522, -4216, -3565, 6776, -3411, 1137, 6003, -391, -2596, -1691, -1074, 2147, 4370, -7791, 3101, -3914, -1984, -738, -2153, 3480, -8433, -3769, -6434, 2088, -648},
    {1736, 3762, -939, -4115, 2860, 928, -5518, 4853, 3514, 1875, -4830, -429, 3229, 2550, -276, 3628, 635, -2509, 1034, 1749, 2737, 5772, -2647, 4469, 1798, -5176, 589, -3913, 63, -1403, 5588, 222},
    {1894, -1115, -4489, -646, -6325, 2655, 2764, -1993, 2376, 1324, -8014, -2872, -474, -829, -6915, -683, -311, 2286, 916, 1397, 2457, 956, -672, -1883, 2918, -1248, -3362, -1418, 5781, -593, -625, -4468},
    {2340, -4447, 2294, -4716, 5150, 1365, -2558, -264, -12, -316, 1666, -4346, -2134, -2007, -2131, 5120, -2465, 3355, 727, -2954, -3019, -2915, 3856, 2524, -695, -1346, -2898, 1143, 857, 366, -1058, -5577},
    {1202, 672, -3338, -7948, 1003, 3951, -220, -405, 1076, 7559, 1090, -875, 4858, -6026, -7872, 340, 1139, -868, -6820, -3727, 4390, 1376, -2545, 4244, -3918, 7106, 2117, 3002, -1147, 246, -2264, -171},
    {-451, 1971, -2650, 3236, -1247, 3426, 1385, 1472, -945, 4714, -188, -3995, 1165, -5328, 83, -3054, -1514, -7590, 2801, 943, -7074, 2401, -7147, -94, -6166, -282, -968, -1412, 1536, -4559, -2019, -5258},
    {-3420, -1581, 9011, 3344, -110, -986, 5435, -5933, 1563, 3000, 1957, -4592, -5164, -56, 1372, -3162, 3728, -169, -353, -434, 2629, 1785, 3709, 7589, -4080, 722, 357, -3791, -5201, 2610, -3495, -4023},
    {6740, -177, -1536, -722, 2311, 4515, 1381, -4041, -312, 18, -2619, -4588, -2675, 2922, -2257, -1926, 499, 1614, -1704, 757, -3070, 1390, 1501, 2972, 678, 1446, -878, 1642, 4158, -2497, -622, 5919},
    {4150, 462, -3768, -1043, -2600, 4833, 1947, -2327, 2283, 2143, -850, -2162, -1089, 794, -4824, 1233, -709, 5817, -308, 36, 2941, -4131, 587, -553, -1265, 2129, -1097, -366, 1690, -7176, -397, -693},
    {417, -1087, -1279, 8025, -38, 1190, 2039, 2571, 2126, 662, 4530, -246, 1778, 1380, -221, -915, 938, -1281, -1662, 2056, 1911, -700, 1406, 1519, -4719, -3624, -4275, -3775, 3046, 7326, 4414, 3121},
    {-1732, -859, 1835, 405, -888, 3031, 4338, 2007, 372, -4653, 5974, -1011, 8160, -5442, -2043, -4438, 2594, -2478, 3705, -5421, -4401, 6137, 2174, 422, 7335, 2120, 5104, 1184, 2197, 1920, 1278, -171},
    {-1606, -1030, -1387, -3033, 1371, 2685, 504, -153, 643, -639, 533, -1942, 391, -4774, 3597, -1350, 4995, -2250, -5336, 2692, -3949, 109, 1424, -3632, -5443, -5205, 1300, -2304, 2736, -1265, -142, 547},
    {1583, 1360, -630, 2061, 5138, 1598, 3208, 2089, 585, 1104, -9593, -20, -2812, -3683, -1832, -1319, -7002, 4582, 3340, -2105, -4932, 1009, -853, -1291, -2070, 2153, 3193, 1649, 323, -5480, 6783, 957},
    {-1343, 16, 3319, -1027, 3992, -831, 371, 5033, -1202, 1753, 119, -1519, 5503, 1459, 583, -1775, -2308, 2142, 5654, -4643, 6081, -2697, 1183, 884, 5189, 2011, 1037, -3328, 4942, -5824, 2407, -233},
    {1311, -3457, -2926, -3584, 1125, 1146, 2361, -3280, 1613, 4588, -1905, -3025, 6037, -1327, 2004, 1418, -4647, 2845, -867, -3844, -2153, -4308, 1889, 1734, -1755, -1960, -1103, 937, 478, 175, 445, -6186},
    {2931, 2570, 3667, 3628, -6136, -2855, 5584, 2980, -1039, 54, 7429, -1187, 2857, 1565, 635, 561, -1785, 739, 4033, 2028, -3796, -1859, 2563, 3358, 3006, -5164, -5390, -1220, 4648, 6136, -1388, 1511},
    {313, -1986, -517, 4411, -423, 3234, 2769, 353, -3963, 2442, 2161, 13, 5263, -4517, -2011, 6037, 233, 789, 8407, -2925, 5817, 2226, 614, 992, 3082, -5562, 1761, 1408, 1924, 4841, 2349, -2770},
    {2327, 459, 3526, -2564, 2607, -6200, 202, 409, -294, 2346, 4303, -1665, 3044, -1286, -2419, -987, -7305, 262, 4570, 3664, 5098, 765, 1144, 2051, 1472, 3600, 9791, 5264, -2822, -5760, 826, -5879},
    {-746, -5547, 1955, 748, -1175, -1391, 2886, -3301, -1287, -5636, 1830, -1542, 5454, -7513, -2192, 2191, 2140, -993, 6464, 3000, 579, 626, 6300, -2540, 1141, -8746, 270, -3271, 4148, 1245, 2258, -7152},
    {2330, 542, -2761, -163, -4311, -4754, 1621, -5487, -3417, 1204, -2986, 2910, 4812, -6005, 545, -339, -2449, -3592, 3181, 8239, 1429, -3249, -3947, 2842, -3437, 1348, 2369, -524, 4445, 3511, 4291, -4409},
    {5958, 1465, 3236, 2451, -1134, 514, -2927, 844, 1187, 216, -4374, 2803, 613, -710, 1438, -4807, 2723, -449, 8210, 3334, -2358, 7005, -109, 1585, -2842, -7970, 881, -3336, -894, -990, -1046, 211},
    {-2029, -59, 5812, -2995, -1702, -5536, -7407, 3129, 2668, -5906, -1149, 9148, 6132, -2110, -3018, 1091, -4302, 1129, 4783, 3762, 2621, 2538, 1787, -650, -1246, 228, 2223, 2131, 4487, -4959, -2018, -5553},
    {-2117, 3669, -1165, -3925, -4006, 8230, 1495, 4953, 3647, -1164, 1054, 6976, 5821, -4029, -1878, -5361, -2800, 3751, 1071, 7960, 765, 445, -1464, -2832, -1724, 1776, -6443, -2306, 942, -157, 3564, -5295},
    {1138, -4909, -5765, -81, -6609, -629, -3149, -2577, 503, -6391, 4263, -1577, 2763, -738, -4440, -456, 4053, 3155, 3980, -655, -629, -791, 5175, 2406, -7321, 1289, -370, -7838, 287, 32, 744, -373},
    {-175, -554, 6463, -2823, -2251, -2489, -1394, -432, -4754, 9443, -1039, -777, 4426, 7354, -1090, 1988, -112, 2412, 1861, 265, -1751, -639, -1000, -328, 5390, 2654, 3434, -1634, 1913, 695, -2239, 1505},
    {754, -7724, 4642, 42, -3573, 9321, -4043, 145, 474, -1562, -4372, 395, -3467, -1202, -6719, 2098, 2146, 581, 865, 5173, 2562, 2014, 3918, 7650, -4442, 1079, 412, -1235, 1845, -4637, 1638, -114},
    {702, -2022, 1300, -5023, 6124, -5560, -5181, 1407, -2184, -364, -659, -6643, -208, -2420, -3826, 1577, 940, 321, 2004, -4137, 3830, 4099, 2658, -5128, 2178, -137, 1226, 1866, 2990, -47, -1524, -6097},
    {3437, -3261, -1259, 157, -998, 5380, -2169, -10125, 1548, -5565, 3243, 1485, -369, -2337, -2052, 1822, -2704, 1104, 4056, 4131, 5811, 1009, -5763, -579, -736, -6706, 1330, 1324, 2512, 1357, 931, -3353},
    {4709, -3657, -113, -2736, -3442, -4989, -378, 1969, -5320, -2825, 1924, -240, 7441, -572, 4536, 2825, -2598, -4405, 1995, 598, 6339, 141, -3983, 4591, 4024, -431, 1068, 7842, -998, 8604, 2550, 5973},
    {3193, -4618, 4947, -4988, 54, -1832, -1186, 1068, -2903, -86, -1457, 4662, 1500, -1413, 6350, -152, 1648, -2330, 1672, 2922, -1578, -4640, 1608, 3740, -355, 2093, -1344, 5779, 3775, 1035, -399, 893},
    {-6808, -2550, -2431, -4129, -789, 381, -1889, 144, 1030, 1812, 3656, 1944, -1952, 1694, 3669, -2646, -4236, -3733, 6154, 666, -2782, 7050, -2604, -7068, -1721, 2039, -9477, 984, -8402, 3318, 3303, -4390},
    {468, 6045, 4506, 2196, -526, 726, -4216, 3421, -4305, 2427, 1628, 2719, 13, 1516, 1946, 4756, -1855, 5444, 1442, -1102, -2580, -1982, -2122, -606, 1720, 1320, 3710, -2662, -5609, -4538, -4973, 6770},
    {-1085, 1721, -793, 2451, -276, 2719, -441, 4775, -1798, -3629, -249, 1001, -8156, 5737, 2218, -2914, -1678, 2668, 175, 1707, -3827, 1252, 0, -549, 2922, -5856, 7996, 1153, 3319, -1752, 1366, 4282},
    {-1709, 3520, 7117, -2224, -579, -1957, 1389, -1373, 71, -6952, 4989, -1653, 5671, -409, 1938, -8072, -270, -901, 6670, 1345, -2663, -3702, 2116, 4290, 5390, -97, 3778, -234, -172, 922, -220, -377},
    {-237, 4048, 2146, 520, 5698, -3252, 1727, -1520, -5557, 340, -1009, -1587, -608, -281, -380, -1302, 184, -2210, -310, 150, 2626, -6398, -1873, -7310, -8726, -128, 2121, 5171, -6717, 3225, -2493, 2697},
    {-2246, 4299, 1267, 1669, 2725, -3793, 3358, -3364, 209, 6564, 742, -2345, -1746, -525, -43, -1809, -6459, 1237, -110, 2961, -1883, -204, -2904, -3082, -92, 1961, 2338, -1183, 5650, -6502, -3343, -1257},
    {-2225, 1714, -2502, 516, 59, -1884, 7535, 7, 1449, -1983, -895, -1240, 4678, 1943, 1714, 330, 635, 308, 2706, -5273, -1131, 156, 1825, 6483, 535, -577, -2931, -4168, 1855, -1001, 5408, 5318},
    {-13190, 2484, 5418, 6980, -3748, -3650, -722, 327, 1597, 434, 2161, -1259, 2271, 7106, 2806, 4719, -2452, 431, -2542, -5534, -1053, 3474, 1185, 2196, -3482, -1812, 419, -3318, -279, 1425, 522, 4359},
    {265, -1488, 1180, 3225, -25, 792, 3995, 1952, -6, -3623, -3238, -1645, -24, -1262, -912, 2024, 3540, 3160, 4992, 543, 6615, -652, 944, 4063, 374, 3561, 3545, 8265, 1305, -95, -5189, 2693},
    {-1454, 2111, -27, 6199, -153, -2508, -3514, 1282, 1909, -220, -5984, -850, 552, 1977, -290, 2196, -5863, -4824, 137, 10115, -2562, 2612, -497, 1542, -2969, 1107, 665, 122, -2426, 11347, 503, 30},
    {-2021, -1256, 323, -1077, -4104, 4258, 963, 2087, -5744, 2033, -333, 1350, -2643, -1708, 1059, 3149, -164, -6118, 569, -6595, 1089, -1758, 1075, -1885, -703, -2217, 655, -456, -2989, -2738, 4407, -1702},
    {-2537, 3936, 3781, -3600, -1344, -2607, 3331, -3007, -1830, 1766, -1837, 217, -3479, -5161, -2016, -6639, 2193, 4618, -1666, 4955, 6590, -6264, 1847, 1701, -3778, -1637, -943, 7753, -1784, -1276, 2869, -4565},
    {4008, -5156, 6091, -3621, 785, -72, -1065, -3967, -957, 897, 3251, -1388, -2009, 629, -6649, 150, -6682, 5172, 1983, -440, 3421, -5917, 1616, -2304, 2230, -7531, -3901, 2325, 860, -3720, 3222, -3562},
    {1076, -709, -686, 3780, -1203, -1879, 125, -794, -1051, 3902, 1325, -3120, 2000, -903, -4010, -55, -2196, -4120, 7305, 196, 7751, 1344, 1085, 3694, -5807, -4101, 3230, -1056, -1560, -2080, 1710, -6600},
    {1444, 7105, -426, 4805, 4554, 507, -993, -2732, -916, -4603, -3885, 3717, 3340, -2966, 2698, 1724, 1497, -3986, 7085, -280, -1053, -323, 5254, -4322, -3930, 3766, -610, 569, 1414, 7350, 6892, -3785},
    {-3016, 6801, 3798, 10744, 554, -4993, -71, -3402, -1597, -1790, -3577, 396, -383, -5871, -2898, -2612, -505, -3954, 8207, -2519, 6057, -628, 6679, 2092, -4978, 180, -5336, 3760, -2188, -3484, 3016, -6831},
    {-4848, 5833, 7695, 4034, 2118, -4700, 2159, -89, 1686, -4744, 860, 1282, 3049, -6147, -3142, 3332, 1148, 11897, 1781, 3433, 4453, -7389, 2194, 4420, -637, -6791, -9584, 1925, -240, 3888, 4275, -12095},
    {-3878, 2885, 6299, 10771, -4143, -1554, -5831, 4177, -3020, 3917, -3618, 6122, 3895, -11170, -3744, -3879, -340, -1466, 6604, 4621, 6631, -9992, 2381, 1054, -2146, 679, -6124, 2762, -209, 4824, 4083, -753},
    {-3311, 2749, 8439, 3761, -2783, -6085, -4880, 3799, -3446, -6023, -465, 9647, 6782, -5301, 899, 2703, -1172, 2709, -208, 7445, 5241, -2001, 1678, -1986, -10057, -2534, -9458, 3148, -3446, 1366, 4082, -3982},
    {-4603, -1334, 1435, 7751, -3899, -5555, -3292, -5041, 4631, 842, 3423, 3706, 385, -4437, -10541, -1923, -6496, 1539, 4510, -1, 1104, -1962, 1294, 3776, -5865, 3507, -5288, 764, -385, -2567, -4526, -795},
    {642, 4380, 2639, 6953, -6569, -8034, -3336, -2101, 648, 2972, -390, -2811, 1179, -8251, -5094, 8205, -8635, 4056, 1326, 6487, -478, -7833, 2266, -553, -6007, -4271, -7479, 2171, 4079, -153, 4692, -2011},
    {-302, -3100, -1575, 4522, 1127, -779, -4156, -2284, 3550, 3266, -1600, 1664, 3332, 3388, -1703, 3288, -9352, 1443, 4500, 5406, 2174, -1839, 6641, -972, -3688, -3039, -5019, -28, -2727, -2265, 3744, -3755},
    {-67, 1108, 2405, -1532, 2014, -7761, -2074, 5022, -6981, -390, 1002, 7302, -952, -4506, 753, 4083, 685, 3577, 4789, 6635, 1889, 353, -1188, -3841, -11822, 1379, -3494, 4423, -2225, -1406, 6474, 559},
    {2003, -6591, 1196, -6268, -9420, -4030, 1814, 5167, -1223, 6619, -1739, -259, -5230, -5775, 209, 1220, 1576, 2052, 214, -734, -169, 1049, 706, 504, -2617, 1515, -2792, 6226, -732, 2904, 2169, -6295},
    {-3792, -8946, -4415, -3054, 1237, -983, -6458, -693, -5777, -2827, 566, -644, -2769, -3352, -2110, 4837, 1719, -3171, 2239, 8511, -4857, -6237, 4581, -2078, 2662, 2306, -45, -343, 3106, -6619, -2564, -596},
    {-2648, 1711, -3608, -6776, 1397, -5792, 1416, 2255, 269, -4843, 4328, 622, 966, -656, -1525, 2074, -5836, -3619, 60, 3827, 3523, 2579, 5010, 487, -882, 4909, -4283, 98, -799, 1284, 65, -2692},
    {984, 2301, -8, -6717, 1045, -1500, 411, -3846, 6858, -1246, -6856, -264, 1903, 8637, -3557, 4753, 271, 1883, -2191, 6934, 4212, 4026, 6257, -2305, -4090, 519, 4729, -782, -3056, -977, 2762, 5950},
    {-1339, 1422, -6860, -7458, -3714, 3854, -746, -2396, -2772, -1523, -3351, -5695, -3054, 3221, 4484, -1258, 2780, -646, 3228, -258, -1251, -951, 1615, 4622, -3602, 463, -400, -2509, 4564, 234, -1058, 11265},
    {-8173, 1174, -3383, 1456, -480, -5709, 5124, 277, -33, -8003, -10307, 341, 2561, -327, 1400, -3622, 369, -923, -104, -952, 5372, 1918, 5640, 1253, 3341, 2464, 535, 1441, -701, -2132, 2971, -2988},
    {2749, 6700, -4321, -989, 699, -1746, 2336, 985, -995, -2225, 9769, 305, -298, 5484, 2446, 769, -4852, -1118, -5141, -1800, -1342, -3704, -2695, -1050, -3243, 155, 407, -1014, 4396, -202, 254, -2019},
    {218, -3014, -1517, -785, -289, 5250, -1990, 3012, -6173, 1781, 2193, 2014, 2213, 2506, -1094, 3069, -2587, 631, 4659, 4514, 1590, 1185, 1353, -1567, -4110, 5556, -2638, 1001, -22, 7584, 5538, 8214},
    {2899, 3352, 3629, 1662, -1239, -5028, 2550, -6221, -2397, 837, -5536, 1485, -4438, 4992, 3139, 3671, -1514, -7941, 4162, -2953, -912, -7295, 2504, -3402, 7185, 2585, -3593, 3157, 7446, 814, -2183, 3031},
    {-1849, -5303, -3262, -499, -2610, 378, 1006, 21, 2421, -4401, 2460, -565, -4565, 1793, 113, 3268, 2891, -1205, 1455, -7923, -1468, -2250, 2842, 3409, 3804, -6635, -4260, 4589, 3192, -2544, 1690, 283},
    {2683, -5540, 329, 2813, -4973, -598, 1629, 3124, -3613, 3479, -1952, 1203, 4311, 5747, -137, 290, -4513, -240, 2834, 833, -4385, -5112, 629, 785, 2221, -2561, 9128, -6473, 1729, -1556, 4486, -5460},
    {-5775, 1616, -3018, -3837, 3986, 4215, 1132, -5516, 3085, 6249, 2756, -2616, -1442, -1071, 3757, 1285, -850, -945, 4263, 2950, 1554, 1085, 126, 3149, -2817, -812, 6506, -6, -6772, 198, 4029, 1191},
    {-2685, 4595, -483, -4961, 2702, 4176, 1919, 4232, 7648, 634, 8328, -541, -1268, -1146, 6672, -7500, -537, 4275, -1297, 210, -2621, -9327, -3006, 225, 4951, -6095, -5509, -197, -936, -1144, -2167, -8720},
    {2652, -511, 2511, -2512, -6017, 1200, -1160, 99, 7383, -2601, -2733, -2974, 256, 3576, 1478, -3673, -634, 3816, -3119, -10252, 2373, -809, 1363, 1258, -1854, -7770, 1942, 2609, 305, -2892, 1612, 4021},
    {-6534, 1471, 4202, 6412, -4480, -1434, -4132, 485, 5806, -2713, -1415, -2726, 887, -3992, 1829, -4495, 3289, 1003, -1947, -3409, -5034, 655, -2110, 2801, 462, 2902, 4248, -8918, 3120, 4764, -3966, 3373},
    {-1187, 4121, 1213, 616, -1120, 2561, -1030, 1342, 5306, 1585, -1614, -924, 1344, -2610, -6328, 2456, 1279, 2578, -3344, -6278, 664, -1095, 2963, 495, 656, 2317, -19, 4285, 773, -2982, 10666, 866},
    {-4135, -1208, -1135, 8238, -1078, -1231, 2438, 1590, 5232, -7981, -4955, 2707, 4335, -4627, -55, 6358, -91, 2657, -562, -9704, 4331, -2665, 5446, 2665, -4865, -1224, 9474, 4500, 2640, 2467, 1521, -478},
    {-2410, -1771, 6375, -696, 1096, 6705, 931, -4169, -1786, -108, 2717, 7682, -91, -6442, -4754, -4693, 3692, -539, -1305, -1056, 5042, -1674, -600, -1533, -5683, -7519, -8633, 5084, -3846, -4602, 2653, -3143},
    {620, 9824, 7597, 5329, 192, 3598, -1235, -2909, 5434, -2762, 763, 905, 4181, -3002, -4350, -5721, 5130, 687, 3517, -1226, 1407, -8796, 3839, -2816, -3212, -3131, -3124, -1790, -3309, -2571, 7296, -3667},
    {-5535, 1611, 3361, 6130, 729, 7425, -2846, -1036, 989, -1649, -3688, 937, -324, -6342, -9075, -3455, 16, -3505, 1636, 739, 6267, 1346, 8986, 2794, -6338, -606, -8665, 793, 1742, -4002, 11655, -3424},
    {-2321, 7252, 5595, 6884, 901, 2585, -8757, 3995, 9000, -1579, -710, -3420, 1888, -8383, -8695, 1948, -916, -1122, 4007, 7292, 4055, -11484, -933, 3616, -4538, 1918, -8708, 278, -4717, -373, 2236, -3231},
    {-3012, 8198, 10184, 9975, 5127, 16, -9341, -1856, 5008, -7675, 4331, 5215, 681, 48, -5089, -6268, 3142, -657, 2585, 1247, 2539, -9066, 7194, -2919, -7978, 5146, -8413, -244, 2659, -6121, 2066, -2424},
    {-1551, 2837, 6549, 8292, -2137, 86, -9533, -5106, 7000, 4282, -849, 4946, 1326, -3736, -298, 4038, -2865, -1704, 1187, 4769, -4698, -5511, 1637, -735, -6448, -1738, -5505, 4675, -1342, -6340, 5217, 70},
    {3021, 9403, 1092, 9750, -2458, 4797, -4892, -1343, 2977, -432, -6389, 2680, -2980, 1145, -4442, -1284, -5668, -3717, 1451, 5993, 1369, -1619, -2391, 3730, -1587, 1853, -5513, 6537, -3008, 624, -890, -7701},
    {-1611, 249, 4283, 8566, -5453, 577, -9967, -5399, 355, 2836, 3781, 4816, 2289, 506, 3794, 6946, -9657, -443, 12788, 9554, -1302, -3472, -2516, -2141, -6964, 4458, -1429, 9518, -2318, 224, -1372, -1276},
    {-3172, 2573, 2580, 7728, -1496, -4385, -5665, 1367, 7578, 4503, -554, 670, 2979, -7160, 2604, 3727, -14054, 5394, -2439, 9578, -6611, -1716, -8423, -3059, -7374, 283, -8231, 2894, -1688, -1337, 2800, 74},
    {1064, 1173, -5414, 4171, 3046, -1258, -7462, -3337, 2092, 7188, -1238, -1906, -2618, -5857, -949, 9554, -4720, 6059, 1779, -2601, 3607, 360, -2290, 4567, 125, 1512, 3320, -1776, -9197, 1160, 371, 984},
    {381, 6301, -5018, 2705, -1770, 1610, -822, 2489, 6995, 1119, -1049, -3165, -178, -2421, -1253, 8471, -4806, 5761, 9224, -1176, -1891, -7019, 1064, -752, -7817, 10334, 7419, 12396, -2851, 340, 4644, -2319},
    {158, -3491, -6448, -4230, 3193, -4516, -6390, 1577, -784, -1022, -541, -4800, -5680, -4331, 6277, 2703, 121, 1898, -2347, 5014, -3969, 3959, -2451, 1256, -4557, 5424, 1518, 8124, -1794, 2516, 2716, -5656},
    {2311, -1925, -5189, 500, -2891, -4344, -1429, 3586, 2366, 1336, -6504, -8949, 3781, -1391, 2868, 4427, 12066, 5921, 3806, 4966, 1773, 316, 528, 1428, -53, 2188, -1890, -1943, 2328, 504, 4319, 1305},
    {4373, -3013, -4858, -6608, 6365, 790, 2156, 12737, -3783, -2852, -1035, 783, -2599, -3557, 3605, 3012, -1002, -5086, 258, -2426, 651, 7853, -2030, -306, 2781, 5304, -5540, 3001, -2729, -282, -400, 2697},
    {6170, -229, -1134, -2521, -651, -8547, 1735, 4860, -5376, -3084, 2949, -2169, -2081, -3437, -3119, 419, 5959, 4235, 4657, 1116, 4847, 3796, 2138, 2460, -1345, -2681, -590, 3158, -2969, 422, -1935, -2371},
    {2587, -6999, -746, -7827, 4025, 646, -2610, 7670, 1160, 2661, -5110, -4211, -2161, 1598, -434, 5568, 4474, -1716, 2148, 225, 147, 8487, 4565, 2051, -2387, 6120, 4836, 2534, 5802, -231, -3103, -5089},
    {-2138, -1899, 2357, -5359, 1256, -55, 4341, -635, -1903, 3511, 1892, -3337, -1937, -4773, 8778, -3729, -599, -3315, 4235, -2410, 2612, 6188, -1785, 3705, 1608, 3872, 1090, 3149, 1729, -3803, 1113, 7378},
    {196, 1634, 7703, 1044, 2229, -1097, 2976, 536, 152, -1088, 4927, -2989, -1912, 1148, 2161, 1118, -6118, -548, -1333, 489, 694, -4164, 2344, 1578, -5026, 691, 1835, -3015, -3667, -5798, 1942, -3393},
    {-1641, -2868, -3605, -954, -6849, 436, -4659, 1691, -120, -1671, -1157, 882, -877, 2260, 272, -4119, -1177, -895, -3799, 3967, -2328, -1056, -5425, 9, 3271, -4616, 4980, 2095, -315, -4773, 7992, 7465},
    {-2188, 2520, 303, 4162, 1724, -1560, 2383, 2773, -2100, 504, 6624, -10860, 6857, 3996, -371, 7325, 3777, -796, 1815, 2999, 1976, 155, 4743, -2509, 1713, 3459, 6019, -954, 4397, 6789, -903, -1588},
    {2087, 5815, -4472, -867, -3595, 986, 3820, 236, -2947, -1880, 1974, -3096, -7580, -3991, -2318, -1010, -3419, -5562, 134, -330, 450, -4338, 1657, -2735, -2002, 332, 1334, 5321, 353, -4551, 2819, 53},
    {-1356, -6835, -10393, -1726, 1161, -2674, 930, -5893, 3207, -1551, -1457, -3678, 4138, -1710, 740, -5587, 577, -3276, 936, 455, -362, -2953, -781, 7795, -1558, -1025, 1108, -3297, 10781, -1371, 8369, 6339},
    {-3247, -455, -2100, -2625, -531, 4146, -6338, -1041, 2705, 1731, -5276, 751, -262, -2106, 3794, 479, 960, 795, -1825, 4846, 1510, 811, 1799, 6497, -2820, -1224, 5512, -910, -6411, -4036, 6964, 1294},
    {-4704, 4527, 3652, 70, -4500, 5729, -565, 2808, -6656, 3906, 492, 2278, 3849, 3949, 3850, 2724, 4631, -1438, -3369, 943, 724, -6508, -45, 109, 3166, -5721, -498, -3667, 2696, 3676, 5377, -3887},
    {7090, -2253, 280, 1431, 3923, 2458, 1388, 2323, 236, -258, -935, 1774, -4311, 3954, 3522, 139, 2173, 1337, -95, -125, -7386, 2, 1838, 5410, 2647, -2393, -33, -2411, -444, -2977, 3115, 2243},
    {2344, 2272, -3630, 770, -1852, 1953, -2906, -4085, 573, -2196, 6348, -4870, -1451, 676, 8187, -2074, -851, -3328, -3618, -3075, -7220, 1579, 3690, -3594, 713, -3507, -936, -3084, 1372, -4293, -3651, 1180},
    {-361, -3116, -119, -178, -3666, 3592, 9009, -96, 169, 2961, -1575, 589, 3865, -4800, 610, 3667, 68, 2107, 7410, -2675, -3505, -3492, -2639, -45, 648, 3819, -4275, 5926, 3314, -1952, 9992, -4331},
    {-4519, 4756, 1427, 781, -5119, 2623, 3036, -4036, 4701, 1406, -1556, -1439, 507, 759, 3963, -2663, 1248, 579, 2997, -2324, 2128, 2870, 347, -2746, -3381, -6774, -7734, 2081, 1315, -4546, 4268, -1133},
    {2360, -1454, 1293, 71, -1049, 215, -2580, 312, -5576, -5296, 2027, -3946, 1038, -4644, 387, 73, 8824, -5050, 3482, -2680, 4325, -6043, -446, 52, -4862, -4262, -2690, 3076, 599, -2806, 891, -3467},
    {-5981, 3289, 629, 2453, 2003, 2328, 5908, -1507, -5169, -1418, 1366, -1030, 5071, 6517, -5630, 1673, 8235, -5277, -4088, -2069, 537, -1632, 2734, -9523, -7287, 456, -11434, 793, 5850, -4657, -338, -723},
    {-876, 3769, 10248, -2110, 5199, 3332, -393, -3226, -2064, -6269, 1663, -490, 900, -2238, -1888, 532, 8323, -388, 2831, 3656, -414, -8620, -3381, -1695, -10878, 4, -14199, 3174, 1537, -1107, 911, -997},
    {8291, 4168, -2427, 10285, 1854, 12043, -9162, -535, -38, 3877, 3007, 3971, 958, -3423, -3543, -2317, 10305, -10087, 3131, 6458, -370, 2920, 196, 3982, -8868, 10366, -8539, -1943, 1154, -4546, 3577, 4664},
    {3249, 5344, 2541, -1169, 1704, 6035, -4954, 4938, -247, 1530, -1253, 967, 4070, 140, -391, -7313, -5320, -6803, -6570, 1571, 2057, -3025, -9114, -2677, -7703, 11155, -9919, 6228, -1521, -4960, -978, 341},
    {3474, 788, 7465, 8775, -3403, 7708, -5490, -2379, 215, 2625, 4888, 6873, -14, 2030, -3411, -4590, -7342, -997, -799, 3383, 3826, 5912, -5562, 50, -2433, 4597, -6306, -823, 3818, 4834, -3107, -1617},
    {0, -1821, 11123, 5469, 1749, 7756, -11678, 982, 7914, 1216, -1394, 4491, 1720, 2359, -3679, 4024, -22851, -4628, 1869, 3142, 2976, 2988, -12754, 4271, -6401, 3556, -4752, 3355, -1840, -3036, -2432, -6483},
    {7073, -3808, 5406, 4494, 1897, 737, -10023, -7836, 10697, 5081, -3617, 7836, -4761, 1989, -845, -2553, -27858, 3882, -3605, 1386, 2683, 1457, -1946, -1837, -221, 3013, -4703, 1475, 5611, 502, 2484, -3705},
    {1126, 6206, 3055, 4744, 107, 7800, -6101, -3644, 9778, 2559, -6591, -2127, 1406, 1885, -2637, 2083, -12238, 7662, 6372, 2678, -5591, -1216, -9980, -3641, -7352, 245, -5075, 4677, 3710, 820, -3299, -2430},
    {-4401, 6157, 6987, 6491, 6992, 4429, -2051, -2392, 651, 1675, -893, -5387, 4487, -4497, 3122, 3649, -513, 4135, -189, 5194, 2919, 8034, -2831, 307, -5001, 9193, 3956, 3226, -4126, 4576, -2081, 51},
    {-1782, 3471, -5722, 6366, 5947, -1868, -4898, -4021, 7136, 8131, -9480, -5652, 7522, 188, 7098, -694, 7870, 8920, -1849, 1321, 5385, -2376, -3321, 440, -8462, 4250, 4694, -502, -14390, 4425, -2315, -7164},
    {-6453, 553, -3583, 7442, -3854, -1131, -476, 2947, 1516, 62, -3574, -5319, 1869, -2083, -789, 1934, 8823, 5050, -2131, 3582, 2961, 2301, -3318, -7472, -7104, 3276, 5, 6553, -10041, 6438, 4897, -9038},
    {1596, 8830, -2380, -6875, -3042, 1007, -3309, -6468, 8474, -1201, -3754, -7488, 2766, 3063, -12, 2679, 4996, 7343, -1336, -3112, 9071, 265, -2469, -2513, -6427, 434, 5424, 3940, -9582, 1154, -1772, -914},
    {-451, 3496, 2093, 1556, 641, -5000, -2252, -1588, 6890, -7752, -3253, -3847, 1015, -5067, 92, 3497, 8304, -1607, 4799, 2308, 512, 4096, -11377, -636, 2115, 1807, 3257, 4284, -9252, -674, -2134, -8320},
    {-3921, 791, -2238, -1166, 2497, -13222, -133, 158, 1593, 2797, -2588, -3181, -3436, -752, -4886, 6221, 5754, 2261, 1199, -273, -1379, 1512, -2742, 204, -3391, 5398, 6225, 482, 3861, 6767, -3577, 929},
    {-218, -7535, -4901, 1443, -419, -1916, -1862, 4226, -2999, 2186, -7535, 308, 748, -323, -1677, 6749, 3449, 985, 6358, -4046, 647, 2149, 3290, 5583, 2588, 3470, -141, 4929, -2598, -3464, -1625, 1884},
    {-3623, 763, -5399, -12116, 3282, 871, -258, -1805, -1151, -3714, -4559, -2073, 1269, 465, -57, 2261, -3728, 5281, -1962, -2676, -3146, 4584, -4157, -99, 4439, 1139, 616, 5562, -1406, 1672, 3364, 4726},
    {5173, 3366, -278, 3971, 5086, -5291, 2923, 6377, -1609, -3382, 333, -680, 2680, 4979, -1468, 3780, -425, 254, -3460, -1757, 760, -1185, 2655, 2664, 2841, 3988, -2305, 359, -233, -1741, 4680, -3664},
    {1705, 1401, -1286, -1297, -2728, -503, -2278, 184, 1448, -4325, -1174, -1067, 2853, 1316, 1, 3687, -3365, -1447, -107, -986, 1382, -3361, -4527, 1093, 2343, 6683, 5465, 2350, 3375, 4665, -6414, -1145},
    {1703, 3665, -3928, -410, -2203, 4734, -2022, -6718, -1860, -2662, -430, -5085, -986, 1373, 6355, -706, -4999, 991, 62, -1361, -2476, -1644, -3922, 325, -5453, 2603, -3085, -295, -1994, -3918, 1024, 3428},
    {-3101, 1142, -624, -3836, -2309, -408, -10676, 2670, -4606, 5500, -7175, -3960, 4816, 4581, 1916, -4224, -8697, 4004, 3266, -1562, 4393, 2980, -2561, -989, 5633, 2369, 4131, -778, -3392, -117, 39, -4572},
    {3287, 3990, 172, 4291, -7036, 195, 4118, -1078, -7308, 605, -251, 2802, 2634, -3154, -1980, -608, 2847, 2549, 6123, 6172, 2334, -1785, 2126, -2386, -2667, -468, -9226, -1774, 530, -2713, 381, 3831},
    {-5158, -1232, 4137, 428, 2449, 1063, -1667, -3266, 1035, -655, -479, 1057, 185, -4161, 2001, -2817, -1234, -1003, -376, -4073, 533, 4148, 1015, 659, -2997, 1043, -1958, -3864, 597, 3076, -1558, 4162},
    {-3486, -2859, 2497, 8747, -6295, 1320, 2734, 5216, -4349, -1841, -628, 1919, -528, -279, 347, -1882, -4404, 2368, -8145, -1645, -6833, 5536, 490, 854, -745, 1569, 1222, -988, 4079, 4355, 5441, 859},
    {3065, -4296, 2478, 174, -1226, 888, 1464, -229, 566, -7162, -1824, -1000, 1666, 1331, 157, -2224, 938, -1432, 2867, -1331, 4526, 34, -348, -921, -421, -1682, 1930, 4711, -3005, -2452, 4825, 2430},
    {-2584, -2648, 2376, 3962, -2767, -845, 317, 1907, -3022, 6323, -66, 1511, 4797, -825, 8312, -5158, -428, 2908, 1082, 1538, -467, -516, -5416, -4379, 1046, -3151, -10739, 4656, 812, -2203, 6679, 231},
    {891, 3062, 6044, -2102, 1813, 501, 5013, -4559, 304, -2272, -4979, 1281, -903, 3428, 3682, -6484, 5213, -1815, 546, -2412, -4381, -2466, -1434, 214, -3260, 1608, -1724, 4910, 1514, -241, 3938, 2797},
    {-573, -1443, -5170, -791, 2244, 7162, 10421, 429, -5673, -737, -3007, -2427, -1560, -4327, 3445, -815, 3787, 1747, 3506, -930, -6180, -713, 1864, 14, -2348, -3594, -7771, 2998, 4145, 3364, 3053, -2912},
    {132, 2543, -392, -1301, 3942, -5494, 4883, -4936, -12436, 251, -6046, -4673, -1122, 5281, -779, -4579, -560, -3054, 2575, -5021, -4305, 2591, -6680, 2013, -4118, -4116, -6288, 10055, 7992, -7217, 1878, 3991},
    {-549, 4577, 4608, 1016, 3120, 2795, 1516, 408, -5053, -2312, -2843, -5007, -244, -2429, 6974, -1964, 6284, -727, 3111, -5842, -5572, -2095, -1276, 2087, -7481, -1161, -5321, 7012, 2151, -2746, 3166, -2269},
    {5976, 13316, 1159, -4095, 4186, 3734, 4955, 3915, -9427, 1017, 11026, -3437, 3602, -5614, 737, -4706, 8654, 2273, -4641, -1152, -9045, -5128, -8367, 1198, -13465, 4359, -12903, -524, 3662, -1502, -636, 1916},
    {3755, -2544, 4872, -237, 9364, 4867, -744, -1729, 1975, 1593, 7177, 4305, 2786, 899, -549, -3618, 4839, -4647, -4268, 5019, -8039, -5840, -3662, 712, -419, 3918, -9417, 4466, 8031, -5059, 8960, 2496},
    {2964, 3131, 943, -945, 4847, 1463, 943, 8879, -3916, 3319, 7398, -1166, 5157, 76, -2305, -689, 2015, -10284, -10902, 4710, -697, 2330, -6743, -4276, -8698, 4156, -4622, 829, 3443, -4871, 4462, 2996},
    {7217, -2116, 4489, 3199, 13146, 11952, -1078, -3671, -2182, 5611, 1294, 7394, 3650, -1791, 706, -3560, -11991, -4776, -6568, 2207, -635, 5900, -7822, -5387, -4707, -5042, -9584, 1746, -1144, -1750, -1347, -2905},
    {6187, -130, 8553, 2224, 5580, 6934, 1369, 2545, 3698, 4516, 9604, 5468, -6345, 363, -8990, -3358, -28324, 2205, -1269, 2372, -1499, -1927, -4580, -2713, -4335, 4361, -4514, 477, 3496, -1265, 1640, -2835},
    {-1249, -1902, 4099, 1892, 2096, 10475, 3029, 911, 4161, 2365, 5414, 5287, 1646, -3678, -4637, -6010, -21843, 755, -1644, 6914, -706, 8305, -461, 2404, -3558, 5722, -514, -3740, 4205, -1803, 4449, 42},
    {411, 333, 6550, 9868, 5667, 2640, 1574, -1963, 5088, 5653, 1438, -336, -141, -605, -7381, -7742, -11778, 5539, -5710, 6746, -703, -5647, 747, -2732, -9629, 8128, 4672, 94, 6334, 8503, 2207, 3526},
    {-8833, 5158, 7439, -1131, 2760, 7127, -2357, -5360, 4093, 7777, 1639, -6150, -1067, -3435, 3779, -10278, 2356, 12276, -9880, 7907, 1902, -1947, 5715, 3716, -4937, 977, 5557, 5055, 4781, 8372, -16, -1641},
    {2627, -209, 213, 8229, 4685, 5813, 8617, -9341, 1602, 5249, 13126, -12573, -1357, -3734, 2489, -652, 10351, 15183, -13248, 6693, -2851, -2471, 1312, -2009, -8754, 9598, -188, -926, -671, 7797, 1399, -6949},
    {338, 5238, 9758, 9593, 8572, -2658, -321, 542, -1245, 3921, -1796, -11099, -3946, -1173, -2542, -4088, 9117, 11815, -7297, 6528, -4207, 3016, -6727, -1181, -9371, -1325, 8785, 3462, -9174, 3686, 622, 5040},
    {2756, 1203, -4067, 913, 6060, 3473, -525, -1372, -6154, 6146, 63, -6699, -3925, -7240, 5459, -1942, 9849, 10623, -2069, 3506, -2339, 2631, -5868, -3120, -4741, 2732, 11646, 3756, -10942, -6278, -1345, 2551},
    {-2651, 2767, -3612, 5395, -494, -1712, -2667, -5993, -2925, 3025, -1002, -2194, 3431, 3296, 2375, 7600, 3460, 9479, -7403, -1517, -6773, -2813, -5538, 3370, -9534, -6160, 6645, -2659, -5199, 5734, 549, 3408},
    {-152, 1210, -1552, -562, 6414, -5921, -3737, 3306, -2382, -1351, -5932, -69, -1583, 1924, -713, 3076, 4540, 6754, -5271, -4909, -6657, 1457, -2354, 1738, -796, -192, 5505, -1894, 2240, 3970, -466, 2855},
    {-5848, -4265, -3500, -8383, 2639, -4330, -6353, 6558, -6817, -5179, -8344, -10020, -1559, 1877, 3627, 9866, 6330, 6043, 4373, -1759, -2281, 8521, -1605, -7320, -2325, -4763, 5278, -5613, -9658, -2571, -7350, 6185},
    {1951, 1916, -7255, -3215, 2258, -271, -5705, -763, 242, -7325, 6374, 1440, -4527, 3597, -2554, 6237, -449, 4924, 7004, 1436, -1755, -278, -191, -1586, -5873, -5518, 6824, -659, 741, -4153, -1346, 701},
    {-133, -1203, 1654, -1832, 6141, 2495, 405, 414, 4365, -79, -5653, -2120, 1350, -3164, -2986, 5852, -1772, -274, 2100, 8913, 1854, -1526, -3880, -2541, -3698, -4292, 3122, 218, -5159, -2794, 1258, 501},
    {-589, 921, 8750, -6112, 2608, 2180, -948, -1828, 1275, -3188, -3779, -4819, -65, 325, -5031, 514, 1171, -432, 433, -941, 5863, -382, -3557, -9414, -9305, -6690, -6243, -3200, -895, 3968, -5104, 1054},
    {-5421, -2880, 3927, -2167, -3338, -1909, -61, -2194, -3513, -26, 2537, -3691, -1520, 4507, -2526, -1809, -1693, -3612, 2466, 6105, 388, -379, -1987, 4897, 3495, 3047, -2211, -107, -10012, -2109, -5947, 5337},
    {-1406, 2614, 5764, 2884, 2588, 243, 5016, 4117, -2700, 2153, 267, -1549, -1696, 2471, -1293, -2635, -2509, 569, 3005, -4866, 2653, -1317, 3220, 1841, 2837, 1687, 1035, 181, -2230, 1450, 1603, 1252},
    {-4662, -3325, -2497, -2044, 554, 2772, 1913, 2743, -9436, 770, 2673, 3707, -8586, 637, -3768, -5435, -3963, 3007, -3983, -740, -2635, 3152, 1320, -613, 2213, 3426, 292, 1110, -1071, 3814, 634, 2724},
    {1884, 4473, -3609, -2570, 6489, -2752, -4595, 1387, -5011, 3434, 3624, 7039, -3805, -3232, -1914, 3537, 1751, -2114, 2461, 3381, -1587, 121, -2303, 4620, -3836, -2311, -1, 1195, 5299, 5330, 331, 1586},
    {-494, -5174, -1540, 2689, -1459, -1871, 2317, 217, 959, 2264, -2028, 2749, 3625, 396, 9972, 1817, 1849, -2048, 2203, -2290, -6347, -4171, 2947, -1589, 6792, 276, 4745, -2455, -3264, 6896, 110, 256},
    {-1240, 4396, 3854, 7142, -4308, -2323, 1206, 1483, 1352, 2434, -1263, 3081, -1052, -1583, 5606, 719, -4454, 3624, -5212, -8873, -2500, -3670, 4015, 6652, 858, -1718, 5663, 879, -902, -3144, 5565, 2758},
    {5972, 5838, -4005, 3501, 3128, -1522, -481, 2, 3448, -592, -6924, 779, 1369, -5427, 1707, 946, 2530, 7506, 3449, -2166, -7095, -3152, -2261, -1702, -7983, 2146, -3355, 980, 993, 647, 350, 2539},
    {6088, 949, -80, 1882, 2723, -74, 2101, 640, -132, -804, -229, 1239, 45, 3850, 638, -682, 4173, 2703, -4763, -9802, -2350, -10715, -868, -1405, -1817, -1168, -6202, 4330, -483, -4535, 3967, 3913},
    {6385, 4790, -4416, -6778, 8733, -3955, 4779, 5190, -7720, 1671, -9089, 3190, 5292, 552, 5924, 1571, -480, 1898, -2400, -930, -8600, -1242, -8036, -1669, -7074, -6849, -9058, -497, 2780, -7204, -501, 10440},
    {-2374, 2783, -5380, -2563, 5776, 951, 8402, 6038, -6576, -2011, -3130, 923, -1100, -1216, -2755, -4881, -1667, 642, -8449, 2929, -2775, -4869, -8841, 1642, -6717, 4023, -13768, 5804, -217, -5070, 2063, 470},
    {1073, 29, -2009, -6000, 6790, 2555, 5677, 450, -8462, 5508, 2581, 3697, 1888, 1107, 7172, -3068, 3207, 1123, -4492, 1967, -5627, -2077, -1918, -2624, -11305, 1308, -5648, 5508, 2993, -2124, 2842, 6362},
    {-1106, -1480, 4388, -5670, 12769, -1447, 2107, -2214, -9913, -697, 2949, -2448, 5841, -809, -674, -8642, 4114, -5332, -7693, 5677, -438, -2944, -7482, 5216, -5277, 8592, -9145, -594, 6590, -3409, -3274, 3013},
    {-512, -4910, 2024, -4046, 12419, -4529, 7636, 2754, -3771, -155, 11850, -1519, 9099, -7082, -3950, 396, 8063, -7125, -10858, 375, -1101, 541, -6675, -3740, -7940, 8834, -10507, 52, 1761, -688, -2625, -3650},
    {7444, 5034, 6202, -5050, 11025, -9153, 5198, -1922, 471, -854, 10766, 12627, 6599, -6312, 3252, -3629, -614, -3990, -12298, 7367, -6002, -2695, -3378, -1094, -4672, 1328, -4804, -1947, -2141, -2565, 4755, -5064},
    {6599, -2799, 6293, -5743, 9938, 1502, 7412, 2690, 5323, -502, 10797, 3997, -892, 560, 1302, -5530, -20678, -1528, -7239, -4654, -2022, -2676, -4163, -1176, -9646, -6700, 745, -7330, -1711, -986, 6362, -6445},
    {-2164, -4073, 6783, 3356, 15096, 16169, 5263, 783, 530, -1256, 11558, 6518, -982, -3482, -3403, -1234, -24645, 2024, -10481, 2100, -2520, 1231, -5306, 428, -997, -7346, 5870, -3340, 1133, 5791, 4620, -3706},
    {-718, -2989, 4079, 4886, 2840, 5918, 4307, -1433, 9295, 656, 9743, 4409, 3036, 5932, -8072, -11110, -23195, 6459, -6108, 4452, -6736, 1775, -2972, -3349, -4593, -4781, 5470, -4765, 3441, 814, 7987, -1216},
    {3718, -4091, 11011, 3307, 4692, 6771, 14527, -29, 2268, 559, 11138, -5970, 2018, 3906, -5984, -7141, -313, 14198, -10721, 9730, -3152, -1774, 268, -1758, -5344, -3495, 10078, -1272, 8067, 3353, 450, 2163},
    {435, -2406, 10564, 6533, 7074, 5932, 8642, 1022, -3838, 9027, 12366, -7038, -217, 3314, 2124, -12628, 10788, 21289, -14383, 7724, -10, 3934, 3819, 1954, -3848, -963, 8865, -5901, 7440, 8270, 5608, 1745},
    {330, 1696, 7622, 4583, 6326, 3285, 2081, -5325, -3342, 11864, 7546, -9789, 964, 3956, 3987, 1542, 12915, 18012, -7069, 10332, -5590, -112, 1319, 1838, -3929, -683, 8473, -3619, 2175, -720, 853, 4084},
    {-7501, 2341, 3169, 2164, 9373, -352, 6758, 3069, 65, 6491, 4551, -9748, -3273, -781, 2188, 2185, 6647, 12660, -13528, 3135, -5486, -2176, -254, 1062, -5049, -7376, 13212, -2143, -693, 15132, 346, 7293},
    {2667, 2474, 2041, 4864, 1428, -5250, 9564, -336, -1375, 8789, 10583, -7138, -1571, 3147, 7043, -4106, 9900, 4575, -7360, -3297, -5450, -206, 830, 94, 2159, -2204, 3799, -689, -5948, 4069, -2130, 4292},
    {-3465, -766, 2027, 1741, 10655, -8224, 3080, -1679, -2849, 115, 1272, -11051, -1522, 1944, 2721, -3407, 2057, 2215, -7181, 282, 7376, -4369, -2138, -1111, 3521, -8822, 11797, 253, -4866, 2799, -4105, 5012},
    {-3755, 127, -1958, 6085, 1499, 264, 4311, 2021, 6073, 5160, -5081, -4024, 1551, 3865, -8341, 3974, 1287, 2252, -7973, -7283, -1254, 5052, -8535, 2141, -2151, -5498, 146, 8186, -4408, 115, -184, 2565},
    {1459, -1582, -2448, -1465, 5178, 340, -4412, 5133, -9618, 8449, -583, -6566, -2825, 6166, -3715, 2283, -5529, -2122, -467, 3860, -6318, 985, -5222, -5516, 8846, -4647, 6121, -4390, -4296, 2046, 2746, 9852},
    {-633, -1147, 1351, -6537, 5352, -287, -2474, 6629, -3020, -9666, -3967, -9027, -9036, 8490, -5563, 10088, 5874, 1054, 4786, 7781, -4003, 4545, -4116, -5204, 869, -4443, 5126, 6373, -4152, -6786, 78, 8028},
    {-1421, 398, 2580, -510, 4807, 100, 3943, 831, 652, 545, -4176, 3108, 3534, 1706, 2825, 1241, 182, -901, 3288, -797, 2380, 6927, -1884, -6905, -1147, 4917, 4521, 308, -4585, -3830, -4950, 3980},
    {-3584, 5161, 6768, 94, -3196, -3523, 1520, -1360, -539, -2915, -1886, -1549, 3453, 3946, -2669, 883, 1755, 6658, 2435, -3136, -1481, -1087, 1389, 6551, 2421, -437, 2991, -1184, -2850, -887, -1910, 2674},
    {2463, -4311, 1019, -1516, 1521, 13056, -1478, 1493, -6704, -37, -3972, -1429, 3454, 4562, 58, 197, -3472, 1631, 5958, 814, 2421, -4934, -805, -2253, -740, 1785, 2204, -221, -3663, 2772, -815, 44},
    {-4906, -5331, 4184, 3222, 7007, 4414, -6325, 5840, 182, 491, -705, 180, -2285, 2452, -4178, 748, 1458, 1298, 1362, 5673, 6810, -2899, 193, 239, 3446, -1178, 375, 1766, -1382, 1923, 1744, 4646},
    {1573, -2911, 7533, -7088, -2209, 2936, 2342, 2608, -4308, 2465, 676, -5360, 1863, -5849, -2244, 1152, 4347, -1694, -687, 3321, -415, 424, -1421, -1532, 1487, 3017, 1549, 1924, -6166, 2697, 3901, -1293},
    {-5498, 2045, -3271, 1399, 917, 3137, -201, -798, 3388, 6687, 1768, 215, 4061, -6503, -3769, 2612, 4262, 280, 2192, -6162, -2560, 8860, -2425, -844, -127, -457, 411, -773, 4723, -1624, 1753, -4009},
    {-3078, 1732, 402, 2236, 5694, -6162, -5316, 505, -4887, 9538, -5212, 195, -2841, 1859, 6552, 8969, -5195, 1522, -195, 550, 1738, -418, 2746, 58, -96, 939, -1845, -1674, 2540, -4206, 880, -1578},
    {72, 884, -360, 3750, -3792, 1326, 5398, 473, -2545, 7499, -1154, 1432, 2785, 4068, 8179, -5053, -1085, 1258, 1794, -3738, -3854, -2412, -130, -1996, 4358, -5388, -5595, 4910, -3250, 2134, 3371, 2161},
    {-379, -1024, -2773, 5774, 887, -5502, 4093, -4817, -6382, -2432, -4276, 1377, 4401, -6699, 4640, -1700, 3258, 1443, 1636, -10058, 236, -1384, -2885, 5070, -1575, -3116, 4038, 1444, 2148, -4833, 1191, 2809},
    {5706, 5048, -1919, -1573, 646, 1826, 7201, -4247, -8642, 4806, 515, -4192, -3395, 777, 13866, -2657, -1800, -3216, -1078, -1012, -10733, -2556, -3362, -2398, -2966, 4107, -2935, 292, -4619, -6706, -2886, 10158},
    {-3984, 6280, -558, 473, 3417, 223, 5752, 2426, -4332, 12479, 919, -9873, 6628, -112, 4020, 5082, -1278, 384, 651, 1522, 1254, -2335, -7887, -1677, -4011, -3533, -3301, 910, -10, -2220, -2244, 9654},
    {4104, 1293, 1611, -8545, -1924, -2678, 11705, 2938, -6195, 1232, 3982, -10888, -717, 517, 429, -390, -549, -4731, -11332, -635, -1307, 832, -7601, 5425, -7605, -413, -7189, 3292, -3906, -5152, -930, -393},
    {5347, -2855, 1496, -5039, 9164, 4501, 5080, 4034, -3021, 7435, -170, -7072, 2988, 3171, 5449, -1367, 5719, 4305, -2342, 8302, -3090, 282, -6444, -724, -7651, -4253, -13682, 227, 3673, -1423, -5015, 2262},
    {336, -283, -1924, -1600, 8981, 2660, 5168, -3723, -2365, 6107, 1341, -5346, -930, 1394, -899, -5303, 5417, 4015, -5404, 4089, 10, -6622, -4936, -1066, -2384, 9160, -11058, -3929, 1177, -4649, 2302, 2965},
    {4872, 1559, -5164, -5480, 8934, -694, 5523, 588, -7709, 4489, 7647, -4172, -1140, 2228, 1346, 953, 12934, 2249, -4961, 639, -2134, 1934, -5510, 1618, -10996, 8978, -5680, -164, 559, -2812, -935, -5903},
    {-10200, -3012, -863, -8837, 5151, -6783, 7472, -30, 5242, -342, 9081, 2408, 1806, 6337, 2166, 645, -3901, 4411, -10308, 2944, -2710, -3079, 1392, -757, -11327, -2823, 5881, 1447, -1689, 1133, -2105, 4757},
    {-7461, 2560, 4387, -5648, 3212, -4356, 10464, -4334, 5034, -3271, 4116, 1583, -820, 8100, 2096, -15, -10167, 6050, -6571, 3629, 2964, -6491, -353, 1357, 1011, -5355, 10394, 1479, -5874, 3824, -1060, -2094},
    {2072, -693, 6243, 4750, 4380, -1870, 15464, -69, 2446, -4374, 11049, 11921, 520, 4895, -311, -942, -26757, 9235, -12913, 1837, -1401, -2782, -1355, -431, 8782, -13100, 3475, -6726, 4300, -1677, 3147, 2548},
    {1144, -1060, 11772, 8069, 8270, -1650, 5100, 511, 6195, 4665, 6101, 14113, -646, 13351, -8037, -8726, -19210, 17318, -11763, 3597, 4340, -2134, -5853, -4190, -94, -10363, 1949, -5595, 9152, 5884, 5227, -202},
    {-2601, -2331, 9374, 12027, 5402, 2761, 7269, -2215, -3869, 2084, 12474, -10971, -3187, 8235, -4200, -7959, 6003, 15506, -14758, 4455, 1391, -3568, -4805, -2283, 1725, -5772, 6108, -8534, 7045, 5667, 4957, -596},
    {1907, 5591, 3345, 6986, 5871, 1671, 2746, 918, -2820, 9718, 10427, -8023, 2657, 1752, 10353, -4133, 12363, 18981, -11908, 4218, -3006, -7915, -15720, -3903, 6799, -4756, 4896, -1530, 8968, 10584, 3715, -3400},
    {-999, 4519, 4144, 7798, 3919, 205, 4330, -1655, -4654, 9975, 13865, -14393, -1248, 7400, 9554, -2007, 8543, 8004, -12810, 7401, -3519, -5685, -3622, -2361, 8596, -14576, 3074, -3878, -3084, 6891, -1971, 3026},
    {2052, 5354, 2329, 9585, 8216, 2175, 5456, 1708, -3204, 12623, 2928, -12139, 1704, 4070, 4668, 2489, 6726, 1557, -14005, 3730, -7110, -6396, -7083, -959, 6420, -12570, 5852, -1870, -5358, 2148, -483, 504},
    {-1778, -2693, 3310, 8669, 8417, -4977, 1038, 7848, -5786, 1152, 3682, -6282, -259, 8698, 1062, 4331, -2360, -3132, 341, -1718, -4391, -6997, -5080, 3371, 604, -8803, 3622, 7167, -4538, 2550, 2329, 4167},
    {-3399, -6170, -4446, 4537, 8611, 1922, 11396, 7180, 3767, 1422, 8953, -4260, -4174, 6664, 1836, -897, 2386, -1627, -14423, -6880, -3696, -938, -6019, 261, 148, -10371, 4716, -3508, -8292, -3900, 1734, 491},
    {-10155, 2145, 337, 4162, 1167, -491, 2498, 211, -1484, 6305, 1281, -12493, -6393, 3854, -6043, 6062, -8141, -6275, -681, -4789, -10704, -7499, -669, -2314, 9310, -8105, -479, -722, -10126, 2046, 3448, 6362},
    {2322, 3692, -3192, -1026, 5498, 4713, 3611, 4788, -4829, -214, -5801, -5874, -5760, 17655, -11296, 6546, -316, -6276, -7844, -2021, -3258, 208, -2807, -3564, 76, -2416, 6482, -1398, -13338, -1855, -3876, 13399},
    {-4124, 665, -429, -6044, 7275, 3027, -4451, 6424, -4242, -5994, 3307, -267, -2532, 7068, -4242, 12655, -1837, -3331, 67, -70, -944, -4679, -9926, -4796, -907, 3269, 8370, 3916, -7755, -1457, 2582, 7384},
    {2946, -2526, -2069, -3479, 11553, -5544, -2083, 8171, 531, -2539, 1096, -3872, -1732, -2656, -7159, 9626, -585, 3944, 3027, 10867, 654, -969, -1897, 7522, -989, 1244, 1216, 4506, -5654, 4458, 1233, 4025},
    {-6464, 6346, -3722, -1738, 2985, -174, -203, -260, 1626, 555, -2224, -1316, -569, 1527, -1212, 1089, -2565, -5504, -2081, -393, 2560, 1518, -3801, -977, -3954, -5190, -6065, -3239, -2391, 718, -504, 399},
    {4030, -868, 3632, -2676, -2098, -836, 5229, 1934, 4249, -4658, -5459, -1818, 4189, 3112, -2147, -1105, 2877, 6381, -93, -386, 3937, 508, 6447, 77, -2097, 2698, 4974, -6569, 767, -1960, -1372, -4513},
    {-2729, -1845, 5391, -2939, 283, 3189, -21, -6271, -40, 2953, 435, 2856, 3352, -3875, 5148, -1182, -5754, 2363, -2613, 3374, -1172, 3366, 1849, 6481, -584, -2735, -7568, 1839, 3918, -1915, -1167, -4076},
    {4818, -4322, 125, 193, -6166, -5421, -716, 1932, -250, -3448, 219, -4852, -940, 1553, 3773, -3519, -314, 1392, -4292, 4990, -2895, -4661, -4422, -858, -806, 1291, -1680, 781, -6684, 68, -6958, 6030},
    {-10059, 956, 2356, -1538, 118, 7469, 3742, 1572, -2123, 3351, 3891, 6680, 3707, -5701, 1949, 6661, 1879, 249, 219, 3510, 1680, -2471, 4012, 1932, 1341, 2498, 5, 1721, -1497, -1850, -6087, -2993},
    {-2791, 3475, 2025, -1697, 5146, -1139, 2873, -4020, 1317, 5395, -2, 4198, 2350, 1495, 895, -3271, 1692, 3931, 1733, 384, -3354, -1528, -561, -2189, -5955, 2962, -6498, -1326, -620, -3335, 1418, -1019},
    {352, 1365, 1736, -2251, -8177, -5363, 6160, -1599, -9133, 3812, -2707, 5830, -1795, -2607, 1795, 216, -601, 620, 421, -3091, 781, -7534, -9376, -3571, -3575, 1609, -1300, 633, 1181, -3706, 6851, 799},
    {107, 830, -2888, 7566, 712, 26, 13043, -1438, 859, -364, 817, 2210, -1459, 3313, 10050, -2857, 3407, -1555, -373, -3818, 3371, -4250, -2028, 1815, -3932, -2530, 305, 3569, -884, 2997, 1785, 6203},
    {1466, 3959, -722, 1020, -6040, -2440, 11405, 968, -3572, -2518, 3912, -1809, 2256, -1730, 8031, -9645, -2015, 1150, -3532, 6931, 4698, 147, -12870, 3552, 5860, 1144, -3805, -1238, -1420, 1142, 871, 7537},
    {2368, -530, -4751, -1622, -848, 1299, 11050, -2047, 2160, 1614, -1031, 2132, -1406, 1495, 1263, 1755, 3203, -2752, -5225, 5044, -1081, -5699, -9803, -380, -2510, 1313, -7104, 2473, 2225, -4230, -2168, 5729},
    {1472, -1325, -4882, -2300, 2519, 7349, 7072, 8222, -9788, 1372, 4013, -3471, 4250, 4155, 2161, -2234, 2248, 2450, -6262, 4400, -2293, -1221, -2327, 4797, -3811, 1890, -13244, 1612, 2713, -8196, 4503, 4416},
    {609, 1310, -4842, -4687, 4291, -2498, 14226, 4485, 2390, 4980, -825, -5823, 690, 3268, 988, -2762, 4152, -1346, -6679, 6585, -8111, -3402, 48, -7405, -4705, 3695, -15538, 2025, -6840, 1486, 46, 98},
    {5412, -3134, -3093, -4571, 4363, 1670, 10292, -2045, 7706, 1793, 6696, 4231, 4041, -1198, -4265, -2778, 7352, -1957, -7287, 8786, -1351, -1667, 433, -78, -7284, 5374, -7313, -1330, -6840, -3674, -2535, 542},
    {578, -1905, -8252, -9942, 5610, -1043, 14140, -2597, -1604, 1654, 2032, -1187, 2765, 3394, -7717, 6384, 7409, -4012, -8861, 3206, -494, 1107, 1695, 554, -11532, 3771, 11152, 4114, -5361, -1653, -1433, -1154},
    {-8462, -1270, -966, -219, 8602, -3182, 16242, -1300, 2623, 815, 7147, 12084, -7726, 7250, -3324, 12032, -1478, -957, -5689, 2544, 881, -2602, 1711, -647, -9830, -3052, 13271, -3453, -2950, -3440, -9499, 8514},
    {-5511, 6244, -1231, -1489, 3354, -10477, 13512, -5458, 3745, -4254, 10441, 19503, 1141, 8619, 671, 3540, -13795, -2751, -6255, 62, 3489, -2045, -4569, 1280, 3845, -1870, 20974, -7579, -810, 1080, 425, 895},
    {-2910, 3421, -2278, -1829, 3641, -4366, 11914, -11269, 3751, -4138, 10692, 24143, 5561, 4966, -6170, 264, -25636, 3829, -12168, 7939, -1907, -8870, 292, -1434, 9217, -6647, 9107, 1826, 5993, -4240, 3916, 447},
    {4974, 4851, 8922, 3079, -6120, -633, 7877, -7736, 7332, -2922, 10886, 12156, -2998, 6379, -2280, -5645, -4357, 9723, -14214, -7039, -3947, -5829, 2645, -7722, 10696, -8526, 1783, -5063, 16774, 3055, 4618, -2998},
    {3735, 3942, 7110, 9376, 7006, 6495, 4638, -7129, -1703, -1478, 12748, -12783, -1369, 6168, 12251, 1418, 10913, 4452, -6714, -4484, -3839, -10975, -10053, 3768, 15109, -9956, -5529, -2266, 13364, 2013, 3291, -125},
    {7713, 7481, 6736, 12046, 9050, 3258, 5689, -7947, -1977, 8718, 10976, -11298, 1739, 5018, 10174, -49, 8509, -6099, -1131, -5933, 204, -6482, -8339, -7841, 13248, -2754, -7902, -4158, 5358, -5734, -737, 849},
    {4658, -8512, -811, 7992, 9534, -1057, 4148, -1873, -315, 6462, 7691, -6840, -5600, 6337, 10538, 8243, 5501, -7301, -10815, -6728, -974, -6638, -1813, -2127, 16736, -6768, -11268, 2499, -2929, -3202, -5273, 6372},
    {-785, 2814, 9773, 11049, 8530, -2328, 3841, -78, -2502, 4614, 7000, -10655, -7957, 4544, 6984, -489, 885, -8358, -5935, -5857, -657, -1633, -3892, 5226, 12515, -4445, -2588, 50, -10607, 7047, 5024, 9232},
    {6521, 5277, 2160, 6221, -2520, 1185, 4327, 4863, 936, 12427, -250, -4642, -1622, -197, 4119, 4636, 343, -12798, -5757, 429, -5235, -699, -6428, -839, 5855, -2179, -5990, 2935, -9985, 317, 4892, -964},
    {1495, 6242, -1860, 3802, -464, -4769, -2776, 2260, 484, 6232, 3196, -3931, -4492, 5736, -6251, 8168, -3819, -9977, 6218, -9004, -188, 4368, -3240, 7044, 8458, -1594, -720, 6331, -7319, 4072, 9839, 7081},
    {-3112, 6221, -5400, 7350, 3707, -210, 4502, 3032, -6060, 6119, 1356, 2374, -4672, 5919, -7356, -1055, -6665, -3605, -10697, -6450, -6487, -5000, -10141, -3095, 8104, -606, -3757, 3254, -6595, -2299, -2189, 9137},
    {-3829, 7500, -3137, 10648, 4424, 9917, 3009, -1973, -2914, 2106, 1997, -932, -4842, 7714, -12764, 7302, -29, -2040, -5244, -197, -5191, 4495, -15624, -628, 5351, 1630, 3502, 5878, -7264, 378, 1824, -119},
    {-3896, -191, -4074, -6158, 6479, 1006, 1281, 2992, -10967, -9621, 1655, -1863, -6983, 12576, -13659, 7371, -6406, -2353, 445, 2731, -2664, 621, -7924, -617, 2403, 6147, 5094, 7079, -13157, 941, -3213, 4442},
    {1694, -3016, -1049, -5624, 8243, -1304, -2006, 4221, 664, -7019, 5700, 227, 3148, 2851, -5276, 11913, -937, 1971, 685, 6653, 316, -5289, -3020, 2357, 2433, 1098, 995, 8714, 582, -9298, -10582, 6821},
    {6443, 7495, -813, -3827, 6326, -161, 116, 2691, -938, -1804, 2568, 548, -4879, 3001, 7913, 910, -1837, 1179, -857, -6217, -447, 1357, -1776, 2649, 2569, 4278, 4050, 4702, 1105, 3929, 1919, 1489},
    {3649, 3374, -3086, 1759, 1231, 5551, -3467, 3196, -5528, -3657, 687, -698, 2113, -464, 2413, -4132, 1245, 1054, -7164, 1245, 4008, -1063, 3958, 2639, -3454, 5432, 1834, -1891, -3160, -2497, -6416, 2080},
    {3134, -2490, 259, -8054, 2608, 3239, 4905, -2495, -1499, -63, -3914, 2243, -7710, 2579, -3857, 1400, -2892, 2812, -1761, -1197, -1012, 830, -1232, 386, 2051, -1197, -3296, -1230, 1787, -3513, -1509, -1117},
    {2637, 1121, -2199, -2036, -1746, 3184, -6376, 1781, 3466, 5462, -1931, -28, 1291, -1231, 537, 2892, 2004, 8452, -521, -1460, -642, 171, -478, 737, 1449, -4461, -913, 8080, -1986, 966, 4211, 1442},
    {23, 1155, -2604, -1084, -1342, 1065, -2843, -4580, 518, -1874, -2847, -3915, 1423, 3595, -66, 8585, 2886, -4730, -4497, 1714, 8889, 1476, -2224, 495, 3712, 1491, 852, 640, 1900, 3350, -148, -1853},
    {-1301, 3636, 4303, 1999, -1350, -4835, 7140, -5814, -1497, -2351, 2139, 846, 2917, 2044, 2079, 2324, 380, 4351, 1075, -3124, 3433, 2602, -6452, -3748, 38, -3762, -1654, 303, -4578, 192, 3551, 5522},
    {-2159, -79, 1574, -6759, 1221, -2468, 7495, -4998, -1172, -702, -2036, 69, -939, -602, 2067, 3759, -3476, -2630, -1409, -2501, -2163, -5256, -10819, -590, -4882, -2802, 1173, 4768, -3836, -3208, -198, 4755},
    {-1487, 3572, -4135, -7205, -794, -7777, 11366, -6901, -1060, 1931, 3570, 2546, -1650, 76, 241, -2863, -3003, 3966, 2920, 3625, 5852, -4454, -3680, 7559, -821, -227, -4821, -678, -6859, -995, 820, 2748},
    {1423, 4735, -4919, -4254, 4247, 6205, 8893, -421, -3944, 3990, 2248, -4565, -2606, -5820, -2022, 2143, -3687, -481, -1789, 3962, 5169, -2336, -1567, 1970, -4039, -5494, -18813, -1297, -5229, 1335, 4214, 4613},
    {4669, -4682, -2034, -3772, 793, -2762, 7670, 3367, -4295, 4788, 4087, -4189, -1904, 2134, -2069, -325, -3747, 1181, 2843, 302, 5465, 6785, -1259, -2286, -1728, 1076, -14546, 2050, -11030, 2229, -1882, 1420},
    {1550, -3030, -5596, -4418, 6358, 5905, 7789, 3480, -1694, -3426, 10237, -2952, 3221, 9106, 307, 2876, 2958, 2887, 26, 7759, 1258, 4805, 218, -1859, 1246, -647, -14193, -7300, -8869, 1244, -2285, 222},
    {8793, -5387, -1779, -8167, 14128, 2062, 9594, 4582, 3871, 1942, 5217, -1329, -5728, 10305, -1433, 2480, 7175, -1683, -2805, 6769, -382, 3892, 587, 1972, -8256, 3192, -16763, -1519, -5408, 662, -3932, 3279},
    {11038, -5018, -4594, -4279, 3501, 4449, 10523, 2347, 2901, -4382, 2512, 5714, -2161, 1108, -7174, 5659, 7844, -7208, -4049, 6323, 1934, 612, -3389, -3901, -10223, 6728, -2401, 4990, -11813, 4473, -11635, 5801},
    {-3202, 1425, -3389, -5965, 3894, 2008, 13991, -2930, 4254, -8465, 1570, 16389, -2426, 4219, -7223, 8847, -2972, -10015, -5973, -990, -3092, 7166, -1871, -903, -7018, 4991, 14621, 971, -4385, -731, -2279, 524},
    {-6698, 9530, -9762, -2204, 4250, 629, 7077, -4781, 6507, -4220, 381, 19609, -7494, 10316, -8680, 18315, -7759, -9646, -10739, 3128, 2151, 4064, 5557, 3295, -939, -1003, 13790, 4803, -6656, -996, -2111, 5318},
    {-17498, 4312, 1883, -551, 3185, -4833, 10286, -17114, 2204, -862, 1827, 27480, -3958, 8297, -2933, 15077, -21804, -6413, -9594, 5968, -1381, -3014, 2474, 661, 9552, -4494, 15495, 3124, -235, 5109, 4416, 4408},
    {-7538, 9485, -8227, 2251, -5048, -9076, 8771, -15073, 3697, -9466, 14407, 19556, -1878, 5077, -4481, -1682, -13672, -12607, 593, 12478, -4351, -5511, -1066, 885, 22484, -611, 3254, 7311, 7660, 3408, 3852, -2155},
    {-1092, 2467, -2606, -22, -7087, -10773, -536, -16252, 2217, -14198, 11848, -4573, -2949, 2555, 6844, 3433, -3321, -5051, -1100, -6953, -14728, -2746, -6429, 1449, 25538, 34, -4155, 6640, 14579, 4256, -2024, -1685},
    {1877, 1181, 3815, 5576, 229, -4452, -476, -13633, -4779, 2400, 13769, -13144, -8492, -3488, 13066, 1534, 8673, -2662, 1348, -4004, -6091, -6050, -3254, 1713, 12793, -1860, -320, -5460, 15966, -2900, -318, -4309},
    {1737, 917, 4696, 2472, 5302, 5061, -4233, -11765, -4924, 10082, 5670, -14635, -4506, 2184, 14596, -1394, 7511, -6728, -306, -15220, -863, -4472, -3660, -9060, 15072, -1559, -9796, 5144, 4380, -634, 2434, -157},
    {2648, 6959, 6670, 1846, -1555, 8897, 203, -10018, -569, 13061, 2606, -9089, -3564, 7242, 14020, -313, 6602, -11156, -268, -2888, -2738, -3616, -4285, -2210, 8311, -1440, -10563, 2891, -11124, -3043, 142, -3786},
    {736, 345, 2561, 6648, -903, -578, 3486, -7069, 3224, 9241, -1222, -5515, -6471, 7549, 12146, 3241, -742, -15734, -176, -6245, -4442, -278, -2164, -4564, 18294, 4445, -8332, 8841, -11266, 111, 4174, 5352},
    {1254, -5868, -167, 10101, -2973, -99, 585, -1505, -5908, 14475, 3608, -7547, 1000, 5232, 8798, 3302, -843, -16085, 4442, -2870, -3554, -5208, -3538, -4721, 7640, 2380, -12172, 5692, -9317, 6503, 8666, 5009},
    {-2728, -909, 1755, -793, -4037, 8014, 4369, -4135, -4938, 16247, -8379, 928, -6702, 7755, -3978, 73, -587, -14617, -6097, -3671, -12243, -3744, -5138, -7157, 7465, 4331, -7911, -320, -5518, -3337, 8905, 5901},
    {-3353, 4846, -2756, 13300, -204, 5856, 4608, -5067, 341, 15148, -2000, 1030, -8876, 4112, -10447, 2579, -917, -15113, -4169, -95, 1337, -4249, -2737, 98, 3114, 1479, -7871, 4111, -7442, -2736, 7386, 1016},
    {-5051, 3222, -2717, 5357, -764, 4485, -2420, -1501, -8196, 5101, 5015, -5713, -4402, 5887, -19664, 1342, -10161, -8198, -1792, 13365, 4694, 6094, -17507, 3864, 13105, 733, -8764, -2078, -8886, 1412, 3303, -1552},
    {-3053, 1633, -627, -4720, 7265, 4761, 120, -1445, -3970, -7983, 1444, -7637, -2303, 1579, -19073, 3769, -992, -7840, 4779, 16944, -4587, 182, -16410, 5485, 13507, 7617, -2326, 4927, -3543, 6486, -2268, 6524},
    {-5515, -412, -6228, -1945, 9478, -1214, 6276, 4668, -701, -7278, 5647, 2156, -4395, 496, -7596, 10602, 1674, -5690, 1010, -2192, -7511, -2923, -5119, -3928, -726, 6119, 1315, 4257, -1852, -230, -3255, -1923},
    {-6198, 2138, 1972, -1098, -2814, 5551, 6934, 1157, -2807, -2231, 3475, -6570, -2885, 3153, -566, -882, 427, 614, 3511, -4264, -3711, 2718, -5262, -6202, 3059, -1713, -1192, 5389, 3625, -2460, -1816, 2000},
    {6038, 512, -3548, 1901, 4520, -4636, -2029, -629, -77, -3812, 1879, -1142, 701, 3962, -2202, 2641, 2109, 1623, -5846, 813, -2885, 479, -3007, -5709, -2803, 3340, 1171, 1754, -409, 5664, -5258, -1212},
    {1575, -4150, -667, 2690, 129, 1929, 344, 353, -244, 1186, 1831, -2510, 3228, 4271, 1014, -4315, -961, -90, -650, 1127, 4977, -686, -4943, -2737, 2001, 4273, 428, -27, 440, 2201, 1432, 131},
    {1972, -2508, 2153, -29, 3404, 3941, -3477, 236, -1778, -1151, -530, -1988, -5587, 744, 889, -848, 1365, 1692, 4060, -3350, -1920, -914, -636, 2593, -3735, -891, -3316, -1339, -2580, 597, -2983, 2147},
    {-2276, -1534, -2944, -2936, 8857, -2102, -3936, 1092, -7617, 5519, 4069, -1595, -1851, -7039, 2907, 657, -2823, -4250, -706, 7540, 4897, 2169, -2424, 1866, 1459, -2963, 3558, 7165, -1228, 3311, -1656, -1086},
    {-4122, 1310, 4472, -2324, -5715, -3193, 4912, -2448, -1052, 8500, 2898, 1685, -1893, 3049, 2834, -2977, 5464, 1147, 6881, 1520, -1945, 4805, -1043, -1674, -5070, 4503, 877, 4, 474, -7785, -3103, -4045},
    {191, 799, -136, 1255, -5881, -12014, 3234, -8198, -4468, 2543, 5002, 2708, -1379, -1247, 875, -3246, -114, 5933, 6266, -3192, -2978, -3118, -582, 88, -2724, -1232, -1105, 3530, -1922, -791, 542, 4331},
    {6353, -1145, -452, -9174, -317, -7408, -1009, -2212, 817, -3598, 10179, -3855, -6913, -387, -1761, -1043, 2898, -2142, -127, 9018, 1803, -3401, -310, -1186, -1362, 2802, -2877, 71, -2916, 1320, -3805, 8658},
    {8537, -2511, -2492, -6288, 11065, -4644, 4530, 1407, 1043, -452, 7392, -5593, -9423, 5452, -6736, -882, -750, -10739, 958, 6695, 6989, -3725, -3044, -3734, -4631, -8513, -1783, -2080, -2365, -4218, -1169, 6267},
    {2060, -4079, 3587, -12197, -1168, 1295, 4844, 4967, -1889, 3455, 3477, -1184, 2100, 4222, -2617, -123, 1403, -11579, 678, 8569, 9347, 6764, -7630, 3367, -8395, -7322, -9571, -1169, -4801, -2526, 3764, 7531},
    {2151, -3121, -1081, -7568, 638, 6806, 7031, 5009, 2394, -1958, 2081, -2529, -2896, -2461, -7401, -1814, 2020, -8906, -2520, 3773, 7203, 8189, -2113, 2630, -2109, -1595, -13744, -4171, -1278, -1790, -2525, 6922},
    {10439, -1503, -804, -5194, 5254, 2702, 7624, 9834, -4176, -4852, 4741, 6479, -7462, 3867, -1431, 4126, 1255, -7076, -5541, 6796, 4036, 14016, -722, -2672, -4014, 1915, -16036, -2289, -9589, -369, -4508, 9585},
    {4681, 1340, -5174, -2689, -8456, -2368, 7468, 7911, -1326, -4206, 1220, 12672, -7013, 4551, -3712, 11875, 6471, -13309, -11066, 6798, 1526, 14310, 4868, -2907, -802, 2492, 2718, 2978, -3433, -3215, -1305, 9687},
    {-1808, 1432, -9793, -40, 834, 6294, 6325, 442, 438, -4498, 100, 16241, -8257, 5428, 1347, 14650, 4432, -18317, -6582, 939, -801, 10488, -2761, -1243, -1149, 5623, 11701, 4932, -1623, 2325, 2006, 4884},
    {-11357, 2432, -8306, -2875, -4355, -1629, 824, -4094, 2874, -8800, -3849, 16224, -9620, 4843, 631, 13811, -11403, -7658, -4029, 3238, -7599, 14205, 7548, -6759, 6911, 2402, 11842, 5538, 1453, 1007, 3894, 9493},
    {-15963, 2515, -10522, -4400, -8708, -6543, -1208, -5813, -174, -5701, 12772, 16191, -13221, 2483, -1418, 3063, -16371, -3354, 2117, 15282, -5856, 2486, 3731, -1441, 15534, -127, 3258, 8896, 111, -687, 9052, 5503},
    {-5773, -607, -1864, 7661, -8681, -12706, -4989, -10692, 7595, -9963, 18434, 8008, -8223, -668, 333, -573, -784, -6883, 14253, 20367, -14034, 7432, -4606, -355, 17360, 3796, 2005, 7677, 11145, -1537, 6141, 2365},
    {-692, -119, -1779, 4388, -12265, -5997, -5337, -5348, 5427, -9710, 14356, -12582, -4291, -4680, 10689, -5112, 527, 152, 3816, 5708, -17480, 4039, 3273, -1021, 9391, 2312, 514, 6521, 18395, -4635, 3228, 3923},
    {3454, -2203, 535, -5145, -843, -2389, -10963, -35, 4493, -2150, 8133, -10033, -5207, -2385, 10270, 2758, 8915, -7875, 736, -2236, -6130, 3512, 2687, 2538, 3966, 7893, -86, 7437, 15009, -10265, 2756, -583},
    {4271, -4961, 9205, -1303, -6316, -253, -4198, -6902, -1220, -90, 11338, -6122, -6929, -5807, 13784, 7895, 6042, -4478, -7443, -810, -8074, 1972, -1960, 6282, 1256, 2803, -9067, 6869, 3222, -6343, 1184, -1823},
    {3203, -7638, 2474, -7130, -3503, 2165, -601, -10762, -692, 7149, 7987, -7535, -6430, -995, 17150, 8468, 4283, -8491, -7942, -327, -2054, -3878, 2449, -53, 4385, 9658, -5217, 1130, -11255, -5738, 6526, -9775},
    {7497, -1894, 2051, 5295, -2963, 2282, -1974, -10457, 1694, 9400, 3686, -2904, -2659, 4869, 13240, 1235, -833, -8368, 1014, -756, -974, -7488, -930, -4551, 2874, 8458, -9166, 529, -13464, -2932, 3336, 1503},
    {9998, -863, 486, 7965, -7608, 7864, 566, -4558, 2753, 10553, 11088, 1448, -874, -1438, 9690, -8965, -3359, -7487, -1729, 966, 737, -326, 3248, -2025, 4343, 3700, -7691, 3144, -5617, 3352, 8759, 1497},
    {271, -1946, -1954, 7501, -5209, -3853, 1178, -7733, 1869, 10863, 5475, -1208, 1444, 682, -9605, -3093, -648, -14461, -3308, -2910, -995, -455, 487, -3660, 2740, 8459, -5168, -7733, -3223, 9746, 4112, -6548},
    {1940, -5245, -7136, 7154, -8922, 1528, 3581, -5955, 5081, 12991, 7931, 4219, -5145, 10250, -12524, -6129, -1979, -16876, 2769, 4240, 649, 2370, -9815, -601, -2421, 3795, -6722, -5159, -4772, 6764, 4919, 1298},
    {434, -1995, -8315, -643, -9272, 7018, -1889, -6788, 2196, 665, 6673, -581, -3479, 8898, -11211, -4892, -5159, -9328, 4503, 12537, 12779, 470, -8499, 3360, 3668, 6497, 27, -3195, -3286, 9327, 4799, -256},
    {-1658, 2076, 579, -2030, -2235, 2525, 1982, -7742, -2324, -364, 8210, -5189, -5433, 2932, -9068, -3373, 1132, -2103, 1024, 7509, 6003, -2915, -8543, -1997, 5187, 4000, -853, -546, -5851, 3034, 4728, -646},
    {-1966, 4976, 2133, 5979, 3275, -856, 9709, -3934, 1472, 11, -1027, -1183, 2637, 3838, -8284, -1588, -3547, 454, 2440, 6943, -3775, -2536, -8055, -4725, 7100, 2160, 32, 1267, 1239, 3770, -339, 9780},
    {-437, -807, 2147, 2379, -3471, 3832, -5079, 3613, 4662, -2734, -5069, -8245, -4636, -1145, 909, -1532, -956, 438, 555, 1795, -903, 3210, -1424, 1889, 6986, 1458, 3963, 4036, -2055, -1534, -3317, 3765},
    {-3480, 3365, -4461, 578, -519, 914, 5699, -840, 9640, 12675, 1645, -7169, 202, -378, 1975, -5095, -2880, 467, 3968, 4033, 1980, 6505, -371, -4448, 3896, -1317, -3922, 841, -1074, 5088, -3493, 1898},
    {-4958, 2049, 1033, -901, 674, 3824, -2911, -2329, -4004, -1723, 204, -2638, -2729, -3572, 1141, -5345, -1338, 3088, -3815, -2254, 213, 4230, 4371, -524, 4553, -2257, -5467, 1492, -67, -4068, 808, 2110},
    {-2547, -3971, -3692, 5246, -1858, -2775, 3162, -1950, 1211, 2315, -4016, -2979, -2735, -803, 4882, -3096, -2387, 203, 87, 516, -2153, 4594, 549, -1819, 5262, -32, 3716, 2637, -5857, 1919, -2610, 2090},
    {-7285, 1545, 3770, 513, 2392, 410, 3455, 759, -1342, 8783, 2006, 916, -1453, 534, 4174, 4245, -2562, 1528, -3094, 1859, 3720, -442, -2820, -5876, -3684, 1328, 1424, 916, 218, 5465, 2249, 239},
    {-375, -1820, 2670, -1328, -90, -4293, 3673, -8781, -3271, 533, 510, 5973, 1465, -1223, -5512, 4889, -3247, 3892, -3494, 6054, 708, -742, -6871, -581, 2260, 5154, 1280, 2566, -1546, -600, -2080, 1420},
    {-690, -1332, 560, -2866, -4711, -6084, 4310, -5187, -3534, 3301, 8674, -1439, -5944, -7833, 1232, -4458, -7527, 174, -5049, 3146, -1203, -2047, 1951, 1548, 321, -3840, 1203, -258, -2716, -3332, -1912, 7361},
    {9588, -3887, -3680, -8773, -1695, -4043, -333, 432, 723, 5810, 8188, 626, -4197, 1132, 5608, 868, -4594, -2307, -3137, 9156, -824, 3368, -1517, 3286, -4142, -875, -1964, 1139, -630, 6115, 627, 2875},
    {10382, -16255, -3911, -2080, 5791, -458, -1171, 2240, 2167, -3153, 2279, 564, -8632, 732, -4472, 2028, 1793, -880, -8087, 3242, 6503, 1565, -3323, -128, -9618, -564, -4716, -801, -4839, -4135, -119, 4227},
    {3033, -6670, -6099, -5919, -1654, -1, -3329, 1394, -6195, 1806, 9749, 11722, -7092, 548, -4909, 7560, 3767, -1205, -5374, 3841, 809, 7896, -398, 1006, -555, -5688, -5773, -5406, -7901, 2010, -414, 15013},
    {11020, -5391, -2232, -7108, 1261, 3676, -2407, 15949, 2273, 2463, 3265, 3031, 1411, 7283, -4551, 8644, 2634, -14010, -7228, 2918, 3771, 8333, 4743, -1630, -1140, -3825, -12344, -2173, -3267, -5670, -1712, 5749},
    {9698, -6264, -8577, 2483, -7074, 3412, -9586, 11503, 3001, 1391, -1943, 17537, -2654, 481, -4766, 9985, 1472, -13621, -6573, 1891, 5241, 12456, -2268, -1774, -3753, -3865, -7449, -1755, -5338, 2275, -1880, 6564},
    {3886, -1073, -3568, -1294, -1118, 1876, -9174, 9239, 622, 2991, -2791, 15245, -14417, 1190, 1415, 13552, 1288, -5397, -5904, 249, 3161, 7504, 5377, 1258, 58, 8863, 2751, -656, -1004, -4749, -1061, 5937},
    {3702, 1546, -8787, 2873, -5591, -2325, -14922, 10694, -2262, -795, -1470, 10577, -15709, 9746, 1251, 14120, -9005, -6027, -3788, -5694, -5232, 11639, 9512, -1037, 6254, -2971, 11755, -4757, -2573, -2228, 4614, 4621},
    {-7212, -5393, -14675, 5339, -6188, 1852, -15280, 15633, -2498, -7936, -15404, 12617, -15163, 12506, 7660, 17135, -6196, -4604, 1383, 1857, -4890, 7567, 4520, -2801, 7629, -618, 2878, 1289, 1843, -2975, 6402, 3946},
    {-10965, 3155, -18638, 10316, -9294, 7196, -18959, 8441, 6733, -14494, 5137, 486, -7929, 5787, 4195, 3941, -2582, -2922, 20700, 8549, -8191, 3610, 4399, -1277, 11010, -4254, 8817, 1102, 4694, 476, 4042, 3442},
    {-16179, 3602, -5747, 8701, -13394, 48, -7909, -186, 4859, -12182, 8575, 3563, -8196, -10492, 1814, -6504, -4468, -4313, 10379, 14997, -11850, 1897, 6228, 5198, 13746, 5920, 1341, 11532, 14296, 326, 750, 2605},
    {-9136, -1664, 6306, -2428, -13023, -9127, -5482, 5510, 5790, -6834, 20179, -16693, -4920, -7678, 6188, -1860, 972, -1279, 10211, 7016, -18541, 2109, 9248, -4045, 13250, 1234, 3477, 4610, 17784, -9932, 4748, 11956},
    {4683, 915, -670, -3651, -9445, -8075, -1466, -2825, 4634, 5614, 11650, -11759, 444, -7151, 16539, 712, 5192, 5882, 8727, -6494, -11721, 11373, 7915, -6307, -4499, -936, 990, 5113, 4605, -3728, 6217, 1760},
    {3312, -5727, 4650, -7019, -2205, -1299, 6113, -8580, 5640, 5240, 7805, -7192, -9168, -7039, 17381, 1502, 8689, -3058, 2607, 3227, 2666, 1427, -1312, 1750, 1021, -961, 1516, -3568, -7026, -5718, 5066, -1817},
    {3726, -4765, 6720, -108, -1, 7622, 4195, -7453, -3134, 981, 5872, -749, 1094, 1047, 13254, 4555, 5800, -2816, -1861, -198, -4027, -659, 2020, -1785, -632, -3506, -435, 4253, -6882, -5448, 6140, -1116},
    {1891, 1120, -5979, 6583, -2430, 6862, -2061, -3873, 5382, 8379, 4930, -1586, -6721, 646, 10585, -850, -4353, -9738, -3387, -761, -3084, -2149, -1832, -4260, -3124, 9036, 1811, -3518, -6309, -3576, 1607, -1613},
    {11899, -8518, -1043, 4509, -2542, -1013, -3841, -64, 2784, 9052, 3589, 2188, -10175, 2517, 222, -2483, 158, -6852, 4160, 1153, -1732, -1354, -1388, 35, -10220, 484, -4796, -6245, -6993, 1315, 2949, -48},
    {5572, -6875, -7256, -339, -8703, -173, -2698, -2872, 1203, 9290, 2807, 599, -3341, 9005, -3638, -9262, 7574, -16782, 320, 4354, 4366, 3602, -3938, 2994, -10041, 750, -567, -13556, -1193, -2747, 100, 1690},
    {12174, -4790, -474, 3744, -6247, 67, -1245, -8234, 1132, 5466, 5249, 3964, 419, 3194, -2790, -6878, -1172, -11470, 9528, 5210, 3728, 4035, -1167, 5605, -745, 1949, -6466, -7535, 3045, 7285, 3734, 3480},
    {-3389, -6426, -4726, -948, -14866, 5133, -3783, -3001, -1199, 5189, -1464, -517, 1555, 5995, -2443, -13057, 2172, -6609, 4306, 9320, 11538, 1789, -2460, 222, 148, 1761, -9707, -3778, -2417, 10854, 1526, 903},
    {-6230, 4793, 2197, 4741, -6777, -1366, -6334, -5861, 5386, -773, -2311, -758, 1606, 3572, -1296, -4252, 3038, -4457, 1047, 11732, 4451, 339, -9333, -583, 72, -1292, -2260, -4508, -2161, 3802, 3033, 561},
    {-120, 6691, 3617, 337, -3786, 2370, -107, -6298, 599, -2718, 2086, -3468, 3669, 879, -6244, -2207, -1271, 1511, -699, 6736, -3170, -5224, 48, -230, -783, 4991, -2284, -510, 251, -1355, 215, 1423},
    {5928, -232, -1523, 3890, 2774, 1552, -2034, -5209, 2204, 6646, -641, -654, -314, 1539, -10493, -6815, -7377, 4487, -87, -1974, -4925, 604, 971, -2719, 4060, -804, 1156, 6333, -1174, 424, 953, -569},
    {-5905, 5573, -904, -4864, -3297, 4007, -1755, -2008, 744, 1145, 1316, 4392, -1126, -2937, -2698, 4592, 3136, -4343, 5697, 2121, -6246, 943, -3652, -4007, -396, 3061, -3381, -3676, -2781, 534, 863, 2508},
    {632, 725, 2565, 2131, -190, 3185, -2791, 4445, 401, -4282, -738, -118, -2746, 235, -4402, 1310, -9137, -4683, -4114, 2814, -1313, 2201, 3788, 1043, -1893, 215, 5870, 3459, 4027, -5583, -2458, 543},
    {4094, 3461, -3565, -3130, -1246, -525, -804, 584, 473, -475, 849, -2492, 1265, 2969, -7140, 242, -3375, 124, 11159, 2576, 2416, -5449, -1139, -5460, -3903, -8236, 2489, -1557, 272, -1711, -2783, 4036},
    {1800, 123, 6308, 5155, 1199, -5070, 6288, -921, -5642, -3056, 3020, -3140, -5422, 6118, -805, 1853, -6270, -4332, -150, -4246, 2628, -4195, 1809, -1362, -1451, -1605, -1153, 3927, 2301, -1664, 1637, -4568},
    {-3424, -7283, 2866, 1636, -751, -6454, 1351, 202, -749, 1398, -902, 3649, -2784, -4420, 3568, 5060, -1870, -1773, -5015, 4297, -6346, -5833, 3739, 3737, -310, -2646, -812, -7096, 3265, -4772, -1896, 2971},
    {8792, -3568, -2724, -1264, 43, -1418, -7906, 1006, 3168, 5766, 10440, 1064, -4436, 6318, -2759, -463, -7077, -2842, -1104, 1762, -734, -736, -2734, -4439, 6616, 1307, 2421, 5404, 5093, -1225, 1691, 156},
    {5163, -12204, -182, -6638, 3365, 1131, -10655, 2036, 1623, 650, 3212, -936, -6707, 3218, -86, 3551, -3118, -3890, -1408, 6751, 5751, 72, 4942, -1404, 2160, 1579, -10914, 279, -3425, 493, 7200, 947},
    {866, -9894, -2087, 1254, -5130, -5648, -10972, 8380, -814, 1578, -1462, 6706, -7956, -673, -6715, 7122, 2474, 63, -4289, 2269, 6427, 5317, 1522, -6466, -2105, 2272, -4075, -633, -2774, 4727, 1756, 3625},
    {207, -8556, 4306, -2630, 636, -1331, -18814, 11006, -908, 1352, 1378, 3483, -9551, 2537, -6403, 10730, -2998, -4945, -4355, 2915, 8300, 7120, 5548, -7495, 733, 32, -4813, -8557, -9943, 3496, -7213, 728},
    {1587, -6295, -6267, 113, -5909, -492, -13146, 7537, -9175, -1466, 2323, 9056, -10467, -1518, -5295, 6131, -3063, -7706, -209, -6986, 6637, 8331, 8817, 1077, -1706, -5702, -3767, -3482, -22, 262, -10017, 4837},
    {9349, -1774, -4756, -2552, -2610, 6658, -8175, 5803, 947, 20, -1441, 14608, -11132, 6695, 371, 10538, -3540, -1640, -3654, 3832, 8117, -1998, -1308, 1759, 5466, -4762, -7077, -2531, -6054, 1803, 2386, 10918},
    {5686, -3350, -6533, -1958, -700, 4506, -12588, 14272, -8449, 2920, -3390, 3284, -14385, 2296, -478, 12714, 17, -7405, 988, 2396, 6825, 8666, 13844, 4582, 9898, 2200, -2935, -7137, 722, -2769, 3382, 3050},
    {2089, 6408, -9014, -5669, 3743, 3048, -22398, 12461, -4700, -1039, -9981, -2241, -6140, 3057, 2881, 7925, -7954, -3471, 6793, -7162, -3410, 7858, 11439, 1018, 6248, 3336, -3531, -5060, -670, 4812, 4531, 3823},
    {1702, 8629, -9991, 3470, -4450, 8506, -29386, 18405, 1440, -9492, -7918, 1235, -2392, 9955, 5049, 985, -8690, 3093, 12941, -1343, -3061, 844, 11384, 864, 5986, 4383, 3871, -2116, -4271, 2339, 5978, 4267},
    {-14446, 11534, -13695, 6854, -5736, 10848, -12449, 5440, 5023, -13336, -1093, -1713, 306, -1129, 2232, -9977, -6369, 3227, 16802, 11855, -12843, -240, 14248, -10188, 5485, 1545, 11560, 6665, 8107, -3067, 8182, 2566},
    {-10573, 3576, -1442, 5287, -2547, 6657, -10275, 3831, 14844, -8291, 7422, -4619, -1095, -8463, 5549, -10967, -47, 4918, 8519, 8277, -7981, -3324, 9134, -529, 10353, 1329, 8650, 10077, 14778, 4326, 4404, -687},
    {-5375, 3699, 2599, -2298, -11921, -2890, -3497, 8347, 16309, -2843, 4285, -6188, -5131, -2607, 8322, -7996, -1187, -2870, 9172, 12155, -9650, 18744, 13657, 4796, -481, -1841, 11330, 7281, 12826, -4554, 5103, 7537},
    {1535, -851, 2741, -3933, -13735, -5600, 3225, 2979, 4841, 557, 6409, -9618, -329, -8654, 7472, -4729, 3085, 7476, 7813, 3626, -9917, 9562, 10897, -464, -5672, 5017, 2171, -3523, 4152, -5066, -3025, 4070},
    {6903, -343, 4502, -506, -9677, -461, 11103, 312, 7796, 3338, 4232, 1889, -5178, -2216, 9844, 548, 7738, -832, -1914, -6791, -4298, -1549, 3582, -949, 4818, 449, 6199, -6866, -3581, -2201, 6897, 1370},
    {6794, 415, 3857, 1302, 2701, 2806, 2266, -1824, 5932, 1737, 5890, -1047, -11591, 880, 4111, -270, 842, 3948, 8470, -5544, -678, 11782, 8260, -3511, -5584, 387, -6794, -667, -5455, -5221, 4170, 994},
    {10697, -822, -4188, -1755, -2467, 1515, -2678, 2212, -121, 7844, 3083, -6982, -2621, -2155, 232, -6421, 1211, -4142, 3562, -3851, 2019, 5008, 3889, 3656, -5980, 2291, 676, -4745, -2948, -8630, 4023, 3305},
    {6819, -87, -3184, -2016, -1227, 7011, 365, 2103, 4196, -3654, 4340, 1308, -4557, 2934, 839, -1553, 6910, 1250, 7333, -3638, 394, 1264, -323, -5922, -7643, 10503, -5934, -6356, -3280, 566, 3615, 7079},
    {8983, -4179, 1171, 1110, -3761, -2716, 448, 859, 6275, 5292, 784, 1015, -1202, 5971, -2056, -6650, 3199, -5766, 12277, -145, 864, 8891, 9931, 1244, -5469, 2878, -6334, -655, -350, 5382, 535, 2631},
    {1104, -7555, -3528, 1162, -356, 457, -3950, -2088, -4951, 3553, -2044, 2788, -3110, 6894, -5830, -9749, 3959, -4243, 5986, -4196, 8445, 6725, -76, 909, -7284, 1850, -50, -9084, 5113, 9137, 8604, 4771},
    {-2538, -5463, -4723, 1216, -4182, -5820, -6963, 4185, -4097, 5756, 754, 1656, 2872, 10956, -7561, 442, -263, -7846, 8910, 380, 8141, 1180, 425, 555, -7506, -6267, -11650, -11857, 4449, 11343, 8609, 98},
    {-6405, -2049, -11092, 1130, 2152, -64, -4013, -6316, -1838, 7939, -7183, 3913, 5658, 5498, -3263, -2942, 1070, -4429, 3661, 4003, 6876, 2589, -121, -1566, -5551, -631, 3336, 256, 4014, 3322, 3679, -9767},
    {-165, 8143, -5462, 1943, 3664, 733, -178, -2514, 91, 3725, 2975, -1316, -1693, 696, 1747, -6180, -5904, -1579, -5405, 411, -4136, -4354, 1003, -2725, 2562, 855, 1602, -4878, 4118, 1488, -1337, 991},
    {-79, 8248, -4232, 3220, 6213, 1443, -913, -6631, 1272, 1254, 1522, 66, -2354, 292, 2474, -217, -4168, -3118, 3648, -965, -909, -3268, -3796, 2532, -2850, -8387, -1449, 736, -5924, -7410, -2883, 2235},
    {5903, -2839, -3557, -563, 4991, 2023, 5416, -3069, 4206, 2774, 1747, -4177, 327, -228, -1582, -3064, 5451, -1225, 219, -1658, -3966, -1318, 6418, 2800, 2728, 1776, 3732, -1599, -2257, 2266, 2759, 3530},
    {1771, 1669, -2306, -5028, 476, 3398, 4785, 855, 8064, 543, -944, 2457, -994, 8330, -164, 2273, -567, 4140, -4833, 50, 944, -410, -1029, 1315, 1523, -646, 2373, -80, 1612, -1015, 1194, 9154},
    {4208, 414, 4625, -2406, 1526, 1454, -1285, 5558, -2977, 2642, 6495, 4069, 880, 509, 2108, 6, 5876, 2419, -5730, -1400, 2732, 3148, 2583, -4298, 4037, 4785, 521, 1988, 5662, 2744, -3114, -1403},
    {-997, -675, 2796, 4195, -1581, 479, -1754, -530, 6019, -3922, -1666, 2677, -1114, -5327, -661, 1017, -3840, 3818, 670, -3053, 1742, 4267, 4001, 18, 1527, 2991, -558, 3759, 4835, -1153, -138, -2395},
    {5778, -5832, 3676, -1216, 1021, 2080, -5716, -659, 2273, -7896, 4641, 3184, -5874, 628, -6760, -5871, 3283, 3047, 2356, 4221, 4346, 3079, -961, 2883, 3664, 1345, -8269, 4080, -4167, 1314, -224, 3424},
    {2554, 1306, 1066, -3134, 220, 1961, -10397, -3752, -5885, -2236, 4729, 6781, -3874, -946, -735, -3766, 2161, -1432, -5288, -7029, 2817, 425, -1561, -2334, -6486, 5316, 3001, 496, 4350, 1490, 3358, -5512},
    {2267, -13103, -5172, 415, -2053, -1864, -13215, -831, -4622, -1637, -2156, 2265, -10089, 6718, -2864, 6557, 1985, -3658, -6750, -2014, 2749, 10163, 5773, 1411, -2878, -1430, -5085, -6026, -506, 6264, -3211, 2418},
    {3014, -9667, -3646, -1610, -2979, -4336, -11749, 940, 2800, 4391, 4272, 6179, -6789, 7667, -7914, 6935, 5056, -1770, -617, -410, 5324, 1450, 6651, -435, -2614, -2265, -5246, -4889, -4216, 6824, -318, 1019},
    {5861, -6285, -8810, -870, 1785, 861, -12667, 2468, 580, 3882, 2258, 2704, -3755, 2762, -5528, 6971, 1475, 1365, 1017, -4686, 13854, 2848, 7987, 7959, 733, -1411, -4716, -5526, -5356, 5665, -624, 5105},
    {6118, -4391, -4131, 969, 1981, 3011, -12092, 10163, 5334, 1751, 4785, 8893, -4786, 3824, -1731, 15631, -1741, -3746, -4281, -1791, 6112, 11155, 12440, 723, 4766, -2929, -4420, 165, 1756, 1246, -95, -324},
    {1945, -1718, -7965, 836, -1583, -362, -7338, 9575, 1329, 1930, -3911, 7052, -8248, -508, -2448, 11337, -477, -3491, 664, -4337, 11268, 5984, 7073, 3968, 1753, -5161, 3681, -5821, -3128, 418, 5791, -36},
    {5752, 2575, -5193, -454, 2523, -1213, -12259, 9237, -3955, 324, -3966, -1236, -2111, 5297, -2369, 4431, 1395, -3850, 1290, -618, 9117, 4778, 6483, -1862, 3385, 1072, -3101, -7478, 1256, 2657, 3995, 3668},
    {-2062, 8304, -7780, -3487, 1952, 6746, -11228, 13724, -2855, 2560, -2744, -3028, 117, 9121, 7900, -4230, -2858, -5659, 11156, 5464, 4754, 8883, 8590, -485, 5298, 279, -7613, -5774, 5094, 1593, 9961, 1780},
    {1603, 2072, -6459, 10511, 23, 7259, -13605, 12323, 2814, -5342, -6379, -5341, 2603, 12408, 5774, -8866, -6113, -2979, 15979, 735, -1609, 1806, 6911, 6498, 8616, 3738, -2049, -3633, 3214, 9933, 9529, -353},
    {-6756, 12378, 263, 6291, -2745, 10659, -5957, 7983, 7241, -8210, 2396, -2365, 5209, 914, 2066, -9034, 2971, -1823, 15776, 7070, -4601, -1903, 6801, -1063, 2350, 660, 5777, 499, 8523, 4655, 1751, 9377},
    {-12779, 12877, -2720, -1224, -4743, 7950, -3748, 7315, 5696, -3972, -703, -3304, 7740, -5750, 7004, -15029, 8170, -1342, 11933, 9929, -11123, 200, 1963, 2753, 5014, 287, 6638, 4911, 13718, -5700, 4781, 8542},
    {-9903, 3415, 1336, -2684, -8851, 2137, 6875, 5168, 12960, -5056, 2924, 65, 1735, -3632, 2463, 760, 3698, 4560, 13332, 5733, -3126, 2452, 9555, 69, 2895, -5067, 8724, 227, 11849, -8258, -495, 7033},
    {2222, 873, 3435, -7413, -14291, 2920, 6459, 3630, 9545, 136, 5536, -5140, -6279, -725, 15166, -3325, -953, 657, 5127, -2560, -2875, 8715, 13122, -699, 2171, 341, 7207, 1961, 1078, -3630, 553, -87},
    {8454, -1203, 347, 1272, -7837, 7379, 8081, 11971, 4961, 6079, -578, -7900, -7275, 5975, 9538, -2038, 5028, 2960, 3970, -5919, -561, 10049, 9687, 3128, 9589, 3071, 1303, -1411, -2678, -5662, 6644, 8126},
    {7949, -644, 5487, 3720, 2940, -5205, 5578, -6549, 3949, 4160, 6811, -2842, -9114, -1929, 13765, -6083, -1097, 4007, 12537, -2840, -3875, 5077, 1618, -2692, -795, -1902, 2366, -1165, -1221, -3705, 4025, 2615},
    {4863, -1985, -1534, -395, 174, -7483, 1724, -3646, 4849, 8685, 3951, -4673, -4065, 9439, 582, -3828, -2557, 5904, 5911, -7589, 328, 14072, 8241, -538, -7959, -5523, -5834, 1890, 2100, -1550, 4560, 1909},
    {10334, -744, -8925, -428, 1632, -4284, 5369, -1873, -6905, 6706, 5570, 6571, -4206, 2582, 746, 1184, 4552, 4909, 285, 618, 7318, 4380, 5687, -5389, -8387, 5910, 621, -8526, 632, -1420, 5333, 6128},
    {11113, -4238, -3934, 3879, -4921, -1369, 3119, -1206, -2795, 5101, 5670, 6703, -3271, 740, -4133, -572, 8117, 8329, 5470, -1870, 6052, -4824, 4774, 3677, -6865, 1185, -2314, -6070, 2872, 2130, 7699, -4884},
    {946, -3341, -1264, -6056, -124, -6121, -6438, -962, -8003, 7894, 370, 706, -3445, 2468, -6346, 863, 1657, -3331, 4372, 95, 4400, 857, -1192, -1635, -9131, 2, -6637, -4831, 4788, 6136, 3020, -2402},
    {-1370, -6949, -10433, 1614, 7519, -4129, 1236, -1980, -7035, 3535, -10917, 5792, 3241, -1437, 3036, 2761, 3010, -4075, 1939, 865, 4819, -6551, 2562, -299, -8861, 2335, -7825, -7620, 6874, 6092, 7178, -4273},
    {-6532, 3656, -1400, 7714, 7490, 1090, -3980, -8892, -8415, 2038, -2459, -2416, 1364, 4449, -78, 593, -704, 4549, 9461, 3104, 4419, -4366, -3801, 2380, -5414, -5569, -7212, -5107, -1037, 3143, 1094, -5991},
    {4768, 5499, 1800, -2897, -2564, 5084, -10460, -4206, 6806, 4363, -5627, 1577, 9443, -2606, -404, 3003, -3276, 1320, -4404, -754, 5384, -6412, 7107, -8287, -3756, 6282, -1858, -4433, 4766, -1725, -1326, 2180},
    {2783, 473, 6876, 2083, 3542, -1876, -588, -8334, -7152, -3469, 4329, -2019, 769, -3004, -1920, -4262, 2124, -2264, 4019, -3762, 4256, 3584, 108, 5874, -3892, -4988, 4273, 3720, -1333, 2513, -3625, -5666},
    {-1617, -1045, 5488, 2404, -4912, -5191, 7399, -701, 2717, 7986, 2163, 234, -3214, 3704, -2138, 2578, 5023, -7349, -2853, -366, 3976, 714, 686, -1449, 6590, -840, 1721, -3092, 1216, 1712, 1177, -2381},
    {1666, 2589, 5129, -1855, -3242, 3168, 1443, 5194, -2369, -2418, -3287, -1361, 3451, -4032, 1643, -3267, -432, -491, 1384, 3405, 343, 4327, -1390, -1783, -5623, 3761, -4973, -57, 3406, 1593, 4512, 3825},
    {-3477, 3961, -2599, 2197, -1589, 102, -851, -852, -2351, 1279, -3686, -4120, 400, 3879, 1412, 3124, 1882, 2745, -1336, -874, -4616, -2319, 3326, -375, 4731, -8396, -802, 3509, -1860, 7031, 2956, 3746},
    {-643, -1438, -1961, -3990, -4697, 5130, 204, 431, -3545, -1685, 1509, 668, -688, 4024, 1536, -386, 1122, 6212, -1375, 2992, 3878, -7316, 4709, -730, -553, -742, 1565, 4413, -383, -2484, -2860, 159},
    {-3690, -5147, -5901, 715, 2673, 99, -3523, -2439, 3663, 1497, -5266, -2518, -2304, 1940, -1976, -921, 5941, 280, 884, 3, 4271, -1298, -103, 1713, 2052, -437, -2252, -1748, -1069, 2790, -6361, 4145},
    {1993, -4489, -1474, 1460, 2674, -1334, -7364, -894, 952, 52, 1107, -4385, -4819, 2031, 2642, 2345, -761, -769, -1197, 625, -3032, -1325, 1209, -7610, -721, 4122, -8417, 3729, 381, -553, -263, 2850},
    {3636, -10817, -6813, 2388, 2049, -1773, -13265, -4865, 2099, -916, -275, 3645, -2011, -1185, -450, -2080, -778, 7411, 3299, -4476, 8928, -8666, 2925, 2026, -4293, 747, 1143, -5629, -4830, -1764, -3394, -2223},
    {18, -6955, -7558, 962, -4574, 2116, -7456, -2117, 3172, 1547, -2100, 4563, -1794, 2698, -6965, 3215, -4019, 4467, 5106, -5904, 4662, 3238, 8257, -3675, 3356, -2847, -9918, -7083, -4550, -502, 2872, 8715},
    {7357, -9912, -6296, 2100, 587, -312, -14901, -480, 1200, 4002, -3218, 4744, -1945, 4615, -3024, 8397, -1175, -458, -3592, -5028, 7025, 1970, 12951, 615, -1676, -4116, -2752, -12507, 102, 6980, -108, -1267},
    {5072, -3549, -3273, 672, -3110, 2109, -7874, 1273, 4103, 1430, -5333, 428, -3961, 3890, -5102, 6927, 939, 3765, 3624, 2035, 7327, 1144, 8323, -1666, -6650, -8314, -5491, -3680, 3154, 4075, -5850, 5299},
    {2955, 2251, -6427, 543, -616, 1508, -5904, 9257, -3196, -165, -2737, 5918, -8605, 7288, -5734, 8371, 461, -4141, 1662, 480, 10270, 3947, 3243, 80, -1672, -2475, -5822, -14385, 4901, 3440, -5514, 1838},
    {2977, 3303, -3923, 139, -196, -1442, -2525, 17599, -3872, 5080, 2811, -4344, 1734, 6531, -3550, -2279, -5866, 850, 8301, -8930, 10715, 6484, 5366, -3222, 8795, 3261, 735, -15734, 528, 1795, 3947, 5024},
    {-268, 2526, -3523, 745, 611, 2288, -6134, 18984, -3371, -4425, -2324, 102, 6328, 7618, 1809, -13894, -1566, 1845, 4637, 1146, 4700, 5497, 10695, 2434, 3213, 6022, -2464, -4132, 4177, 10190, 5003, 4962},
    {-8989, 10605, -4184, 2234, -4742, 4745, -1882, 22668, 408, -8548, -4149, 668, 15521, 3012, 3048, -9972, -6168, 3446, 7945, 2264, 6620, 8280, 619, 6514, 11789, -2997, 6131, -7427, -1732, 6753, 9941, 3510},
    {-11069, 20672, 853, -4554, -1529, 9931, -3122, 6266, 6225, -4590, -4212, -5592, 15888, -5464, 7974, -12561, 2156, -552, 9769, 9189, 5994, 1445, 7929, 2926, 363, -291, 6657, 4110, 11295, -2450, 2408, 11089},
    {-22859, 17631, 627, -6916, -10809, 9308, -2270, 11498, 14659, -3819, 182, 6867, 16749, -1221, 8364, -7877, 5226, -4698, 10505, 16333, 4714, 1727, 2303, 1997, 3491, -394, 6479, 1490, 20077, -3314, 3901, 10403},
    {-12827, 9087, 2284, -4100, -5372, 4435, 3279, 7239, 9753, 78, -161, -9171, 6689, 1046, 14825, -6117, 6501, -2295, 6704, 2823, -641, 8010, 16793, -5072, -2873, -2133, 7176, 3372, 14528, -9057, 3682, 9680},
    {8549, 2655, 3927, -9243, -9715, 6264, 414, 8848, 6823, 2367, -4856, -402, -3748, 251, 4605, -7238, 3322, 1407, 8647, -6609, -250, 4805, 22379, 10, 4794, -5909, 6971, 3623, -21, -5072, -807, 4518},
    {9672, -1892, -729, -4437, -5659, 686, 6887, 4084, -992, 9181, 9909, 1422, -9619, 8673, 9216, -2334, -5795, -6, 9590, -3587, -3272, 3113, 17197, 5601, 4508, -1579, -5022, -2097, 1293, 2240, 10795, 7720},
    {13761, -372, -7216, -8880, 4507, -3864, 1836, 4106, 201, 11449, 5579, -1565, 681, 3668, 1693, 1913, 545, 10974, 10519, 1320, -1830, 8969, 6061, -6377, -4877, -5087, -1801, -812, 1883, 206, 6982, -1137},
    {2608, -2470, -7881, 2507, 3342, -3621, 6593, 29, 5453, 6472, 5550, 3317, -6160, -1936, -776, -849, 2601, 1142, 10532, -2405, -2960, 9457, 7262, -8723, -11372, 950, -4593, -1714, 170, -5985, 6796, 871},
    {10141, -8061, -166, -1298, -2262, -3327, 9972, -3307, -3378, 11634, 7577, 6679, -5248, 2274, -3389, -280, 2581, 9162, 2124, -996, 2210, 1309, 2416, -5468, -8139, -2763, -6922, -2818, 4837, 2285, 8555, -5187},
    {-1963, -5242, -2510, -6217, -4860, -4444, 154, 1020, -5682, 2740, 2417, 4636, -3643, -2941, -1953, 3809, 1967, 6943, 2121, -4899, -1317, 2867, 14180, 1120, -7750, -46, -7607, 2540, 861, 4655, 4190, 1286},
    {2862, -4384, -4408, -3460, -3662, -1982, -2488, 6552, -7869, 8625, 2025, 6137, 584, -1116, 2732, 3851, -5805, 9933, 8050, 208, -464, 307, 1675, -2693, -8237, -5413, 1925, -4004, 9565, 4792, 2404, 5550},
    {-4684, -10370, 818, 1784, 2527, -6383, -3417, -1977, -4883, 5647, 722, 3107, -452, 2029, -2288, 10038, 6585, -2313, 4980, 1478, 12822, -7716, 4826, 5539, -7271, 2672, -4460, -3993, 127, 2388, 3305, 3115},
    {-5024, 6193, -1474, -3784, -2483, 502, 2929, -5210, -2905, 5498, -2056, 4293, 2857, 1059, -5068, 2584, 626, 2282, -337, 4562, 12181, -11601, 5399, -1046, -5879, -187, -5016, -1908, 4055, 2655, 1378, -5986},
    {6372, 7436, 2640, 3566, 3055, 1235, -5477, -7763, 1962, 4310, -3231, -958, 3866, -4116, -3159, -3964, -684, -453, 3377, -3497, 2490, -8275, 7178, -5148, -6140, -683, 241, 1558, 762, 383, 2424, -2613},
    {-2695, 2825, -919, -162, 2403, -4211, -2059, -3805, 154, -3543, -8886, -1302, -996, -751, -774, 4377, -1574, -1747, -2685, 1125, -1220, -1621, 4364, 1238, 757, 1995, 3845, -222, -3036, 7305, -7115, 2131},
    {-6229, -3917, -6375, 10523, 1062, 2936, -932, -3254, -2755, -9216, 8495, -2993, -3667, 147, 2078, 5118, -1419, 1262, 1285, -2864, -5759, 316, -3879, -4398, 3354, -2214, -875, -1334, 393, -3923, 312, -128},
    {-2332, -1378, 512, 5497, -460, 403, 1694, 1879, -4944, 538, -5023, -4100, -1829, -2712, 662, 4233, -1162, 1741, -1452, -1048, -7779, -3317, 3992, 877, -2827, -6904, -3179, 1677, 3006, 671, 4286, -871},
    {-1812, -3964, 2622, -361, -2309, 573, 779, -383, 3480, 1244, 4540, 2471, -534, 1694, 3649, 1189, 529, 3032, 2144, -483, -2185, -3115, -4076, 288, 264, -1363, 316, 4161, -4140, -504, 8564, 2506},
    {-7417, 2049, 1045, -1515, -2413, -1486, -705, 4148, -2385, 5762, -2612, -1323, 7615, 2258, -2284, -7043, -1264, -1088, 2026, -4307, 7703, 454, -4591, -995, -2247, -5845, 2090, 1453, 746, -4148, 341, 80},
    {-1349, -1222, -1814, 7042, 3720, -3937, 4049, -1521, 1233, 3988, 6828, 18, -5557, -7252, 1415, 4823, -8642, -1892, 5526, -505, -381, -9491, 7307, 1913, 1433, 1997, 2002, 3292, -2139, 2358, -6614, 1357},
    {1982, 906, -550, 9494, -6315, 2064, -1286, -8789, 5163, -4010, 851, 2933, -1621, 9, -832, 4338, 319, -4549, -1265, -3720, -1448, -10953, -1087, 7328, 4507, -1092, -780, -311, -345, -1088, 2082, -5973},
    {1581, -4346, -1066, 7199, 3383, 3095, -10603, -9143, 13254, 1988, -9228, 1279, -1462, 118, -3569, 3829, -1503, 3562, 1399, -5885, 1974, -775, 14747, 1767, -2826, 900, -4268, -851, -907, 1259, 2539, -9850},
    {1304, -2832, -4877, 711, 1083, 4188, -9364, -17124, -2344, -525, -6385, -4474, -5853, 4931, -11089, -532, 965, -3274, 9757, -4785, -2876, -1180, 7493, -1191, 2987, -4113, 1164, -5303, -8103, -979, 5086, 1236},
    {8738, 921, -3973, -1737, -5403, -965, -8224, -10982, -2426, 1089, 2029, 2462, -4153, 8301, 1061, 3821, 2315, 5446, 8029, -3664, 10807, 8336, 12597, -9078, -4720, 1137, -1590, 2100, -4235, 2152, 3134, -1022},
    {8584, -3141, -8735, 3704, -8249, 2744, 105, -429, 1426, 3985, -453, 1369, -3046, 9448, 3614, 1325, 5616, 4554, 4283, 2134, 8874, 10670, 9102, -2591, -4242, 843, -756, -12376, 1933, 8615, -2755, 3723},
    {-2242, 5364, -1531, 2048, -4604, 3469, -4292, 3671, 1529, -688, 2543, 3348, -1415, 11946, -2620, -3956, 6478, -4922, 5754, -5215, 12541, 2314, 2913, 2267, -5245, -8653, -5330, -5130, 5442, 6789, 2769, 3581},
    {-6228, 3983, -2799, 1736, -3325, 3542, 4227, 2339, 3342, -2040, 2961, 1094, 8147, 6617, 2525, -4307, -677, 1075, 7975, 6641, 13597, 8050, 4930, 1329, 4205, -5772, -842, -13477, 733, 11967, -1416, 1917},
    {-4177, 3756, 3942, 3144, -2146, 9005, -2983, 10058, -3888, -4200, -282, -1795, 12550, 2973, 3247, -13632, 330, 6094, 10533, 6635, 20274, 6795, 8056, -144, -706, -611, 3493, -7397, 3416, 14154, 8023, 6042},
    {-6628, 12162, 3500, -8466, 236, 10574, 6076, 19175, 7490, 3668, -453, -644, 5936, 3563, 10005, -5724, 26, -2436, 5460, 8628, 9563, -3235, 7913, 820, -261, 6982, -4921, 2050, -614, 4709, -1564, 9415},
    {-14748, 15869, -4164, -3796, -6413, 7402, -1578, 12559, 13543, -2077, -5404, -5393, 19282, -1442, 5273, -9041, 3227, 3853, 7309, 3585, 4282, 2195, 831, -2634, 7569, -3249, 4321, 5804, 11176, -5626, 5649, 13799},
    {-14539, 7771, 4819, -9897, -10229, 4644, -1156, 8701, 11863, 1445, -10757, 2716, 15105, 725, 6952, -11337, -471, 5010, 10817, 3711, 6563, -2043, 5598, -1533, 8000, -5351, 4674, 640, 15935, -9538, 369, 9231},
    {946, 5083, 1579, -10820, -5940, -549, 317, 6838, 3240, 4194, -9073, 686, 3346, 4811, 6339, 1783, 511, 2684, 5170, 1796, 1662, 7712, 15715, -1479, -2163, -3124, 2755, 205, -1300, -8124, 1386, 14307},
    {18624, 3682, 2006, -4008, -7105, 2162, 2717, 1150, 9501, 8210, -6048, -2384, -1895, 1029, 6831, 416, 88, 922, 8816, -3834, 1619, 4082, 14775, 3140, 4187, -2190, 2620, 2164, -7828, 53, -129, 11932},
    {15346, 425, -5178, 4668, 6897, -897, 3121, -6005, 2646, 5500, -68, -5567, -10709, 4890, 8546, 161, -560, 723, 3184, -3545, 2184, 2325, 13574, 1591, -700, 1222, -282, 2863, -8979, -3153, 3398, 7138},
    {5876, -2516, -1827, 3019, 813, 902, -1195, -410, -4273, 8939, -4060, 1388, -7783, 1943, -113, -1226, -2695, 6841, 718, -7147, 440, 4000, 6060, -890, -3735, 3295, -2980, 11, -7040, -10018, 10869, -2056},
    {4722, -4789, -7800, -580, 3078, -5444, 3009, -7301, -8959, 4555, -1431, 1628, -3420, -2300, -3261, 2775, 613, 12327, 10515, -11181, 3092, 1192, 5489, 2106, -7774, -3593, -4255, 1319, -3521, -6665, 7136, -1501},
    {5791, -6144, -8569, 3124, -2636, -697, -1277, -10452, -4260, 3497, -2082, 6885, -7163, -441, 3548, 3014, 3625, 9956, 2314, -3786, 3933, 745, 8278, -2881, -9967, 3901, -5402, 7243, -5564, 2341, 160, -5193},
    {-233, -4467, -3839, -1390, 4427, 1108, 4657, -8873, -7579, 2486, -3911, 1900, -8466, 458, -683, 5953, 804, 6396, 3760, -6191, 191, -7583, 5550, -6193, -6156, 2071, -7374, 1534, 1650, 4712, 2531, 5299},
    {-4980, -4383, -2144, 1152, -2025, -456, -6058, 2898, -4756, 5247, 1814, 7496, -174, 5904, -1575, 6933, -6874, 6202, -628, -4266, -1303, -12434, 7293, 201, -4304, -2310, -8873, -4602, -222, 436, 4724, -2155},
    {-6177, -2138, -7648, 8219, 6063, 1362, -5769, 1168, -6137, 2054, -3379, 233, -1910, -808, -788, 4277, 1512, 5119, 11888, -1843, -1282, -9557, 1564, -2095, -7018, -2577, -3466, -924, 3670, 804, -212, -2299},
    {-3834, 6559, -2594, 730, 3572, -2475, 1441, 3487, -2348, 1162, -3758, 2805, 369, -2273, -312, 5094, 3723, 1819, 2196, -3114, 4841, -11439, 2899, 7377, -1138, -2627, 4623, -1380, -2864, -3309, -2726, -1464},
    {116, 6602, -4641, -629, 156, -1780, -707, -5685, 4410, 925, -1190, -4686, 10531, -4172, 1480, 3735, 5124, 218, 4411, -4329, -481, -9177, 6824, 3468, -5347, -250, -1247, -881, -2562, -8253, 1314, -5860},
    {3277, 4093, 3094, 1651, 297, -4534, -8086, -6667, 3319, 3632, -4657, -1780, 6983, -5205, 1776, -1218, 1503, -553, 2289, -3349, -4141, -1064, -1820, 2, -5055, -925, 6319, -4909, 3453, 1607, -4568, 306},
    {1131, -4181, 617, 1812, 5300, 495, -1303, -2467, -2139, -4671, 918, -1443, 115, -3176, -4509, 938, 2638, -4226, -412, -1411, 4418, -1029, 2746, 3836, -1798, 741, -995, -2845, -1656, 15, 4736, 1444},
    {-6291, -1627, 5133, -2841, -4401, -915, 3031, -1693, 4086, 876, -134, -6230, 1722, 3372, -1455, -3031, 2488, -384, -1701, 711, -2306, -6580, 2168, 2383, -1399, 369, -6412, -1762, -801, 6361, 2073, -1023},
    {-864, 3017, 3266, 2876, -2369, 3393, -1563, -95, -2322, 2502, 3124, 689, 236, 5112, -5866, -72, -2210, 4633, 470, -2393, -2170, 2605, 1693, -3363, -1560, -2156, -6902, -3575, 254, 448, -2232, -1958},
